<?xml version="1.0"?>
<MethodSetup Method="DNN::DNN">
  <GeneralInfo>
    <Info name="TMVA Release" value="4.2.1 [262657]"/>
    <Info name="ROOT Release" value="6.07/07 [395015]"/>
    <Info name="Creator" value="qati"/>
    <Info name="Date" value="Fri Sep 16 00:15:59 2016"/>
    <Info name="Host" value="Linux Q 4.4.0-34-generic #53-Ubuntu SMP Wed Jul 27 16:06:39 UTC 2016 x86_64 x86_64 x86_64 GNU/Linux"/>
    <Info name="Dir" value="/media/share/code/GSOC/wd/notebooks"/>
    <Info name="Training events" value="6000"/>
    <Info name="TrainingTime" value="1.85695140e+01"/>
    <Info name="AnalysisType" value="Classification"/>
  </GeneralInfo>
  <Options>
    <Option name="V" modified="Yes">False</Option>
    <Option name="VerbosityLevel" modified="Yes">Default</Option>
    <Option name="VarTransform" modified="Yes">Normalize</Option>
    <Option name="H" modified="Yes">False</Option>
    <Option name="CreateMVAPdfs" modified="Yes">False</Option>
    <Option name="IgnoreNegWeightsInTraining" modified="Yes">False</Option>
    <Option name="Layout" modified="Yes">TANH|100,SOFTSIGN|50,undefined</Option>
    <Option name="ErrorStrategy" modified="Yes">CROSSENTROPY</Option>
    <Option name="WeightInitialization" modified="Yes">XAVIER</Option>
    <Option name="TrainingStrategy" modified="Yes">LearningRate=0.00001,Momentum=0.3,Repetitions=3,ConvergenceSteps=100,BatchSize=30,TestRepetitions=7,WeightDecay=0,Regularization=NONE,DropRepetitions=3,Multithreading=true|LearningRate=0.00001,Momentum=0.3,Repetitions=3,ConvergenceSteps=100,BatchSize=30,TestRepetitions=7,WeightDecay=0,Regularization=NONE,DropRepetitions=3,Multithreading=true|LearningRate=0.00001,Momentum=0.3,Repetitions=3,ConvergenceSteps=100,BatchSize=30,TestRepetitions=7,WeightDecay=0,Regularization=NONE,DropRepetitions=3,Multithreading=true</Option>
    <Option name="SignalWeightsSum" modified="Yes">1.000000e+03</Option>
    <Option name="BackgroundWeightsSum" modified="Yes">1.000000e+03</Option>
  </Options>
  <Variables NVar="4">
    <Variable VarIndex="0" Expression="var1+var2" Label="myvar1" Title="myvar1" Unit="" Internal="myvar1" Type="F" Min="-8.96602058e+00" Max="7.69307804e+00"/>
    <Variable VarIndex="1" Expression="var1-var2" Label="myvar2" Title="Expression 2" Unit="F" Internal="myvar2" Type="F" Min="-4.08540010e+00" Max="4.02589369e+00"/>
    <Variable VarIndex="2" Expression="var3" Label="var3" Title="Variable 3" Unit="F" Internal="var3" Type="F" Min="-5.05078554e+00" Max="4.35967064e+00"/>
    <Variable VarIndex="3" Expression="var4" Label="var4" Title="Variable 4" Unit="F" Internal="var4" Type="F" Min="-5.95050764e+00" Max="4.92254400e+00"/>
  </Variables>
  <Spectators NSpec="2">
    <Spectator SpecIndex="0" Expression="var1*2" Label="spec1" Title="Spectator 1" Unit="F" Internal="spec1" Type="F" Min="-9.91655540e+00" Max="9.52782059e+00"/>
    <Spectator SpecIndex="1" Expression="var1*3" Label="spec2" Title="Spectator 2" Unit="F" Internal="spec2" Type="F" Min="-1.48748331e+01" Max="1.42917309e+01"/>
  </Spectators>
  <Classes NClass="2">
    <Class Name="Signal" Index="0"/>
    <Class Name="Background" Index="1"/>
  </Classes>
  <Transformations NTransformations="1">
    <Transform Name="Normalize">
      <Selection>
        <Input NInputs="4">
          <Input Type="Variable" Label="myvar1" Expression="var1+var2"/>
          <Input Type="Variable" Label="myvar2" Expression="var1-var2"/>
          <Input Type="Variable" Label="var3" Expression="var3"/>
          <Input Type="Variable" Label="var4" Expression="var4"/>
        </Input>
        <Output NOutputs="4">
          <Output Type="Variable" Label="myvar1" Expression="var1+var2"/>
          <Output Type="Variable" Label="myvar2" Expression="var1-var2"/>
          <Output Type="Variable" Label="var3" Expression="var3"/>
          <Output Type="Variable" Label="var4" Expression="var4"/>
        </Output>
      </Selection>
      <Class ClassIndex="0">
        <Ranges>
          <Range Index="0" Min="-5.0562591552734375e+00" Max="6.3994679450988770e+00"/>
          <Range Index="1" Min="-4.0854001045227051e+00" Max="3.4012691974639893e+00"/>
          <Range Index="2" Min="-3.1826326847076416e+00" Max="3.8475654125213623e+00"/>
          <Range Index="3" Min="-2.9959020614624023e+00" Max="4.5351858139038086e+00"/>
        </Ranges>
      </Class>
      <Class ClassIndex="1">
        <Ranges>
          <Range Index="0" Min="-8.9660205841064453e+00" Max="7.6930780410766602e+00"/>
          <Range Index="1" Min="-3.6791675090789795e+00" Max="4.0258936882019043e+00"/>
          <Range Index="2" Min="-5.0507855415344238e+00" Max="4.3596706390380859e+00"/>
          <Range Index="3" Min="-5.9505076408386230e+00" Max="4.9225440025329590e+00"/>
        </Ranges>
      </Class>
      <Class ClassIndex="2">
        <Ranges>
          <Range Index="0" Min="-8.9660205841064453e+00" Max="7.6930780410766602e+00"/>
          <Range Index="1" Min="-4.0854001045227051e+00" Max="4.0258936882019043e+00"/>
          <Range Index="2" Min="-5.0507855415344238e+00" Max="4.3596706390380859e+00"/>
          <Range Index="3" Min="-5.9505076408386230e+00" Max="4.9225440025329590e+00"/>
        </Ranges>
      </Class>
    </Transform>
  </Transformations>
  <MVAPdfs/>
  <Weights>
    <Layout NumberLayers="3">
      <Layer Connection="FULL" Nodes="100" ActivationFunction="T" OutputMode="1"/>
      <Layer Connection="FULL" Nodes="50" ActivationFunction="S" OutputMode="1"/>
      <Layer Connection="FULL" Nodes="1" ActivationFunction="T" OutputMode="2"/>
    </Layout>
    <Synapses InputSize="5" OutputSize="1" NumberSynapses="5550">
      -7.9682133844892269e-02 4.3514359822176907e-01 2.0569800457144329e-02 2.1244746505729079e-02 2.9239410035922936e-01 1.3431989517741960e+00 6.4706169916762868e-01 -8.2788074034124581e-02 -4.3489861451696898e-01 -5.9198113235627980e-01 -4.9121485095424727e-01 -1.2740215527792431e+00 -5.6793640767028730e-01 -1.1678482337605672e-01 -4.6680890011503565e-02 2.3876140773290114e-01 8.8608221668350529e-01 -2.1198365134553465e-01 7.6627422209783058e-01 -1.7989636614593812e-01 -8.3184545985884928e-01 -2.9844957724282761e-01 1.0578808945595453e+00 -2.5653454925215990e-01 -3.8362987312279051e-01 -6.2562335835138916e-01 6.9869244833947119e-01 -6.1481306273904068e-01 9.9157193958032561e-02 8.9651427039027665e-01 3.5956172352273019e-01 3.2462537736145508e-01 7.0592255567867512e-01 -9.0812430054420690e-01 5.9535047970930122e-01 -2.6413661833334778e-01 -8.5896996708743581e-02 4.7188385008541145e-01 6.0165774608978338e-02 1.2212148773038941e-02 -1.0017113100071774e-01 6.9650933967046036e-01 8.4390950135898216e-02 7.9621072573743304e-02 6.2617613072223188e-01 5.8635067208155844e-01 -4.6902488315260343e-01 1.2662862850438636e+00 4.8992653195050057e-01 8.5090476193457087e-01 -3.1287029073847067e-01 -3.6789636101063056e-01 5.7871200887824459e-01 -7.8439845055138357e-01 3.4991112413901265e-01 -5.8508398812537876e-01 -4.4480652559858547e-01 -2.4249216022702350e-01 -2.2684717403858592e-01 -2.8453394095085000e-01 7.5822914949663323e-01 4.4250589600264839e-01 -1.0444995392149874e+00 4.4328651210958879e-02 1.0480293127682185e+00 9.9508714883520574e-02 -1.1796587673906742e+00 1.5626738481007134e+00 -1.2345501904792553e+00 -1.3488917514161165e+00 -9.6916557413535900e-02 7.4376842825503620e-01 1.2892294205913846e+00 -6.7888716572296393e-01 1.9638590753186816e-01 -9.7636578664509768e-02 9.9316757715149362e-01 6.6795827721609968e-01 1.5537224995442622e-01 4.9070145908729820e-03 -9.2966146097493707e-01 9.1440312791377354e-01 -5.2320514383126715e-01 -4.1018627528406160e-01 -3.1124339228715148e-01 1.4232336086229866e+00 1.6376150800713313e-01 -1.1428181901870131e+00 -6.8519755429062431e-03 1.6085845350131855e-01 -1.1677277340342371e-01 -5.9972825631290583e-01 -3.1275614587183614e-01 1.5378718221555746e-01 1.2548442436328544e+00 1.4736328272600982e-01 -1.6695030103105304e-01 5.6497950602381186e-01 -4.7719803614391360e-01 4.7795160443554674e-01 -7.6269717573729606e-02 4.1083534735615057e-01 -8.2526313762446013e-01 -1.9661975627307438e-01 2.5545842245691608e-01 -9.5175684378051670e-02 -6.3348891445495437e-02 -4.7232966783983765e-01 -4.5594569860685319e-01 -1.7148172409918205e-01 5.0549217872183549e-01 5.0607613381324601e-01 -1.1599603721632011e-01 -9.9776092580536691e-01 -1.0608691264758785e+00 9.1499152171080872e-02 2.6446097745739860e-01 -4.8524155847095285e-01 -6.5820712150267280e-01 -1.0337517245336341e+00 8.0176600938058007e-01 7.0965903741514103e-01 -9.6036747748911055e-01 1.6403970733693116e-01 -4.5501322117512272e-01 -1.1324920122824363e-01 5.2430904181713534e-02 2.7202125602850752e-01 2.6970257986671869e-01 3.7405287710614976e-01 1.8770474229372169e-01 -4.4919205521822964e-01 7.5808025195317486e-01 -3.4524028341146090e-01 -2.3971665738156481e-01 -2.4216498293363148e-01 -7.7039067756626625e-02 -7.8558129396240614e-02 2.2366360664569054e-01 -7.8615781297832699e-01 6.6543024723519062e-01 3.6450024509355333e-01 4.9831765448388815e-01 7.1785142387997589e-02 1.4929426661123712e-02 1.3583611493161065e+00 -4.7522928186411469e-02 -8.2179667855846031e-02 -6.4386967253888583e-01 1.5644322235287153e-01 3.3093171189050441e-01 1.9982337126860988e-01 3.3825445637682672e-01 2.3656649854106587e-01 7.7252530403377362e-01 5.0162790374794641e-01 8.8911189076345076e-01 -1.3686677108483583e-01 -7.6253127497152240e-01 -3.2144840490292753e-01 -1.1268769101676033e+00 8.0378291310589900e-01 7.7115700800872516e-02 -1.0619112200568590e-01 -2.2765762784872468e-01 1.1126467126533937e+00 3.6059474859587592e-01 -2.1282806693003017e-02 9.4920434710651158e-01 -2.7368082870199699e-02 -6.7910766571023562e-01 -4.8909576363799202e-02 -1.0521481461264436e-01 2.0848558681164742e-01 -1.1408657969609359e+00 -6.8149026006616631e-01 -2.8412078909070437e-01 1.3826279565685962e+00 -3.4874404997164365e-01 -5.6611772134585381e-01 -7.8413141989864410e-01 4.6626789854841039e-01 -1.0907641347496253e+00 2.7142926919927318e-01 -7.5844526760611497e-01 6.8990575818162891e-01 -6.2728863256927503e-01 -5.9358898682769679e-01 -4.1567126253117781e-01 -1.2135282660770961e+00 -5.9486619278149822e-01 -6.1902275462064982e-01 6.5119710446181511e-01 6.7074225828939613e-02 4.9460949695513329e-01 7.7535243265086518e-01 -1.2547085534984717e+00 -1.0775391047526965e+00 2.7596399696832552e-01 -9.2573752181286872e-01 2.9287352912647391e-01 9.5525093999643529e-01 -3.1867475347314511e-01 -3.0184230099448112e-01 -5.1695324069027893e-01 1.3105603163445093e-01 4.1073684617128398e-01 -8.7249176927895644e-01 -5.8208899894679500e-01 3.5529768666072786e-01 4.2183725108692338e-01 5.2792309004476026e-02 1.9674171973257091e-03 -6.5736987438886951e-01 -6.6830663582796224e-01 6.1359391297691068e-01 -1.7874725161047467e-01 3.8230466219154885e-01 -1.9288670853828027e-01 4.7415521241802389e-01 8.1357039984661594e-01 -4.2667097923738401e-01 -4.2848267347344549e-01 -2.2563750668149796e-01 -9.0625897910420444e-02 -3.9569498405338838e-01 4.1658723527475350e-01 -9.7952675834651615e-01 3.6686012439669546e-01 -7.4457215090831652e-01 3.9088150910180153e-01 7.2347789125324846e-01 5.8296927885754868e-01 2.1948090374831100e-01 -1.2265512042139646e+00 1.1034501467982021e-01 3.4144543755920947e-01 -4.8126078997004201e-01 -1.6793304028535291e-01 4.7615211600590895e-01 -2.4779833157088402e-01 -3.7063571237378351e-01 3.1537612666325304e-01 -1.8370757372857133e-01 1.4736234910445513e-02 1.9570318836792036e-01 9.4255170352322137e-01 -6.4238293701808225e-01 8.2900887369905835e-02 -1.8821179532485233e-01 3.3177825294307084e-01 1.1683308423243093e+00 -1.5111178690973379e+00 9.6404133790113078e-01 -5.0982832630158748e-01 -4.0406799838103508e-01 5.2697620402034773e-01 -1.2716029817269272e+00 -1.9897193530635177e-01 -7.1285381016331806e-01 -8.9119582032433597e-01 1.5498996749636689e+00 -2.6875865477488620e-01 1.6510205683379915e+00 5.6497233039235684e-01 7.5375033214333542e-01 7.6789573793757726e-01 9.4926417225374171e-01 -6.8023833792311750e-02 -1.7837252990117730e-01 -5.0352130299842623e-01 -1.0108079259836716e-01 4.3191371324911410e-01 -4.4674698954721614e-01 7.8479530413166590e-02 7.4807470193007097e-01 -3.1378289524102304e-01 -4.0900983852311285e-01 -2.0682924663625830e-02 -8.5475495137061064e-01 4.8272704235284614e-01 -5.8323430701320256e-01 3.3016914148203791e-01 -1.8003127322030867e+00 -7.4238954680128991e-02 5.2005549027823783e-01 9.6323052202877055e-02 7.7077290733442341e-02 4.6479493151579099e-01 1.0099038155598161e+00 -2.6031322495425552e-01 -1.8777241328077193e-01 3.1583065962244905e-01 -5.6621160096581191e-01 -4.3923783865245941e-01 4.5358631165953833e-01 -9.6781335644872499e-02 -1.9678111966471620e-01 -7.5249050937237094e-01 6.9938556399782414e-01 -1.0620061456117262e+00 -5.3308322617173198e-01 7.3200619862223693e-01 5.7109318597095504e-01 8.7013408320867069e-01 4.2220422535914853e-01 -1.1372313533409462e-01 3.6924100434932672e-01 -5.9338439835062658e-02 2.5338793075704458e-01 9.4298255898347694e-01 4.0875481239994460e-01 -1.3614416096735674e-03 5.2614960934979538e-01 -3.4027724762837758e-01 -1.2291549493290285e-01 6.7766013387917906e-02 -5.5155695184812781e-01 -3.6111771607117410e-01 6.4218447009942337e-01 1.0379108458895785e+00 -3.3318649491513946e-01 6.3918937724764802e-01 -6.0210765049698667e-01 -4.3791556799061999e-02 2.8183536378627211e-01 -9.2313378953229441e-01 1.1367552951732298e+00 -1.0413587625817944e+00 2.5315220720421983e-01 3.3778811327305963e-01 -1.1923946543404212e-01 -9.5126921892936489e-01 4.9796674150003528e-01 2.1262550218171294e-01 -6.9408926168698348e-01 -5.3730288497502321e-01 -2.7005959773383609e-01 -3.1576164373332721e-01 -4.2527910664204560e-01 5.5658478059153160e-01 -6.6731455004469098e-01 8.4875130808959864e-02 7.9678425247742668e-01 -3.2993500117823971e-01 1.5338687447040752e-01 -3.1648567375317799e-01 2.0118407957128431e-01 -1.3001148185521821e-01 6.9863617190820981e-01 1.0772571987573512e-01 3.4287140521339260e-01 -8.3827071140242548e-01 -4.5461977747793597e-01 -3.7238192422018956e-01 -1.6362805365285540e+00 1.3093655818821004e+00 1.2025039742860888e+00 -8.2227572606356625e-01 -4.3978071019391696e-01 -1.2273137657471787e-01 -8.5777123339564748e-02 -1.7668928814770929e-01 8.0077386011200047e-01 8.7286754337287209e-01 1.3395813098002574e+00 -5.5260082442267477e-01 3.3050329710943172e-01 7.0491562881952052e-01 3.2253825500884942e-01 -3.1518239289857541e-01 -1.0825388892663863e+00 3.3706705953556226e-01 -5.0660137206695550e-02 -3.8170082606872996e-01 7.2221397401589851e-02 -7.0567325044453577e-01 -5.3929554247901912e-01 -4.5161008345195197e-01 4.1392860962396527e-01 3.3829424941197533e-01 -4.5261196252792513e-01 2.4867498330748006e-01 1.0983820587763284e+00 -5.5964645871822516e-01 -9.7616972021241177e-01 4.5976627590979274e-01 -1.3126455133891810e+00 -2.8514646002927996e-01 4.5522467178489046e-01 8.2005186688646953e-02 -5.8080321125858103e-01 4.2272747146928802e-01 -1.4034891686766282e+00 -3.1848289705850874e-01 7.5244974093060513e-01 2.4881671166426855e-01 -2.9910795791246197e-01 -2.2511141295150888e-01 -5.2292350902767126e-01 1.1414636179603967e+00 -7.7364481918249151e-01 1.2361655433439940e+00 5.2785514767217219e-02 1.5945185990894677e+00 -5.5571528711829354e-01 -7.2895172248727502e-01 6.0369231866186845e-01 -4.2812362494737538e-01 -7.4550774902867745e-01 -6.4286929035456963e-01 1.2097539679213420e-01 1.0747523462363362e+00 1.1371173548650229e+00 6.1209655619409609e-01 -7.4394872578193183e-01 6.8992754822034374e-01 -8.4204945075175253e-01 1.0423199747905718e-01 8.0068977234044481e-01 7.6725970290624168e-01 -3.1858625158973169e-01 4.0997780409624962e-01 1.3139424866181765e-02 -7.0705457333845745e-01 3.7061306643724612e-01 -2.4520120188897346e-01 5.8416614264138389e-01 7.6018220076583098e-01 -3.4193718392903716e-01 -1.0859719623216848e+00 -4.2191594987281900e-01 -2.3744252886217648e-01 -3.6085302792613427e-01 -3.5190047598032359e-01 3.4842830146806003e-01 3.8707208621724482e-01 -3.6056371648427238e-01 -1.5672887301406997e-02 -1.5482879486291140e-01 4.0440717679567995e-01 -8.3259613366631646e-01 -1.9532264001456096e-01 8.5285388016600117e-01 -1.2047487123274676e+00 -6.3387019617952911e-01 3.3114774092148608e-01 -4.1284573469769559e-01 -2.6931476203638699e-01 4.5969343580014373e-02 1.4087997836358652e+00 -2.9860927845266255e-01 -1.0402389923829386e-01 3.5382704570151557e-01 1.7697758122350188e-01 5.0766487429033946e-01 -8.3172984766736613e-01 -2.1098711018468197e-01 1.5931618780664598e+00 -5.0267576341795561e-01 9.6442584602120449e-02 -6.2941563695406222e-01 3.9428826346630186e-01 -1.0821620909924148e-01 2.2493741976828804e-01 -8.0232200939105069e-01 -5.8432582562242019e-01 -1.3926982562089862e-01 2.9239716546859001e-01 -2.4892213778421693e-01 -5.3176362309493108e-01 4.0543866069027074e-01 2.4109748787268404e-01 4.2949831041566869e-02 -7.2296873396698524e-01 1.6880709895787399e-01 -6.6520651523652041e-01 -5.8542593778404406e-01 -1.2035714026156252e+00 3.4314792565549679e-01 -3.6932928984229169e-01 -3.1595930584226567e-01 -2.0717092439613605e-01 -2.2774483251594704e-01 4.0277485662333523e-01 -4.2104041883743748e-01 -6.0304673605960624e-01 3.4058314555164793e-01 -1.9234653684012024e-01 -2.3655008181807274e-01 8.7508183509278870e-01 3.0485789182775119e-01 1.1541258683373423e+00 -3.1124937189494228e-01 -4.7559879466782756e-01 8.4352220038017858e-02 -5.0032728922397907e-01 6.0402657139213223e-01 1.1418637791954220e-01 -2.3820579349296624e-02 -1.9424089343388884e-01 -5.5628872335211570e-02 -1.8888424961343173e-02 -2.2957080669628180e-01 1.7985123561172107e-03 -5.2900470055956361e-01 6.6973294698441516e-02 -2.6967846857932182e-01 5.6124878220495840e-02 1.3059994387461524e-01 -3.2660849379143708e-01 -8.3753153468344346e-02 2.5295589038088293e-02 1.5761730171529120e-01 -1.5430934258005435e-01 1.1641648269480459e-01 2.7295572971813453e-02 -2.4479038507466733e-02 -7.9668358975659284e-02 -1.1444634422241101e-01 1.2948180254618386e-01 -2.3409923137493047e-01 -8.5185215310646240e-02 -1.1699443084972906e-01 1.4957357396168511e-01 -1.9919970705815943e-01 -1.7368159082432531e-02 -4.9797271209233586e-02 5.3360529287346560e-02 -1.3702443030273320e-01 -2.1663445320507727e-01 -1.3704807173354228e-01 1.6105605853972579e-01 -3.6415204635125258e-02 1.0043236251396374e-01 5.0518886147421588e-02 3.7314565516175228e-02 -3.1524297884617686e-01 -2.5226354529717121e-01 -1.8347363827993832e-01 3.8845250726133596e-02 2.1148088132067411e-01 -1.2174454016681914e-01 9.8728707038812452e-02 -9.8717606885197359e-02 -3.1487211015389616e-01 -5.2584422764816084e-02 1.0743818028779610e-01 -2.4015067359741007e-01 5.0878205842048413e-02 -1.4906199747833512e-01 -2.1990046609161110e-01 2.4059171264599016e-01 -6.4284010821466411e-02 -8.6725477903676990e-02 -4.4479433382009770e-03 -1.1504626920546468e-01 -2.3432600726147688e-02 -1.1233116244634161e-01 -1.6697598167854191e-01 5.9358470217262795e-02 -1.2446345114481429e-01 3.2035322661155885e-02 4.0151569559518444e-02 1.0023715557040118e-02 -2.9013294594821437e-02 2.8485126761892497e-02 -1.5707625162230857e-01 -2.0732472262292917e-01 -1.2730124719511618e-01 -1.8647528526032467e-01 1.8529020204089799e-01 2.3179084543312414e-01 2.8035357399373662e-01 -2.2088524336352153e-01 5.8411792485963843e-02 2.5689821201966789e-01 8.4145014696235684e-02 -5.3313863669328193e-02 -1.2548205562530940e-02 -1.0918327757207409e-01 -4.2004567005067245e-02 4.1744031147991016e-02 4.9888396262868027e-02 -8.4525408844547748e-03 -1.0636851397575398e-01 1.9239069083567314e-02 4.2403885520190504e-01 -1.6272595578255108e-01 -9.4791672693979867e-02 1.5517361276808694e-01 -1.5734445661176688e-01 -1.8394654574695052e-01 1.7612178362458836e-01 2.5783257934284642e-01 -1.4860444483031934e-01 6.4619004168267491e-02 -1.2476139385027588e-01 1.2658721230709534e-02 6.9283821180559412e-03 -3.2711502062987589e-03 -6.0694640084847575e-02 -1.6949459195074435e-03 2.6679524881402839e-01 -3.0832709416742532e-01 -2.6543952331437393e-01 -5.8202070057096655e-02 8.4732050906983075e-02 4.0127599275430526e-02 -2.9005920470984428e-03 1.8326484600484991e-01 -8.3221015213910995e-02 2.4442583542329388e-01 1.4138303797117749e-01 4.8218214761006024e-02 5.4804147735955232e-02 -5.2911487121030935e-02 9.8276958342148377e-02 -5.8584300368682025e-03 1.2284955900174676e-02 -3.0759136710117502e-02 -1.5667870963710945e-01 2.1541285390398221e-01 -2.8793214845313296e-02 1.8252554632031295e-01 4.1477546577466141e-02 -8.3301584626777198e-02 -8.4476305489072340e-02 -2.3451564721026777e-01 -9.1390581681911193e-02 3.2225446328605703e-02 -5.4554809149334896e-03 1.9570254596669809e-01 -1.5090016106697204e-02 -4.8760962338337778e-03 2.3689541941973835e-01 1.0023488355370008e-01 1.7936078987813553e-01 3.5945601848960496e-01 -1.2881879644872130e-01 -6.8572968610623591e-02 -1.6228493447254780e-01 1.1473875463542198e-01 -2.2466358811936986e-03 -3.4796380996228095e-02 -2.9447824970804704e-01 -1.7156910883821298e-02 -1.7944406397013063e-01 -1.2846066508116355e-01 3.7055890254736301e-01 -2.8876798987244583e-02 -1.6308796723404917e-01 1.8675675353116795e-02 1.0919650740003260e-02 -5.9847014363326553e-02 -9.6607964864279972e-02 5.1602017986581088e-02 4.2594006378018592e-02 -5.9519276421034606e-02 -1.9339063635491580e-02 9.6635142808880359e-02 -1.0990104473151285e-01 7.6743394828005629e-02 9.7417325115028319e-02 9.1363822995434388e-03 1.0042891727983090e-02 -2.4638180873906693e-02 2.3943624587581899e-01 7.3702631608249705e-02 2.6738622516581806e-01 8.1293497024570963e-02 -6.9822816863489137e-02 -4.1887122337078433e-02 -5.6529075832325623e-02 3.6673069508554590e-02 9.1914830813332737e-02 -9.4589402671914555e-02 1.1177435820184464e-01 1.5428446617926025e-01 2.0450758117258100e-01 3.1981821286193085e-01 -1.9021319965129600e-02 -1.6651692288187714e-01 3.2978873896539823e-01 -1.3061853993662774e-02 2.9842556898912716e-03 4.7351921126127204e-02 -2.0414036796420326e-01 1.9521223765150686e-01 -2.2548600491670412e-01 8.1588039392697140e-02 -2.4178999451473165e-01 3.0894859438056546e-02 1.3783987178495682e-01 -3.2330144189787180e-01 5.8754806146991613e-02 9.8880587990364560e-02 -3.5712765676161780e-02 -1.1825290934913740e-01 1.4541966774694970e-01 -7.7281775094533586e-02 3.9667767468311119e-02 -1.9601143888200689e-01 -2.6065650986153477e-01 9.7179375800321099e-02 5.7227473749729807e-02 -4.1380831480762777e-02 -5.1712946455645087e-02 1.3634303873891857e-02 1.2383513477755727e-01 -1.3700054952730298e-01 3.3547254703158141e-01 3.3605834884460112e-01 -3.9226278821529965e-02 -2.4869756467389448e-01 7.5143860572548082e-03 2.5743422417773651e-02 8.0175302298279363e-02 4.9287845726091878e-02 3.5055521656166279e-03 1.2971412520014339e-01 -6.7827989731416377e-02 -1.4269403512957876e-01 -1.8358808168915064e-01 3.9469051050376153e-02 -3.8033091223525377e-02 1.3728487244550527e-02 1.0847749305276604e-01 -1.5405205218964343e-02 -7.7838816604225360e-04 -1.3388583582259386e-01 6.0886759572220894e-02 -2.2181581110400753e-01 -2.3703148030040176e-04 -1.0746960946541076e-02 5.7964703106254407e-02 2.8638563222593250e-01 2.6107440650434138e-01 9.4744384041231075e-02 2.1399267754794348e-02 -1.1151057764624367e-01 -5.5679695927714504e-02 6.5648292072279249e-02 2.4298193335126653e-01 -2.7924577229970868e-02 2.3852827169120244e-01 4.5586646855485795e-02 8.5007673266200567e-02 -1.2946771518552352e-01 -2.8945843053058540e-01 1.5276392241738260e-01 -5.1852785405793210e-02 1.1382254232583182e-01 -6.1436265809986079e-03 -5.5678150556964685e-02 2.3605798096363270e-01 5.0298736733393995e-02 5.5464144912999294e-02 4.6461527464323221e-02 2.5441406023417330e-02 -2.0462548987355465e-02 -2.2864367723893053e-01 -9.1130243557231896e-03 3.6636904246573274e-02 1.7013588940464949e-02 1.3991277284441417e-01 2.4773895087230291e-01 -2.5223866655927515e-02 -1.9400405467704063e-01 -2.1566184382495357e-01 1.5720556733240282e-01 3.3818876160960076e-02 5.9588662909234889e-02 1.0300896068460065e-01 -1.8439956905796498e-01 7.9310789319821218e-02 -1.5461433153981882e-01 7.3897462664294838e-02 -1.4356040324397501e-01 9.4815537230333410e-02 -1.1725064532562957e-01 9.3703497335722710e-02 -6.9999813029923766e-02 8.4775735519750040e-02 -3.2714673263996891e-01 9.4725964942770760e-02 7.9857547433408199e-02 7.0013786328405422e-02 -3.9934071135388390e-02 7.1796583824967702e-02 8.7075349242722699e-02 -7.3810400471056692e-02 -2.4187596492914853e-01 -3.3100481756416146e-02 -3.1430234329939272e-02 -1.1599805392739779e-01 -1.3301584574440786e-01 -1.2296794451138188e-01 1.0199779051802685e-01 -2.0802619572566458e-01 -1.7913678464472094e-01 -1.4031705284075985e-01 -1.1021797225293707e-01 1.0291809393029788e-01 1.2671042012112541e-01 -2.2804812622853621e-01 1.0378473477429721e-01 7.5488314719301827e-02 3.0669937889343572e-02 -2.6912473219813469e-03 1.0523612504237168e-01 8.5295842706340233e-02 -1.6330785378686202e-01 -1.7620205854528706e-01 -9.1054828889986880e-02 5.7230116682858413e-02 3.3078938885970975e-03 4.8763014900243221e-02 -7.2219037736757086e-02 2.4087032157864274e-01 -2.4531127498689895e-01 -2.2513144893614087e-01 2.3492989647182824e-01 5.2719729516358914e-02 -2.6995664534351155e-01 -1.4501343473722098e-02 -8.7085975330986012e-02 -1.1910774241486512e-02 4.6938394731800455e-03 1.2435657143241661e-02 1.0159434991230101e-01 -1.7452012410428294e-01 3.9806919251607553e-01 -1.3415836525361680e-01 2.1185468978792529e-01 -1.3670512906690382e-02 -8.8186443755580865e-02 -6.7350254658760877e-02 1.0648494404270159e-01 2.5794491150027354e-03 -6.3785583586013841e-02 6.2241233741581511e-02 -6.0392456722856966e-02 9.4440511875409430e-02 -2.3773737262516084e-01 -3.9204833439402301e-02 -1.7102006649530033e-01 8.4548798395409977e-02 -2.2793988700558832e-01 9.2855311131090287e-02 2.1213384196191200e-02 -1.3126834465670370e-01 -2.6732709479247163e-01 -9.9553455720130843e-02 8.3667364452412366e-02 -1.0517305877863035e-01 2.1211893159511097e-01 1.2216582778967783e-01 2.0039333491727915e-01 1.1774478365434891e-01 -1.2377030463355813e-02 -3.9614624553566896e-01 -8.1105329811045457e-02 1.6461031871601997e-01 8.7154113176128964e-02 -1.1744861467463497e-01 3.1540208937208859e-02 -9.8087510681229909e-02 -6.0710852602445652e-02 -1.4679965483257268e-01 2.5366476274372418e-01 -2.2392941944079850e-01 -1.8402740946903903e-01 -7.5613394508896106e-02 -4.8900747543635298e-02 -2.7335405985369075e-02 3.3426595054395813e-01 2.4850583182376926e-01 -2.3785242815826990e-01 1.2929896001001362e-01 1.1848447965065094e-01 8.3681734195101651e-02 -6.5445987894623012e-02 -1.9853314788657028e-01 -1.5757413288137337e-01 3.2388486581094889e-02 1.1566198408135162e-01 -2.1270980452896861e-02 -4.9322975818364895e-02 1.8464888121963199e-01 -3.0480713989683728e-01 -1.5884203154208920e-01 -3.3584941889393073e-02 1.7969990310405334e-01 1.9728904037825925e-02 8.7966096468346411e-02 -1.8822453336726919e-01 6.6236590581049817e-02 1.1222500951244095e-01 -1.5249939959926276e-01 -2.1333657154068975e-01 -7.2099688898908582e-02 -1.5545998910878311e-01 2.2023508966431407e-01 9.8237950374070182e-02 -3.7661006561337085e-02 1.0082929331827424e-01 1.3805417971600049e-02 -1.3886304674976138e-01 -5.5102799227386763e-02 8.4819151418172770e-02 1.1622782852933590e-01 -7.6449777658978924e-02 -1.1340993778949894e-01 1.8642631886206043e-01 -4.9213173954369598e-03 2.4848497335981307e-01 -2.3628281608981536e-02 8.0581820558218109e-02 6.1287874437743972e-02 -1.3271321956602605e-01 1.1354606805310632e-01 -1.3418019099422572e-02 -2.7110065154841875e-02 3.7686968052407870e-03 -9.6808676830164378e-02 -9.6184801822238417e-02 2.8729321104644023e-01 -9.1018949461665263e-02 1.6451134049576141e-01 5.0770304051637898e-02 2.7628204482538578e-02 1.4843486708108306e-01 1.6365850904552493e-02 7.8709994918482101e-02 4.3200109275971732e-02 2.4082970642784476e-01 2.5301540663213162e-01 -4.9271603250104518e-02 -5.4186251226246790e-02 -2.1463767066335807e-01 9.7037404810625477e-02 1.7607606433143250e-01 -1.3584015628794027e-01 2.4359547432266615e-01 2.9077846591471945e-01 -6.4681886469524788e-02 4.7001820077838444e-02 5.7450054414179240e-02 -9.9076347350324362e-02 1.5495372258706552e-01 -1.6859884968270994e-01 2.0407691360995095e-01 9.1413735383635286e-02 -1.0261690968579862e-01 1.2557583568851974e-01 3.5978522553544751e-02 9.8968556818365583e-02 8.1274693761891600e-02 -1.2627190528011992e-01 4.6588972506046544e-02 -1.9442783508934969e-01 2.2794862462761790e-02 -7.7427727878633015e-02 8.3730556825617405e-02 2.7901895964543920e-02 3.3401417713042211e-02 2.0992975542272344e-01 -7.9295736745108730e-02 5.3186130614028507e-02 -1.0541648859079979e-01 -1.8537621995159867e-01 9.5257314602072027e-02 1.5068470150921692e-01 3.7363296483660685e-02 -2.2386775884142979e-01 -1.7602821265068139e-01 -1.1188191977187878e-03 5.8744994421591777e-02 -6.7023016244278269e-02 1.2031454448550474e-01 1.2269619380040436e-01 -1.3243336507514786e-01 4.8158868094512315e-02 -7.9278393951355719e-02 9.5253984458152086e-02 1.4494139741751491e-01 1.8605454713791544e-01 -9.3209494755539635e-02 -1.9764832287663300e-01 -1.0283142636159599e-01 -1.0266355491518393e-02 -2.2978204755021346e-02 1.2711497576695677e-01 -2.8551960372265262e-01 -2.5634528136952044e-02 -4.5629829685472606e-02 -1.6590427371641536e-01 1.0768425808841392e-01 1.7477554915062928e-02 7.1341339772778400e-02 1.5720312957701324e-01 -1.1289535100705798e-01 -4.0948849709120235e-03 8.5506616756819739e-02 -1.1699649859572574e-01 3.6636797870446561e-02 6.1274774942354351e-02 -1.2135360415585254e-01 8.4686359656651472e-02 -6.2629313020836200e-02 8.9200300498985016e-02 -2.0894988881252186e-01 2.1275743604707024e-02 -1.0695402835302845e-01 8.0729061621119730e-02 -6.3540036164972682e-02 1.9782077222370203e-01 -6.6959752937337344e-02 -5.4326388312314414e-02 4.3083822976735853e-02 -1.2549183311557482e-01 5.3428465027490719e-02 -4.0713617292922940e-03 -3.0338249877719527e-02 5.5767177177011608e-02 -2.8715876879722636e-02 -9.7745757307376668e-02 2.0736316031366034e-01 1.2344516130811670e-01 -1.3636195886063487e-01 -9.1670726226428384e-02 1.3373367197067040e-01 -1.6534395004663506e-02 9.6157072594951015e-02 -2.8237651198546435e-02 8.3823920758392109e-02 -7.2350420411202945e-02 5.1285150126993334e-02 1.8252953181482004e-01 1.9160922887015968e-02 3.0119903904683189e-02 -5.1473208685713104e-02 -1.2439544459476926e-01 3.8161979487406926e-02 1.5389749418140741e-01 1.1853871260098230e-01 3.4976286702131348e-02 1.0233876947209107e-01 -1.5889198916673200e-01 8.6888239732174133e-02 8.0515032762000893e-02 5.9939174593276232e-02 7.9435117312258149e-02 -1.1614572326593076e-01 1.1759294043222010e-01 -7.2732536026784034e-02 1.0063945331206525e-01 1.4671865999403694e-01 5.0027603060580655e-02 -2.5155444865498394e-01 -1.2022921165867108e-01 6.6220296230716139e-02 2.0823195279101056e-01 1.4750224499774353e-02 -1.4328143857189346e-01 1.4397893929044361e-01 -1.3970570792649939e-01 9.2923080667828770e-02 -5.9396275831698993e-02 5.6211258424107874e-02 3.1369040796100434e-01 -1.1259665964750769e-01 2.2388399596744019e-02 3.6750632351830970e-01 -5.1324211693117523e-02 2.8236981878955472e-02 -7.3704513781039538e-02 -9.9062047942929471e-02 1.5179795203502455e-01 1.0545608710021837e-01 -4.1380058774776768e-01 -1.0018321416801348e-01 8.0424022445090074e-02 2.9572967065688596e-02 -2.1743910341063014e-01 1.2681990768846964e-02 -5.1873376827449365e-02 3.5648259810851068e-01 -2.4915149039498127e-01 -5.8051168769770220e-02 -3.0493201043312195e-02 7.8843854998941684e-02 -3.3177076576693679e-02 2.6881870945417674e-01 -1.2162831345441447e-01 1.4781867497015051e-02 4.3241868378662276e-03 -3.1066816027322280e-02 1.1065910686388872e-01 -1.3220344322146887e-01 -4.0998561022309860e-01 2.3231780918746534e-02 6.6404590854971191e-02 2.5114876323371171e-01 -1.2342761389303863e-01 -2.1036082346811416e-01 2.1410517646319355e-01 -2.9527152930250072e-01 2.8960865158515765e-02 -2.0030856780428114e-02 1.6822073147897970e-01 -1.1261344658764232e-01 -1.0739162358358809e-01 4.8532996135956810e-02 -1.5961899208485764e-01 8.5444155409078834e-02 6.2791665470032912e-02 -2.4599245296175146e-02 1.8891569442749387e-01 3.8382715717543155e-02 -4.7257651287699758e-02 -1.5816398141260829e-01 5.5183402343875886e-02 -1.7134040776234541e-01 1.0626741068325085e-01 1.1293157310544559e-01 5.0263210273591701e-02 3.3247558648380510e-01 4.6584065009272924e-02 6.0584965913490572e-02 -1.9388800307943796e-01 -1.5242019618307220e-01 1.7804051099839019e-01 -1.0199829749373454e-01 1.1944349320746154e-02 -1.0234863733768303e-02 7.4764274733753661e-02 -3.5081988298962674e-01 1.5224217520645220e-01 -9.0329681649132590e-02 -2.3298744597035276e-01 -2.3378353280115732e-01 5.6289626270107796e-03 -2.1259941201696833e-01 7.8832593158832329e-02 -1.2972396882828754e-01 -1.9568324309752024e-02 1.0775366149775367e-01 -5.1839617327964785e-02 5.2253361443833087e-02 8.7461735932498324e-03 7.0712889429847700e-02 1.8121474308710225e-01 3.4913213576129565e-03 -1.8529697638334192e-01 -4.0332336524401741e-02 -1.0701894734850730e-01 1.1382997248203259e-02 -1.8549499711254766e-01 -2.8041909261523262e-01 -2.3881445642392272e-02 -1.8339753279057636e-01 -9.5490680797216971e-03 -1.2123911680746077e-01 -3.8133530352815123e-02 -7.0206666788660194e-02 4.4551378783238518e-02 1.3156036115299341e-01 2.1750436318952246e-01 -1.4680049038005152e-01 -2.1717707020985015e-02 -2.1583840648113420e-01 1.4948820024974128e-02 -1.7880045993677329e-01 7.1508875167465638e-02 9.0721395382496642e-02 1.5208555658702052e-02 2.2943365233266871e-01 -6.4151607839905325e-02 1.7635708216606807e-01 -9.8484091005459073e-02 -2.3650218682098162e-01 -2.0887938134378764e-01 -1.1646783319869969e-01 9.5961451501982251e-02 -1.7850533841063149e-01 5.3378637975998719e-02 2.6769677444636886e-01 1.1061358264592341e-01 -1.4015118479788284e-02 3.4125089725758312e-02 8.9417244062701406e-02 -5.7233156069438289e-02 -2.0588672281663345e-01 1.4568712598011765e-01 -5.7381726049982136e-03 2.2767226119967660e-01 2.4150976414918751e-01 8.3921926546483214e-02 8.7532996731247759e-02 3.5812889363036983e-02 1.5223635671159729e-02 -7.8592965877393603e-02 -3.7870605957093746e-02 1.3777632311041446e-01 6.9781025223323578e-02 1.0932023495713944e-01 -2.8894532326649697e-01 -1.3273995990654988e-01 1.8848205298524406e-01 -4.2148700303690355e-02 -1.0570068538794587e-01 5.9006804787041116e-02 3.4218844455003415e-02 6.2119177801421271e-03 -2.1194782951414831e-01 -1.8371514978091052e-01 1.5446420249402612e-01 -2.5993286365259816e-01 1.1899167805091888e-01 -4.8136470606937543e-02 5.4862191555246402e-02 6.3105443056089838e-02 3.1571810548760221e-01 -1.3022569561595235e-01 1.0359895134104896e-01 1.0852635330214580e-01 -8.9958532903862146e-02 -1.1688860495500562e-01 1.0061598344691622e-01 -1.1324203602764000e-02 1.2692533362500416e-01 8.7504794980616061e-03 -1.9191610023449063e-01 -3.0657910922588083e-01 -8.4066833721375064e-02 2.1383782729410578e-01 1.1303463314617207e-01 -3.3957805250288825e-03 -2.5035822070584657e-01 1.0744997603947394e-01 -1.6232207709840377e-01 3.1355622971422054e-01 -1.8305755685703798e-01 -3.3617382342824922e-02 -1.1692428600807038e-01 -6.1719750275150774e-02 -2.4813982562880737e-02 -9.3690667512252006e-03 -2.4513993684749125e-01 -1.7865179932013464e-01 -6.8075407492934087e-02 -2.2069635353846956e-02 -3.1048805709894930e-02 -3.5292458007353096e-02 1.0735821178686482e-02 -2.0132272024488414e-02 -2.0762112587906861e-02 -1.1580137078561170e-02 1.5016183269649480e-01 -2.0006224545567214e-01 1.2197335546065856e-01 3.0490041876331017e-02 5.0521645309482548e-02 -8.3973937897834656e-03 -4.1761384364207094e-02 -1.2941960264449226e-01 -9.0617494359870460e-02 -2.9379661138489253e-02 1.4158631079273018e-01 -9.1097681207081199e-02 1.3544778863494572e-01 8.1014153724532106e-02 -7.6846839583514612e-02 1.9606152989820930e-01 9.7473715450290266e-02 3.5969716345273552e-02 -1.8876777779069315e-01 5.8363996517696359e-02 6.3912153026813509e-02 -1.7432233531841704e-01 2.2278594044425221e-01 1.5958073644629744e-01 5.1751602888012961e-03 -3.6542468087900605e-02 1.6309690977599348e-01 7.5385330235948775e-02 2.8341647403847779e-03 -2.8687857928423477e-01 1.1470394960865284e-01 1.1449925383218318e-01 -2.4574618741048554e-01 -1.3657837598267294e-02 -2.9192393744745831e-01 7.1333350566108178e-02 1.0387482658210660e-01 1.6946321603222021e-03 2.8814132647626414e-02 -1.1209616979608741e-01 -2.9383232346423321e-04 1.7839722842755135e-01 1.7918367983277694e-01 1.2320979877782795e-02 -1.7634280509774658e-01 -1.1090078651710812e-01 -3.5121913844344560e-01 4.9922094407829451e-02 -2.4821452407018257e-02 -1.5272112051964090e-01 6.9042887794175625e-02 -1.9849997764566232e-01 1.1387925966416593e-01 -3.2853750354345268e-01 -1.7292165431940043e-01 -1.3372665093547598e-01 -3.2152683405508795e-02 6.3394024890278872e-02 6.4857491932043917e-02 -1.7012516365692046e-01 -1.7410068896528363e-01 6.4391910679648640e-02 -1.6164390461143557e-01 1.2891790729567029e-01 1.5017172478153659e-01 -1.7947789550752696e-01 -4.1149843468149365e-02 -2.1834482985726228e-01 -5.8546701112536681e-02 1.4719054141085516e-01 1.0845849559849574e-02 -8.9629890117368910e-02 -2.1902997129265492e-01 2.7198922786029135e-03 6.2856267164600965e-02 2.0152908535542156e-02 -6.3328663309226074e-03 -6.9586254612980639e-02 6.8820284320129294e-02 -4.9214243791082753e-02 1.1316770479602109e-01 6.5778688158077428e-02 -1.1535389516710351e-01 -2.4942153224190611e-01 -6.0269443101947408e-02 -1.5038570740075566e-02 9.4886406975803902e-02 -9.7096004337337533e-02 2.5814394113968762e-02 -6.3858891093933556e-02 -1.4978703349927344e-01 -2.3221777053935919e-01 -7.1103949248021464e-02 6.5305313979297563e-02 3.1183012798829027e-02 -4.5236198493154654e-02 -4.1529796435569727e-02 1.9224400225352840e-02 1.0122662876027393e-01 -9.0876547662757282e-02 -1.5449107962550929e-01 1.1203906928313967e-02 -4.7392982950956869e-02 1.3316555821097112e-01 4.5523609178168396e-02 6.4718081054457241e-02 -1.7596944585226795e-01 -4.5708744367263916e-02 -2.4021971605585751e-01 1.7652766258033542e-01 -6.0702107911004000e-02 9.6576954576287816e-02 -9.8617123637445944e-02 -2.2927409358341022e-01 2.8495200564150548e-02 3.4659324440543773e-02 9.5581946006618221e-02 1.7081923365319607e-01 -1.4119046793853754e-01 -9.8157523233463967e-02 -1.1244775185443139e-01 8.4126856171281447e-02 1.0546276696209105e-01 2.9087515662598479e-01 6.3088333765910665e-02 1.4190578204360202e-01 2.1570910998622445e-01 -5.4617500732612567e-02 -1.4718157562404888e-01 6.8874021834708310e-02 -3.0329319971320257e-02 5.6048495938845498e-02 -1.4196595371028828e-01 1.0062008133559852e-01 -2.1046988721454826e-01 -5.0786131433939632e-02 4.0843275892830169e-02 3.5154768535486168e-03 -7.1910759497763307e-02 -1.0270200173681913e-01 1.8888570302108720e-01 -2.3773468785753946e-01 -8.3732875794661321e-02 -1.0410783082121956e-01 1.1146139396739456e-01 1.7322006260911185e-01 -1.0659059703825732e-01 6.0705190891510823e-02 7.0685483948846314e-02 6.2047131530674593e-02 -4.8436162650089945e-02 1.7253097363002073e-01 -2.5596800634198463e-01 -6.6850893484011131e-02 -1.9452782560405951e-01 -1.6995440956468752e-01 -1.5731939727429509e-01 1.8825132585527479e-01 -1.2236700368203095e-01 -3.9161460351055477e-01 1.2365685693413474e-01 -1.7038606598282138e-01 2.9866252737606447e-01 3.6027263483483868e-01 -1.0618602885387037e-01 -1.7776449582437460e-03 -2.8278717459615531e-02 -1.0317000445255933e-01 2.1499003144588777e-01 1.0946006128335359e-01 1.9031993714351775e-01 6.1995187752532571e-02 1.3459926063827618e-01 -5.6860286905377165e-02 -1.5037046874989704e-01 7.1604941271883299e-02 2.4907946532711216e-02 -9.5431005034252392e-02 2.6546740704112524e-02 -7.1321739918372026e-02 -9.8735112060442026e-02 1.3177657493531192e-01 -1.1118993663175107e-01 1.3605056128675432e-02 1.0772758635965998e-01 -6.7020835529921149e-02 3.6311595862678382e-02 -1.1647627685607911e-01 7.1708198172569279e-02 1.3955219405190722e-01 -6.9432560142192665e-03 -2.1584746960452686e-01 1.3613121826068114e-01 7.2632471826824642e-03 1.7084649483830811e-01 3.3127621094794393e-03 9.1561556737471503e-02 1.3108101798088381e-01 -3.5174671094213295e-02 -1.7558743478610742e-01 -4.0225815929461090e-02 6.1863287106155348e-03 -1.4309253630648477e-01 2.9106259540847779e-01 -7.7203263514047438e-02 -1.8380710829670238e-01 -1.3792160921030451e-02 -4.7409722979300011e-02 8.7482090924021871e-02 -6.9614056180961597e-03 9.2316832641815672e-02 -1.5414970140651846e-01 -1.5005594850567378e-01 -1.4981693210051333e-01 -1.7882519027577495e-01 -1.4249482197365379e-01 4.5530845281905961e-03 -4.1643882866952801e-03 -5.9256528899816134e-02 -2.2147075950954057e-01 -8.1371214677674733e-02 -1.5265541273528668e-01 -1.7078110519603518e-01 -1.3822817906549609e-01 -2.3971035184274644e-01 -1.7229784697652190e-01 1.1594441628256826e-01 1.6150305892549369e-01 -1.0857678385372048e-01 1.4120403956612046e-01 -1.3613473246023702e-01 3.9290451930079122e-02 1.0992008028225180e-02 2.0875093022493063e-01 6.0153671206419804e-02 -3.3382868125656474e-02 2.6533466484193191e-01 2.2267053915943767e-02 -5.9113162386407091e-02 5.6163799135305607e-02 -6.9566506436771790e-04 1.2871439682415947e-01 9.1119508328768833e-02 -2.5801957428443351e-01 -5.0615890191530795e-02 6.2936691036140122e-02 -1.3658612572471421e-01 1.1400133338909585e-01 -7.0456028547447702e-02 9.0296625131437755e-02 -3.2466647600357734e-01 -1.3124443260332755e-01 1.4246465139376661e-02 9.5100329650275775e-02 1.6833616043739927e-01 6.1099748624975476e-02 -8.5104834705285098e-02 2.4197954111555439e-02 -1.4285309272072041e-02 -5.5066832851042261e-02 -7.7850205301174674e-02 -1.6523606338374311e-02 1.2872320081920452e-01 1.7453276606433126e-02 1.9732889468463120e-03 2.2131859142255139e-01 -1.1235213074859879e-01 9.9936548977977643e-03 8.8929258945968245e-02 3.2464402755298816e-01 1.8875489456773345e-01 1.4171878171835217e-01 6.0580530209603913e-03 -1.6474502648308950e-01 -2.9191912685483956e-01 1.2878401579597824e-02 -1.1073392640796835e-01 -5.1050130513800196e-02 -2.9654162967672521e-03 -1.9188743475692258e-01 -7.3612555228097357e-02 -1.0109931660631158e-01 -1.6850409207746783e-01 1.6302110142206119e-01 2.0727376862946759e-01 6.0976931245873875e-02 -3.0550569640862507e-01 9.5940173573229343e-02 -4.7522201250180846e-01 -1.0767115397638412e-02 -1.2458173099246218e-01 -2.4932021807058825e-03 1.1216996611829905e-01 6.7212849431850213e-02 1.4918848449918181e-02 1.2087959219828531e-01 8.9544434443037668e-02 -9.6486667997759151e-02 -7.2329519889602234e-02 -1.4099744425765295e-01 -1.3395056074584422e-01 1.1904939379097663e-01 -1.6830992716181151e-01 -1.5734973307530595e-01 1.5786049551511073e-02 -4.7209826726624738e-03 4.0101462874043023e-02 2.0762223196900748e-01 5.4040439674876699e-02 1.0056689003850966e-01 2.2976027152835265e-02 -2.1638312208135213e-01 -8.4840281856409364e-02 7.4086533476524843e-02 1.7156280615606764e-01 1.9183798905381172e-01 -1.3009501970648749e-01 1.2626548982804814e-01 -1.6118959541827621e-01 2.5296401548005165e-01 4.3232469606697542e-02 1.0369530119205692e-02 -1.1268300790957420e-01 -1.4186900273123915e-01 4.6288582077769341e-02 -6.3724509837432497e-02 -2.9535951799406168e-01 2.8264403887243628e-01 4.0384491213390052e-03 1.4328795515448658e-01 -9.2288642849067072e-04 2.0722802969495493e-01 -4.2467122566441869e-02 -5.8780776356545855e-02 -4.6865284090575936e-02 1.1577828636124406e-01 7.8627160879507552e-02 2.9147722305284757e-02 8.6033193232620847e-02 -1.3167111049473867e-01 8.2772400276104316e-02 5.4955599545198942e-02 -1.4752539122768790e-01 7.0358758761414258e-02 8.4897444901073107e-02 2.2294610044815599e-02 6.3837063291807189e-02 -2.5475215098509718e-01 -2.3490300749936636e-02 -2.1337250755418713e-01 2.9916879643197562e-02 -1.7205592182235756e-02 1.1739545066429040e-01 7.4420699009833002e-02 5.6618703291536364e-02 -3.0446222821936646e-02 -9.3733504778458793e-02 -3.0593877589230056e-01 3.6856781611471136e-02 6.7285953992300945e-02 6.9813400156959013e-02 2.4910266694810509e-01 3.9815594927809270e-02 2.1033067479660758e-01 -1.8029993167562214e-01 -1.3754015434512099e-01 -2.2890491123800152e-01 4.4481415302160814e-02 1.1784469023539429e-01 -2.4191954033483240e-01 6.7935421945506919e-02 -3.0538137599785525e-01 -1.7613719996654048e-01 -2.5296703997124914e-02 -2.0933250249264454e-01 -9.8055353493434888e-02 5.0684180705861939e-03 8.2600333717387162e-02 2.2074224737374107e-01 -2.2304761024995104e-01 -4.0978195154408587e-01 4.2565505015301743e-02 -2.4027409859496085e-02 3.7511447995509206e-01 -4.3750660310833626e-02 -4.4738148941913351e-02 -9.0081840516668080e-02 -1.9723090580357605e-01 -9.3671247916548558e-02 -1.9217258933727477e-01 1.8443179742342712e-02 -9.1590959370870612e-02 -1.0609562743582686e-01 -2.2675165941958494e-01 1.7329360339885849e-01 1.4058456691393819e-02 -1.0648606020816462e-01 -1.1082538296006497e-01 1.2090757914393975e-01 1.0276811032070761e-01 -2.9764861870297149e-01 -8.9328953053273485e-02 3.9294066907614236e-02 -1.3297205782877836e-01 6.2937697187792671e-02 -8.3314978100053200e-02 3.2977108464312462e-02 1.2821796031818708e-01 7.7568996290270267e-02 -1.0127979507589177e-01 -1.7626359039140943e-01 -1.1662040562137732e-02 2.0277806073089141e-01 4.6735680228968485e-02 -4.6897973195231153e-03 -1.2200015153619105e-01 -1.1902146283168366e-01 -1.5575789472130161e-01 1.0994641576218904e-01 -1.8020910004873486e-01 1.0061798146697772e-01 2.7940495966234602e-02 -2.2546841646049038e-03 3.6757408303116045e-02 1.1707779346072503e-01 -2.9514146536002472e-01 -3.3235502055577210e-01 1.2803405906581625e-01 -1.9298035218462187e-01 1.1747050831973398e-02 4.7780490931647462e-02 1.3678276409657794e-01 5.5461447766872651e-03 1.7889273977331246e-01 -1.2808684932187558e-01 1.9377529767088106e-01 -6.8718694152564083e-02 2.0630282666054356e-01 1.9458456124245821e-02 -4.2201549388006234e-03 -9.4809677744422657e-02 2.3462022131677515e-02 1.1497723010823371e-01 -1.3735545529524676e-01 1.4304432900296352e-01 4.5701015129964807e-02 7.1200591426609700e-02 -7.6499066642462366e-02 -6.4339013130815916e-03 2.5625282985157588e-01 2.0195642216523269e-01 7.7221299111169289e-02 2.3475950207167876e-02 4.9102943143536075e-02 -4.4551287338921641e-03 2.3592878248291391e-01 -3.1968798685579787e-02 4.2191394676802413e-01 -2.1817642479987154e-03 -6.6351340132308062e-02 -7.6634087835038611e-02 1.4845366438618968e-01 1.3268413008027788e-02 1.6582203281404206e-01 -4.8071053470561842e-02 8.0611607719097006e-02 -1.0133327069787416e-01 2.4266805792764367e-02 9.3827936726283576e-02 -2.2329448875117838e-02 -1.2441978516332074e-01 1.6742903989266780e-02 -4.5241063383008484e-02 -2.2261294878014027e-02 2.9103527752826652e-01 -1.1265134426613015e-01 -2.2275696577534970e-01 -1.2991473476683380e-02 7.7172580361206194e-02 1.5657604861073510e-02 -6.6053247284494604e-02 -1.9943925023398648e-01 -1.4363311293967165e-02 2.5221985511744660e-01 6.8615922358889345e-02 -1.0259249478146032e-03 -9.3753447381509897e-02 -1.6653850216428334e-01 -3.6170536605429110e-01 1.7366687255310229e-01 1.5414958944188384e-01 2.5531570218482963e-01 -1.0586055620490095e-01 5.9874187898009057e-03 -4.0387600419689855e-02 1.4461815910296398e-02 1.5958231973413894e-01 -1.5035543131922002e-01 1.7779170315728090e-02 -3.3397221605854066e-02 9.5861914564432035e-03 -4.9249886719963937e-01 1.4826649381082380e-01 -1.2742525673769456e-01 -1.1817030195513006e-01 -1.8068115400963675e-01 -1.4630074315890179e-01 1.0822320267927182e-01 -2.0567780802032512e-01 -1.4517846167863907e-01 -1.9868699705746870e-01 5.8079910794060469e-02 1.6770111527534826e-01 1.9723835397039435e-01 -7.2842184172530536e-02 6.3786304019090939e-02 7.4055051231530404e-03 -6.8048660404752426e-03 -1.4252830453865964e-01 -3.6634496267943011e-02 -1.0570471433834774e-01 -7.5123717471816634e-02 1.7755005477501948e-01 2.7827206914701386e-01 2.8420459918870739e-01 3.1350149873330613e-01 1.7965959223846922e-01 -1.4537864531228715e-02 -2.2415974297604740e-01 1.1204947921853523e-01 1.7657480391607075e-01 -8.5245082085009916e-02 1.7054350600763647e-02 7.5278761484542475e-02 -1.8402476342515579e-02 -4.7096651808468545e-02 2.2466035229529088e-01 -1.5575425050811614e-03 2.2561145720074904e-01 -5.9193764744026487e-03 -1.8681720245341332e-01 1.1239843813829770e-02 -1.1319434381704413e-01 3.2712559761466156e-02 2.3045211508015512e-01 -1.1378521538279628e-01 -1.5999032469848234e-01 -1.4464994600175735e-01 1.3066390602841765e-01 -6.1430152331965450e-02 -2.8986521475981034e-02 -9.3842482365164251e-02 4.3808855719268958e-02 7.3367032221899345e-02 -1.6096904667552319e-03 2.3928352187054941e-02 1.8190174402026324e-01 2.0123374357098406e-01 -5.3509112420964150e-02 -1.1090111664714589e-01 -5.0399226717105561e-02 1.4397129792658184e-01 1.3107015256500215e-01 3.3809851108297434e-01 -3.4346636798532659e-01 -9.8946119236009060e-04 -3.4770652614503565e-02 -1.8737018990330340e-01 3.2482000511273817e-01 -1.3639918662193276e-01 -1.6030090703548244e-01 1.4658433301464782e-03 -4.6777432986485880e-02 8.6639308217759725e-02 2.7555604478990064e-02 -1.1814007594041806e-01 -8.3933034940768744e-02 2.6790369443239320e-01 3.5360695401690075e-02 5.3516457066627693e-02 -2.6615505994621658e-01 5.7097680631709051e-02 2.8318924246570287e-02 3.7150651764037756e-01 1.1483971089003150e-01 -1.9427251683272834e-01 -1.1116879152988313e-01 -1.2035183046509230e-01 -1.2106490459487902e-01 -1.1306190333453009e-01 9.4601190003453475e-02 -1.1413215243266797e-01 2.9136381402287215e-01 1.3242934428660807e-01 -6.1753387361616362e-02 -4.9975578719218781e-02 1.3316947595150281e-02 2.2504559456384542e-02 -2.1526098742122052e-01 1.5658510112880164e-01 -1.8851990000752122e-01 1.3734489490131185e-01 2.7720915284922421e-01 1.1819135753663455e-01 3.4784580347492031e-02 -1.1018383464795982e-01 -9.8663371745453463e-02 3.3743800680250369e-01 1.5525245086532524e-01 -8.9551101033453234e-02 -3.1377695842085607e-01 1.2166698811943498e-01 -1.5336436372381015e-01 -3.8242136005031008e-01 8.6131608546608521e-02 2.9294223503642577e-02 2.2549648176814444e-02 8.9565246064813430e-03 -6.9115671658692202e-02 7.5202268124217472e-02 7.0744298555216009e-02 4.4504481142214940e-02 -8.5335565951431588e-02 -4.5442400336836608e-01 -1.5550323580381158e-02 1.9075515722690231e-01 -3.8829133723743504e-02 2.2498955573962750e-02 -3.9803417669241614e-02 -3.0905370704702595e-01 -1.6135036758270152e-01 -8.3503342883877202e-02 1.4898521071330861e-01 5.6554498418622340e-02 -1.2718704901579952e-01 1.4148995860677396e-01 -1.3046801317650902e-01 8.2934560292517528e-02 -8.8032378005519690e-02 4.9514435599537214e-02 1.1736841535556342e-01 5.6259013646383204e-03 -1.2862781521218458e-01 6.9410795202618961e-02 -5.2892893824302636e-02 -3.5796316247199540e-02 5.9680798915597320e-02 3.1006183262424578e-02 2.1059258516553331e-01 5.0530377879841985e-03 -1.1138553610871130e-01 -2.0376095648598651e-02 2.0768058197524017e-01 -5.2369633855077358e-03 1.4358237965124117e-02 -8.5979450132008903e-02 -9.5395515320232452e-02 5.8747787731580438e-02 -9.3239779934734188e-02 -2.2738652492531708e-01 -5.1982658427564159e-02 -1.2715868815585010e-01 8.7451549142955921e-03 -2.4919758872863452e-02 6.4090928517506071e-02 1.7356455823087402e-01 -2.8518087707593559e-01 -2.1897656373030575e-01 -3.8310275118632102e-02 -1.2092515393570695e-01 -1.1102071366106003e-01 -4.0392678392737844e-02 3.4003104215739238e-02 -4.6351292770049922e-02 1.6121265431857054e-01 -2.0723185682719542e-01 2.5671178309333034e-02 -2.3701150380097130e-01 -1.5148026947775545e-01 -3.4641629982332239e-01 2.2281247048749142e-01 1.0549906507744042e-01 -2.1145622829287750e-01 -6.4398422188209582e-03 7.7382860325002134e-02 2.6931248443189292e-02 4.3505933267687771e-02 3.8532748262610994e-02 -5.0911773975370722e-02 -1.3765336112359436e-02 1.0041476476470891e-01 -9.3010805197173321e-02 2.3513894438005872e-01 -1.0366421053544971e-01 4.9707017869675754e-03 -2.2903627289167361e-01 -1.4513336389723877e-01 7.5919051358964817e-02 3.2872019335288646e-02 -5.2170322624692789e-02 -2.6195383565739544e-01 -7.8492258237984919e-02 -1.6574534114657108e-01 -1.6003683485589312e-01 5.0091082716459900e-02 -7.1162492649359324e-02 -6.3025134558824539e-02 -2.0721983588506099e-01 1.2705053728998375e-01 2.2338455939366328e-01 3.3822553719380022e-01 -1.2390547097661685e-01 -1.2825405126734191e-01 -8.2413370978590944e-02 7.0949596881353619e-02 -3.7720196136654199e-02 -6.5169753323886734e-02 -1.5071407670231607e-01 7.5503607442383741e-02 -1.4901643689201119e-01 -1.4632783373627686e-01 8.8478575509526119e-02 -1.5531981961652705e-01 -1.9004173743905023e-01 -1.0081261673757977e-01 -3.7106818399607819e-02 1.1039193671192360e-01 2.0402096963732155e-01 -1.0234945405866518e-01 2.1367360615553085e-01 9.7840603175015584e-02 -7.5698066996161148e-02 -3.8514967308617698e-02 -3.8787159372799994e-02 1.3168238081688272e-01 -8.2813847561004642e-02 1.8172638141766001e-01 1.5210619514216411e-01 -5.8900892394235252e-02 8.2640492951045596e-03 -6.6438275174112660e-02 -2.4997320834999770e-01 4.0434080971089421e-02 4.5388654538685685e-01 1.1115154921021074e-02 1.5132582827002323e-02 -1.9554840908408880e-01 -1.2227620731542539e-01 -2.6273565007767324e-01 6.9913217595028235e-02 6.6480022851028844e-02 2.0950804989902849e-01 4.7701197857638822e-02 1.3051466206727344e-01 -1.2076124050254840e-01 2.2479034821012286e-03 -1.7335190495158182e-02 3.3607330195102286e-01 5.6003476993150961e-02 -1.1456713074052287e-01 3.7683023963517040e-02 1.1721058664233990e-01 -3.6806831342859406e-02 1.7005092377797934e-01 6.9652672847004216e-02 -1.7869712802799168e-01 1.3814900430045629e-01 1.9950312664650710e-01 -8.1871218932535975e-02 1.2701113542434028e-01 9.1985283684076838e-02 1.3245069926065001e-01 1.0713474248065948e-01 1.4675906184471868e-01 -2.0296953665184900e-01 4.7141321593869606e-02 2.4055766531404177e-01 -1.2313916736993478e-01 -1.2899070324989165e-01 1.1413714017538543e-01 1.8258181185098910e-01 -1.5465047222358522e-01 -5.5516954906081113e-02 8.7580188421459079e-02 -1.6757945745138947e-01 -1.4644124766521072e-01 9.8296102217310596e-03 -5.6660765459557866e-02 -3.0554199427518736e-02 6.9914602567370476e-02 -9.8584845095535154e-02 1.4007826016837371e-02 -4.6603486740025325e-02 -1.2174634599017185e-01 -8.0280915883227152e-02 -2.1944676014906270e-01 -1.7979980718714461e-01 1.5138492024882488e-01 -4.2216615127110453e-02 1.5228109018980177e-01 7.5774633504905084e-02 -2.0716912279259858e-01 5.0769644393996873e-02 1.3955569103227394e-01 -2.1246247131813764e-01 -1.9249049272256449e-01 -6.6979367077291199e-02 6.5388675112486500e-02 4.8765701488617946e-02 -4.7276832601103512e-02 1.5901992799956133e-01 4.6411748736242223e-02 1.1094701886693079e-01 -8.9728792487894823e-02 1.6113812002879535e-01 -2.0432412027256744e-01 -8.1610576905919330e-02 1.3587920487422747e-01 2.1817363976112808e-01 2.2873050500209158e-01 -6.7759467264281628e-02 -1.2602041095123359e-01 7.0660820395914342e-02 -1.7385345580978021e-01 -3.1957877614594760e-02 -1.7564600212222814e-01 -2.6070647084117793e-01 -8.3992374309639808e-02 -6.6312293970121075e-02 3.3978272806650794e-01 9.5659477515166402e-02 5.4872958281718391e-02 3.2566404022584948e-02 1.1645348162125092e-01 -9.9410653957167791e-02 -1.0619515840813275e-01 -1.2962987600330514e-01 6.0721761725765155e-02 -2.0634772190767290e-02 -6.0788440231135008e-04 -1.4609872452845984e-01 2.3259550443783039e-01 -6.1991587225279136e-02 -9.1084049839505424e-02 -2.1654270727681404e-01 4.3140713040133304e-02 2.4675614820581548e-01 1.5660212257818923e-01 -5.4010499795332276e-02 -1.7645785275382339e-01 -5.8179493816787253e-03 -1.0460866439620244e-01 2.1076857708032140e-01 -1.1654891060344053e-01 4.5479179113937035e-01 5.3791315177490723e-02 -1.3171276039878677e-01 -6.5056989665584111e-02 8.6083375470416154e-02 -2.9544490554687563e-02 3.9186683447719015e-02 1.0191230516794983e-01 -1.1734207239389028e-02 1.3259614039366808e-02 2.2470028364833886e-01 2.6084098050529414e-02 -1.0618735836911415e-01 2.3847167755862101e-03 -1.5825164487162385e-01 -1.9742768793615351e-01 -2.5851805822996693e-01 2.3161325657324240e-02 -2.4365416039726198e-01 -4.3248663746584329e-02 8.1897648384983812e-02 3.0285944583788433e-02 -1.6942673274445000e-02 6.6977104123080888e-02 1.8958647357571851e-01 2.3478012182070324e-02 2.6565527981939457e-01 2.9677871348000293e-02 1.9554692246743336e-02 -1.5449722162182514e-01 -2.2886657234954683e-01 2.2671839579060074e-03 1.4098957745782070e-01 -9.6475337919542242e-02 -9.9649122775463700e-02 -1.9491685498567735e-01 -1.2001113262750780e-01 -1.7932372097326099e-01 6.4587700690595620e-02 -2.4307794125221030e-01 -5.2458609906183458e-03 -1.6572006590543625e-01 3.2687599526041433e-01 2.0054541560844405e-01 5.8514427182849257e-02 -1.1952267217498974e-01 -2.5225385344393575e-01 1.6002500098601544e-01 2.6272656756247742e-01 1.0133729079630949e-01 -1.1468082476952043e-02 -6.4001239388991937e-02 -2.9098167874767031e-02 -5.6923788468751284e-02 -2.7320357957114141e-02 1.1024660685821910e-01 -9.4629371186548093e-03 -1.1797385921737297e-01 7.3843742076714763e-02 -2.6938836793992137e-02 3.8261931981935351e-02 -6.9005216114949641e-02 -2.4338754845221279e-02 -1.6563102806075888e-01 -7.9139271917658266e-02 -7.2426079881691530e-02 1.4152736334113511e-01 8.0121236975037341e-02 -1.1471625492997413e-01 1.1966835036064170e-01 -8.6518545158486573e-02 -1.2805644931784144e-02 3.7678059184838247e-01 -1.0480161349634279e-01 3.5281737686650591e-02 -5.4631222820952625e-02 1.0009607567021292e-01 4.3330225694885323e-02 2.1936857176530780e-01 -7.5198412254612705e-03 -1.1069624980307531e-01 -1.5786012316608686e-01 -1.1556706588556992e-01 1.3493737831347549e-01 -2.1543265369784495e-01 -1.3931125316341622e-01 4.9803027383978363e-02 -8.8832121653837741e-03 1.9205260515550737e-01 1.3403728845857624e-01 -2.9023874089221382e-02 1.9398351624673577e-01 -4.2115848504717585e-02 -1.5048033852006051e-01 -4.7478519696777813e-02 2.2376774164524546e-01 8.9009876315369885e-02 2.1118783159283253e-01 -3.0698724335985444e-02 2.4553250467326296e-01 2.9149380240491374e-01 1.4560899137289440e-01 5.8790565126462108e-02 1.4632124615424333e-01 -4.4537809683808860e-01 -1.3335917647528273e-01 -1.4479854168391341e-02 -8.7466848823632481e-02 -4.3440245388597915e-01 -1.7990220031081192e-01 -1.3491350016001630e-01 -2.6108307009288639e-01 -2.3596694540078175e-01 -1.1114686721278702e-01 1.8244926414468199e-01 1.3304945204095397e-01 1.9903147491557083e-01 1.6186467080406455e-02 2.7615667846958442e-01 1.5481155019687684e-01 -8.8965328656144940e-02 -2.4393043801292144e-01 1.5335697980165103e-01 -1.0089815229108658e-01 8.4686507652080023e-02 4.9339309780425844e-01 2.4940581340315882e-01 9.6494127235319180e-02 1.3443444468077737e-01 4.8879583972195016e-02 -5.1060693318831847e-02 -8.4884630742351128e-02 -1.0568976246777361e-02 3.7427249588948087e-02 1.2545178185490713e-01 6.5114696056593799e-02 -9.5499682969098512e-02 8.4946961928991552e-02 -1.9397431901725623e-01 7.2423408076714921e-02 1.2533341830512668e-01 3.1671798756727577e-02 -1.5541516008453908e-02 -3.8906933843065185e-02 9.7439938126811343e-02 1.0261171137827545e-01 -1.5625980525767566e-01 1.3091937085713265e-01 1.7951652611429539e-01 -4.8886069123460038e-02 6.9215809076111065e-02 -2.0010671135243707e-01 1.9160653587839022e-01 2.1366771220941352e-01 -1.9407175169166246e-01 2.6152179860887276e-01 -3.2199080907974395e-02 -1.1503249824456788e-02 -1.5361343302560787e-01 1.2531079995948063e-01 1.1002186531370074e-01 5.5281457433827896e-02 -1.3904137201258218e-01 -4.2023989960045437e-02 1.8655303099404563e-01 9.5527028951919987e-02 2.8733238126608940e-01 -4.7957731345818939e-02 7.0659560369916399e-02 1.6124118326142384e-01 -7.6711318233643770e-03 1.1467530646108429e-02 6.0041683247806593e-02 -6.2715908070454421e-02 -1.5829957046330112e-01 7.1961029973218960e-02 1.3268465675837876e-01 -1.1768714757905137e-01 2.3624288210319527e-01 7.5597113875781982e-02 5.6451187150886879e-02 -1.5743545183551325e-01 8.6360183596668097e-02 -5.3599460777168435e-02 9.6299155144763227e-02 -1.4295107872870544e-01 -4.8887329093612097e-02 1.4321068097684456e-01 1.9579793922405891e-01 1.7132759649201543e-01 8.3988870236159641e-03 -2.2002100886666587e-01 -1.8488095498299800e-01 9.4034945118197696e-02 1.2263466341309746e-01 2.0441325150562401e-01 2.4235352347054853e-01 -3.4923231483520348e-02 -4.7850940871074409e-02 2.7162914151749227e-03 -2.5827136284510177e-01 1.0501843235726958e-01 -5.9288775025050595e-02 3.2440200607976054e-02 2.4662092421315612e-01 -9.6164101598592792e-03 -2.7022180845512186e-03 1.1109801782273741e-01 3.7310431562375887e-02 2.0809659082499349e-01 8.5244571027943847e-02 -1.5011958700847108e-02 -2.1053996201869901e-02 -2.9653561524169655e-03 -1.0343770935594113e-01 -2.1841836712690116e-01 1.6567446072814565e-01 1.4019474109179841e-01 -8.6405171032964231e-02 1.1194235902937889e-01 -5.8297298925493485e-02 -2.1884352441479188e-01 -1.1597332022013433e-01 8.4151726652269526e-02 -4.9250129283880777e-02 9.3307994289640095e-02 -2.1402404522430774e-01 -9.8531495962471516e-02 -3.2362248534085525e-01 3.4896134357203658e-02 -1.9273432862458467e-01 -1.8926427264439602e-01 8.8386811060427409e-02 1.1946222792980749e-01 -1.8642574224099720e-01 -2.0817314819033056e-01 -7.9157700906715783e-02 2.0193100966578695e-01 5.7878210284091063e-02 -1.5852485863486862e-01 -6.3844148490025274e-02 3.7070991688293857e-02 9.8319608173814306e-03 2.1025629309183766e-02 7.4638940067179402e-02 -2.4833850270884589e-03 9.2738152692753931e-03 2.0069143365881689e-01 2.4459579430923836e-01 5.6822986976113946e-03 -1.6852285011740459e-01 3.6219893297842289e-02 -3.9692899433618554e-02 6.1961596188789079e-03 -6.2222787809682024e-02 1.3857755580417166e-01 -1.0000677284163234e-01 1.3945330002347939e-01 -6.0877749101165895e-03 -7.9617210576404612e-02 1.4636415551476736e-01 -5.4594311622586399e-02 3.9688616603538084e-02 -1.3541154946714332e-01 1.7128567624184951e-01 4.3547247104566048e-02 5.3426139390155752e-02 -1.7670017666707147e-02 2.5265026551013304e-02 8.0794204591910432e-02 -3.1549768834911807e-01 5.1694713315678958e-02 -6.6123856331572181e-02 1.9885871624521806e-01 -1.1761024775083605e-01 6.3433950227258451e-02 -5.3894609582244686e-02 8.6742919817162523e-03 -2.9923000061739397e-01 4.9172329226907667e-02 2.4929853924010620e-01 -1.5044675437614943e-01 -2.0640268688548330e-01 1.8339621095725911e-01 -6.9064049800032449e-03 -1.0767583012782726e-01 4.7419254863767898e-02 8.1775232496903091e-02 3.6482364239411480e-02 -1.5255292934593937e-02 1.4280111675375104e-01 -1.7898066852878466e-01 -8.1397416009822057e-03 -3.1031459375717548e-02 -1.3272241366141732e-01 3.0815805552164283e-01 -2.0317537918143616e-01 -1.3983184153951586e-01 3.7584904237471173e-01 1.4301405270344419e-01 3.9709862236349647e-02 -1.8580115243022808e-03 7.8571840681275221e-02 -1.6695776037252735e-01 4.3330312278810929e-02 -7.1804888549250032e-02 1.5950292753374481e-01 -6.3302347170276344e-02 1.8804764890375438e-02 -8.3363538472839241e-02 6.8566316946187422e-02 1.1130420498018798e-01 -3.5128205220117714e-01 2.1773641967471138e-02 1.1270968764993310e-01 2.5122275484209811e-01 7.8421634103471693e-02 5.5019615555646426e-02 1.1869892925591181e-01 -1.0047423056885760e-01 -1.6492706467394461e-01 1.3322965361826825e-01 9.1643730209171895e-02 1.5540550714632159e-02 2.2359050911213596e-01 -1.4663314398790286e-01 -9.5043454589023788e-02 5.7857231293688201e-02 -4.6841978847749280e-02 -2.8145025644070076e-01 6.9669089615573984e-02 -2.5886328782248552e-01 6.5455033755732389e-02 -9.6132139653149679e-02 3.3991880469233599e-02 5.5815907420683757e-02 1.6501908411398344e-01 1.7117402743591034e-01 -7.1386108844123386e-02 -1.0318054029347390e-01 2.7383401082233295e-02 -5.3177124532896181e-03 -2.5802683860503075e-02 -1.5213037294155746e-01 -5.9251170498007058e-02 -2.6806032697805932e-01 8.4500055649411612e-02 6.4749134514120718e-02 1.6328747738363777e-01 3.6059001231919297e-02 4.3033740305608572e-03 2.5945079393778658e-01 -7.5245864262759615e-02 -1.1749974970389136e-01 1.1750060046586838e-01 -1.4515775542833306e-01 4.4688094468406277e-02 -9.6455593856276944e-02 -1.9089750422592844e-01 -2.2985166954598360e-02 -2.0727005949019495e-01 3.2261928133608238e-02 2.7678389856767488e-01 -3.3219553604568952e-01 -7.1090378925862494e-02 2.4701794451669123e-01 1.0446783781889631e-01 -1.1091059681537474e-01 5.5275870288517104e-02 2.2507928424255266e-01 -2.4438401885018243e-01 1.5743898452509067e-01 -6.1359806077165971e-02 2.5961443463285343e-03 -1.5360820159889582e-01 -2.5818212437141386e-01 -4.1418857197248381e-02 1.9711863413541366e-03 -1.8358314143428520e-01 1.3205587048464962e-02 7.9060438866120575e-02 2.2657016464884566e-01 9.3998615935323354e-02 1.5989766835610772e-01 -8.6034642908498354e-02 5.7598439226928609e-02 1.2977723585952142e-01 -3.1040546860805751e-01 2.0534452454986943e-01 -1.9448207283716296e-01 -3.2992872686403418e-01 -1.0669291981402720e-02 -2.6572856352402845e-02 1.1009725369244865e-02 4.6264627857340937e-02 1.0308015965256809e-01 -1.0269393842305198e-01 6.4240561538999152e-02 -4.7552155581731474e-02 1.2521775391170120e-01 3.3333060581005908e-02 -3.6067724934731843e-01 2.9351528996772552e-01 -1.1187398126169180e-01 -1.7316223205360703e-01 -8.3289844552761949e-02 -3.0520820561856909e-02 1.5905608059011345e-01 -1.8693523404087561e-01 3.3136575496190956e-01 -9.0911034699550822e-02 1.7007964149147009e-01 -1.3832547407495441e-01 4.1267887243522483e-02 2.8205492390275120e-02 8.3032666208855424e-02 1.5579473182464032e-01 -1.6799424801334487e-01 1.9115711047248998e-01 2.7322950392032225e-01 -2.5730252716051369e-03 1.8836603254987802e-01 6.0867187759079941e-02 6.1329550841541812e-02 5.0193069485197403e-02 -6.4964305303209680e-02 -5.1151809794969957e-02 1.0237185049882912e-01 -1.9795062995124912e-02 -1.5386260144927180e-01 -9.6434242521185431e-02 -1.0339564579666465e-01 -6.5739048042500095e-02 -7.8076226490583392e-02 -8.1122563389425500e-02 1.4641688971049360e-01 -1.9764925996806143e-01 2.5282441017463497e-01 1.2698041591385772e-01 -8.5086811251712247e-02 2.6990656875859449e-02 -1.2357704096021129e-02 -3.6472048445592509e-01 1.0377089970369680e-01 -1.4565358025023834e-02 -1.7822897773429797e-01 1.3734235318437052e-01 -2.4061849566589927e-01 -1.5115684455799847e-01 -4.1355953090532520e-02 -6.2841542001692494e-02 -1.7755972386669074e-02 -1.0264527055202166e-03 -7.0098321668229283e-02 -7.4514793431657905e-03 9.7060337294387650e-02 7.4467922851362667e-02 6.1613337682389573e-02 1.3181628625854055e-01 1.0563273395361848e-01 1.1067283185147593e-01 -1.8185280394765141e-01 -1.7540531200229220e-02 -6.9966797679215459e-02 -4.2350669195910157e-02 1.3275897415299560e-02 1.3564091007439336e-01 -1.3510812448392140e-01 2.1715624392386901e-01 -2.3551364846931974e-01 -5.0015687010949904e-02 -1.0038258355809028e-01 -1.1498427320817711e-01 1.1081385120476239e-02 7.6688668937740526e-02 -9.8032789626506300e-02 8.7873987636811382e-02 3.1941525682085394e-02 -1.0878865715900905e-01 -1.2143148870216106e-01 1.9412789552129453e-01 -2.4138591513743937e-02 3.9089268143597047e-02 -2.1689307504305388e-01 -2.8916138851424111e-01 -4.5716502002491416e-02 -2.2911315318089268e-01 -5.9367942575868610e-02 -2.1063593517368193e-01 -1.3371191318384715e-01 1.9102468779952454e-02 1.1989590528660103e-01 6.2086264005400113e-02 -3.1537491003463961e-03 -2.1709313242216133e-01 2.0261825619758073e-01 -5.5594230767114103e-02 9.2135600018540653e-02 8.3039128818603161e-02 -1.1640116249091906e-02 4.9233166299437740e-02 1.7413718444628457e-02 1.0225303507892973e-01 7.1586888044658084e-02 -4.3746798955959801e-02 -6.3019948738039913e-02 1.2758334104593655e-01 5.6890180542437984e-03 -3.4551885067379932e-02 -7.2173759242567970e-02 -6.9026569163442603e-02 2.2159752145869630e-02 7.4019751981627524e-02 1.0184406453988355e-01 -1.8445289611276236e-01 1.4327322824134493e-02 -1.3045604455676882e-01 1.3813022373820544e-01 1.1770864251989728e-01 9.4184768456159487e-02 -7.0075844048604882e-02 -8.5627581242892659e-02 -2.2624323809435912e-02 -7.1586487266716972e-02 5.3598804177419929e-03 -4.7096376391738505e-02 3.8950779853815076e-03 1.3801820676100265e-01 -4.0709627629676559e-02 -6.3312441020610108e-02 2.1048772126652501e-02 -1.3371694114271004e-01 -1.1494888464715891e-02 8.9063581328931746e-02 -9.2070494700661060e-02 -1.2316111103753086e-01 -1.3456443745649943e-01 8.0258903366161580e-02 -1.8028594810116993e-01 -1.5242776769736158e-01 -4.4796132706351514e-02 3.4201295861335926e-02 2.3837171744871408e-01 7.2067905465431889e-02 3.3931138241707576e-01 3.8038261714301483e-02 -2.2004298841093595e-01 4.6257143823497175e-04 -1.2713969915720205e-01 2.7304324303543176e-01 -1.3436870270256568e-01 1.0057859569992253e-01 -1.8887633167728113e-01 -1.2365671293627407e-01 1.8626909483156720e-01 -2.2391533864894810e-02 -6.3269430022405260e-02 4.9978780331714386e-02 7.2361038525150786e-02 1.0724443850457251e-01 2.2136844393084798e-01 -4.0088795424640895e-02 -3.3967922534118594e-01 -1.3847864204171761e-01 -2.1765920436264291e-01 2.2944527532957318e-01 1.9139181797613952e-02 3.1563983550289686e-02 7.0582322408164894e-03 1.2620090108615112e-01 7.1133153025760884e-02 -1.8563435913999671e-01 -4.9611663571373872e-02 2.1328855652661605e-01 -6.2970240887051915e-02 9.5042410090796225e-02 -1.5978876347402238e-01 -1.5807544279960323e-01 2.0372484885472905e-01 1.7170111268801521e-02 -3.2985205439172889e-02 -1.1811179764384409e-01 -3.2496377688698136e-01 -4.9524715925084443e-02 -8.4821633678049901e-02 6.5722167174451007e-02 2.3755577798699593e-02 -2.1350487651943825e-01 -1.2806115540551852e-01 -1.3541875848240653e-01 1.8125934817137720e-01 2.2056475307405252e-01 2.2602593729840789e-01 1.8459271826541820e-01 -1.8074042325436587e-01 5.9837120450347260e-02 -9.8928252490440294e-02 -8.3039156695990574e-02 -1.0031637936078724e-01 4.3221804916515408e-02 5.7782449696142900e-03 2.3410348960865263e-01 -5.3813604776702877e-02 1.4216356801377664e-01 3.2354538844863598e-02 -6.7004699523323941e-02 2.0217303664530459e-01 -1.9419718296306518e-01 -2.8300418296647883e-01 4.0594151618645859e-02 1.8669711116163737e-02 -1.3956947048651591e-01 -2.6671372285492871e-02 7.6851437836944217e-02 2.7206849187512777e-01 -1.1433564650788172e-01 -2.1486839134989136e-01 -4.8080849032150833e-02 2.7509917762836966e-02 -1.9524161282227764e-01 -1.1326790546326794e-01 -6.3299450656072870e-02 -5.7774769605259450e-02 1.5996641472929954e-01 -5.3510420804424108e-03 -4.0094371199651528e-02 1.1095432775922795e-01 -2.8248796214335120e-01 2.0324852963123696e-02 -2.1691813210123922e-02 1.1815000085239492e-03 -2.1449357835859661e-01 1.6189945546019074e-01 6.9331887670499123e-02 -2.0763987145335486e-01 -1.6552575624239485e-01 2.6258331277479136e-01 -5.0921275920473262e-02 5.8600046323471953e-02 1.4916341073445138e-02 -7.3517606400263100e-02 -9.9444357296682266e-03 7.0966550840448631e-02 1.2518551784177573e-01 -1.1397584946011571e-01 1.3573084827066786e-01 -8.1321505605796793e-03 -5.7626416001847845e-03 1.2075179775577807e-01 1.4877155395616640e-01 7.1801631130973820e-02 -1.1233527691744355e-01 8.9005447483933214e-02 -1.4715394203490484e-01 2.1400188745259893e-02 -1.9253930421100582e-01 2.2650032747856552e-01 9.6965441099913202e-02 -1.7456922735786828e-01 4.9681713738384016e-02 -2.1670976802372888e-01 -1.2613091235933408e-02 1.8357578203860307e-02 -2.9446997725120566e-01 1.0380178076395512e-01 6.3296397179963840e-02 -1.4465519404967824e-03 -2.6800653647139761e-01 -2.1906519351917347e-01 -4.0611911112571744e-02 1.9354963317011803e-01 4.7133755895417684e-02 -4.2160036513867523e-02 9.8732857619811806e-02 -2.0204492526342488e-01 -1.0462592309369130e-01 4.4460462935959608e-02 -6.7865597943139191e-02 3.6748386171990638e-02 9.4932893686167530e-02 -6.2618112327577002e-03 -3.7191883338922156e-02 -5.3260103799673650e-02 8.2436717184239977e-02 -4.9245568247737292e-02 -1.1627955370087720e-01 -7.8635931317523000e-02 -9.0160723531259132e-02 -4.3097914363816270e-02 -1.6681054693190020e-01 -1.7573894158074241e-01 -1.5494290133396249e-01 -7.5616042355802304e-04 -3.6178828866923460e-02 5.6692335279578267e-02 3.4172976358317647e-02 -1.1021132130522868e-02 6.8204614622798636e-03 -1.8242959741854116e-02 -1.5281855497842886e-01 7.6719359117786447e-04 3.0277912570696192e-01 2.2203919188526694e-01 -1.7513623495515310e-01 -1.0031617017806612e-02 6.0981516418054625e-02 -1.2379219166869643e-01 -2.2420520453025078e-01 -1.9146895865072769e-01 -3.4378096477174402e-01 1.3413359417616411e-01 7.0621393701754007e-02 1.0616846946423811e-01 1.9443490980106312e-01 -1.2855897890349202e-01 -8.0448833949301662e-02 1.7796110624035499e-01 3.0836772932327183e-01 9.7041457097677055e-03 -3.0128363450115343e-02 3.4199547161916984e-02 8.7366044575162852e-02 -1.5848927206913049e-01 1.0577225851088894e-01 3.5732937759061903e-02 9.3155320428878613e-02 -2.6777305700751758e-01 2.4144620830908656e-02 1.4530974622227852e-01 3.2721406466976866e-01 2.6787815176275709e-02 -3.4787332085612507e-02 -7.0278101997906406e-02 -1.3956273584942577e-01 -8.3884732277269544e-02 -6.6042389304361487e-02 7.2059809623445131e-02 -3.8021839043768685e-02 1.5469559321198870e-01 7.4241930010029933e-02 1.9213459549363357e-01 -6.8918118564809977e-02 6.1936529424753375e-02 7.9899658649147984e-02 2.4452778833323716e-01 2.2312316801234003e-01 1.8143248595743747e-01 -1.6074831773209422e-01 2.0458135342001221e-03 5.5086483304558016e-02 -9.9609878167715524e-03 -2.1419150247456201e-01 -1.9590222470037252e-01 5.3033083753481536e-02 3.0132246325282473e-02 -1.3612875971544289e-01 3.2395009372018030e-02 9.1945402097562523e-02 -9.4870263120679921e-02 -1.0737947261098522e-01 4.1007437121449629e-02 1.5423504237350671e-01 -1.0530979460173075e-01 -7.1839697213198578e-02 2.5420061958179821e-02 -4.6124050684921869e-02 1.1764813473434445e-01 -8.2915194004176712e-02 -5.7410471830727484e-02 -1.3995275815043981e-01 1.5655297867660856e-01 9.0047789842237616e-02 3.2316897986214156e-02 -5.6087459432743493e-02 3.4924249998628719e-02 1.8146989343243540e-02 1.9389963489476282e-02 1.0220000986811517e-01 -1.5457386706722238e-02 1.0190362867141800e-01 -1.9588044850980058e-01 1.9362288428421890e-02 -9.5439812003431004e-02 2.7719385235781269e-01 -2.1462043371234918e-01 -2.5177603225562145e-01 6.5947583845433602e-02 -1.2633201449648132e-01 -8.5670447307750995e-03 2.8657381090880379e-01 1.6129906038177714e-02 1.7372064424559446e-02 -1.4102672072707136e-02 -1.8831805449629715e-02 1.0614460248673295e-01 -2.0159850329883277e-02 -8.2979024909624360e-02 -8.7841321300600531e-02 1.9822723163250802e-02 9.6839646504077767e-02 2.4573674316879440e-01 -2.6749577730670996e-02 -6.1722853434340641e-02 -2.2812846323890554e-01 -1.6475177113475231e-01 -3.9147288177311577e-02 -3.1424124136762696e-02 -1.0531839591627760e-01 5.5838464121622119e-02 -8.7875802567381714e-02 -2.3799913263033629e-01 -1.3907657165193116e-01 2.7527450646838098e-01 -2.4359232042803161e-01 1.3875674194749682e-01 9.5187014966960914e-02 1.5124190416024380e-01 -9.4631452424031065e-02 -1.2469952605162013e-01 -2.4300191629848369e-01 -6.6856014306823031e-02 1.3680865449728871e-01 5.2122223898840629e-02 -3.0591440957737159e-01 -2.5670739981367324e-01 -9.8997845013160002e-02 3.9898646915655138e-02 -8.0363376823736163e-02 1.0191040111403345e-01 -2.4618878299500085e-01 -2.7777289323187354e-01 -6.3745607836689977e-02 -7.0760356802817045e-02 1.6823225540766509e-02 -2.3378733765052572e-02 -1.4090773585051505e-01 -7.5236260629216622e-02 -2.0296712253139756e-01 -1.2543712818714928e-01 3.2002389567705591e-01 -3.6570776702975524e-02 1.3508069724337604e-01 -6.8087609748916866e-02 -1.8328569027229474e-01 9.5504193298981591e-02 3.0961490511167117e-01 1.0896248964739964e-01 -1.5108336073443338e-01 -5.8781249906316091e-03 2.1389564034499092e-01 -1.1584677349859662e-01 2.9858004024835582e-02 3.7360245255562301e-02 2.9913304609870578e-01 -2.4787349176590384e-01 -1.1065476806726673e-01 5.2595469851601767e-02 9.6698076178893685e-02 -1.7200529522712112e-02 2.6747087662541136e-01 -2.2355308000327789e-01 -1.4065457697072323e-01 3.1226340558572357e-02 -1.1066920162946100e-02 6.7980815784609197e-02 2.4724224186757798e-01 7.1334283142648253e-02 2.7004896191368168e-02 6.9961818974360226e-02 -6.6122229991258372e-02 6.7517002889989066e-03 8.4991384167450376e-02 7.0730289360315612e-02 3.8399391580355036e-01 -5.8570575877690675e-03 -1.8091268619376592e-02 -1.2277560649021739e-01 -1.1514865464650974e-01 -7.2457835981059912e-02 5.1146094892889717e-02 -8.4464624582539866e-02 -1.1707602463689085e-01 -5.5801542926694002e-02 2.9047823656068231e-02 6.6524843922036309e-02 -3.8058174305121245e-01 -6.7798614016765221e-02 -3.4525969272258655e-01 -7.1481837121780495e-02 5.1351503450285593e-02 3.0437412391697793e-02 4.5297423855463190e-02 -4.1244835474261263e-02 -2.1873812591757549e-01 1.7024905616343339e-01 1.1442279841089052e-01 1.8820600902792176e-01 -1.3341142255376318e-01 2.9685702735460756e-02 -2.7524809041377635e-02 7.0033138293350741e-02 -1.8850642715807811e-01 2.1806792212475423e-01 2.3768681907113162e-01 -5.1616679586038938e-02 6.2483514189746528e-02 -1.2411377323953265e-02 1.7379854094866035e-01 9.9875946277353037e-02 1.0844950887583331e-01 5.9041299299939518e-03 -6.7272721341145966e-02 -8.4373418539910691e-02 5.7564873426178192e-02 2.3279178113662952e-01 1.2441608947858515e-01 -2.3887794969499698e-01 1.1053286886300238e-01 -1.2698660026004124e-01 -9.5736840953189142e-02 -2.1691994827298094e-01 7.5746657498633740e-02 4.7028307384677198e-02 -9.5050546028481953e-02 1.2099634723751117e-01 2.3932060373131397e-01 3.3480786282032520e-03 -3.8236906152316195e-02 1.9164895963447479e-01 -5.4473285331285697e-02 -3.8165216348493517e-03 -6.0239653816466544e-02 -2.1139265415147431e-02 2.3431474964928145e-01 5.1076339734267270e-02 -1.6028376769181196e-01 -1.0901293670542019e-01 -6.3440470334734031e-02 6.7225840514980831e-02 -3.9776183213285010e-01 -7.5356612554522168e-02 -1.4006751108393492e-01 7.2583290664483269e-02 8.3974079088438777e-02 -6.6114101874580805e-02 1.6971536439996188e-02 1.6492455858706162e-01 -1.5000207361606585e-01 -1.9501409892161223e-01 2.6480899458023066e-01 5.5751693692119339e-02 -1.7259770772627525e-01 2.4291827889994642e-02 4.9970179663302292e-02 -7.0622736242099304e-02 3.5651653284149813e-02 6.1900348553714436e-02 7.2259477016238222e-02 -1.2406017258830926e-01 2.9572488449403145e-01 1.5637229992351870e-01 -3.8704224352148035e-02 1.3177569430927066e-01 7.2617629937433384e-02 2.0347264913848614e-01 -3.8261942032959066e-02 1.8778748297599547e-02 -1.2736096082609466e-01 1.8742752425644556e-02 1.0044531240210690e-01 7.3775678254255697e-02 1.0102974310442610e-01 9.5500014065886110e-02 -3.4938356034192167e-02 8.6127693794958132e-02 9.1623978616754864e-02 -2.0300733301981502e-01 1.0675258466837451e-01 8.3258858671447111e-02 9.3186955143905306e-02 -7.7117108881392935e-02 6.1953466914406514e-02 -1.2370266126052540e-01 3.6395863936239514e-01 -9.7609795355324949e-02 -2.1509159850369972e-01 -7.0666773142891534e-02 1.0517085970805203e-01 -2.4895400988904248e-01 8.4601403040407697e-02 -1.5277765275976640e-01 -7.6269780757237865e-02 -2.1791348924342063e-01 1.4003428948753421e-01 -2.3858202856890338e-02 1.5821463876887454e-01 -2.3589752557642718e-01 -3.6710287198130458e-02 -1.0204905966964598e-01 3.5580926445350929e-02 -1.4973540985045816e-01 1.7159061005679338e-01 1.3040739533064866e-01 -9.5426806364055913e-02 4.6643261765938568e-02 -2.2055758765239533e-01 7.6200588734977176e-03 3.7029823667622491e-01 -2.8661653702688195e-01 -2.7885922125858353e-01 -2.4722640971959386e-01 1.3345802519260361e-01 1.0710174122686088e-01 2.6583394583074405e-02 9.4241788282819511e-02 4.2657053173725333e-02 -6.2068702234585875e-02 -1.9525323003341585e-01 3.0856493099739560e-03 -1.2564096567949273e-01 -1.0462598211056391e-01 -1.7186686242804425e-01 -1.9652943727044431e-03 8.4680783787598850e-03 5.7247200927219105e-02 6.8218316459470851e-02 4.1510854213147120e-03 -8.1082291056339253e-02 6.6607971211844516e-02 -2.7519639055058587e-01 1.0276795738253483e-01 6.1253217150903719e-02 -9.4369383148468280e-02 1.3350001443656684e-01 -1.4988085912827606e-01 -5.2329597445591222e-02 -3.8592067028004912e-02 3.7807410559089337e-02 2.5145399758150278e-02 1.4321484737745246e-01 -8.1856078641974847e-02 1.0250501883009962e-01 -2.2645710986678502e-02 -6.3338688925771824e-02 9.0259844239389084e-02 -1.3202840346997649e-01 5.1090132260231028e-02 5.8672619529470851e-02 -3.5107225012452059e-02 -2.2779153400061408e-01 -3.0529510434533342e-03 -4.7892609485766062e-02 -1.0093816802905840e-01 4.1503872821775742e-02 -1.6304731269820097e-01 -3.2535597553433236e-02 6.3732771643949235e-02 2.6987352752222615e-01 -1.4822107019329334e-01 -1.6413747942480353e-01 3.1559502793357452e-01 5.7280391735293250e-02 2.3215717494261201e-01 2.3745425581722171e-01 7.7505841368547213e-02 -2.8998237315409126e-01 4.8997318970168152e-02 -2.0851514857249973e-01 -1.6378167523409620e-01 6.3685154888336773e-02 5.8018008688543801e-02 1.1065312406985701e-01 1.9717838997940598e-01 -2.7656335077153642e-02 3.8602810146807554e-02 -3.9657900396597778e-01 5.2006799880416801e-02 -2.1750655471243835e-01 1.5427199843410638e-01 6.4218846884185166e-02 1.6219178961416236e-02 -1.0676511327736682e-01 1.0261586872426834e-02 3.6330727535140050e-01 1.2569742410527369e-02 -1.4508912107342275e-02 -5.2090957125575939e-02 -2.3872997339849177e-02 -8.5862122792256482e-02 1.4427797683042132e-01 -2.9852137603230700e-01 8.2402732982043606e-02 -2.8817702749351903e-01 -7.5257975526353563e-02 -2.3870023160094442e-01 2.9588148272313851e-03 6.9695058951902658e-02 5.9670665811972300e-02 1.0186236453664178e-01 -8.9887504635651469e-02 3.9058555294786516e-02 5.6925136940385306e-02 1.5727869054831492e-01 9.4467550330017469e-02 5.5513014988049968e-02 1.4456981060010188e-01 6.6508975068361301e-02 -1.2150172681882837e-01 -1.0563337189606256e-01 1.8091328053097280e-01 9.5108576906578882e-02 -1.9824587072681760e-01 1.9208124550607852e-01 2.0791448290121645e-01 7.1560938359237714e-02 2.0851452872512183e-01 -1.7004372522133879e-01 -2.6843749773867522e-02 -1.9592346656347005e-02 1.1662962035402558e-01 -4.9121318743377489e-02 -1.0484366796596620e-02 -1.0559760535269661e-01 1.0207746533064710e-01 -1.2585312420704359e-01 -2.6386751848305995e-01 -6.1847024869839277e-02 -1.6173771201535162e-03 9.5597955385759117e-02 -1.2557684965490501e-01 -2.0844491703596288e-01 -1.4305198506511341e-02 -2.9176112930624849e-02 -1.5986933256152772e-01 1.2638136837388964e-01 -2.5237729211696325e-01 -3.6466423370939932e-01 -8.1001589511789929e-02 -5.3822059282889717e-02 -8.8892925902521874e-02 7.2315928995422302e-02 -2.3282045321819972e-01 -2.5302427762614349e-01 -5.3981597040501754e-02 -2.8452457677416550e-02 9.8778337789983239e-02 1.4922172392607308e-01 -5.6381022646744411e-03 -1.3487691373727025e-03 -3.1723079203939644e-02 2.0654360585531509e-01 -2.2589344690460553e-01 -2.6886211313792202e-01 5.2527387692806196e-02 -5.9196907490453199e-02 -1.3593937413885268e-01 -1.3448251569804640e-01 6.7886596810270136e-02 -4.6288573492515035e-02 4.8340816362764626e-02 -1.3010901228778052e-01 -7.5821405814602352e-02 1.0495752511558992e-01 -7.2031545535904851e-02 -1.7222066006991096e-01 -2.4501788902376267e-02 -2.0738801362143766e-01 -4.6593161674689597e-02 7.1522034018966715e-02 1.7578227528872045e-01 -1.3705021426527478e-01 4.5861546450666438e-02 -3.4403505390215722e-01 9.5344210502712454e-02 -5.9379197592036088e-02 1.1388431983494092e-01 7.3667829862908971e-02 3.6410886363573529e-02 -2.3885660377879356e-01 -7.4065753625999098e-02 -4.7386043077961550e-02 -1.2106226814325853e-02 9.4343745586798963e-02 3.6834778174428796e-02 1.5224948015373879e-01 1.0483092749834316e-01 1.7487162841523501e-01 -6.0825687093309218e-02 -2.0034961975476218e-01 7.4055833083845946e-02 2.1011002842203148e-02 -7.0964754434534871e-02 -5.5571942317460016e-02 -2.5368017334313410e-02 9.3638040699731834e-03 9.2484789227367196e-04 1.0336041552282853e-01 2.0596090774755691e-02 -1.6567680099492893e-01 -1.3310672905967325e-01 -1.7791442111749631e-01 2.0362438331865165e-01 -3.5238620053870146e-01 3.9763388020560252e-02 1.7565347356032021e-01 -1.3329695917030863e-02 -2.7584031625979982e-01 -4.1484438491805559e-01 7.6671087068978711e-02 4.4260051017437005e-02 1.6709579884109177e-01 -7.8284669233079446e-02 -3.1555706101641448e-02 1.9178540216840533e-02 5.0644737083555887e-02 1.1108105916322830e-01 -1.7906267508847434e-01 -1.6781512772498555e-01 2.0219467922470860e-01 -8.3677646007374235e-02 -1.2169836984288865e-01 8.9257259061251513e-03 1.2908194626303540e-01 -2.8362184557181879e-02 2.4392558412496060e-02 1.4298453895894375e-02 -2.1765626243555750e-01 -5.6247199999226498e-02 -3.4706125637096304e-02 -1.4416498664734664e-01 1.4037295353113130e-01 -3.5450563174511278e-02 9.4331477472315572e-02 7.4342295090406185e-02 -1.5035102318898014e-02 -9.4856249481356958e-02 -8.6011954100853258e-02 2.0680910100950417e-01 -2.7192503176001748e-01 -8.6118976564940913e-02 9.8554392346342334e-02 -4.6618834019260237e-02 1.3291935590610227e-01 1.7697345680062496e-02 2.4604166123814403e-02 1.1394740343046163e-02 -2.1368010336054750e-02 1.9176471330867315e-01 -5.5721852922349761e-02 -1.0666676984369361e-01 2.5158191922970752e-01 -1.0538377155072373e-01 -1.2229235621110095e-01 9.6916106425205140e-03 -1.8576367725787475e-02 1.9532199495932087e-01 1.4441060595408927e-02 8.7250142230132915e-02 1.5739924275125503e-01 4.5930263567631760e-02 -5.9946603367819512e-02 5.1877982006058509e-03 -6.8818680185460404e-02 -2.5418281714235880e-01 -1.5855977237397748e-02 -2.3136657730040436e-01 1.4245579691302942e-02 6.0179140121482599e-03 4.1500267791265512e-02 -1.7024597697209959e-01 9.7927625412716338e-02 8.1954203425343611e-02 -1.5456561281977094e-01 1.6834866338315144e-01 1.0122578287188568e-01 -1.7051235430853670e-01 3.5297712426290359e-02 -1.3486743651226740e-01 -4.5947640841446709e-02 -1.5096563348196598e-01 -1.0024527877374073e-02 -1.6781482589384109e-01 -7.2150288987688507e-02 -1.2357472150320650e-01 7.4623252425304681e-02 1.4914978797508742e-03 -1.2808179862227115e-01 2.1983511764804103e-01 1.2197194727738524e-02 1.1455919381452752e-01 -3.4736158913954325e-02 -5.1566686562832649e-02 1.1940642178207381e-01 1.4431272422169342e-01 -9.5629874017386068e-02 1.7199822932776825e-02 -2.7264731382900524e-02 2.9194701812553164e-01 -1.0522092119181911e-01 -2.0428928525893890e-02 1.3427462694579390e-01 -1.8265558171363427e-01 1.2835248691810849e-01 2.5322754847124092e-02 -3.4394209111213647e-01 1.2729882934777059e-01 -1.3625699829927221e-01 -1.7586660498674447e-01 -6.1424168471876851e-02 6.6445026631220067e-02 2.2509967421703736e-01 2.1092324263386317e-01 -4.7295637388964008e-02 6.7486861961376710e-02 -1.0271096643814617e-01 5.6789695106097625e-02 -1.0125336226686768e-01 -8.1407802679979546e-02 2.0601760212217327e-01 1.8885134581261687e-01 2.2380121932569649e-02 -1.5220977363490459e-01 8.1141731021969726e-02 1.9781348458487830e-01 -6.7464039830747544e-02 1.7913417556225697e-01 2.4479053802817494e-02 -2.1136153156205245e-01 -7.0719232001308793e-02 -1.8920593543414083e-01 -2.6467824879252966e-02 1.6124327585846848e-02 -9.1220159049733823e-02 -1.2410316008218528e-01 2.6617317028169163e-01 -1.2865279592949508e-01 -2.9013718948020281e-02 -6.6120537930416598e-02 -1.4608154744515184e-01 9.0339468085865293e-02 2.8117790496363526e-01 4.0265914331687740e-02 -9.6210257010062056e-02 9.5674950916759219e-02 -2.8141734171997772e-02 -7.2882546432178716e-02 5.5383595203290219e-02 -1.5905142797935291e-02 4.9246206854361985e-02 1.4740728060581472e-02 -7.4372631260962135e-02 -3.3861269980532342e-02 1.1939849546884312e-01 -7.3681412892584286e-02 -1.1786343416943438e-02 1.3914050851587109e-01 5.0131968417091288e-03 2.2587388911851250e-01 9.7395236992384449e-02 -1.0349161457676911e-01 -2.5674087172901217e-01 4.0211025526448625e-03 2.8579441991414285e-02 -3.4622038708613623e-03 5.6841388575264041e-03 -2.2819407099299582e-01 1.5709998528898728e-01 9.4856008531015987e-02 1.3280654545125684e-01 1.0075746189043344e-01 5.5412825475597408e-02 1.2951542069997196e-01 -1.7950525495064476e-01 -2.5352147416279142e-02 -4.0230090224671063e-02 -5.0840986351148788e-02 -2.4654820092765758e-02 -6.3707334094172077e-02 -1.9416407767999760e-01 -1.3466625337911976e-02 -1.1290637086658045e-01 -1.2289767669531233e-01 -1.6729219043329605e-01 -1.8250655699750418e-01 -1.7429815924438349e-01 1.8592840981991168e-02 1.0731947719565935e-01 5.8161851009601494e-02 -9.4156430790156051e-02 -1.9780069233126554e-01 2.8561205124600486e-01 1.9959622496372889e-01 2.2216153470539089e-02 1.4328281060322229e-01 -3.7862201495395126e-02 -1.5483180645910102e-01 1.5729387801275896e-01 1.0676582623134030e-01 5.4970125482288229e-04 -3.4032632377258604e-01 -2.4515574384271782e-01 9.2859044997439882e-02 -1.5674516968682575e-02 1.9157111207915678e-01 5.3155463842755643e-02 2.8285139925793074e-01 1.0623094969115551e-02 1.5549744120978706e-01 1.9586064809009684e-01 2.9676476494151210e-02 -3.7161934959442436e-03 1.1807576632789203e-01 3.6999018848166410e-01 -1.9914117526904673e-01 2.3575919719294780e-01 1.1504335726006061e-01 -1.3539016816213226e-01 -6.0499685578118634e-02 1.9315804430135641e-01 6.2471339469526918e-02 -2.4342170274479599e-01 -9.3803631287841721e-02 8.8566272136906390e-02 -1.5692475316801444e-01 -7.5027876360684795e-02 -6.1494880212864061e-02 -1.3851213230261736e-02 1.1681631329566469e-02 2.5111047848179655e-03 -1.7807334432625516e-01 1.4237638854114668e-01 1.1492853914467936e-01 1.1119209299406693e-01 -2.4569054930022927e-01 -8.2793276899314330e-02 -3.5850332886140951e-01 1.9545319446695214e-02 1.0685103139714933e-01 1.5749305501625826e-03 -1.9170788965832777e-01 -2.5665336294717389e-01 2.1978218689730641e-01 6.6835771515487599e-02 1.1633381956923815e-01 2.2033353788730817e-01 -6.8592611702990872e-02 -8.3953944367463840e-02 1.3066887279903924e-01 1.3741897372725889e-01 1.0535314468517687e-01 -4.4163088862379324e-02 -4.1645692438826518e-03 -1.1319790016455353e-01 1.4221782922276527e-01 -1.8937314284493198e-01 -2.4713318231090606e-01 5.2632267214970802e-02 3.0205862934549432e-01 -2.8146607575061544e-02 -1.9272013086561901e-01 1.7172179643037733e-01 1.8258822826453888e-01 -9.1830999653309167e-02 -2.6127733916632451e-01 -1.3582259845163147e-01 1.5945467320559001e-01 2.4812812623260186e-01 -3.0403557559186351e-01 2.0273551213929072e-01 -1.3620248939260302e-01 1.7877276261315286e-02 -1.4513399573338030e-02 -8.3216552942678143e-02 3.3300226291146359e-02 6.0718855801220183e-02 -8.0128838693393378e-02 2.5766635577883511e-02 2.9358376389060373e-02 -2.3685594538945662e-01 -2.2721171502330212e-01 4.0249345525016267e-01 9.6608544607788324e-02 1.4727402229012779e-01 -6.0959008493473875e-02 -1.0337320735439855e-01 4.1835093943193971e-02 -1.2003790093148813e-01 -1.6063626988185065e-01 9.7258725637217325e-02 -9.0900472074815053e-02 4.0556575424952813e-02 1.0422303851750414e-02 1.4263645435218179e-02 8.0608312918378694e-02 1.6441559911072882e-02 4.4035378603554227e-02 -6.4630867936040781e-02 7.0895229457485387e-02 4.5476300962413868e-02 -3.1713498025629561e-01 -3.4276208741792658e-02 2.0622035362977703e-01 5.4018761398221217e-03 -4.7143263154862926e-02 -1.5589554855450047e-01 4.1909683605787444e-02 -1.0444369084232376e-01 -2.0853842833627477e-02 2.4006588014178201e-01 8.5418903660271439e-02 1.9928154971532428e-03 2.1962720450186859e-01 -1.1282130669406709e-01 -2.9574352264458720e-02 -4.5878199053594027e-02 -1.6866502895841087e-02 -1.8739218266198304e-01 1.1502671579862468e-02 2.5421602095052276e-01 4.6456855050899672e-02 -8.2569932264144288e-02 -1.1194361837816068e-01 -6.0177872193325051e-02 2.8451487760869787e-01 -9.0377816418897472e-02 -1.6422729091783991e-02 -6.3156162218106243e-02 1.1377026502315124e-01 2.3328608568224246e-01 -1.6787465489345649e-01 -2.3058989239829791e-01 2.1126325213551778e-02 -8.8049497485825787e-02 -2.5378089799441561e-01 -1.8981946103314296e-01 1.7768702799715752e-01 2.7422339463517797e-02 -2.8069473068794171e-01 2.4852550226485134e-02 -6.3320707842376422e-02 1.7431648605181060e-01 -1.2498987060169335e-01 2.4729601420224126e-01 1.1918797822454773e-01 9.4880283898842593e-02 8.0939872819651662e-02 1.7332153488762134e-02 2.5467990356253865e-03 -7.8470521582742592e-02 -1.4264053670362101e-01 1.1243079904499344e-01 1.9722099515871544e-01 -1.3556058239486379e-01 2.7243355723577067e-01 -1.2635817339376703e-02 9.5235143931546959e-02 -1.3790120112184451e-01 8.4297677191913001e-02 2.7664323622171405e-01 -1.7311926404634254e-01 3.5094455844298017e-02 3.9288253573337047e-02 -1.0466907499619035e-01 -4.5017808052920431e-02 4.6871556081229136e-02 2.0966936747351873e-02 -5.6399715707640914e-02 5.3723258200176191e-02 2.1259165257426699e-01 -1.4735085420835084e-01 9.0366348702224389e-02 -1.6502093398196024e-01 4.7332603305084105e-02 4.4747369254593992e-03 6.7521179934536518e-02 -1.4954851460827709e-01 -1.2390499497068894e-01 1.2339359516710231e-01 -3.1237905043880282e-01 -1.0788338462281678e-01 -1.9225320519588968e-01 -4.6518310501847418e-02 9.1822974121493380e-03 -2.1848707480090140e-01 -2.2728513614997267e-01 -7.2213501460749410e-02 -2.2625394693835466e-01 1.9580731996896996e-02 -6.2677574126349292e-02 -1.4314545796647798e-01 -1.3510925251961678e-01 2.2697052257662702e-04 -2.9606017685151542e-01 2.0441973832412315e-02 -1.1375573883328940e-01 3.8388456013876154e-01 1.7097929311394930e-01 6.3426509258401625e-02 3.6736329021587556e-02 -6.8366434774398445e-03 1.5612262712098163e-01 -1.6616496040935216e-01 -1.9338408162125792e-01 4.9743326123497376e-02 1.6028014178113653e-01 -1.9388722771642164e-01 -2.9110399623306937e-01 -2.4034945236702968e-02 -7.0180947795844550e-02 2.4647185584900486e-01 -2.4922912001274773e-03 6.3809041578978126e-02 1.7294853648645514e-01 1.5169440876812146e-01 -1.4278207529910189e-01 3.5068109113861330e-02 1.0034743243971915e-01 1.3405392216284090e-01 1.8097077798578867e-01 1.4281993342456983e-01 6.6866951910207667e-02 1.2850093920608494e-01 8.1126310356295500e-02 2.7121422848030010e-02 -7.5363504401865816e-02 -9.3904473308906153e-02 -5.2374733733307949e-02 4.5614708270930573e-02 -2.8489637847999111e-01 -2.8290537348973441e-02 1.3541352861145620e-01 1.4033367902349417e-01 -8.9029086657895634e-02 -2.5485571347582570e-01 -1.5548325728992915e-01 -6.6922380819142480e-02 1.4292700460743687e-01 -1.4046815073153909e-01 -8.4333748489423127e-02 5.8563352532634231e-03 1.6527605886412960e-01 2.9582022726993749e-02 9.5631836809384526e-03 -2.9642898185208089e-01 1.8082873532407628e-02 1.7247618612161744e-01 -2.5513094032420125e-01 -1.5413697857208894e-01 1.2050199567566831e-01 2.1312784082899447e-01 4.1110667278255977e-02 -1.0479690757399777e-01 4.5627593796348620e-02 5.9484613915499807e-02 4.0012170033072281e-01 2.7624134884739565e-01 1.6603356675128422e-01 -2.9233108862068169e-01 7.2463041390639055e-02 -1.1168723130935818e-01 -4.8918459836675707e-03 -3.6155416605035663e-02 -1.1373500312563103e-01 -1.7856476817828376e-01 -1.8771478578765011e-01 7.7133443143485528e-03 2.1377014888204424e-01 3.5636541379692677e-01 1.9124633163537438e-01 7.6113009060488346e-02 -6.7630511972951404e-02 2.6814094229784839e-03 -5.4724979022434304e-02 -2.3322629483622268e-01 -2.7953736996430473e-01 9.0990336376938104e-03 7.2140957524695820e-02 -1.0498983816249714e-01 9.8106322637098162e-02 -1.1578828673119043e-01 4.3544629191472187e-02 1.7638796538001152e-02 -1.6151780117539340e-02 -3.2101893446590590e-01 1.9597386831329308e-01 4.9188067296092472e-02 -3.6690944773013059e-02 1.8486144366260518e-01 1.3014244826721549e-01 -2.3652048802656517e-01 1.2407539560708747e-01 -4.5970132556345654e-02 1.0956474304386703e-01 -4.1819096901999538e-02 -3.5901157460452693e-02 -1.3484764691408198e-02 -1.9573389109721004e-01 -1.3596439140924688e-01 -7.9830673119807377e-02 1.7241722112770236e-01 5.3391381516353243e-03 2.6158144062755129e-01 8.0587812309189266e-02 -1.2786746211836814e-01 -3.5261331547705062e-02 1.3082866172113872e-01 -1.1735853299902635e-01 1.7077484962628058e-02 -1.0248758311747558e-01 -1.3295454772011570e-01 -1.4057097565273663e-01 -6.1175543435759552e-02 6.5779238469315715e-02 -7.8213596409298189e-02 -1.4554033421771126e-01 -5.0931894136462534e-02 -1.1766562465085543e-02 4.2351195990948873e-02 -8.8610325653288810e-04 1.3399854591881399e-01 4.0307452320648271e-03 -5.1285803558196119e-02 -3.3924131629741457e-02 -1.1846776530103156e-01 -5.5684339392499539e-02 -1.5295958393860112e-01 -2.2842863919492160e-01 2.8649501166126834e-01 -9.4863339369991306e-02 1.2271375245099617e-01 2.5736200728747072e-01 1.1965645769758354e-01 -2.5955607628990734e-01 1.1755225213491680e-01 2.6513978450949544e-01 -5.7447705183062678e-02 1.8437344504199912e-01 -1.9929357211511012e-02 -3.0666793863843417e-01 -3.6588912523036005e-01 2.7216793764758584e-01 -4.9487304127231936e-02 -8.9609439885713557e-02 -6.4761473182952931e-02 2.0130518413195606e-01 2.1349470126834766e-01 6.2653019415148331e-03 8.3695084679067763e-02 5.2574580178399527e-02 2.4261971934248677e-01 -5.4745815476904706e-02 9.1920915155601621e-02 2.1383529272586915e-01 -2.8463034283465838e-01 5.3344421889558860e-02 6.0443536906585230e-02 -1.6380570300718000e-01 -1.5276739595544095e-01 1.7548217070288027e-01 -4.8228196552597719e-02 -2.3439161220402505e-02 -7.8674183208503431e-02 7.6660445980459343e-03 4.4354357796476770e-02 2.7734961663784152e-03 1.8527704722825326e-02 -1.7956616035356349e-01 -1.3205992162341246e-01 1.3691943894133765e-01 -1.8085332404874324e-01 2.4074492989369897e-01 1.1758049434559228e-01 -2.2643619504061205e-01 1.3145322854783106e-01 5.7716947485295239e-02 2.3511957676227344e-01 6.1464365013019440e-02 -1.9046749952339917e-01 -7.8907311041878925e-02 -5.9239318413727746e-02 -3.0872091314925371e-01 9.5540295328058605e-02 1.4694536458728641e-01 -2.8994059292824442e-01 2.5228089996009129e-01 -2.2526814918918767e-01 -1.0390533517269754e-01 -8.0223665456356660e-02 1.5313007778959706e-01 3.8581079018401920e-01 4.7709546736603603e-02 4.9331481427874963e-03 1.6382599415414781e-01 -1.0961662073752814e-03 8.0514405838454043e-03 -7.0169363042679345e-02 -1.2589602565549554e-01 1.8382930023682009e-01 -7.9765844297395638e-02 -8.6352384483393732e-02 1.9898084327369431e-01 1.0851105487643409e-01 1.1663427949653546e-01 -1.3905564782173854e-01 -1.5391544062396315e-01 5.4900275994362063e-02 1.3852610208749561e-01 -7.1986024239243648e-02 1.4313383658984699e-01 -4.3300760626369832e-02 6.6788711901632658e-02 1.4051147235035430e-01 -2.7529875810544296e-01 -1.9649643074204606e-01 -8.9354708291973881e-02 1.2718239191530534e-01 -3.1106153069230032e-02 -3.4990111820030817e-01 1.0819072985349666e-01 -1.2234429583050799e-01 -4.4244388368252108e-01 -8.2948037714208903e-02 6.5426105164078457e-02 1.1461430195881105e-01 -1.3731075287885891e-01 -2.2567542132939256e-01 -2.1070749275570483e-01 -2.0882682551078352e-01 4.5681642858123928e-02 -4.7641048359800250e-02 -7.5454781355232980e-02 -2.6980332728814189e-02 1.8369208696231082e-01 4.8276025092650037e-03 2.2729926597394992e-02 1.0811743807108871e-01 -2.6191230461691681e-02 -1.5541020915974910e-01 5.6002768578241706e-02 -2.6205394356840200e-01 2.4815698445896237e-02 -1.0452700345480724e-01 -2.9521418250874321e-01 -8.1469768473692888e-02 2.6241491194755379e-01 7.1489780451785363e-04 -6.1061229168328852e-02 -2.2582719350355543e-01 8.8744122808422754e-02 -3.7966393336309738e-02 -8.1844985931722028e-02 -4.5230646333075761e-02 -1.2595528951432596e-02 -6.6327306126784100e-02 1.1233328099727191e-01 6.8804105791075099e-02 1.2284013378179554e-01 2.0255611097173554e-01 -2.1947946304305260e-01 -1.7948892340396663e-01 2.6020583733678587e-03 1.8074897262440273e-01 6.9106801035846585e-02 2.0882907655516639e-01 3.4673551511039236e-02 -2.5549031813133456e-02 1.6908165249905910e-01 -1.1830797825381668e-02 -3.4077965097024049e-01 -1.2525565872498262e-03 1.3741096727532948e-01 3.9099619112205586e-01 1.1332007201707184e-02 1.2034389712304437e-01 -8.4936689542073219e-03 2.7342778655842368e-02 2.2871319950100713e-01 -2.2580018310947045e-01 -2.4865175331737491e-02 2.8526893871229156e-02 -1.7875785957415488e-01 -9.1022957177319230e-02 6.1766006336811993e-02 1.3546252526171915e-01 4.7169893742033307e-02 1.1511579760715591e-01 -3.3870210004042600e-01 -9.0788762193251826e-02 1.1851192830721530e-01 7.1543852713323280e-02 1.0078065616837747e-01 -2.6406465868370821e-01 1.9931281869948636e-01 -1.1324426632404135e-01 -2.0279298080410821e-01 5.1643104847965408e-02 1.2677058084527845e-01 -1.3871139003605090e-01 1.4467632976916875e-01 -3.0105912408750933e-03 