[
  { "nodeid": 0, "depth": 0, "split": "f4", "split_condition": 2.94287395, "yes": 1, "no": 2, "missing": 1, "children": [
    { "nodeid": 1, "depth": 1, "split": "f3", "split_condition": 2.91318631, "yes": 3, "no": 4, "missing": 3, "children": [
      { "nodeid": 3, "depth": 2, "split": "f3", "split_condition": 1.98198187, "yes": 7, "no": 8, "missing": 7, "children": [
        { "nodeid": 7, "leaf": 0.000878471357 },
        { "nodeid": 8, "leaf": -0.0117647061 }
      ]},
      { "nodeid": 4, "depth": 2, "split": "f2", "split_condition": 0.62119931, "yes": 9, "no": 10, "missing": 9, "children": [
        { "nodeid": 9, "leaf": 0.0582278483 },
        { "nodeid": 10, "leaf": -0.0385964923 }
      ]}
    ]},
    { "nodeid": 2, "depth": 1, "split": "f0", "split_condition": 0.140969902, "yes": 5, "no": 6, "missing": 5, "children": [
      { "nodeid": 5, "depth": 2, "split": "f2", "split_condition": -1.13937688, "yes": 11, "no": 12, "missing": 11, "children": [
        { "nodeid": 11, "leaf": -0.0857142881 },
        { "nodeid": 12, "leaf": 0.0171428584 }
      ]},
      { "nodeid": 6, "depth": 2, "split": "f4", "split_condition": 3.08228064, "yes": 13, "no": 14, "missing": 13, "children": [
        { "nodeid": 13, "leaf": -0.142857149 },
        { "nodeid": 14, "leaf": -0.0434782617 }
      ]}
    ]}
  ]},
  { "nodeid": 0, "depth": 0, "split": "f4", "split_condition": 2.94287395, "yes": 1, "no": 2, "missing": 1, "children": [
    { "nodeid": 1, "depth": 1, "split": "f2", "split_condition": 1.90782952, "yes": 3, "no": 4, "missing": 3, "children": [
      { "nodeid": 3, "depth": 2, "split": "f2", "split_condition": 1.90544176, "yes": 7, "no": 8, "missing": 7, "children": [
        { "nodeid": 7, "leaf": 0.000384661776 },
        { "nodeid": 8, "leaf": -0.142829955 }
      ]},
      { "nodeid": 4, "depth": 2, "split": "f2", "split_condition": 1.91110778, "yes": 9, "no": 10, "missing": 9, "children": [
        { "nodeid": 9, "leaf": 0.107617989 },
        { "nodeid": 10, "leaf": 0.00758770248 }
      ]}
    ]},
    { "nodeid": 2, "depth": 1, "split": "f0", "split_condition": 0.140969902, "yes": 5, "no": 6, "missing": 5, "children": [
      { "nodeid": 5, "depth": 2, "split": "f2", "split_condition": -1.13937688, "yes": 11, "no": 12, "missing": 11, "children": [
        { "nodeid": 11, "leaf": -0.0788969249 },
        { "nodeid": 12, "leaf": 0.0155276377 }
      ]},
      { "nodeid": 6, "depth": 2, "split": "f4", "split_condition": 3.08228064, "yes": 13, "no": 14, "missing": 13, "children": [
        { "nodeid": 13, "leaf": -0.131204873 },
        { "nodeid": 14, "leaf": -0.0395261683 }
      ]}
    ]}
  ]},
  { "nodeid": 0, "depth": 0, "split": "f4", "split_condition": 2.94287395, "yes": 1, "no": 2, "missing": 1, "children": [
    { "nodeid": 1, "depth": 1, "split": "f0", "split_condition": -1.35499215, "yes": 3, "no": 4, "missing": 3, "children": [
      { "nodeid": 3, "depth": 2, "split": "f0", "split_condition": -1.36085415, "yes": 7, "no": 8, "missing": 7, "children": [
        { "nodeid": 7, "leaf": -0.00293337158 },
        { "nodeid": 8, "leaf": -0.106606305 }
      ]},
      { "nodeid": 4, "depth": 2, "split": "f0", "split_condition": -1.2741437, "yes": 9, "no": 10, "missing": 9, "children": [
        { "nodeid": 9, "leaf": 0.0155490665 },
        { "nodeid": 10, "leaf": 0.000742171251 }
      ]}
    ]},
    { "nodeid": 2, "depth": 1, "split": "f0", "split_condition": 0.140969902, "yes": 5, "no": 6, "missing": 5, "children": [
      { "nodeid": 5, "depth": 2, "split": "f2", "split_condition": -1.13937688, "yes": 11, "no": 12, "missing": 11, "children": [
        { "nodeid": 11, "leaf": -0.0728161559 },
        { "nodeid": 12, "leaf": 0.0140663041 }
      ]},
      { "nodeid": 6, "depth": 2, "split": "f4", "split_condition": 3.08228064, "yes": 13, "no": 14, "missing": 13, "children": [
        { "nodeid": 13, "leaf": -0.12144246 },
        { "nodeid": 14, "leaf": -0.0359604321 }
      ]}
    ]}
  ]},
  { "nodeid": 0, "depth": 0, "split": "f2", "split_condition": 2.47951388, "yes": 1, "no": 2, "missing": 1, "children": [
    { "nodeid": 1, "depth": 1, "split": "f4", "split_condition": 2.94287395, "yes": 3, "no": 4, "missing": 3, "children": [
      { "nodeid": 3, "depth": 2, "split": "f0", "split_condition": -2.75393581, "yes": 7, "no": 8, "missing": 7, "children": [
        { "nodeid": 7, "leaf": 0.0252328105 },
        { "nodeid": 8, "leaf": 0.000299927866 }
      ]},
      { "nodeid": 4, "depth": 2, "split": "f3", "split_condition": 1.17275655, "yes": 9, "no": 10, "missing": 9, "children": [
        { "nodeid": 9, "leaf": -0.0225050692 },
        { "nodeid": 10, "leaf": -0.122879185 }
      ]}
    ]},
    { "nodeid": 2, "depth": 1, "split": "f0", "split_condition": 0.224974453, "yes": 5, "no": 6, "missing": 5, "children": [
      { "nodeid": 5, "depth": 2, "split": "f2", "split_condition": 2.63961124, "yes": 11, "no": 12, "missing": 11, "children": [
        { "nodeid": 11, "leaf": 0.0289056189 },
        { "nodeid": 12, "leaf": -0.0120109962 }
      ]},
      { "nodeid": 6, "depth": 2, "split": "f3", "split_condition": -0.268480599, "yes": 13, "no": 14, "missing": 13, "children": [
        { "nodeid": 13, "leaf": -0.000887354021 },
        { "nodeid": 14, "leaf": 0.0611272268 }
      ]}
    ]}
  ]},
  { "nodeid": 0, "depth": 0, "split": "f3", "split_condition": 2.76976466, "yes": 1, "no": 2, "missing": 1, "children": [
    { "nodeid": 1, "depth": 1, "split": "f3", "split_condition": 2.54662943, "yes": 3, "no": 4, "missing": 3, "children": [
      { "nodeid": 3, "depth": 2, "split": "f3", "split_condition": 2.54288292, "yes": 7, "no": 8, "missing": 7, "children": [
        { "nodeid": 7, "leaf": 0.00039398676 },
        { "nodeid": 8, "leaf": 0.139179811 }
      ]},
      { "nodeid": 4, "depth": 2, "split": "f2", "split_condition": -0.664452195, "yes": 9, "no": 10, "missing": 9, "children": [
        { "nodeid": 9, "leaf": 0.0255555715 },
        { "nodeid": 10, "leaf": -0.049886968 }
      ]}
    ]},
    { "nodeid": 2, "depth": 1, "split": "f4", "split_condition": 1.25168562, "yes": 5, "no": 6, "missing": 5, "children": [
      { "nodeid": 5, "depth": 2, "split": "f2", "split_condition": 0.624668717, "yes": 11, "no": 12, "missing": 11, "children": [
        { "nodeid": 11, "leaf": 0.0474275127 },
        { "nodeid": 12, "leaf": -0.00795249175 }
      ]},
      { "nodeid": 6, "depth": 2, "split": "f3", "split_condition": 3.09596491, "yes": 13, "no": 14, "missing": 13, "children": [
        { "nodeid": 13, "leaf": -0.0014023548 },
        { "nodeid": 14, "leaf": -0.105433382 }
      ]}
    ]}
  ]},
  { "nodeid": 0, "depth": 0, "split": "f4", "split_condition": 0.597031951, "yes": 1, "no": 2, "missing": 1, "children": [
    { "nodeid": 1, "depth": 1, "split": "f4", "split_condition": 0.593653142, "yes": 3, "no": 4, "missing": 3, "children": [
      { "nodeid": 3, "depth": 2, "split": "f0", "split_condition": 1.4489665, "yes": 7, "no": 8, "missing": 7, "children": [
        { "nodeid": 7, "leaf": 0.000571905344 },
        { "nodeid": 8, "leaf": 0.00720587699 }
      ]},
      { "nodeid": 4, "depth": 2, "split": "f2", "split_condition": 0.663653493, "yes": 9, "no": 10, "missing": 9, "children": [
        { "nodeid": 9, "leaf": 0.0354210995 },
        { "nodeid": 10, "leaf": 0.124814965 }
      ]}
    ]},
    { "nodeid": 2, "depth": 1, "split": "f0", "split_condition": -3.17407179, "yes": 5, "no": 6, "missing": 5, "children": [
      { "nodeid": 5, "depth": 2, "split": "f1", "split_condition": -0.674897075, "yes": 11, "no": 12, "missing": 11, "children": [
        { "nodeid": 11, "leaf": 0.0208930355 },
        { "nodeid": 12, "leaf": 0.121850722 }
      ]},
      { "nodeid": 6, "depth": 2, "split": "f3", "split_condition": 1.04974055, "yes": 13, "no": 14, "missing": 13, "children": [
        { "nodeid": 13, "leaf": -0.000520769914 },
        { "nodeid": 14, "leaf": -0.0093730269 }
      ]}
    ]}
  ]},
  { "nodeid": 0, "depth": 0, "split": "f0", "split_condition": -1.35499215, "yes": 1, "no": 2, "missing": 1, "children": [
    { "nodeid": 1, "depth": 1, "split": "f0", "split_condition": -1.36085415, "yes": 3, "no": 4, "missing": 3, "children": [
      { "nodeid": 3, "depth": 2, "split": "f0", "split_condition": -1.36195612, "yes": 7, "no": 8, "missing": 7, "children": [
        { "nodeid": 7, "leaf": -0.00326420041 },
        { "nodeid": 8, "leaf": 0.141471997 }
      ]},
      { "nodeid": 4, "depth": 2, "split": "f1", "split_condition": -0.735934913, "yes": 9, "no": 10, "missing": 9, "children": [
        { "nodeid": 9, "leaf": -0.0444041602 },
        { "nodeid": 10, "leaf": -0.120035604 }
      ]}
    ]},
    { "nodeid": 2, "depth": 1, "split": "f0", "split_condition": -0.860620618, "yes": 5, "no": 6, "missing": 5, "children": [
      { "nodeid": 5, "depth": 2, "split": "f0", "split_condition": -0.891032815, "yes": 11, "no": 12, "missing": 11, "children": [
        { "nodeid": 11, "leaf": 0.00367203774 },
        { "nodeid": 12, "leaf": 0.0247233529 }
      ]},
      { "nodeid": 6, "depth": 2, "split": "f0", "split_condition": -0.859560847, "yes": 13, "no": 14, "missing": 13, "children": [
        { "nodeid": 13, "leaf": -0.0935951695 },
        { "nodeid": 14, "leaf": 0.000147806903 }
      ]}
    ]}
  ]},
  { "nodeid": 0, "depth": 0, "split": "f2", "split_condition": -3.27957439, "yes": 1, "no": 2, "missing": 1, "children": [
    { "nodeid": 1, "depth": 1, "split": "f3", "split_condition": -0.0591228753, "yes": 3, "no": 4, "missing": 3, "children": [
      { "nodeid": 3, "depth": 2, "split": "f1", "split_condition": 0.578042746, "yes": 7, "no": 8, "missing": 7, "children": [
        { "nodeid": 7, "leaf": 0.0432206243 },
        { "nodeid": 8, "leaf": -0.111210324 }
      ]},
      { "nodeid": 4, "depth": 2, "split": "f4", "split_condition": 0.215212643, "yes": 9, "no": 10, "missing": 9, "children": [
        { "nodeid": 9, "leaf": 0.0391933285 },
        { "nodeid": 10, "leaf": 0.146585286 }
      ]}
    ]},
    { "nodeid": 2, "depth": 1, "split": "f3", "split_condition": 1.95466697, "yes": 5, "no": 6, "missing": 5, "children": [
      { "nodeid": 5, "depth": 2, "split": "f3", "split_condition": 1.94961548, "yes": 11, "no": 12, "missing": 11, "children": [
        { "nodeid": 11, "leaf": 0.000431771361 },
        { "nodeid": 12, "leaf": 0.0873347595 }
      ]},
      { "nodeid": 6, "depth": 2, "split": "f3", "split_condition": 1.95855784, "yes": 13, "no": 14, "missing": 13, "children": [
        { "nodeid": 13, "leaf": -0.119986728 },
        { "nodeid": 14, "leaf": -0.00634574285 }
      ]}
    ]}
  ]},
  { "nodeid": 0, "depth": 0, "split": "f3", "split_condition": 2.91318631, "yes": 1, "no": 2, "missing": 1, "children": [
    { "nodeid": 1, "depth": 1, "split": "f3", "split_condition": 1.98198187, "yes": 3, "no": 4, "missing": 3, "children": [
      { "nodeid": 3, "depth": 2, "split": "f3", "split_condition": 1.97683334, "yes": 7, "no": 8, "missing": 7, "children": [
        { "nodeid": 7, "leaf": 0.000400900346 },
        { "nodeid": 8, "leaf": 0.079459548 }
      ]},
      { "nodeid": 4, "depth": 2, "split": "f0", "split_condition": -1.65249634, "yes": 9, "no": 10, "missing": 9, "children": [
        { "nodeid": 9, "leaf": -0.0578150451 },
        { "nodeid": 10, "leaf": -0.00733760139 }
      ]}
    ]},
    { "nodeid": 2, "depth": 1, "split": "f1", "split_condition": 0.348952472, "yes": 5, "no": 6, "missing": 5, "children": [
      { "nodeid": 5, "depth": 2, "split": "f1", "split_condition": -0.551793814, "yes": 11, "no": 12, "missing": 11, "children": [
        { "nodeid": 11, "leaf": 0.014526098 },
        { "nodeid": 12, "leaf": 0.0913349837 }
      ]},
      { "nodeid": 6, "depth": 2, "split": "f2", "split_condition": -0.292756081, "yes": 13, "no": 14, "missing": 13, "children": [
        { "nodeid": 13, "leaf": 0.0514129959 },
        { "nodeid": 14, "leaf": -0.0886747167 }
      ]}
    ]}
  ]},
  { "nodeid": 0, "depth": 0, "split": "f2", "split_condition": 2.47951388, "yes": 1, "no": 2, "missing": 1, "children": [
    { "nodeid": 1, "depth": 1, "split": "f4", "split_condition": 2.98400354, "yes": 3, "no": 4, "missing": 3, "children": [
      { "nodeid": 3, "depth": 2, "split": "f0", "split_condition": -2.75393581, "yes": 7, "no": 8, "missing": 7, "children": [
        { "nodeid": 7, "leaf": 0.0223774165 },
        { "nodeid": 8, "leaf": 0.000108619177 }
      ]},
      { "nodeid": 4, "depth": 2, "split": "f0", "split_condition": 0.140969902, "yes": 9, "no": 10, "missing": 9, "children": [
        { "nodeid": 9, "leaf": -0.00625342503 },
        { "nodeid": 10, "leaf": -0.0650425255 }
      ]}
    ]},
    { "nodeid": 2, "depth": 1, "split": "f0", "split_condition": 0.321143329, "yes": 5, "no": 6, "missing": 5, "children": [
      { "nodeid": 5, "depth": 2, "split": "f2", "split_condition": 2.63961124, "yes": 11, "no": 12, "missing": 11, "children": [
        { "nodeid": 11, "leaf": 0.0221310835 },
        { "nodeid": 12, "leaf": -0.00784448907 }
      ]},
      { "nodeid": 6, "depth": 2, "split": "f4", "split_condition": 1.15670633, "yes": 13, "no": 14, "missing": 13, "children": [
        { "nodeid": 13, "leaf": 0.0448177047 },
        { "nodeid": 14, "leaf": -0.0468679443 }
      ]}
    ]}
  ]},
  { "nodeid": 0, "depth": 0, "split": "f0", "split_condition": 2.57155561, "yes": 1, "no": 2, "missing": 1, "children": [
    { "nodeid": 1, "depth": 1, "split": "f3", "split_condition": 2.76976466, "yes": 3, "no": 4, "missing": 3, "children": [
      { "nodeid": 3, "depth": 2, "split": "f3", "split_condition": 2.55480123, "yes": 7, "no": 8, "missing": 7, "children": [
        { "nodeid": 7, "leaf": 0.000136350631 },
        { "nodeid": 8, "leaf": -0.0310113337 }
      ]},
      { "nodeid": 4, "depth": 2, "split": "f4", "split_condition": 1.25168562, "yes": 9, "no": 10, "missing": 9, "children": [
        { "nodeid": 9, "leaf": 0.030041052 },
        { "nodeid": 10, "leaf": -0.0425083004 }
      ]}
    ]},
    { "nodeid": 2, "depth": 1, "split": "f1", "split_condition": 1.12960196, "yes": 5, "no": 6, "missing": 5, "children": [
      { "nodeid": 5, "depth": 2, "split": "f4", "split_condition": 1.86119938, "yes": 11, "no": 12, "missing": 11, "children": [
        { "nodeid": 11, "leaf": 0.0116583947 },
        { "nodeid": 12, "leaf": -0.113306634 }
      ]},
      { "nodeid": 6, "depth": 2, "split": "f2", "split_condition": 0.998172641, "yes": 13, "no": 14, "missing": 13, "children": [
        { "nodeid": 13, "leaf": 0.109510459 },
        { "nodeid": 14, "leaf": -0.0226432178 }
      ]}
    ]}
  ]},
  { "nodeid": 0, "depth": 0, "split": "f0", "split_condition": -1.44130707, "yes": 1, "no": 2, "missing": 1, "children": [
    { "nodeid": 1, "depth": 1, "split": "f4", "split_condition": -1.14227891, "yes": 3, "no": 4, "missing": 3, "children": [
      { "nodeid": 3, "depth": 2, "split": "f0", "split_condition": -2.42873788, "yes": 7, "no": 8, "missing": 7, "children": [
        { "nodeid": 7, "leaf": 0.0449058935 },
        { "nodeid": 8, "leaf": -0.0286939349 }
      ]},
      { "nodeid": 4, "depth": 2, "split": "f1", "split_condition": -1.95992303, "yes": 9, "no": 10, "missing": 9, "children": [
        { "nodeid": 9, "leaf": -0.0447945148 },
        { "nodeid": 10, "leaf": -0.000658848789 }
      ]}
    ]},
    { "nodeid": 2, "depth": 1, "split": "f0", "split_condition": -1.43788099, "yes": 5, "no": 6, "missing": 5, "children": [
      { "nodeid": 5, "depth": 2, "split": "f0", "split_condition": -1.43989825, "yes": 11, "no": 12, "missing": 11, "children": [
        { "nodeid": 11, "leaf": 0.000287001196 },
        { "nodeid": 12, "leaf": 0.117929541 }
      ]},
      { "nodeid": 6, "depth": 2, "split": "f0", "split_condition": 0.118305609, "yes": 13, "no": 14, "missing": 13, "children": [
        { "nodeid": 13, "leaf": 0.00179064239 },
        { "nodeid": 14, "leaf": -0.000903554261 }
      ]}
    ]}
  ]},
  { "nodeid": 0, "depth": 0, "split": "f4", "split_condition": 0.597031951, "yes": 1, "no": 2, "missing": 1, "children": [
    { "nodeid": 1, "depth": 1, "split": "f4", "split_condition": 0.593653142, "yes": 3, "no": 4, "missing": 3, "children": [
      { "nodeid": 3, "depth": 2, "split": "f2", "split_condition": 1.8744632, "yes": 7, "no": 8, "missing": 7, "children": [
        { "nodeid": 7, "leaf": 0.000500671973 },
        { "nodeid": 8, "leaf": 0.00981944054 }
      ]},
      { "nodeid": 4, "depth": 2, "split": "f2", "split_condition": 0.663653493, "yes": 9, "no": 10, "missing": 9, "children": [
        { "nodeid": 9, "leaf": 0.0319411084 },
        { "nodeid": 10, "leaf": 0.114222743 }
      ]}
    ]},
    { "nodeid": 2, "depth": 1, "split": "f4", "split_condition": 0.601218104, "yes": 5, "no": 6, "missing": 5, "children": [
      { "nodeid": 5, "depth": 2, "split": "f1", "split_condition": 0.0484748147, "yes": 11, "no": 12, "missing": 11, "children": [
        { "nodeid": 11, "leaf": -0.0710793659 },
        { "nodeid": 12, "leaf": -0.00273807812 }
      ]},
      { "nodeid": 6, "depth": 2, "split": "f0", "split_condition": -3.17407179, "yes": 13, "no": 14, "missing": 13, "children": [
        { "nodeid": 13, "leaf": 0.096265398 },
        { "nodeid": 14, "leaf": -0.00152933935 }
      ]}
    ]}
  ]},
  { "nodeid": 0, "depth": 0, "split": "f2", "split_condition": -3.27957439, "yes": 1, "no": 2, "missing": 1, "children": [
    { "nodeid": 1, "depth": 1, "split": "f3", "split_condition": -0.0591228753, "yes": 3, "no": 4, "missing": 3, "children": [
      { "nodeid": 3, "depth": 2, "split": "f1", "split_condition": 0.578042746, "yes": 7, "no": 8, "missing": 7, "children": [
        { "nodeid": 7, "leaf": 0.0397227146 },
        { "nodeid": 8, "leaf": -0.105263069 }
      ]},
      { "nodeid": 4, "depth": 2, "split": "f4", "split_condition": 0.215212643, "yes": 9, "no": 10, "missing": 9, "children": [
        { "nodeid": 9, "leaf": 0.0359968282 },
        { "nodeid": 10, "leaf": 0.136297628 }
      ]}
    ]},
    { "nodeid": 2, "depth": 1, "split": "f1", "split_condition": -3.41858387, "yes": 5, "no": 6, "missing": 5, "children": [
      { "nodeid": 5, "depth": 2, "split": "f0", "split_condition": 0.661351323, "yes": 11, "no": 12, "missing": 11, "children": [
        { "nodeid": 11, "leaf": 0.102947727 },
        { "nodeid": 12, "leaf": -0.0592941418 }
      ]},
      { "nodeid": 6, "depth": 2, "split": "f1", "split_condition": -3.02338171, "yes": 13, "no": 14, "missing": 13, "children": [
        { "nodeid": 13, "leaf": -0.0357581638 },
        { "nodeid": 14, "leaf": 0.000142237055 }
      ]}
    ]}
  ]},
  { "nodeid": 0, "depth": 0, "split": "f4", "split_condition": -2.26944399, "yes": 1, "no": 2, "missing": 1, "children": [
    { "nodeid": 1, "depth": 1, "split": "f4", "split_condition": -2.27644825, "yes": 3, "no": 4, "missing": 3, "children": [
      { "nodeid": 3, "depth": 2, "split": "f0", "split_condition": 0.0319704413, "yes": 7, "no": 8, "missing": 7, "children": [
        { "nodeid": 7, "leaf": 0.0043060435 },
        { "nodeid": 8, "leaf": -0.020731898 }
      ]},
      { "nodeid": 4, "depth": 2, "split": "f2", "split_condition": -0.891049027, "yes": 9, "no": 10, "missing": 9, "children": [
        { "nodeid": 9, "leaf": 0.0181807783 },
        { "nodeid": 10, "leaf": -0.127600744 }
      ]}
    ]},
    { "nodeid": 2, "depth": 1, "split": "f4", "split_condition": -2.23124313, "yes": 5, "no": 6, "missing": 5, "children": [
      { "nodeid": 5, "depth": 2, "split": "f1", "split_condition": -1.15302825, "yes": 11, "no": 12, "missing": 11, "children": [
        { "nodeid": 11, "leaf": -0.125019774 },
        { "nodeid": 12, "leaf": 0.058316201 }
      ]},
      { "nodeid": 6, "depth": 2, "split": "f2", "split_condition": -3.27957439, "yes": 13, "no": 14, "missing": 13, "children": [
        { "nodeid": 13, "leaf": 0.0521994345 },
        { "nodeid": 14, "leaf": 0.00019340076 }
      ]}
    ]}
  ]},
  { "nodeid": 0, "depth": 0, "split": "f3", "split_condition": -3.60380316, "yes": 1, "no": 2, "missing": 1, "children": [
    { "nodeid": 1, "leaf": 0.0995634198 },
    { "nodeid": 2, "depth": 1, "split": "f3", "split_condition": -3.23492479, "yes": 3, "no": 4, "missing": 3, "children": [
      { "nodeid": 3, "depth": 2, "split": "f2", "split_condition": 1.01021779, "yes": 5, "no": 6, "missing": 5, "children": [
        { "nodeid": 5, "leaf": -0.0950833112 },
        { "nodeid": 6, "leaf": 0.119573191 }
      ]},
      { "nodeid": 4, "depth": 2, "split": "f3", "split_condition": -3.20484591, "yes": 7, "no": 8, "missing": 7, "children": [
        { "nodeid": 7, "leaf": 0.0885452926 },
        { "nodeid": 8, "leaf": 0.000120174293 }
      ]}
    ]}
  ]},
  { "nodeid": 0, "depth": 0, "split": "f4", "split_condition": 2.17398739, "yes": 1, "no": 2, "missing": 1, "children": [
    { "nodeid": 1, "depth": 1, "split": "f0", "split_condition": 2.45196605, "yes": 3, "no": 4, "missing": 3, "children": [
      { "nodeid": 3, "depth": 2, "split": "f4", "split_condition": 2.00178242, "yes": 7, "no": 8, "missing": 7, "children": [
        { "nodeid": 7, "leaf": 3.30794028e-05 },
        { "nodeid": 8, "leaf": 0.0129917655 }
      ]},
      { "nodeid": 4, "depth": 2, "split": "f1", "split_condition": 1.17237329, "yes": 9, "no": 10, "missing": 9, "children": [
        { "nodeid": 9, "leaf": 0.00416439539 },
        { "nodeid": 10, "leaf": 0.0924698338 }
      ]}
    ]},
    { "nodeid": 2, "depth": 1, "split": "f1", "split_condition": -1.26943111, "yes": 5, "no": 6, "missing": 5, "children": [
      { "nodeid": 5, "depth": 2, "split": "f3", "split_condition": 0.403524101, "yes": 11, "no": 12, "missing": 11, "children": [
        { "nodeid": 11, "leaf": -0.07071428 },
        { "nodeid": 12, "leaf": -0.0134033551 }
      ]},
      { "nodeid": 6, "depth": 2, "split": "f4", "split_condition": 2.43976927, "yes": 13, "no": 14, "missing": 13, "children": [
        { "nodeid": 13, "leaf": -0.0170248318 },
        { "nodeid": 14, "leaf": 0.0102366563 }
      ]}
    ]}
  ]},
  { "nodeid": 0, "depth": 0, "split": "f4", "split_condition": 2.88414764, "yes": 1, "no": 2, "missing": 1, "children": [
    { "nodeid": 1, "depth": 1, "split": "f4", "split_condition": 2.80433178, "yes": 3, "no": 4, "missing": 3, "children": [
      { "nodeid": 3, "depth": 2, "split": "f4", "split_condition": 2.79128885, "yes": 7, "no": 8, "missing": 7, "children": [
        { "nodeid": 7, "leaf": 0.000130358021 },
        { "nodeid": 8, "leaf": -0.105069995 }
      ]},
      { "nodeid": 4, "depth": 2, "split": "f2", "split_condition": 1.23331308, "yes": 9, "no": 10, "missing": 9, "children": [
        { "nodeid": 9, "leaf": 0.0733554289 },
        { "nodeid": 10, "leaf": -0.0409304202 }
      ]}
    ]},
    { "nodeid": 2, "depth": 1, "split": "f0", "split_condition": 0.787140846, "yes": 5, "no": 6, "missing": 5, "children": [
      { "nodeid": 5, "depth": 2, "split": "f1", "split_condition": -0.0305109583, "yes": 11, "no": 12, "missing": 11, "children": [
        { "nodeid": 11, "leaf": -0.0371096842 },
        { "nodeid": 12, "leaf": 0.0155085316 }
      ]},
      { "nodeid": 6, "depth": 2, "split": "f3", "split_condition": 0.200997591, "yes": 13, "no": 14, "missing": 13, "children": [
        { "nodeid": 13, "leaf": -0.0974521562 },
        { "nodeid": 14, "leaf": -0.0195457917 }
      ]}
    ]}
  ]},
  { "nodeid": 0, "depth": 0, "split": "f0", "split_condition": -1.30765057, "yes": 1, "no": 2, "missing": 1, "children": [
    { "nodeid": 1, "depth": 1, "split": "f1", "split_condition": 0.638065815, "yes": 3, "no": 4, "missing": 3, "children": [
      { "nodeid": 3, "depth": 2, "split": "f0", "split_condition": -1.31387389, "yes": 7, "no": 8, "missing": 7, "children": [
        { "nodeid": 7, "leaf": -0.00596403377 },
        { "nodeid": 8, "leaf": -0.0630852878 }
      ]},
      { "nodeid": 4, "depth": 2, "split": "f0", "split_condition": -1.42162132, "yes": 9, "no": 10, "missing": 9, "children": [
        { "nodeid": 9, "leaf": 0.00163763145 },
        { "nodeid": 10, "leaf": 0.0282039028 }
      ]}
    ]},
    { "nodeid": 2, "depth": 1, "split": "f0", "split_condition": -1.27767491, "yes": 5, "no": 6, "missing": 5, "children": [
      { "nodeid": 5, "depth": 2, "split": "f2", "split_condition": 1.1745702, "yes": 11, "no": 12, "missing": 11, "children": [
        { "nodeid": 11, "leaf": 0.0263036732 },
        { "nodeid": 12, "leaf": 0.0893744454 }
      ]},
      { "nodeid": 6, "depth": 2, "split": "f4", "split_condition": -0.447577417, "yes": 13, "no": 14, "missing": 13, "children": [
        { "nodeid": 13, "leaf": 0.00229352969 },
        { "nodeid": 14, "leaf": -0.000778349058 }
      ]}
    ]}
  ]},
  { "nodeid": 0, "depth": 0, "split": "f4", "split_condition": -2.16750336, "yes": 1, "no": 2, "missing": 1, "children": [
    { "nodeid": 1, "depth": 1, "split": "f1", "split_condition": -0.646495104, "yes": 3, "no": 4, "missing": 3, "children": [
      { "nodeid": 3, "depth": 2, "split": "f1", "split_condition": -0.777249455, "yes": 7, "no": 8, "missing": 7, "children": [
        { "nodeid": 7, "leaf": -0.01859699 },
        { "nodeid": 8, "leaf": -0.0796416849 }
      ]},
      { "nodeid": 4, "depth": 2, "split": "f2", "split_condition": 1.59968472, "yes": 9, "no": 10, "missing": 9, "children": [
        { "nodeid": 9, "leaf": 0.0012200257 },
        { "nodeid": 10, "leaf": -0.0543149002 }
      ]}
    ]},
    { "nodeid": 2, "depth": 1, "split": "f4", "split_condition": -2.05741525, "yes": 5, "no": 6, "missing": 5, "children": [
      { "nodeid": 5, "depth": 2, "split": "f2", "split_condition": -0.926817, "yes": 11, "no": 12, "missing": 11, "children": [
        { "nodeid": 11, "leaf": -0.0307555553 },
        { "nodeid": 12, "leaf": 0.0296316426 }
      ]},
      { "nodeid": 6, "depth": 2, "split": "f4", "split_condition": -2.04956055, "yes": 13, "no": 14, "missing": 13, "children": [
        { "nodeid": 13, "leaf": -0.116211906 },
        { "nodeid": 14, "leaf": 0.000171230349 }
      ]}
    ]}
  ]},
  { "nodeid": 0, "depth": 0, "split": "f3", "split_condition": -3.42445445, "yes": 1, "no": 2, "missing": 1, "children": [
    { "nodeid": 1, "depth": 1, "split": "f4", "split_condition": 0.905961394, "yes": 3, "no": 4, "missing": 3, "children": [
      { "nodeid": 3, "depth": 2, "split": "f1", "split_condition": 0.267288953, "yes": 7, "no": 8, "missing": 7, "children": [
        { "nodeid": 7, "leaf": 0.139365256 },
        { "nodeid": 8, "leaf": -0.0220965911 }
      ]},
      { "nodeid": 4, "leaf": -0.000715837406 }
    ]},
    { "nodeid": 2, "depth": 1, "split": "f3", "split_condition": -3.23492479, "yes": 5, "no": 6, "missing": 5, "children": [
      { "nodeid": 5, "depth": 2, "split": "f0", "split_condition": -1.06148612, "yes": 9, "no": 10, "missing": 9, "children": [
        { "nodeid": 9, "leaf": -0.0162934475 },
        { "nodeid": 10, "leaf": -0.110432439 }
      ]},
      { "nodeid": 6, "depth": 2, "split": "f3", "split_condition": -3.20484591, "yes": 11, "no": 12, "missing": 11, "children": [
        { "nodeid": 11, "leaf": 0.082097955 },
        { "nodeid": 12, "leaf": 6.80583471e-05 }
      ]}
    ]}
  ]},
  { "nodeid": 0, "depth": 0, "split": "f3", "split_condition": 2.76976466, "yes": 1, "no": 2, "missing": 1, "children": [
    { "nodeid": 1, "depth": 1, "split": "f3", "split_condition": 1.98198187, "yes": 3, "no": 4, "missing": 3, "children": [
      { "nodeid": 3, "depth": 2, "split": "f3", "split_condition": 1.76536942, "yes": 7, "no": 8, "missing": 7, "children": [
        { "nodeid": 7, "leaf": 3.82261605e-05 },
        { "nodeid": 8, "leaf": 0.0115470914 }
      ]},
      { "nodeid": 4, "depth": 2, "split": "f0", "split_condition": 1.54543686, "yes": 9, "no": 10, "missing": 9, "children": [
        { "nodeid": 9, "leaf": -0.0121337837 },
        { "nodeid": 10, "leaf": 0.0242757387 }
      ]}
    ]},
    { "nodeid": 2, "depth": 1, "split": "f4", "split_condition": -0.475969553, "yes": 5, "no": 6, "missing": 5, "children": [
      { "nodeid": 5, "depth": 2, "split": "f0", "split_condition": -0.282228559, "yes": 11, "no": 12, "missing": 11, "children": [
        { "nodeid": 11, "leaf": 0.0932736099 },
        { "nodeid": 12, "leaf": 0.0182332154 }
      ]},
      { "nodeid": 6, "depth": 2, "split": "f0", "split_condition": 0.940777183, "yes": 13, "no": 14, "missing": 13, "children": [
        { "nodeid": 13, "leaf": -0.0139705632 },
        { "nodeid": 14, "leaf": 0.0817404091 }
      ]}
    ]}
  ]},
  { "nodeid": 0, "depth": 0, "split": "f1", "split_condition": -2.2854445, "yes": 1, "no": 2, "missing": 1, "children": [
    { "nodeid": 1, "depth": 1, "split": "f0", "split_condition": -1.82804918, "yes": 3, "no": 4, "missing": 3, "children": [
      { "nodeid": 3, "depth": 2, "split": "f3", "split_condition": -0.447270632, "yes": 7, "no": 8, "missing": 7, "children": [
        { "nodeid": 7, "leaf": 0.0148657132 },
        { "nodeid": 8, "leaf": -0.119328849 }
      ]},
      { "nodeid": 4, "depth": 2, "split": "f4", "split_condition": -0.642240286, "yes": 9, "no": 10, "missing": 9, "children": [
        { "nodeid": 9, "leaf": -0.0131757697 },
        { "nodeid": 10, "leaf": 0.0208218396 }
      ]}
    ]},
    { "nodeid": 2, "depth": 1, "split": "f1", "split_condition": -2.05417919, "yes": 5, "no": 6, "missing": 5, "children": [
      { "nodeid": 5, "depth": 2, "split": "f1", "split_condition": -2.05870867, "yes": 11, "no": 12, "missing": 11, "children": [
        { "nodeid": 11, "leaf": -0.012754987 },
        { "nodeid": 12, "leaf": -0.128533244 }
      ]},
      { "nodeid": 6, "depth": 2, "split": "f4", "split_condition": 0.279544175, "yes": 13, "no": 14, "missing": 13, "children": [
        { "nodeid": 13, "leaf": 0.00103805261 },
        { "nodeid": 14, "leaf": -0.00139094004 }
      ]}
    ]}
  ]},
  { "nodeid": 0, "depth": 0, "split": "f2", "split_condition": 2.47951388, "yes": 1, "no": 2, "missing": 1, "children": [
    { "nodeid": 1, "depth": 1, "split": "f2", "split_condition": 2.44910955, "yes": 3, "no": 4, "missing": 3, "children": [
      { "nodeid": 3, "depth": 2, "split": "f0", "split_condition": -2.75393581, "yes": 7, "no": 8, "missing": 7, "children": [
        { "nodeid": 7, "leaf": 0.0187386256 },
        { "nodeid": 8, "leaf": -6.14259261e-05 }
      ]},
      { "nodeid": 4, "depth": 2, "split": "f2", "split_condition": 2.45671082, "yes": 9, "no": 10, "missing": 9, "children": [
        { "nodeid": 9, "leaf": -0.131017953 },
        { "nodeid": 10, "leaf": -0.0134332078 }
      ]}
    ]},
    { "nodeid": 2, "depth": 1, "split": "f3", "split_condition": -0.796913803, "yes": 5, "no": 6, "missing": 5, "children": [
      { "nodeid": 5, "depth": 2, "split": "f1", "split_condition": 1.04374051, "yes": 11, "no": 12, "missing": 11, "children": [
        { "nodeid": 11, "leaf": -0.0371640399 },
        { "nodeid": 12, "leaf": 0.0629082695 }
      ]},
      { "nodeid": 6, "depth": 2, "split": "f4", "split_condition": 2.30624247, "yes": 13, "no": 14, "missing": 13, "children": [
        { "nodeid": 13, "leaf": 0.0219206139 },
        { "nodeid": 14, "leaf": -0.110983744 }
      ]}
    ]}
  ]},
  { "nodeid": 0, "depth": 0, "split": "f1", "split_condition": 1.90902853, "yes": 1, "no": 2, "missing": 1, "children": [
    { "nodeid": 1, "depth": 1, "split": "f1", "split_condition": 1.90131545, "yes": 3, "no": 4, "missing": 3, "children": [
      { "nodeid": 3, "depth": 2, "split": "f3", "split_condition": 0.929166913, "yes": 7, "no": 8, "missing": 7, "children": [
        { "nodeid": 7, "leaf": 0.000721306133 },
        { "nodeid": 8, "leaf": -0.00228013983 }
      ]},
      { "nodeid": 4, "depth": 2, "split": "f3", "split_condition": -0.532487035, "yes": 9, "no": 10, "missing": 9, "children": [
        { "nodeid": 9, "leaf": -0.03222185 },
        { "nodeid": 10, "leaf": 0.0836962536 }
      ]}
    ]},
    { "nodeid": 2, "depth": 1, "split": "f3", "split_condition": -0.560499072, "yes": 5, "no": 6, "missing": 5, "children": [
      { "nodeid": 5, "depth": 2, "split": "f2", "split_condition": -0.628491461, "yes": 11, "no": 12, "missing": 11, "children": [
        { "nodeid": 11, "leaf": 0.0109624332 },
        { "nodeid": 12, "leaf": -0.0324148834 }
      ]},
      { "nodeid": 6, "depth": 2, "split": "f3", "split_condition": -0.54127413, "yes": 13, "no": 14, "missing": 13, "children": [
        { "nodeid": 13, "leaf": 0.0949633643 },
        { "nodeid": 14, "leaf": -0.00085460901 }
      ]}
    ]}
  ]},
  { "nodeid": 0, "depth": 0, "split": "f1", "split_condition": -3.45886755, "yes": 1, "no": 2, "missing": 1, "children": [
    { "nodeid": 1, "depth": 1, "split": "f0", "split_condition": 0.725230634, "yes": 3, "no": 4, "missing": 3, "children": [
      { "nodeid": 3, "depth": 2, "split": "f0", "split_condition": -0.648626447, "yes": 7, "no": 8, "missing": 7, "children": [
        { "nodeid": 7, "leaf": 0.0106733022 },
        { "nodeid": 8, "leaf": 0.130731553 }
      ]},
      { "nodeid": 4, "depth": 2, "split": "f3", "split_condition": -0.096317485, "yes": 9, "no": 10, "missing": 9, "children": [
        { "nodeid": 9, "leaf": -0.0780892521 },
        { "nodeid": 10, "leaf": 0.00191878865 }
      ]}
    ]},
    { "nodeid": 2, "depth": 1, "split": "f1", "split_condition": -2.66634846, "yes": 5, "no": 6, "missing": 5, "children": [
      { "nodeid": 5, "depth": 2, "split": "f0", "split_condition": 0.324127436, "yes": 11, "no": 12, "missing": 11, "children": [
        { "nodeid": 11, "leaf": -0.0363682322 },
        { "nodeid": 12, "leaf": 0.0132169174 }
      ]},
      { "nodeid": 6, "depth": 2, "split": "f1", "split_condition": -2.2854445, "yes": 13, "no": 14, "missing": 13, "children": [
        { "nodeid": 13, "leaf": 0.0182052925 },
        { "nodeid": 14, "leaf": -5.92029428e-05 }
      ]}
    ]}
  ]},
  { "nodeid": 0, "depth": 0, "split": "f4", "split_condition": 2.88414764, "yes": 1, "no": 2, "missing": 1, "children": [
    { "nodeid": 1, "depth": 1, "split": "f4", "split_condition": 2.74111652, "yes": 3, "no": 4, "missing": 3, "children": [
      { "nodeid": 3, "depth": 2, "split": "f4", "split_condition": 2.72397614, "yes": 7, "no": 8, "missing": 7, "children": [
        { "nodeid": 7, "leaf": 5.90546115e-05 },
        { "nodeid": 8, "leaf": -0.113151245 }
      ]},
      { "nodeid": 4, "depth": 2, "split": "f1", "split_condition": 0.682423472, "yes": 9, "no": 10, "missing": 9, "children": [
        { "nodeid": 9, "leaf": 0.0209899414 },
        { "nodeid": 10, "leaf": 0.1121362 }
      ]}
    ]},
    { "nodeid": 2, "depth": 1, "split": "f3", "split_condition": 1.17275655, "yes": 5, "no": 6, "missing": 5, "children": [
      { "nodeid": 5, "depth": 2, "split": "f3", "split_condition": 1.01585078, "yes": 11, "no": 12, "missing": 11, "children": [
        { "nodeid": 11, "leaf": -0.0219665617 },
        { "nodeid": 12, "leaf": 0.122085169 }
      ]},
      { "nodeid": 6, "depth": 2, "split": "f2", "split_condition": -0.951390028, "yes": 13, "no": 14, "missing": 13, "children": [
        { "nodeid": 13, "leaf": -0.0211796239 },
        { "nodeid": 14, "leaf": -0.125813231 }
      ]}
    ]}
  ]},
  { "nodeid": 0, "depth": 0, "split": "f3", "split_condition": -3.42445445, "yes": 1, "no": 2, "missing": 1, "children": [
    { "nodeid": 1, "depth": 1, "split": "f1", "split_condition": -0.782376826, "yes": 3, "no": 4, "missing": 3, "children": [
      { "nodeid": 3, "leaf": -0.00255660713 },
      { "nodeid": 4, "depth": 2, "split": "f1", "split_condition": 0.412192941, "yes": 7, "no": 8, "missing": 7, "children": [
        { "nodeid": 7, "leaf": 0.127440378 },
        { "nodeid": 8, "leaf": 7.5520722e-05 }
      ]}
    ]},
    { "nodeid": 2, "depth": 1, "split": "f3", "split_condition": -3.23492479, "yes": 5, "no": 6, "missing": 5, "children": [
      { "nodeid": 5, "depth": 2, "split": "f2", "split_condition": 0.26527521, "yes": 9, "no": 10, "missing": 9, "children": [
        { "nodeid": 9, "leaf": -0.10935308 },
        { "nodeid": 10, "leaf": -0.0238688644 }
      ]},
      { "nodeid": 6, "depth": 2, "split": "f3", "split_condition": -3.20484591, "yes": 11, "no": 12, "missing": 11, "children": [
        { "nodeid": 11, "leaf": 0.0761498511 },
        { "nodeid": 12, "leaf": 3.04033456e-05 }
      ]}
    ]}
  ]},
  { "nodeid": 0, "depth": 0, "split": "f2", "split_condition": 1.90782952, "yes": 1, "no": 2, "missing": 1, "children": [
    { "nodeid": 1, "depth": 1, "split": "f2", "split_condition": 1.77494895, "yes": 3, "no": 4, "missing": 3, "children": [
      { "nodeid": 3, "depth": 2, "split": "f2", "split_condition": 1.69914412, "yes": 7, "no": 8, "missing": 7, "children": [
        { "nodeid": 7, "leaf": -0.000106168212 },
        { "nodeid": 8, "leaf": 0.0189785399 }
      ]},
      { "nodeid": 4, "depth": 2, "split": "f4", "split_condition": -0.667486906, "yes": 9, "no": 10, "missing": 9, "children": [
        { "nodeid": 9, "leaf": -0.0467943661 },
        { "nodeid": 10, "leaf": -0.0064079836 }
      ]}
    ]},
    { "nodeid": 2, "depth": 1, "split": "f2", "split_condition": 1.92809701, "yes": 5, "no": 6, "missing": 5, "children": [
      { "nodeid": 5, "depth": 2, "split": "f2", "split_condition": 1.92121434, "yes": 11, "no": 12, "missing": 11, "children": [
        { "nodeid": 11, "leaf": 0.0173895899 },
        { "nodeid": 12, "leaf": 0.0945292115 }
      ]},
      { "nodeid": 6, "depth": 2, "split": "f3", "split_condition": 0.00617697183, "yes": 13, "no": 14, "missing": 13, "children": [
        { "nodeid": 13, "leaf": 0.011377505 },
        { "nodeid": 14, "leaf": -0.00404779008 }
      ]}
    ]}
  ]},
  { "nodeid": 0, "depth": 0, "split": "f0", "split_condition": 2.57155561, "yes": 1, "no": 2, "missing": 1, "children": [
    { "nodeid": 1, "depth": 1, "split": "f3", "split_condition": 2.76976466, "yes": 3, "no": 4, "missing": 3, "children": [
      { "nodeid": 3, "depth": 2, "split": "f3", "split_condition": 2.55480123, "yes": 7, "no": 8, "missing": 7, "children": [
        { "nodeid": 7, "leaf": -2.8637558e-05 },
        { "nodeid": 8, "leaf": -0.0267926697 }
      ]},
      { "nodeid": 4, "depth": 2, "split": "f2", "split_condition": 0.624668717, "yes": 9, "no": 10, "missing": 9, "children": [
        { "nodeid": 9, "leaf": 0.0310679208 },
        { "nodeid": 10, "leaf": -0.0196270496 }
      ]}
    ]},
    { "nodeid": 2, "depth": 1, "split": "f1", "split_condition": 1.12960196, "yes": 5, "no": 6, "missing": 5, "children": [
      { "nodeid": 5, "depth": 2, "split": "f4", "split_condition": 1.86119938, "yes": 11, "no": 12, "missing": 11, "children": [
        { "nodeid": 11, "leaf": 0.00990863424 },
        { "nodeid": 12, "leaf": -0.103686564 }
      ]},
      { "nodeid": 6, "depth": 2, "split": "f2", "split_condition": 0.998172641, "yes": 13, "no": 14, "missing": 13, "children": [
        { "nodeid": 13, "leaf": 0.0922091752 },
        { "nodeid": 14, "leaf": -0.0264448263 }
      ]}
    ]}
  ]},
  { "nodeid": 0, "depth": 0, "split": "f4", "split_condition": -2.16750336, "yes": 1, "no": 2, "missing": 1, "children": [
    { "nodeid": 1, "depth": 1, "split": "f0", "split_condition": 0.0319704413, "yes": 3, "no": 4, "missing": 3, "children": [
      { "nodeid": 3, "depth": 2, "split": "f0", "split_condition": -0.0351824686, "yes": 7, "no": 8, "missing": 7, "children": [
        { "nodeid": 7, "leaf": -0.00176083611 },
        { "nodeid": 8, "leaf": 0.0918951854 }
      ]},
      { "nodeid": 4, "depth": 2, "split": "f0", "split_condition": 0.0482142679, "yes": 9, "no": 10, "missing": 9, "children": [
        { "nodeid": 9, "leaf": -0.135542259 },
        { "nodeid": 10, "leaf": -0.0158885401 }
      ]}
    ]},
    { "nodeid": 2, "depth": 1, "split": "f4", "split_condition": -2.05741525, "yes": 5, "no": 6, "missing": 5, "children": [
      { "nodeid": 5, "depth": 2, "split": "f2", "split_condition": -0.639226794, "yes": 11, "no": 12, "missing": 11, "children": [
        { "nodeid": 11, "leaf": -0.0188092422 },
        { "nodeid": 12, "leaf": 0.0296536516 }
      ]},
      { "nodeid": 6, "depth": 2, "split": "f4", "split_condition": -2.04956055, "yes": 13, "no": 14, "missing": 13, "children": [
        { "nodeid": 13, "leaf": -0.106294729 },
        { "nodeid": 14, "leaf": 0.000107904423 }
      ]}
    ]}
  ]},
  { "nodeid": 0, "depth": 0, "split": "f0", "split_condition": -1.35499215, "yes": 1, "no": 2, "missing": 1, "children": [
    { "nodeid": 1, "depth": 1, "split": "f0", "split_condition": -1.36085415, "yes": 3, "no": 4, "missing": 3, "children": [
      { "nodeid": 3, "depth": 2, "split": "f0", "split_condition": -1.36195612, "yes": 7, "no": 8, "missing": 7, "children": [
        { "nodeid": 7, "leaf": -0.00263531483 },
        { "nodeid": 8, "leaf": 0.129464611 }
      ]},
      { "nodeid": 4, "depth": 2, "split": "f2", "split_condition": 0.0802682787, "yes": 9, "no": 10, "missing": 9, "children": [
        { "nodeid": 9, "leaf": -0.12135794 },
        { "nodeid": 10, "leaf": -0.0498878546 }
      ]}
    ]},
    { "nodeid": 2, "depth": 1, "split": "f0", "split_condition": -1.2741437, "yes": 5, "no": 6, "missing": 5, "children": [
      { "nodeid": 5, "depth": 2, "split": "f0", "split_condition": -1.30520201, "yes": 11, "no": 12, "missing": 11, "children": [
        { "nodeid": 11, "leaf": -0.000727687322 },
        { "nodeid": 12, "leaf": 0.0302820355 }
      ]},
      { "nodeid": 6, "depth": 2, "split": "f0", "split_condition": -1.26886487, "yes": 13, "no": 14, "missing": 13, "children": [
        { "nodeid": 13, "leaf": -0.0589179173 },
        { "nodeid": 14, "leaf": 0.000203198171 }
      ]}
    ]}
  ]},
  { "nodeid": 0, "depth": 0, "split": "f3", "split_condition": -2.61870193, "yes": 1, "no": 2, "missing": 1, "children": [
    { "nodeid": 1, "depth": 1, "split": "f3", "split_condition": -2.62768793, "yes": 3, "no": 4, "missing": 3, "children": [
      { "nodeid": 3, "depth": 2, "split": "f2", "split_condition": 1.67388594, "yes": 7, "no": 8, "missing": 7, "children": [
        { "nodeid": 7, "leaf": -0.0153715778 },
        { "nodeid": 8, "leaf": 0.0694777593 }
      ]},
      { "nodeid": 4, "depth": 2, "split": "f1", "split_condition": -0.222431988, "yes": 9, "no": 10, "missing": 9, "children": [
        { "nodeid": 9, "leaf": -0.144216582 },
        { "nodeid": 10, "leaf": -0.022934366 }
      ]}
    ]},
    { "nodeid": 2, "depth": 1, "split": "f3", "split_condition": -2.29653978, "yes": 5, "no": 6, "missing": 5, "children": [
      { "nodeid": 5, "depth": 2, "split": "f0", "split_condition": -1.21296751, "yes": 11, "no": 12, "missing": 11, "children": [
        { "nodeid": 11, "leaf": -0.0235793367 },
        { "nodeid": 12, "leaf": 0.0284006651 }
      ]},
      { "nodeid": 6, "depth": 2, "split": "f3", "split_condition": -2.27359247, "yes": 13, "no": 14, "missing": 13, "children": [
        { "nodeid": 13, "leaf": -0.0649446622 },
        { "nodeid": 14, "leaf": -2.58484979e-05 }
      ]}
    ]}
  ]},
  { "nodeid": 0, "depth": 0, "split": "f4", "split_condition": 1.80837798, "yes": 1, "no": 2, "missing": 1, "children": [
    { "nodeid": 1, "depth": 1, "split": "f4", "split_condition": 1.68020499, "yes": 3, "no": 4, "missing": 3, "children": [
      { "nodeid": 3, "depth": 2, "split": "f4", "split_condition": 1.66711485, "yes": 7, "no": 8, "missing": 7, "children": [
        { "nodeid": 7, "leaf": 7.84832155e-05 },
        { "nodeid": 8, "leaf": -0.0416435264 }
      ]},
      { "nodeid": 4, "depth": 2, "split": "f3", "split_condition": 1.02224302, "yes": 9, "no": 10, "missing": 9, "children": [
        { "nodeid": 9, "leaf": 0.0227660239 },
        { "nodeid": 10, "leaf": -0.0227288343 }
      ]}
    ]},
    { "nodeid": 2, "depth": 1, "split": "f0", "split_condition": -1.03577363, "yes": 5, "no": 6, "missing": 5, "children": [
      { "nodeid": 5, "depth": 2, "split": "f0", "split_condition": -1.4734596, "yes": 11, "no": 12, "missing": 11, "children": [
        { "nodeid": 11, "leaf": -0.0103888512 },
        { "nodeid": 12, "leaf": 0.0399340652 }
      ]},
      { "nodeid": 6, "depth": 2, "split": "f4", "split_condition": 1.85616565, "yes": 13, "no": 14, "missing": 13, "children": [
        { "nodeid": 13, "leaf": -0.0325523727 },
        { "nodeid": 14, "leaf": -0.00595411472 }
      ]}
    ]}
  ]},
  { "nodeid": 0, "depth": 0, "split": "f3", "split_condition": -3.60380316, "yes": 1, "no": 2, "missing": 1, "children": [
    { "nodeid": 1, "leaf": 0.0862941071 },
    { "nodeid": 2, "depth": 1, "split": "f3", "split_condition": -2.61870193, "yes": 3, "no": 4, "missing": 3, "children": [
      { "nodeid": 3, "depth": 2, "split": "f3", "split_condition": -2.62654185, "yes": 5, "no": 6, "missing": 5, "children": [
        { "nodeid": 5, "leaf": -0.0115976958 },
        { "nodeid": 6, "leaf": -0.118307762 }
      ]},
      { "nodeid": 4, "depth": 2, "split": "f3", "split_condition": -2.29653978, "yes": 7, "no": 8, "missing": 7, "children": [
        { "nodeid": 7, "leaf": 0.020199053 },
        { "nodeid": 8, "leaf": -6.19836719e-05 }
      ]}
    ]}
  ]},
  { "nodeid": 0, "depth": 0, "split": "f0", "split_condition": -2.61864257, "yes": 1, "no": 2, "missing": 1, "children": [
    { "nodeid": 1, "depth": 1, "split": "f4", "split_condition": -0.194579065, "yes": 3, "no": 4, "missing": 3, "children": [
      { "nodeid": 3, "depth": 2, "split": "f3", "split_condition": -1.18656528, "yes": 7, "no": 8, "missing": 7, "children": [
        { "nodeid": 7, "leaf": -0.0643184483 },
        { "nodeid": 8, "leaf": 0.0610051118 }
      ]},
      { "nodeid": 4, "depth": 2, "split": "f4", "split_condition": 1.39419913, "yes": 9, "no": 10, "missing": 9, "children": [
        { "nodeid": 9, "leaf": 0.00225264626 },
        { "nodeid": 10, "leaf": -0.0645977408 }
      ]}
    ]},
    { "nodeid": 2, "depth": 1, "split": "f0", "split_condition": -1.46600819, "yes": 5, "no": 6, "missing": 5, "children": [
      { "nodeid": 5, "depth": 2, "split": "f4", "split_condition": -1.1386826, "yes": 11, "no": 12, "missing": 11, "children": [
        { "nodeid": 11, "leaf": -0.0230758321 },
        { "nodeid": 12, "leaf": -0.00154521235 }
      ]},
      { "nodeid": 6, "depth": 2, "split": "f0", "split_condition": -1.46485949, "yes": 13, "no": 14, "missing": 13, "children": [
        { "nodeid": 13, "leaf": 0.125873223 },
        { "nodeid": 14, "leaf": 0.000232129314 }
      ]}
    ]}
  ]},
  { "nodeid": 0, "depth": 0, "split": "f2", "split_condition": -3.27957439, "yes": 1, "no": 2, "missing": 1, "children": [
    { "nodeid": 1, "depth": 1, "split": "f0", "split_condition": -0.62785995, "yes": 3, "no": 4, "missing": 3, "children": [
      { "nodeid": 3, "depth": 2, "split": "f3", "split_condition": -0.967395425, "yes": 7, "no": 8, "missing": 7, "children": [
        { "nodeid": 7, "leaf": -0.116107024 },
        { "nodeid": 8, "leaf": 0.0439522192 }
      ]},
      { "nodeid": 4, "depth": 2, "split": "f0", "split_condition": 0.230579764, "yes": 9, "no": 10, "missing": 9, "children": [
        { "nodeid": 9, "leaf": 0.124561749 },
        { "nodeid": 10, "leaf": 0.0135318404 }
      ]}
    ]},
    { "nodeid": 2, "depth": 1, "split": "f2", "split_condition": -1.56453347, "yes": 5, "no": 6, "missing": 5, "children": [
      { "nodeid": 5, "depth": 2, "split": "f2", "split_condition": -1.56662631, "yes": 11, "no": 12, "missing": 11, "children": [
        { "nodeid": 11, "leaf": -0.00357722188 },
        { "nodeid": 12, "leaf": -0.125821933 }
      ]},
      { "nodeid": 6, "depth": 2, "split": "f2", "split_condition": -1.44921434, "yes": 13, "no": 14, "missing": 13, "children": [
        { "nodeid": 13, "leaf": 0.0127362236 },
        { "nodeid": 14, "leaf": 3.98079865e-05 }
      ]}
    ]}
  ]},
  { "nodeid": 0, "depth": 0, "split": "f0", "split_condition": 0.118305609, "yes": 1, "no": 2, "missing": 1, "children": [
    { "nodeid": 1, "depth": 1, "split": "f0", "split_condition": 0.11532063, "yes": 3, "no": 4, "missing": 3, "children": [
      { "nodeid": 3, "depth": 2, "split": "f0", "split_condition": -0.0122685116, "yes": 7, "no": 8, "missing": 7, "children": [
        { "nodeid": 7, "leaf": 9.38897792e-05 },
        { "nodeid": 8, "leaf": 0.00696514128 }
      ]},
      { "nodeid": 4, "depth": 2, "split": "f3", "split_condition": 0.854577661, "yes": 9, "no": 10, "missing": 9, "children": [
        { "nodeid": 9, "leaf": 0.0264463276 },
        { "nodeid": 10, "leaf": 0.108835734 }
      ]}
    ]},
    { "nodeid": 2, "depth": 1, "split": "f2", "split_condition": -0.845609426, "yes": 5, "no": 6, "missing": 5, "children": [
      { "nodeid": 5, "depth": 2, "split": "f3", "split_condition": -1.50153863, "yes": 11, "no": 12, "missing": 11, "children": [
        { "nodeid": 11, "leaf": 0.0170719009 },
        { "nodeid": 12, "leaf": -0.00765139377 }
      ]},
      { "nodeid": 6, "depth": 2, "split": "f2", "split_condition": -0.841198087, "yes": 13, "no": 14, "missing": 13, "children": [
        { "nodeid": 13, "leaf": 0.0774021372 },
        { "nodeid": 14, "leaf": 0.00010422671 }
      ]}
    ]}
  ]},
  { "nodeid": 0, "depth": 0, "split": "f1", "split_condition": 1.90902853, "yes": 1, "no": 2, "missing": 1, "children": [
    { "nodeid": 1, "depth": 1, "split": "f1", "split_condition": 1.8801682, "yes": 3, "no": 4, "missing": 3, "children": [
      { "nodeid": 3, "depth": 2, "split": "f1", "split_condition": 1.87088871, "yes": 7, "no": 8, "missing": 7, "children": [
        { "nodeid": 7, "leaf": 0.000149172571 },
        { "nodeid": 8, "leaf": -0.043148797 }
      ]},
      { "nodeid": 4, "depth": 2, "split": "f4", "split_condition": 1.26973891, "yes": 9, "no": 10, "missing": 9, "children": [
        { "nodeid": 9, "leaf": 0.0399643742 },
        { "nodeid": 10, "leaf": -0.0554018728 }
      ]}
    ]},
    { "nodeid": 2, "depth": 1, "split": "f3", "split_condition": -0.556967199, "yes": 5, "no": 6, "missing": 5, "children": [
      { "nodeid": 5, "depth": 2, "split": "f2", "split_condition": -0.628491461, "yes": 11, "no": 12, "missing": 11, "children": [
        { "nodeid": 11, "leaf": 0.010614641 },
        { "nodeid": 12, "leaf": -0.0295562651 }
      ]},
      { "nodeid": 6, "depth": 2, "split": "f3", "split_condition": -0.54127413, "yes": 13, "no": 14, "missing": 13, "children": [
        { "nodeid": 13, "leaf": 0.1217549 },
        { "nodeid": 14, "leaf": -0.000775799796 }
      ]}
    ]}
  ]},
  { "nodeid": 0, "depth": 0, "split": "f0", "split_condition": 1.45437646, "yes": 1, "no": 2, "missing": 1, "children": [
    { "nodeid": 1, "depth": 1, "split": "f0", "split_condition": 1.40623689, "yes": 3, "no": 4, "missing": 3, "children": [
      { "nodeid": 3, "depth": 2, "split": "f0", "split_condition": 1.40411139, "yes": 7, "no": 8, "missing": 7, "children": [
        { "nodeid": 7, "leaf": -0.00015665176 },
        { "nodeid": 8, "leaf": 0.0752236545 }
      ]},
      { "nodeid": 4, "depth": 2, "split": "f0", "split_condition": 1.40772986, "yes": 9, "no": 10, "missing": 9, "children": [
        { "nodeid": 9, "leaf": -0.127019733 },
        { "nodeid": 10, "leaf": -0.0135235786 }
      ]}
    ]},
    { "nodeid": 2, "depth": 1, "split": "f0", "split_condition": 1.52584267, "yes": 5, "no": 6, "missing": 5, "children": [
      { "nodeid": 5, "depth": 2, "split": "f0", "split_condition": 1.51009524, "yes": 11, "no": 12, "missing": 11, "children": [
        { "nodeid": 11, "leaf": 0.0106563345 },
        { "nodeid": 12, "leaf": 0.0525924452 }
      ]},
      { "nodeid": 6, "depth": 2, "split": "f0", "split_condition": 1.52947164, "yes": 13, "no": 14, "missing": 13, "children": [
        { "nodeid": 13, "leaf": -0.101107575 },
        { "nodeid": 14, "leaf": 0.00177608745 }
      ]}
    ]}
  ]},
  { "nodeid": 0, "depth": 0, "split": "f1", "split_condition": -3.45886755, "yes": 1, "no": 2, "missing": 1, "children": [
    { "nodeid": 1, "depth": 1, "split": "f0", "split_condition": 0.725230634, "yes": 3, "no": 4, "missing": 3, "children": [
      { "nodeid": 3, "depth": 2, "split": "f0", "split_condition": -0.648626447, "yes": 7, "no": 8, "missing": 7, "children": [
        { "nodeid": 7, "leaf": 0.00957353599 },
        { "nodeid": 8, "leaf": 0.121565782 }
      ]},
      { "nodeid": 4, "depth": 2, "split": "f4", "split_condition": 0.00485054031, "yes": 9, "no": 10, "missing": 9, "children": [
        { "nodeid": 9, "leaf": -0.0757156163 },
        { "nodeid": 10, "leaf": 0.00444158632 }
      ]}
    ]},
    { "nodeid": 2, "depth": 1, "split": "f1", "split_condition": -3.02338171, "yes": 5, "no": 6, "missing": 5, "children": [
      { "nodeid": 5, "depth": 2, "split": "f4", "split_condition": 1.30536771, "yes": 11, "no": 12, "missing": 11, "children": [
        { "nodeid": 11, "leaf": -0.0417548046 },
        { "nodeid": 12, "leaf": 0.121059261 }
      ]},
      { "nodeid": 6, "depth": 2, "split": "f1", "split_condition": -2.2854445, "yes": 13, "no": 14, "missing": 13, "children": [
        { "nodeid": 13, "leaf": 0.00998410862 },
        { "nodeid": 14, "leaf": -8.28566845e-05 }
      ]}
    ]}
  ]},
  { "nodeid": 0, "depth": 0, "split": "f4", "split_condition": -1.82233047, "yes": 1, "no": 2, "missing": 1, "children": [
    { "nodeid": 1, "depth": 1, "split": "f4", "split_condition": -1.86842394, "yes": 3, "no": 4, "missing": 3, "children": [
      { "nodeid": 3, "depth": 2, "split": "f3", "split_condition": 0.302971721, "yes": 7, "no": 8, "missing": 7, "children": [
        { "nodeid": 7, "leaf": -0.00884487946 },
        { "nodeid": 8, "leaf": 0.0105569875 }
      ]},
      { "nodeid": 4, "depth": 2, "split": "f0", "split_condition": 1.81737757, "yes": 9, "no": 10, "missing": 9, "children": [
        { "nodeid": 9, "leaf": -0.0378959365 },
        { "nodeid": 10, "leaf": 0.0974813923 }
      ]}
    ]},
    { "nodeid": 2, "depth": 1, "split": "f4", "split_condition": -1.81676269, "yes": 5, "no": 6, "missing": 5, "children": [
      { "nodeid": 5, "depth": 2, "split": "f2", "split_condition": 0.0775606632, "yes": 11, "no": 12, "missing": 11, "children": [
        { "nodeid": 11, "leaf": 0.0401538126 },
        { "nodeid": 12, "leaf": 0.133949712 }
      ]},
      { "nodeid": 6, "depth": 2, "split": "f4", "split_condition": -0.624949515, "yes": 13, "no": 14, "missing": 13, "children": [
        { "nodeid": 13, "leaf": 0.00209506019 },
        { "nodeid": 14, "leaf": -0.000501661678 }
      ]}
    ]}
  ]},
  { "nodeid": 0, "depth": 0, "split": "f3", "split_condition": -3.42445445, "yes": 1, "no": 2, "missing": 1, "children": [
    { "nodeid": 1, "depth": 1, "split": "f1", "split_condition": -0.782376826, "yes": 3, "no": 4, "missing": 3, "children": [
      { "nodeid": 3, "leaf": -0.00211589481 },
      { "nodeid": 4, "depth": 2, "split": "f1", "split_condition": 0.412192941, "yes": 7, "no": 8, "missing": 7, "children": [
        { "nodeid": 7, "leaf": 0.118035614 },
        { "nodeid": 8, "leaf": -0.00117510592 }
      ]}
    ]},
    { "nodeid": 2, "depth": 1, "split": "f3", "split_condition": -3.23492479, "yes": 5, "no": 6, "missing": 5, "children": [
      { "nodeid": 5, "depth": 2, "split": "f2", "split_condition": 0.26527521, "yes": 9, "no": 10, "missing": 9, "children": [
        { "nodeid": 9, "leaf": -0.099918209 },
        { "nodeid": 10, "leaf": -0.0215663835 }
      ]},
      { "nodeid": 6, "depth": 2, "split": "f3", "split_condition": -3.20484591, "yes": 11, "no": 12, "missing": 11, "children": [
        { "nodeid": 11, "leaf": 0.0716479346 },
        { "nodeid": 12, "leaf": 4.10337088e-06 }
      ]}
    ]}
  ]},
  { "nodeid": 0, "depth": 0, "split": "f4", "split_condition": 2.94287395, "yes": 1, "no": 2, "missing": 1, "children": [
    { "nodeid": 1, "depth": 1, "split": "f4", "split_condition": 2.63096905, "yes": 3, "no": 4, "missing": 3, "children": [
      { "nodeid": 3, "depth": 2, "split": "f4", "split_condition": 2.17398739, "yes": 7, "no": 8, "missing": 7, "children": [
        { "nodeid": 7, "leaf": 0.000113961964 },
        { "nodeid": 8, "leaf": -0.0122147566 }
      ]},
      { "nodeid": 4, "depth": 2, "split": "f2", "split_condition": 0.655541897, "yes": 9, "no": 10, "missing": 9, "children": [
        { "nodeid": 9, "leaf": 0.0425962545 },
        { "nodeid": 10, "leaf": -0.0335047171 }
      ]}
    ]},
    { "nodeid": 2, "depth": 1, "split": "f3", "split_condition": 1.17275655, "yes": 5, "no": 6, "missing": 5, "children": [
      { "nodeid": 5, "depth": 2, "split": "f3", "split_condition": 0.887744963, "yes": 11, "no": 12, "missing": 11, "children": [
        { "nodeid": 11, "leaf": -0.0227187127 },
        { "nodeid": 12, "leaf": 0.0885407329 }
      ]},
      { "nodeid": 6, "leaf": -0.105101898 }
    ]}
  ]},
  { "nodeid": 0, "depth": 0, "split": "f2", "split_condition": 2.19934011, "yes": 1, "no": 2, "missing": 1, "children": [
    { "nodeid": 1, "depth": 1, "split": "f2", "split_condition": 2.16355038, "yes": 3, "no": 4, "missing": 3, "children": [
      { "nodeid": 3, "depth": 2, "split": "f1", "split_condition": -3.49676275, "yes": 7, "no": 8, "missing": 7, "children": [
        { "nodeid": 7, "leaf": 0.0535466075 },
        { "nodeid": 8, "leaf": -4.94751985e-05 }
      ]},
      { "nodeid": 4, "depth": 2, "split": "f3", "split_condition": -1.63595498, "yes": 9, "no": 10, "missing": 9, "children": [
        { "nodeid": 9, "leaf": 0.0908869654 },
        { "nodeid": 10, "leaf": -0.0572833419 }
      ]}
    ]},
    { "nodeid": 2, "depth": 1, "split": "f0", "split_condition": 0.323128849, "yes": 5, "no": 6, "missing": 5, "children": [
      { "nodeid": 5, "depth": 2, "split": "f2", "split_condition": 2.21873426, "yes": 11, "no": 12, "missing": 11, "children": [
        { "nodeid": 11, "leaf": 0.0701108798 },
        { "nodeid": 12, "leaf": -0.00535850087 }
      ]},
      { "nodeid": 6, "depth": 2, "split": "f0", "split_condition": 0.389256895, "yes": 13, "no": 14, "missing": 13, "children": [
        { "nodeid": 13, "leaf": 0.0964687467 },
        { "nodeid": 14, "leaf": 0.0169150233 }
      ]}
    ]}
  ]},
  { "nodeid": 0, "depth": 0, "split": "f3", "split_condition": 2.91318631, "yes": 1, "no": 2, "missing": 1, "children": [
    { "nodeid": 1, "depth": 1, "split": "f3", "split_condition": 2.87596321, "yes": 3, "no": 4, "missing": 3, "children": [
      { "nodeid": 3, "depth": 2, "split": "f3", "split_condition": 2.84350228, "yes": 7, "no": 8, "missing": 7, "children": [
        { "nodeid": 7, "leaf": -2.9421275e-05 },
        { "nodeid": 8, "leaf": 0.0692162737 }
      ]},
      { "nodeid": 4, "depth": 2, "split": "f1", "split_condition": 0.272767156, "yes": 9, "no": 10, "missing": 9, "children": [
        { "nodeid": 9, "leaf": -0.11018654 },
        { "nodeid": 10, "leaf": 0.0139102433 }
      ]}
    ]},
    { "nodeid": 2, "depth": 1, "split": "f1", "split_condition": 0.624044061, "yes": 5, "no": 6, "missing": 5, "children": [
      { "nodeid": 5, "depth": 2, "split": "f2", "split_condition": 0.62119931, "yes": 11, "no": 12, "missing": 11, "children": [
        { "nodeid": 11, "leaf": 0.0639842078 },
        { "nodeid": 12, "leaf": -0.0278927367 }
      ]},
      { "nodeid": 6, "depth": 2, "split": "f2", "split_condition": -0.311937124, "yes": 13, "no": 14, "missing": 13, "children": [
        { "nodeid": 13, "leaf": 0.0279710125 },
        { "nodeid": 14, "leaf": -0.0895360559 }
      ]}
    ]}
  ]},
  { "nodeid": 0, "depth": 0, "split": "f0", "split_condition": 0.101691872, "yes": 1, "no": 2, "missing": 1, "children": [
    { "nodeid": 1, "depth": 1, "split": "f0", "split_condition": 0.0145131433, "yes": 3, "no": 4, "missing": 3, "children": [
      { "nodeid": 3, "depth": 2, "split": "f0", "split_condition": 0.0139288753, "yes": 7, "no": 8, "missing": 7, "children": [
        { "nodeid": 7, "leaf": 0.000262979884 },
        { "nodeid": 8, "leaf": -0.111607723 }
      ]},
      { "nodeid": 4, "depth": 2, "split": "f1", "split_condition": -0.760584593, "yes": 9, "no": 10, "missing": 9, "children": [
        { "nodeid": 9, "leaf": 0.0269252341 },
        { "nodeid": 10, "leaf": 0.00412927056 }
      ]}
    ]},
    { "nodeid": 2, "depth": 1, "split": "f1", "split_condition": 0.494485378, "yes": 5, "no": 6, "missing": 5, "children": [
      { "nodeid": 5, "depth": 2, "split": "f0", "split_condition": 0.385230154, "yes": 11, "no": 12, "missing": 11, "children": [
        { "nodeid": 11, "leaf": -0.00928062201 },
        { "nodeid": 12, "leaf": -0.000504221651 }
      ]},
      { "nodeid": 6, "depth": 2, "split": "f1", "split_condition": 0.842783809, "yes": 13, "no": 14, "missing": 13, "children": [
        { "nodeid": 13, "leaf": 0.0100928331 },
        { "nodeid": 14, "leaf": -0.00139163563 }
      ]}
    ]}
  ]},
  { "nodeid": 0, "depth": 0, "split": "f4", "split_condition": -2.5215373, "yes": 1, "no": 2, "missing": 1, "children": [
    { "nodeid": 1, "depth": 1, "split": "f0", "split_condition": -0.217514604, "yes": 3, "no": 4, "missing": 3, "children": [
      { "nodeid": 3, "depth": 2, "split": "f4", "split_condition": -2.5792625, "yes": 7, "no": 8, "missing": 7, "children": [
        { "nodeid": 7, "leaf": 0.0301067773 },
        { "nodeid": 8, "leaf": -0.0583379827 }
      ]},
      { "nodeid": 4, "depth": 2, "split": "f0", "split_condition": 0.519277811, "yes": 9, "no": 10, "missing": 9, "children": [
        { "nodeid": 9, "leaf": -0.0634553805 },
        { "nodeid": 10, "leaf": 0.00141120574 }
      ]}
    ]},
    { "nodeid": 2, "depth": 1, "split": "f4", "split_condition": -2.50760841, "yes": 5, "no": 6, "missing": 5, "children": [
      { "nodeid": 5, "depth": 2, "split": "f2", "split_condition": 0.487191021, "yes": 11, "no": 12, "missing": 11, "children": [
        { "nodeid": 11, "leaf": 0.150410056 },
        { "nodeid": 12, "leaf": -0.0443578102 }
      ]},
      { "nodeid": 6, "depth": 2, "split": "f4", "split_condition": -2.502033, "yes": 13, "no": 14, "missing": 13, "children": [
        { "nodeid": 13, "leaf": -0.103075244 },
        { "nodeid": 14, "leaf": 5.69808471e-05 }
      ]}
    ]}
  ]},
  { "nodeid": 0, "depth": 0, "split": "f2", "split_condition": 1.86727881, "yes": 1, "no": 2, "missing": 1, "children": [
    { "nodeid": 1, "depth": 1, "split": "f2", "split_condition": 1.80251467, "yes": 3, "no": 4, "missing": 3, "children": [
      { "nodeid": 3, "depth": 2, "split": "f2", "split_condition": 1.80081677, "yes": 7, "no": 8, "missing": 7, "children": [
        { "nodeid": 7, "leaf": -4.29361025e-05 },
        { "nodeid": 8, "leaf": 0.121094882 }
      ]},
      { "nodeid": 4, "depth": 2, "split": "f2", "split_condition": 1.80854559, "yes": 9, "no": 10, "missing": 9, "children": [
        { "nodeid": 9, "leaf": -0.105575733 },
        { "nodeid": 10, "leaf": -0.0181597937 }
      ]}
    ]},
    { "nodeid": 2, "depth": 1, "split": "f4", "split_condition": 1.11705303, "yes": 5, "no": 6, "missing": 5, "children": [
      { "nodeid": 5, "depth": 2, "split": "f2", "split_condition": 1.87084079, "yes": 11, "no": 12, "missing": 11, "children": [
        { "nodeid": 11, "leaf": 0.096441716 },
        { "nodeid": 12, "leaf": 0.00708843907 }
      ]},
      { "nodeid": 6, "depth": 2, "split": "f0", "split_condition": -0.957886577, "yes": 13, "no": 14, "missing": 13, "children": [
        { "nodeid": 13, "leaf": 0.0542666093 },
        { "nodeid": 14, "leaf": -0.027694298 }
      ]}
    ]}
  ]},
  { "nodeid": 0, "depth": 0, "split": "f2", "split_condition": -3.27957439, "yes": 1, "no": 2, "missing": 1, "children": [
    { "nodeid": 1, "depth": 1, "split": "f3", "split_condition": -0.0591228753, "yes": 3, "no": 4, "missing": 3, "children": [
      { "nodeid": 3, "depth": 2, "split": "f1", "split_condition": 0.578042746, "yes": 7, "no": 8, "missing": 7, "children": [
        { "nodeid": 7, "leaf": 0.0306142662 },
        { "nodeid": 8, "leaf": -0.103767775 }
      ]},
      { "nodeid": 4, "depth": 2, "split": "f4", "split_condition": 0.215212643, "yes": 9, "no": 10, "missing": 9, "children": [
        { "nodeid": 9, "leaf": 0.0245898999 },
        { "nodeid": 10, "leaf": 0.121654429 }
      ]}
    ]},
    { "nodeid": 2, "depth": 1, "split": "f3", "split_condition": 1.95466697, "yes": 5, "no": 6, "missing": 5, "children": [
      { "nodeid": 5, "depth": 2, "split": "f3", "split_condition": 1.76536942, "yes": 11, "no": 12, "missing": 11, "children": [
        { "nodeid": 11, "leaf": -4.23846723e-05 },
        { "nodeid": 12, "leaf": 0.0121062687 }
      ]},
      { "nodeid": 6, "depth": 2, "split": "f3", "split_condition": 1.95855784, "yes": 13, "no": 14, "missing": 13, "children": [
        { "nodeid": 13, "leaf": -0.111062922 },
        { "nodeid": 14, "leaf": -0.00452166563 }
      ]}
    ]}
  ]},
  { "nodeid": 0, "depth": 0, "split": "f0", "split_condition": 2.57155561, "yes": 1, "no": 2, "missing": 1, "children": [
    { "nodeid": 1, "depth": 1, "split": "f1", "split_condition": 1.69719672, "yes": 3, "no": 4, "missing": 3, "children": [
      { "nodeid": 3, "depth": 2, "split": "f1", "split_condition": 1.61625957, "yes": 7, "no": 8, "missing": 7, "children": [
        { "nodeid": 7, "leaf": -2.78348925e-05 },
        { "nodeid": 8, "leaf": 0.0192541387 }
      ]},
      { "nodeid": 4, "depth": 2, "split": "f1", "split_condition": 1.71029186, "yes": 9, "no": 10, "missing": 9, "children": [
        { "nodeid": 9, "leaf": -0.0428957306 },
        { "nodeid": 10, "leaf": -0.00297669182 }
      ]}
    ]},
    { "nodeid": 2, "depth": 1, "split": "f1", "split_condition": 1.12960196, "yes": 5, "no": 6, "missing": 5, "children": [
      { "nodeid": 5, "depth": 2, "split": "f4", "split_condition": 1.86119938, "yes": 11, "no": 12, "missing": 11, "children": [
        { "nodeid": 11, "leaf": 0.00855095685 },
        { "nodeid": 12, "leaf": -0.0952279195 }
      ]},
      { "nodeid": 6, "depth": 2, "split": "f2", "split_condition": 0.998172641, "yes": 13, "no": 14, "missing": 13, "children": [
        { "nodeid": 13, "leaf": 0.0846675336 },
        { "nodeid": 14, "leaf": -0.0249100216 }
      ]}
    ]}
  ]},
  { "nodeid": 0, "depth": 0, "split": "f4", "split_condition": -3.2782774, "yes": 1, "no": 2, "missing": 1, "children": [
    { "nodeid": 1, "depth": 1, "split": "f4", "split_condition": -3.36685371, "yes": 3, "no": 4, "missing": 3, "children": [
      { "nodeid": 3, "depth": 2, "split": "f4", "split_condition": -3.77783203, "yes": 7, "no": 8, "missing": 7, "children": [
        { "nodeid": 7, "leaf": 0.070425272 },
        { "nodeid": 8, "leaf": -0.0379643999 }
      ]},
      { "nodeid": 4, "leaf": 0.121229403 }
    ]},
    { "nodeid": 2, "depth": 1, "split": "f4", "split_condition": -3.03863621, "yes": 5, "no": 6, "missing": 5, "children": [
      { "nodeid": 5, "depth": 2, "split": "f3", "split_condition": -0.202299476, "yes": 9, "no": 10, "missing": 9, "children": [
        { "nodeid": 9, "leaf": 0.00296925334 },
        { "nodeid": 10, "leaf": -0.0782356113 }
      ]},
      { "nodeid": 6, "depth": 2, "split": "f4", "split_condition": -2.99342251, "yes": 11, "no": 12, "missing": 11, "children": [
        { "nodeid": 11, "leaf": 0.0567202941 },
        { "nodeid": 12, "leaf": -1.74980653e-06 }
      ]}
    ]}
  ]},
  { "nodeid": 0, "depth": 0, "split": "f3", "split_condition": 0.929131627, "yes": 1, "no": 2, "missing": 1, "children": [
    { "nodeid": 1, "depth": 1, "split": "f3", "split_condition": 0.928719401, "yes": 3, "no": 4, "missing": 3, "children": [
      { "nodeid": 3, "depth": 2, "split": "f3", "split_condition": 0.292804033, "yes": 7, "no": 8, "missing": 7, "children": [
        { "nodeid": 7, "leaf": -0.000467843347 },
        { "nodeid": 8, "leaf": 0.00288158865 }
      ]},
      { "nodeid": 4, "leaf": 0.124489844 }
    ]},
    { "nodeid": 2, "depth": 1, "split": "f3", "split_condition": 0.93433851, "yes": 5, "no": 6, "missing": 5, "children": [
      { "nodeid": 5, "depth": 2, "split": "f1", "split_condition": -0.0447667167, "yes": 9, "no": 10, "missing": 9, "children": [
        { "nodeid": 9, "leaf": -0.0985628814 },
        { "nodeid": 10, "leaf": -0.0252058636 }
      ]},
      { "nodeid": 6, "depth": 2, "split": "f1", "split_condition": -0.821280956, "yes": 11, "no": 12, "missing": 11, "children": [
        { "nodeid": 11, "leaf": 0.00716777891 },
        { "nodeid": 12, "leaf": -0.00362694706 }
      ]}
    ]}
  ]},
  { "nodeid": 0, "depth": 0, "split": "f3", "split_condition": -3.60380316, "yes": 1, "no": 2, "missing": 1, "children": [
    { "nodeid": 1, "leaf": 0.0783560872 },
    { "nodeid": 2, "depth": 1, "split": "f3", "split_condition": -2.61870193, "yes": 3, "no": 4, "missing": 3, "children": [
      { "nodeid": 3, "depth": 2, "split": "f3", "split_condition": -2.62768793, "yes": 5, "no": 6, "missing": 5, "children": [
        { "nodeid": 5, "leaf": -0.01007652 },
        { "nodeid": 6, "leaf": -0.10271775 }
      ]},
      { "nodeid": 4, "depth": 2, "split": "f3", "split_condition": -2.42657852, "yes": 7, "no": 8, "missing": 7, "children": [
        { "nodeid": 7, "leaf": 0.0269433167 },
        { "nodeid": 8, "leaf": -3.03848847e-05 }
      ]}
    ]}
  ]},
  { "nodeid": 0, "depth": 0, "split": "f3", "split_condition": 2.76976466, "yes": 1, "no": 2, "missing": 1, "children": [
    { "nodeid": 1, "depth": 1, "split": "f3", "split_condition": 2.76203871, "yes": 3, "no": 4, "missing": 3, "children": [
      { "nodeid": 3, "depth": 2, "split": "f3", "split_condition": 1.96191347, "yes": 7, "no": 8, "missing": 7, "children": [
        { "nodeid": 7, "leaf": 0.000123976337 },
        { "nodeid": 8, "leaf": -0.00693427492 }
      ]},
      { "nodeid": 4, "leaf": -0.119776629 }
    ]},
    { "nodeid": 2, "depth": 1, "split": "f4", "split_condition": -1.30393243, "yes": 5, "no": 6, "missing": 5, "children": [
      { "nodeid": 5, "depth": 2, "split": "f0", "split_condition": 0.149401158, "yes": 9, "no": 10, "missing": 9, "children": [
        { "nodeid": 9, "leaf": 0.112790406 },
        { "nodeid": 10, "leaf": 0.00399344973 }
      ]},
      { "nodeid": 6, "depth": 2, "split": "f4", "split_condition": -1.20925105, "yes": 11, "no": 12, "missing": 11, "children": [
        { "nodeid": 11, "leaf": -0.114305817 },
        { "nodeid": 12, "leaf": 0.0128114 }
      ]}
    ]}
  ]},
  { "nodeid": 0, "depth": 0, "split": "f0", "split_condition": -2.61864257, "yes": 1, "no": 2, "missing": 1, "children": [
    { "nodeid": 1, "depth": 1, "split": "f4", "split_condition": -0.194579065, "yes": 3, "no": 4, "missing": 3, "children": [
      { "nodeid": 3, "depth": 2, "split": "f3", "split_condition": -1.18656528, "yes": 7, "no": 8, "missing": 7, "children": [
        { "nodeid": 7, "leaf": -0.0589324832 },
        { "nodeid": 8, "leaf": 0.0549598336 }
      ]},
      { "nodeid": 4, "depth": 2, "split": "f3", "split_condition": 0.854691505, "yes": 9, "no": 10, "missing": 9, "children": [
        { "nodeid": 9, "leaf": -0.0194321703 },
        { "nodeid": 10, "leaf": 0.0396691263 }
      ]}
    ]},
    { "nodeid": 2, "depth": 1, "split": "f0", "split_condition": -1.3719821, "yes": 5, "no": 6, "missing": 5, "children": [
      { "nodeid": 5, "depth": 2, "split": "f4", "split_condition": -1.14227891, "yes": 11, "no": 12, "missing": 11, "children": [
        { "nodeid": 11, "leaf": -0.0187456589 },
        { "nodeid": 12, "leaf": -0.00135510636 }
      ]},
      { "nodeid": 6, "depth": 2, "split": "f0", "split_condition": -1.36085415, "yes": 13, "no": 14, "missing": 13, "children": [
        { "nodeid": 13, "leaf": 0.0346866287 },
        { "nodeid": 14, "leaf": 0.000183882163 }
      ]}
    ]}
  ]},
  { "nodeid": 0, "depth": 0, "split": "f0", "split_condition": 3.88283753, "yes": 1, "no": 2, "missing": 1, "children": [
    { "nodeid": 1, "depth": 1, "split": "f0", "split_condition": 2.57155561, "yes": 3, "no": 4, "missing": 3, "children": [
      { "nodeid": 3, "depth": 2, "split": "f0", "split_condition": 0.118305609, "yes": 5, "no": 6, "missing": 5, "children": [
        { "nodeid": 5, "leaf": 0.000729311083 },
        { "nodeid": 6, "leaf": -0.00101183832 }
      ]},
      { "nodeid": 4, "depth": 2, "split": "f1", "split_condition": 1.17237329, "yes": 7, "no": 8, "missing": 7, "children": [
        { "nodeid": 7, "leaf": 0.00498339022 },
        { "nodeid": 8, "leaf": 0.0697066709 }
      ]}
    ]},
    { "nodeid": 2, "leaf": -0.0835364908 }
  ]},
  { "nodeid": 0, "depth": 0, "split": "f4", "split_condition": 2.88414764, "yes": 1, "no": 2, "missing": 1, "children": [
    { "nodeid": 1, "depth": 1, "split": "f4", "split_condition": 2.74111652, "yes": 3, "no": 4, "missing": 3, "children": [
      { "nodeid": 3, "depth": 2, "split": "f4", "split_condition": 2.72397614, "yes": 7, "no": 8, "missing": 7, "children": [
        { "nodeid": 7, "leaf": 1.93659089e-05 },
        { "nodeid": 8, "leaf": -0.103943639 }
      ]},
      { "nodeid": 4, "depth": 2, "split": "f1", "split_condition": 0.682423472, "yes": 9, "no": 10, "missing": 9, "children": [
        { "nodeid": 9, "leaf": 0.0177794732 },
        { "nodeid": 10, "leaf": 0.101082824 }
      ]}
    ]},
    { "nodeid": 2, "depth": 1, "split": "f0", "split_condition": 0.787140846, "yes": 5, "no": 6, "missing": 5, "children": [
      { "nodeid": 5, "depth": 2, "split": "f4", "split_condition": 3.22310877, "yes": 11, "no": 12, "missing": 11, "children": [
        { "nodeid": 11, "leaf": -0.023023596 },
        { "nodeid": 12, "leaf": 0.0379483774 }
      ]},
      { "nodeid": 6, "depth": 2, "split": "f3", "split_condition": 0.67545563, "yes": 13, "no": 14, "missing": 13, "children": [
        { "nodeid": 13, "leaf": -0.0831063017 },
        { "nodeid": 14, "leaf": -0.004888603 }
      ]}
    ]}
  ]},
  { "nodeid": 0, "depth": 0, "split": "f4", "split_condition": 0.597031951, "yes": 1, "no": 2, "missing": 1, "children": [
    { "nodeid": 1, "depth": 1, "split": "f4", "split_condition": 0.593653142, "yes": 3, "no": 4, "missing": 3, "children": [
      { "nodeid": 3, "depth": 2, "split": "f4", "split_condition": 0.395320863, "yes": 7, "no": 8, "missing": 7, "children": [
        { "nodeid": 7, "leaf": -4.40810472e-05 },
        { "nodeid": 8, "leaf": 0.00489070686 }
      ]},
      { "nodeid": 4, "depth": 2, "split": "f1", "split_condition": 0.199427754, "yes": 9, "no": 10, "missing": 9, "children": [
        { "nodeid": 9, "leaf": 0.0839606449 },
        { "nodeid": 10, "leaf": 0.00796734914 }
      ]}
    ]},
    { "nodeid": 2, "depth": 1, "split": "f4", "split_condition": 0.607141733, "yes": 5, "no": 6, "missing": 5, "children": [
      { "nodeid": 5, "depth": 2, "split": "f1", "split_condition": 1.77503073, "yes": 11, "no": 12, "missing": 11, "children": [
        { "nodeid": 11, "leaf": -0.0299599506 },
        { "nodeid": 12, "leaf": 0.0786569789 }
      ]},
      { "nodeid": 6, "depth": 2, "split": "f2", "split_condition": 2.82384872, "yes": 13, "no": 14, "missing": 13, "children": [
        { "nodeid": 13, "leaf": -0.00114423211 },
        { "nodeid": 14, "leaf": 0.0552548952 }
      ]}
    ]}
  ]},
  { "nodeid": 0, "depth": 0, "split": "f4", "split_condition": 0.279302597, "yes": 1, "no": 2, "missing": 1, "children": [
    { "nodeid": 1, "depth": 1, "split": "f4", "split_condition": 0.271093369, "yes": 3, "no": 4, "missing": 3, "children": [
      { "nodeid": 3, "depth": 2, "split": "f2", "split_condition": -1.56453717, "yes": 7, "no": 8, "missing": 7, "children": [
        { "nodeid": 7, "leaf": -0.00732868258 },
        { "nodeid": 8, "leaf": 0.000997651252 }
      ]},
      { "nodeid": 4, "depth": 2, "split": "f1", "split_condition": 0.164147764, "yes": 9, "no": 10, "missing": 9, "children": [
        { "nodeid": 9, "leaf": 0.000210486236 },
        { "nodeid": 10, "leaf": 0.0687021837 }
      ]}
    ]},
    { "nodeid": 2, "depth": 1, "split": "f4", "split_condition": 0.394835413, "yes": 5, "no": 6, "missing": 5, "children": [
      { "nodeid": 5, "depth": 2, "split": "f4", "split_condition": 0.387931228, "yes": 11, "no": 12, "missing": 11, "children": [
        { "nodeid": 11, "leaf": -0.00702478224 },
        { "nodeid": 12, "leaf": -0.0547863618 }
      ]},
      { "nodeid": 6, "depth": 2, "split": "f4", "split_condition": 0.409249961, "yes": 13, "no": 14, "missing": 13, "children": [
        { "nodeid": 13, "leaf": 0.0263833292 },
        { "nodeid": 14, "leaf": -0.000308679271 }
      ]}
    ]}
  ]},
  { "nodeid": 0, "depth": 0, "split": "f3", "split_condition": -3.42445445, "yes": 1, "no": 2, "missing": 1, "children": [
    { "nodeid": 1, "depth": 1, "split": "f4", "split_condition": 0.905961394, "yes": 3, "no": 4, "missing": 3, "children": [
      { "nodeid": 3, "depth": 2, "split": "f1", "split_condition": 0.267288953, "yes": 7, "no": 8, "missing": 7, "children": [
        { "nodeid": 7, "leaf": 0.11814525 },
        { "nodeid": 8, "leaf": -0.025095975 }
      ]},
      { "nodeid": 4, "leaf": -0.00410437817 }
    ]},
    { "nodeid": 2, "depth": 1, "split": "f3", "split_condition": -3.23492479, "yes": 5, "no": 6, "missing": 5, "children": [
      { "nodeid": 5, "depth": 2, "split": "f0", "split_condition": -1.06148612, "yes": 9, "no": 10, "missing": 9, "children": [
        { "nodeid": 9, "leaf": -0.00544781471 },
        { "nodeid": 10, "leaf": -0.0880987868 }
      ]},
      { "nodeid": 6, "depth": 2, "split": "f3", "split_condition": -3.20484591, "yes": 11, "no": 12, "missing": 11, "children": [
        { "nodeid": 11, "leaf": 0.0673611686 },
        { "nodeid": 12, "leaf": -2.18383798e-06 }
      ]}
    ]}
  ]},
  { "nodeid": 0, "depth": 0, "split": "f0", "split_condition": 3.1431365, "yes": 1, "no": 2, "missing": 1, "children": [
    { "nodeid": 1, "depth": 1, "split": "f0", "split_condition": 3.01413965, "yes": 3, "no": 4, "missing": 3, "children": [
      { "nodeid": 3, "depth": 2, "split": "f0", "split_condition": 2.98870826, "yes": 7, "no": 8, "missing": 7, "children": [
        { "nodeid": 7, "leaf": 7.94158859e-06 },
        { "nodeid": 8, "leaf": -0.0839810669 }
      ]},
      { "nodeid": 4, "depth": 2, "split": "f3", "split_condition": 1.10227525, "yes": 9, "no": 10, "missing": 9, "children": [
        { "nodeid": 9, "leaf": 0.0911140144 },
        { "nodeid": 10, "leaf": -0.0341269523 }
      ]}
    ]},
    { "nodeid": 2, "depth": 1, "split": "f3", "split_condition": -0.751223922, "yes": 5, "no": 6, "missing": 5, "children": [
      { "nodeid": 5, "depth": 2, "split": "f4", "split_condition": -0.527034104, "yes": 11, "no": 12, "missing": 11, "children": [
        { "nodeid": 11, "leaf": -0.00297357328 },
        { "nodeid": 12, "leaf": 0.109112583 }
      ]},
      { "nodeid": 6, "depth": 2, "split": "f4", "split_condition": -0.0334736444, "yes": 13, "no": 14, "missing": 13, "children": [
        { "nodeid": 13, "leaf": -0.101409577 },
        { "nodeid": 14, "leaf": -0.020897422 }
      ]}
    ]}
  ]},
  { "nodeid": 0, "depth": 0, "split": "f2", "split_condition": -3.23919296, "yes": 1, "no": 2, "missing": 1, "children": [
    { "nodeid": 1, "depth": 1, "split": "f3", "split_condition": -0.965784192, "yes": 3, "no": 4, "missing": 3, "children": [
      { "nodeid": 3, "depth": 2, "split": "f0", "split_condition": -0.254229784, "yes": 7, "no": 8, "missing": 7, "children": [
        { "nodeid": 7, "leaf": -0.126344532 },
        { "nodeid": 8, "leaf": 0.0320673846 }
      ]},
      { "nodeid": 4, "depth": 2, "split": "f2", "split_condition": -3.55377102, "yes": 9, "no": 10, "missing": 9, "children": [
        { "nodeid": 9, "leaf": -0.00551937474 },
        { "nodeid": 10, "leaf": 0.0971541628 }
      ]}
    ]},
    { "nodeid": 2, "depth": 1, "split": "f2", "split_condition": -3.16247463, "yes": 5, "no": 6, "missing": 5, "children": [
      { "nodeid": 5, "depth": 2, "split": "f3", "split_condition": 0.130662709, "yes": 11, "no": 12, "missing": 11, "children": [
        { "nodeid": 11, "leaf": -0.133208632 },
        { "nodeid": 12, "leaf": 0.013404808 }
      ]},
      { "nodeid": 6, "depth": 2, "split": "f2", "split_condition": -3.09168291, "yes": 13, "no": 14, "missing": 13, "children": [
        { "nodeid": 13, "leaf": 0.0475272648 },
        { "nodeid": 14, "leaf": -1.77235252e-05 }
      ]}
    ]}
  ]},
  { "nodeid": 0, "depth": 0, "split": "f4", "split_condition": -2.16750336, "yes": 1, "no": 2, "missing": 1, "children": [
    { "nodeid": 1, "depth": 1, "split": "f4", "split_condition": -2.21110678, "yes": 3, "no": 4, "missing": 3, "children": [
      { "nodeid": 3, "depth": 2, "split": "f4", "split_condition": -2.26887393, "yes": 7, "no": 8, "missing": 7, "children": [
        { "nodeid": 7, "leaf": -0.00744278589 },
        { "nodeid": 8, "leaf": 0.0251351688 }
      ]},
      { "nodeid": 4, "depth": 2, "split": "f2", "split_condition": -0.242567956, "yes": 9, "no": 10, "missing": 9, "children": [
        { "nodeid": 9, "leaf": -0.0987347215 },
        { "nodeid": 10, "leaf": -0.00447113207 }
      ]}
    ]},
    { "nodeid": 2, "depth": 1, "split": "f4", "split_condition": -2.05741525, "yes": 5, "no": 6, "missing": 5, "children": [
      { "nodeid": 5, "depth": 2, "split": "f0", "split_condition": 1.87397194, "yes": 11, "no": 12, "missing": 11, "children": [
        { "nodeid": 11, "leaf": 0.0189920422 },
        { "nodeid": 12, "leaf": -0.083415173 }
      ]},
      { "nodeid": 6, "depth": 2, "split": "f4", "split_condition": -2.04956055, "yes": 13, "no": 14, "missing": 13, "children": [
        { "nodeid": 13, "leaf": -0.097170867 },
        { "nodeid": 14, "leaf": 6.60790756e-05 }
      ]}
    ]}
  ]},
  { "nodeid": 0, "depth": 0, "split": "f4", "split_condition": -3.2782774, "yes": 1, "no": 2, "missing": 1, "children": [
    { "nodeid": 1, "depth": 1, "split": "f4", "split_condition": -3.41873765, "yes": 3, "no": 4, "missing": 3, "children": [
      { "nodeid": 3, "depth": 2, "split": "f4", "split_condition": -3.77783203, "yes": 7, "no": 8, "missing": 7, "children": [
        { "nodeid": 7, "leaf": 0.0668856353 },
        { "nodeid": 8, "leaf": -0.049961336 }
      ]},
      { "nodeid": 4, "depth": 2, "split": "f1", "split_condition": 0.95298028, "yes": 9, "no": 10, "missing": 9, "children": [
        { "nodeid": 9, "leaf": 0.114684932 },
        { "nodeid": 10, "leaf": 0.0203041192 }
      ]}
    ]},
    { "nodeid": 2, "depth": 1, "split": "f4", "split_condition": -3.21050262, "yes": 5, "no": 6, "missing": 5, "children": [
      { "nodeid": 5, "depth": 2, "split": "f4", "split_condition": -3.23960614, "yes": 11, "no": 12, "missing": 11, "children": [
        { "nodeid": 11, "leaf": -0.0202256739 },
        { "nodeid": 12, "leaf": -0.100415707 }
      ]},
      { "nodeid": 6, "depth": 2, "split": "f4", "split_condition": -3.1885848, "yes": 13, "no": 14, "missing": 13, "children": [
        { "nodeid": 13, "leaf": 0.110940374 },
        { "nodeid": 14, "leaf": -1.3296577e-05 }
      ]}
    ]}
  ]},
  { "nodeid": 0, "depth": 0, "split": "f1", "split_condition": 3.47949123, "yes": 1, "no": 2, "missing": 1, "children": [
    { "nodeid": 1, "depth": 1, "split": "f1", "split_condition": 3.30766964, "yes": 3, "no": 4, "missing": 3, "children": [
      { "nodeid": 3, "depth": 2, "split": "f1", "split_condition": 3.09339881, "yes": 7, "no": 8, "missing": 7, "children": [
        { "nodeid": 7, "leaf": 2.22434701e-05 },
        { "nodeid": 8, "leaf": -0.0562158786 }
      ]},
      { "nodeid": 4, "depth": 2, "split": "f2", "split_condition": 0.3810094, "yes": 9, "no": 10, "missing": 9, "children": [
        { "nodeid": 9, "leaf": 0.125020817 },
        { "nodeid": 10, "leaf": -0.0646121204 }
      ]}
    ]},
    { "nodeid": 2, "depth": 1, "split": "f4", "split_condition": 0.872183919, "yes": 5, "no": 6, "missing": 5, "children": [
      { "nodeid": 5, "depth": 2, "split": "f1", "split_condition": 3.79967976, "yes": 11, "no": 12, "missing": 11, "children": [
        { "nodeid": 11, "leaf": -0.100114219 },
        { "nodeid": 12, "leaf": -0.000233711005 }
      ]},
      { "nodeid": 6, "leaf": 0.0673645884 }
    ]}
  ]},
  { "nodeid": 0, "depth": 0, "split": "f0", "split_condition": 1.45437646, "yes": 1, "no": 2, "missing": 1, "children": [
    { "nodeid": 1, "depth": 1, "split": "f0", "split_condition": 1.40623689, "yes": 3, "no": 4, "missing": 3, "children": [
      { "nodeid": 3, "depth": 2, "split": "f0", "split_condition": 1.40411139, "yes": 7, "no": 8, "missing": 7, "children": [
        { "nodeid": 7, "leaf": -0.000139800584 },
        { "nodeid": 8, "leaf": 0.0682786331 }
      ]},
      { "nodeid": 4, "depth": 2, "split": "f0", "split_condition": 1.40772986, "yes": 9, "no": 10, "missing": 9, "children": [
        { "nodeid": 9, "leaf": -0.116621807 },
        { "nodeid": 10, "leaf": -0.0120796477 }
      ]}
    ]},
    { "nodeid": 2, "depth": 1, "split": "f0", "split_condition": 1.52584267, "yes": 5, "no": 6, "missing": 5, "children": [
      { "nodeid": 5, "depth": 2, "split": "f3", "split_condition": 0.195162728, "yes": 11, "no": 12, "missing": 11, "children": [
        { "nodeid": 11, "leaf": 0.0300993323 },
        { "nodeid": 12, "leaf": -0.00104235706 }
      ]},
      { "nodeid": 6, "depth": 2, "split": "f0", "split_condition": 1.52947164, "yes": 13, "no": 14, "missing": 13, "children": [
        { "nodeid": 13, "leaf": -0.0918696523 },
        { "nodeid": 14, "leaf": 0.00143392838 }
      ]}
    ]}
  ]},
  { "nodeid": 0, "depth": 0, "split": "f4", "split_condition": -1.8414619, "yes": 1, "no": 2, "missing": 1, "children": [
    { "nodeid": 1, "depth": 1, "split": "f4", "split_condition": -1.85484898, "yes": 3, "no": 4, "missing": 3, "children": [
      { "nodeid": 3, "depth": 2, "split": "f3", "split_condition": 0.302971721, "yes": 7, "no": 8, "missing": 7, "children": [
        { "nodeid": 7, "leaf": -0.00744351512 },
        { "nodeid": 8, "leaf": 0.0081007136 }
      ]},
      { "nodeid": 4, "depth": 2, "split": "f1", "split_condition": 0.868086338, "yes": 9, "no": 10, "missing": 9, "children": [
        { "nodeid": 9, "leaf": -0.103246644 },
        { "nodeid": 10, "leaf": -0.0212469753 }
      ]}
    ]},
    { "nodeid": 2, "depth": 1, "split": "f4", "split_condition": -1.75915182, "yes": 5, "no": 6, "missing": 5, "children": [
      { "nodeid": 5, "depth": 2, "split": "f2", "split_condition": -1.11564791, "yes": 11, "no": 12, "missing": 11, "children": [
        { "nodeid": 11, "leaf": -0.0189239513 },
        { "nodeid": 12, "leaf": 0.0231189188 }
      ]},
      { "nodeid": 6, "depth": 2, "split": "f4", "split_condition": -1.75249541, "yes": 13, "no": 14, "missing": 13, "children": [
        { "nodeid": 13, "leaf": -0.0458454601 },
        { "nodeid": 14, "leaf": 4.86280624e-05 }
      ]}
    ]}
  ]},
  { "nodeid": 0, "depth": 0, "split": "f0", "split_condition": -1.30765057, "yes": 1, "no": 2, "missing": 1, "children": [
    { "nodeid": 1, "depth": 1, "split": "f1", "split_condition": 0.582587361, "yes": 3, "no": 4, "missing": 3, "children": [
      { "nodeid": 3, "depth": 2, "split": "f0", "split_condition": -1.31550264, "yes": 7, "no": 8, "missing": 7, "children": [
        { "nodeid": 7, "leaf": -0.0049431622 },
        { "nodeid": 8, "leaf": -0.057927426 }
      ]},
      { "nodeid": 4, "depth": 2, "split": "f4", "split_condition": 0.532620251, "yes": 9, "no": 10, "missing": 9, "children": [
        { "nodeid": 9, "leaf": -0.00102121604 },
        { "nodeid": 10, "leaf": 0.0229573175 }
      ]}
    ]},
    { "nodeid": 2, "depth": 1, "split": "f0", "split_condition": -1.27805305, "yes": 5, "no": 6, "missing": 5, "children": [
      { "nodeid": 5, "depth": 2, "split": "f3", "split_condition": 0.331077218, "yes": 11, "no": 12, "missing": 11, "children": [
        { "nodeid": 11, "leaf": 0.012158134 },
        { "nodeid": 12, "leaf": 0.0557484925 }
      ]},
      { "nodeid": 6, "depth": 2, "split": "f4", "split_condition": -0.447577417, "yes": 13, "no": 14, "missing": 13, "children": [
        { "nodeid": 13, "leaf": 0.00178002601 },
        { "nodeid": 14, "leaf": -0.000743392622 }
      ]}
    ]}
  ]},
  { "nodeid": 0, "depth": 0, "split": "f1", "split_condition": -3.41858387, "yes": 1, "no": 2, "missing": 1, "children": [
    { "nodeid": 1, "depth": 1, "split": "f0", "split_condition": 0.661351323, "yes": 3, "no": 4, "missing": 3, "children": [
      { "nodeid": 3, "depth": 2, "split": "f0", "split_condition": -0.690896809, "yes": 7, "no": 8, "missing": 7, "children": [
        { "nodeid": 7, "leaf": -0.010984391 },
        { "nodeid": 8, "leaf": 0.122069255 }
      ]},
      { "nodeid": 4, "depth": 2, "split": "f4", "split_condition": 0.00485054031, "yes": 9, "no": 10, "missing": 9, "children": [
        { "nodeid": 9, "leaf": -0.0852691457 },
        { "nodeid": 10, "leaf": 0.00189605996 }
      ]}
    ]},
    { "nodeid": 2, "depth": 1, "split": "f1", "split_condition": -3.38684082, "yes": 5, "no": 6, "missing": 5, "children": [
      { "nodeid": 5, "leaf": -0.107693508 },
      { "nodeid": 6, "depth": 2, "split": "f1", "split_condition": -2.66634846, "yes": 11, "no": 12, "missing": 11, "children": [
        { "nodeid": 11, "leaf": -0.0136883352 },
        { "nodeid": 12, "leaf": 4.21841942e-05 }
      ]}
    ]}
  ]},
  { "nodeid": 0, "depth": 0, "split": "f1", "split_condition": 1.90902853, "yes": 1, "no": 2, "missing": 1, "children": [
    { "nodeid": 1, "depth": 1, "split": "f1", "split_condition": 1.8801682, "yes": 3, "no": 4, "missing": 3, "children": [
      { "nodeid": 3, "depth": 2, "split": "f1", "split_condition": 1.87088871, "yes": 7, "no": 8, "missing": 7, "children": [
        { "nodeid": 7, "leaf": 0.000114047914 },
        { "nodeid": 8, "leaf": -0.0386283807 }
      ]},
      { "nodeid": 4, "depth": 2, "split": "f4", "split_condition": 1.00365376, "yes": 9, "no": 10, "missing": 9, "children": [
        { "nodeid": 9, "leaf": 0.0389609449 },
        { "nodeid": 10, "leaf": -0.0372064598 }
      ]}
    ]},
    { "nodeid": 2, "depth": 1, "split": "f1", "split_condition": 1.9353646, "yes": 5, "no": 6, "missing": 5, "children": [
      { "nodeid": 5, "depth": 2, "split": "f0", "split_condition": 1.01770473, "yes": 11, "no": 12, "missing": 11, "children": [
        { "nodeid": 11, "leaf": -0.0502718054 },
        { "nodeid": 12, "leaf": 0.0383467972 }
      ]},
      { "nodeid": 6, "depth": 2, "split": "f0", "split_condition": -0.554464221, "yes": 13, "no": 14, "missing": 13, "children": [
        { "nodeid": 13, "leaf": 0.0119532589 },
        { "nodeid": 14, "leaf": -0.00867819879 }
      ]}
    ]}
  ]},
  { "nodeid": 0, "depth": 0, "split": "f2", "split_condition": 1.90782952, "yes": 1, "no": 2, "missing": 1, "children": [
    { "nodeid": 1, "depth": 1, "split": "f2", "split_condition": 1.90473521, "yes": 3, "no": 4, "missing": 3, "children": [
      { "nodeid": 3, "depth": 2, "split": "f2", "split_condition": 1.77494895, "yes": 7, "no": 8, "missing": 7, "children": [
        { "nodeid": 7, "leaf": 7.86653709e-06 },
        { "nodeid": 8, "leaf": -0.0120822284 }
      ]},
      { "nodeid": 4, "leaf": -0.121162795 }
    ]},
    { "nodeid": 2, "depth": 1, "split": "f2", "split_condition": 1.91110778, "yes": 5, "no": 6, "missing": 5, "children": [
      { "nodeid": 5, "depth": 2, "split": "f0", "split_condition": -1.08096373, "yes": 9, "no": 10, "missing": 9, "children": [
        { "nodeid": 9, "leaf": -0.0753143951 },
        { "nodeid": 10, "leaf": 0.1493157 }
      ]},
      { "nodeid": 6, "depth": 2, "split": "f4", "split_condition": -1.54607487, "yes": 11, "no": 12, "missing": 11, "children": [
        { "nodeid": 11, "leaf": 0.0323219262 },
        { "nodeid": 12, "leaf": 0.00185740553 }
      ]}
    ]}
  ]},
  { "nodeid": 0, "depth": 0, "split": "f4", "split_condition": -1.97134566, "yes": 1, "no": 2, "missing": 1, "children": [
    { "nodeid": 1, "depth": 1, "split": "f4", "split_condition": -1.97498822, "yes": 3, "no": 4, "missing": 3, "children": [
      { "nodeid": 3, "depth": 2, "split": "f3", "split_condition": -2.3617239, "yes": 7, "no": 8, "missing": 7, "children": [
        { "nodeid": 7, "leaf": 0.0830881 },
        { "nodeid": 8, "leaf": -0.00485680765 }
      ]},
      { "nodeid": 4, "depth": 2, "split": "f3", "split_condition": 0.0383998044, "yes": 9, "no": 10, "missing": 9, "children": [
        { "nodeid": 9, "leaf": -0.140328839 },
        { "nodeid": 10, "leaf": -0.00132347259 }
      ]}
    ]},
    { "nodeid": 2, "depth": 1, "split": "f4", "split_condition": -1.91494584, "yes": 5, "no": 6, "missing": 5, "children": [
      { "nodeid": 5, "depth": 2, "split": "f3", "split_condition": 0.718111813, "yes": 11, "no": 12, "missing": 11, "children": [
        { "nodeid": 11, "leaf": 0.0113952402 },
        { "nodeid": 12, "leaf": 0.0726213381 }
      ]},
      { "nodeid": 6, "depth": 2, "split": "f4", "split_condition": -1.90915608, "yes": 13, "no": 14, "missing": 13, "children": [
        { "nodeid": 13, "leaf": -0.0738771409 },
        { "nodeid": 14, "leaf": 5.97891885e-05 }
      ]}
    ]}
  ]},
  { "nodeid": 0, "depth": 0, "split": "f3", "split_condition": 1.00285602, "yes": 1, "no": 2, "missing": 1, "children": [
    { "nodeid": 1, "depth": 1, "split": "f3", "split_condition": 0.990908861, "yes": 3, "no": 4, "missing": 3, "children": [
      { "nodeid": 3, "depth": 2, "split": "f3", "split_condition": 0.984999597, "yes": 7, "no": 8, "missing": 7, "children": [
        { "nodeid": 7, "leaf": 0.00027490416 },
        { "nodeid": 8, "leaf": -0.0304973274 }
      ]},
      { "nodeid": 4, "depth": 2, "split": "f4", "split_condition": -0.976461649, "yes": 9, "no": 10, "missing": 9, "children": [
        { "nodeid": 9, "leaf": -0.0500704423 },
        { "nodeid": 10, "leaf": 0.0526835881 }
      ]}
    ]},
    { "nodeid": 2, "depth": 1, "split": "f1", "split_condition": -1.74762177, "yes": 5, "no": 6, "missing": 5, "children": [
      { "nodeid": 5, "depth": 2, "split": "f2", "split_condition": -0.999948919, "yes": 11, "no": 12, "missing": 11, "children": [
        { "nodeid": 11, "leaf": 0.061851766 },
        { "nodeid": 12, "leaf": 0.0146860247 }
      ]},
      { "nodeid": 6, "depth": 2, "split": "f1", "split_condition": -1.63224816, "yes": 13, "no": 14, "missing": 13, "children": [
        { "nodeid": 13, "leaf": -0.0400265642 },
        { "nodeid": 14, "leaf": -0.00233985484 }
      ]}
    ]}
  ]},
  { "nodeid": 0, "depth": 0, "split": "f4", "split_condition": -3.2782774, "yes": 1, "no": 2, "missing": 1, "children": [
    { "nodeid": 1, "depth": 1, "split": "f4", "split_condition": -3.36685371, "yes": 3, "no": 4, "missing": 3, "children": [
      { "nodeid": 3, "depth": 2, "split": "f0", "split_condition": -0.0363861173, "yes": 7, "no": 8, "missing": 7, "children": [
        { "nodeid": 7, "leaf": 0.0379517414 },
        { "nodeid": 8, "leaf": -0.046109017 }
      ]},
      { "nodeid": 4, "depth": 2, "split": "f4", "split_condition": -3.32210875, "yes": 9, "no": 10, "missing": 9, "children": [
        { "nodeid": 9, "leaf": 0.0433589295 },
        { "nodeid": 10, "leaf": 0.125023231 }
      ]}
    ]},
    { "nodeid": 2, "depth": 1, "split": "f4", "split_condition": -3.03863621, "yes": 5, "no": 6, "missing": 5, "children": [
      { "nodeid": 5, "depth": 2, "split": "f3", "split_condition": -0.202299476, "yes": 11, "no": 12, "missing": 11, "children": [
        { "nodeid": 11, "leaf": 0.00300248503 },
        { "nodeid": 12, "leaf": -0.0688206553 }
      ]},
      { "nodeid": 6, "depth": 2, "split": "f4", "split_condition": -2.89575839, "yes": 13, "no": 14, "missing": 13, "children": [
        { "nodeid": 13, "leaf": 0.033913631 },
        { "nodeid": 14, "leaf": -1.55462094e-05 }
      ]}
    ]}
  ]},
  { "nodeid": 0, "depth": 0, "split": "f3", "split_condition": 2.76976466, "yes": 1, "no": 2, "missing": 1, "children": [
    { "nodeid": 1, "depth": 1, "split": "f3", "split_condition": 2.76203871, "yes": 3, "no": 4, "missing": 3, "children": [
      { "nodeid": 3, "depth": 2, "split": "f3", "split_condition": 1.96191347, "yes": 7, "no": 8, "missing": 7, "children": [
        { "nodeid": 7, "leaf": 0.000105257102 },
        { "nodeid": 8, "leaf": -0.00609435281 }
      ]},
      { "nodeid": 4, "leaf": -0.112990521 }
    ]},
    { "nodeid": 2, "depth": 1, "split": "f4", "split_condition": 1.25168562, "yes": 5, "no": 6, "missing": 5, "children": [
      { "nodeid": 5, "depth": 2, "split": "f3", "split_condition": 2.82186508, "yes": 9, "no": 10, "missing": 9, "children": [
        { "nodeid": 9, "leaf": 0.081714429 },
        { "nodeid": 10, "leaf": 0.0106107844 }
      ]},
      { "nodeid": 6, "depth": 2, "split": "f3", "split_condition": 2.8460598, "yes": 11, "no": 12, "missing": 11, "children": [
        { "nodeid": 11, "leaf": -0.122935355 },
        { "nodeid": 12, "leaf": -0.00680440804 }
      ]}
    ]}
  ]},
  { "nodeid": 0, "depth": 0, "split": "f3", "split_condition": -3.60380316, "yes": 1, "no": 2, "missing": 1, "children": [
    { "nodeid": 1, "leaf": 0.0712366626 },
    { "nodeid": 2, "depth": 1, "split": "f3", "split_condition": -2.61758971, "yes": 3, "no": 4, "missing": 3, "children": [
      { "nodeid": 3, "depth": 2, "split": "f4", "split_condition": 0.772370934, "yes": 5, "no": 6, "missing": 5, "children": [
        { "nodeid": 5, "leaf": -0.0223718714 },
        { "nodeid": 6, "leaf": 0.0202638246 }
      ]},
      { "nodeid": 4, "depth": 2, "split": "f3", "split_condition": -2.42657852, "yes": 7, "no": 8, "missing": 7, "children": [
        { "nodeid": 7, "leaf": 0.0244353395 },
        { "nodeid": 8, "leaf": -3.02817698e-05 }
      ]}
    ]}
  ]},
  { "nodeid": 0, "depth": 0, "split": "f0", "split_condition": -2.75393581, "yes": 1, "no": 2, "missing": 1, "children": [
    { "nodeid": 1, "depth": 1, "split": "f4", "split_condition": -0.542402327, "yes": 3, "no": 4, "missing": 3, "children": [
      { "nodeid": 3, "depth": 2, "split": "f3", "split_condition": -1.17792904, "yes": 7, "no": 8, "missing": 7, "children": [
        { "nodeid": 7, "leaf": -0.0520039275 },
        { "nodeid": 8, "leaf": 0.0659167096 }
      ]},
      { "nodeid": 4, "depth": 2, "split": "f3", "split_condition": -1.41400039, "yes": 9, "no": 10, "missing": 9, "children": [
        { "nodeid": 9, "leaf": 0.090061903 },
        { "nodeid": 10, "leaf": -0.0109310923 }
      ]}
    ]},
    { "nodeid": 2, "depth": 1, "split": "f0", "split_condition": -2.6968925, "yes": 5, "no": 6, "missing": 5, "children": [
      { "nodeid": 5, "depth": 2, "split": "f1", "split_condition": 0.554854393, "yes": 11, "no": 12, "missing": 11, "children": [
        { "nodeid": 11, "leaf": -0.0741495416 },
        { "nodeid": 12, "leaf": 0.0643160194 }
      ]},
      { "nodeid": 6, "depth": 2, "split": "f0", "split_condition": -2.63040495, "yes": 13, "no": 14, "missing": 13, "children": [
        { "nodeid": 13, "leaf": 0.0342690945 },
        { "nodeid": 14, "leaf": -5.06102188e-05 }
      ]}
    ]}
  ]},
  { "nodeid": 0, "depth": 0, "split": "f0", "split_condition": 3.88283753, "yes": 1, "no": 2, "missing": 1, "children": [
    { "nodeid": 1, "depth": 1, "split": "f0", "split_condition": 2.57155561, "yes": 3, "no": 4, "missing": 3, "children": [
      { "nodeid": 3, "depth": 2, "split": "f0", "split_condition": 2.54446983, "yes": 5, "no": 6, "missing": 5, "children": [
        { "nodeid": 5, "leaf": -3.10664873e-05 },
        { "nodeid": 6, "leaf": -0.038845256 }
      ]},
      { "nodeid": 4, "depth": 2, "split": "f4", "split_condition": 1.86119938, "yes": 7, "no": 8, "missing": 7, "children": [
        { "nodeid": 7, "leaf": 0.0159207676 },
        { "nodeid": 8, "leaf": -0.07827916 }
      ]}
    ]},
    { "nodeid": 2, "leaf": -0.0753156096 }
  ]},
  { "nodeid": 0, "depth": 0, "split": "f0", "split_condition": 3.14304256, "yes": 1, "no": 2, "missing": 1, "children": [
    { "nodeid": 1, "depth": 1, "split": "f0", "split_condition": 3.09214973, "yes": 3, "no": 4, "missing": 3, "children": [
      { "nodeid": 3, "depth": 2, "split": "f0", "split_condition": 2.57155561, "yes": 7, "no": 8, "missing": 7, "children": [
        { "nodeid": 7, "leaf": -4.3565884e-05 },
        { "nodeid": 8, "leaf": 0.0124269631 }
      ]},
      { "nodeid": 4, "leaf": 0.111753479 }
    ]},
    { "nodeid": 2, "depth": 1, "split": "f3", "split_condition": -0.751223922, "yes": 5, "no": 6, "missing": 5, "children": [
