[
  { "nodeid": 0, "depth": 0, "split": "f1", "split_condition": 127.5, "yes": 1, "no": 2, "missing": 1, "children": [
    { "nodeid": 1, "depth": 1, "split": "f1", "split_condition": 101.5, "yes": 3, "no": 4, "missing": 3, "children": [
      { "nodeid": 3, "depth": 2, "split": "f4", "split_condition": 170, "yes": 7, "no": 8, "missing": 7, "children": [
        { "nodeid": 7, "leaf": -0.169032261 },
        { "nodeid": 8, "leaf": -0 }
      ]},
      { "nodeid": 4, "depth": 2, "split": "f0", "split_condition": 4.5, "yes": 9, "no": 10, "missing": 9, "children": [
        { "nodeid": 9, "leaf": -0.11260505 },
        { "nodeid": 10, "leaf": -0.0258064512 }
      ]}
    ]},
    { "nodeid": 2, "depth": 1, "split": "f1", "split_condition": 159.5, "yes": 5, "no": 6, "missing": 5, "children": [
      { "nodeid": 5, "depth": 2, "split": "f3", "split_condition": 31.5, "yes": 11, "no": 12, "missing": 11, "children": [
        { "nodeid": 11, "leaf": -0.0265060253 },
        { "nodeid": 12, "leaf": 0.0666666701 }
      ]},
      { "nodeid": 6, "depth": 2, "split": "f1", "split_condition": 166.5, "yes": 13, "no": 14, "missing": 13, "children": [
        { "nodeid": 13, "leaf": 0.0600000024 },
        { "nodeid": 14, "leaf": 0.132075474 }
      ]}
    ]}
  ]},
  { "nodeid": 0, "depth": 0, "split": "f1", "split_condition": 127.5, "yes": 1, "no": 2, "missing": 1, "children": [
    { "nodeid": 1, "depth": 1, "split": "f0", "split_condition": 4.5, "yes": 3, "no": 4, "missing": 3, "children": [
      { "nodeid": 3, "depth": 2, "split": "f1", "split_condition": 103.5, "yes": 7, "no": 8, "missing": 7, "children": [
        { "nodeid": 7, "leaf": -0.159832969 },
        { "nodeid": 8, "leaf": -0.100172974 }
      ]},
      { "nodeid": 4, "depth": 2, "split": "f1", "split_condition": 107.5, "yes": 9, "no": 10, "missing": 9, "children": [
        { "nodeid": 9, "leaf": -0.092548281 },
        { "nodeid": 10, "leaf": -0.00209363457 }
      ]}
    ]},
    { "nodeid": 2, "depth": 1, "split": "f1", "split_condition": 159.5, "yes": 5, "no": 6, "missing": 5, "children": [
      { "nodeid": 5, "depth": 2, "split": "f3", "split_condition": 31.5, "yes": 11, "no": 12, "missing": 11, "children": [
        { "nodeid": 11, "leaf": -0.0239873137 },
        { "nodeid": 12, "leaf": 0.0606981404 }
      ]},
      { "nodeid": 6, "depth": 2, "split": "f1", "split_condition": 166.5, "yes": 13, "no": 14, "missing": 13, "children": [
        { "nodeid": 13, "leaf": 0.0552411862 },
        { "nodeid": 14, "leaf": 0.120366327 }
      ]}
    ]}
  ]},
  { "nodeid": 0, "depth": 0, "split": "f1", "split_condition": 127.5, "yes": 1, "no": 2, "missing": 1, "children": [
    { "nodeid": 1, "depth": 1, "split": "f0", "split_condition": 4.5, "yes": 3, "no": 4, "missing": 3, "children": [
      { "nodeid": 3, "depth": 2, "split": "f1", "split_condition": 101.5, "yes": 7, "no": 8, "missing": 7, "children": [
        { "nodeid": 7, "leaf": -0.148951158 },
        { "nodeid": 8, "leaf": -0.0928202942 }
      ]},
      { "nodeid": 4, "depth": 2, "split": "f1", "split_condition": 99.5, "yes": 9, "no": 10, "missing": 9, "children": [
        { "nodeid": 9, "leaf": -0.104298845 },
        { "nodeid": 10, "leaf": -0.0173681956 }
      ]}
    ]},
    { "nodeid": 2, "depth": 1, "split": "f1", "split_condition": 159.5, "yes": 5, "no": 6, "missing": 5, "children": [
      { "nodeid": 5, "depth": 2, "split": "f2", "split_condition": 53, "yes": 11, "no": 12, "missing": 11, "children": [
        { "nodeid": 11, "leaf": 0.101657115 },
        { "nodeid": 12, "leaf": -0.0101972334 }
      ]},
      { "nodeid": 6, "depth": 2, "split": "f2", "split_condition": 92, "yes": 13, "no": 14, "missing": 13, "children": [
        { "nodeid": 13, "leaf": 0.104767002 },
        { "nodeid": 14, "leaf": 0.0265111271 }
      ]}
    ]}
  ]},
  { "nodeid": 0, "depth": 0, "split": "f1", "split_condition": 130.5, "yes": 1, "no": 2, "missing": 1, "children": [
    { "nodeid": 1, "depth": 1, "split": "f1", "split_condition": 101.5, "yes": 3, "no": 4, "missing": 3, "children": [
      { "nodeid": 3, "depth": 2, "split": "f0", "split_condition": 11.5, "yes": 7, "no": 8, "missing": 7, "children": [
        { "nodeid": 7, "leaf": -0.131048158 },
        { "nodeid": 8, "leaf": 0.0371447019 }
      ]},
      { "nodeid": 4, "depth": 2, "split": "f3", "split_condition": 43.5, "yes": 9, "no": 10, "missing": 9, "children": [
        { "nodeid": 9, "leaf": -0.0677537024 },
        { "nodeid": 10, "leaf": 0.0475471541 }
      ]}
    ]},
    { "nodeid": 2, "depth": 1, "split": "f1", "split_condition": 166.5, "yes": 5, "no": 6, "missing": 5, "children": [
      { "nodeid": 5, "depth": 2, "split": "f0", "split_condition": 7.5, "yes": 11, "no": 12, "missing": 11, "children": [
        { "nodeid": 11, "leaf": -0.00303117372 },
        { "nodeid": 12, "leaf": 0.0876429528 }
      ]},
      { "nodeid": 6, "depth": 2, "split": "f3", "split_condition": 16.5, "yes": 13, "no": 14, "missing": 13, "children": [
        { "nodeid": 13, "leaf": 0.0257471148 },
        { "nodeid": 14, "leaf": 0.130555809 }
      ]}
    ]}
  ]},
  { "nodeid": 0, "depth": 0, "split": "f1", "split_condition": 127.5, "yes": 1, "no": 2, "missing": 1, "children": [
    { "nodeid": 1, "depth": 1, "split": "f0", "split_condition": 3.5, "yes": 3, "no": 4, "missing": 3, "children": [
      { "nodeid": 3, "depth": 2, "split": "f2", "split_condition": 79, "yes": 7, "no": 8, "missing": 7, "children": [
        { "nodeid": 7, "leaf": -0.120586053 },
        { "nodeid": 8, "leaf": -0.0479375757 }
      ]},
      { "nodeid": 4, "depth": 2, "split": "f1", "split_condition": 99.5, "yes": 9, "no": 10, "missing": 9, "children": [
        { "nodeid": 9, "leaf": -0.0951354653 },
        { "nodeid": 10, "leaf": -0.0152899949 }
      ]}
    ]},
    { "nodeid": 2, "depth": 1, "split": "f1", "split_condition": 159.5, "yes": 5, "no": 6, "missing": 5, "children": [
      { "nodeid": 5, "depth": 2, "split": "f3", "split_condition": 31.5, "yes": 11, "no": 12, "missing": 11, "children": [
        { "nodeid": 11, "leaf": -0.0216340199 },
        { "nodeid": 12, "leaf": 0.0540985055 }
      ]},
      { "nodeid": 6, "depth": 2, "split": "f2", "split_condition": 92, "yes": 13, "no": 14, "missing": 13, "children": [
        { "nodeid": 13, "leaf": 0.090542458 },
        { "nodeid": 14, "leaf": 0.0198141579 }
      ]}
    ]}
  ]},
  { "nodeid": 0, "depth": 0, "split": "f1", "split_condition": 130.5, "yes": 1, "no": 2, "missing": 1, "children": [
    { "nodeid": 1, "depth": 1, "split": "f1", "split_condition": 114.5, "yes": 3, "no": 4, "missing": 3, "children": [
      { "nodeid": 3, "depth": 2, "split": "f0", "split_condition": 4.5, "yes": 7, "no": 8, "missing": 7, "children": [
        { "nodeid": 7, "leaf": -0.11168655 },
        { "nodeid": 8, "leaf": -0.0530171655 }
      ]},
      { "nodeid": 4, "depth": 2, "split": "f3", "split_condition": 38, "yes": 9, "no": 10, "missing": 9, "children": [
        { "nodeid": 9, "leaf": -0.0449015014 },
        { "nodeid": 10, "leaf": 0.0557852462 }
      ]}
    ]},
    { "nodeid": 2, "depth": 1, "split": "f1", "split_condition": 166.5, "yes": 5, "no": 6, "missing": 5, "children": [
      { "nodeid": 5, "depth": 2, "split": "f2", "split_condition": 61, "yes": 11, "no": 12, "missing": 11, "children": [
        { "nodeid": 11, "leaf": 0.094509162 },
        { "nodeid": 12, "leaf": -0.00216995133 }
      ]},
      { "nodeid": 6, "depth": 2, "split": "f3", "split_condition": 16.5, "yes": 13, "no": 14, "missing": 13, "children": [
        { "nodeid": 13, "leaf": 0.0174030736 },
        { "nodeid": 14, "leaf": 0.116873108 }
      ]}
    ]}
  ]},
  { "nodeid": 0, "depth": 0, "split": "f1", "split_condition": 144.5, "yes": 1, "no": 2, "missing": 1, "children": [
    { "nodeid": 1, "depth": 1, "split": "f1", "split_condition": 114.5, "yes": 3, "no": 4, "missing": 3, "children": [
      { "nodeid": 3, "depth": 2, "split": "f4", "split_condition": 152, "yes": 7, "no": 8, "missing": 7, "children": [
        { "nodeid": 7, "leaf": -0.0962626785 },
        { "nodeid": 8, "leaf": -0.0073019634 }
      ]},
      { "nodeid": 4, "depth": 2, "split": "f3", "split_condition": 34, "yes": 9, "no": 10, "missing": 9, "children": [
        { "nodeid": 9, "leaf": -0.037119031 },
        { "nodeid": 10, "leaf": 0.0352324285 }
      ]}
    ]},
    { "nodeid": 2, "depth": 1, "split": "f0", "split_condition": 6.5, "yes": 5, "no": 6, "missing": 5, "children": [
      { "nodeid": 5, "depth": 2, "split": "f1", "split_condition": 165.5, "yes": 11, "no": 12, "missing": 11, "children": [
        { "nodeid": 11, "leaf": -0.0167884491 },
        { "nodeid": 12, "leaf": 0.0755494311 }
      ]},
      { "nodeid": 6, "depth": 2, "split": "f1", "split_condition": 178.5, "yes": 13, "no": 14, "missing": 13, "children": [
        { "nodeid": 13, "leaf": 0.124845199 },
        { "nodeid": 14, "leaf": 0.0459483378 }
      ]}
    ]}
  ]},
  { "nodeid": 0, "depth": 0, "split": "f1", "split_condition": 114.5, "yes": 1, "no": 2, "missing": 1, "children": [
    { "nodeid": 1, "depth": 1, "split": "f0", "split_condition": 4.5, "yes": 3, "no": 4, "missing": 3, "children": [
      { "nodeid": 3, "depth": 2, "split": "f3", "split_condition": 41.5, "yes": 7, "no": 8, "missing": 7, "children": [
        { "nodeid": 7, "leaf": -0.106742799 },
        { "nodeid": 8, "leaf": 0.0082272226 }
      ]},
      { "nodeid": 4, "depth": 2, "split": "f4", "split_condition": 127.5, "yes": 9, "no": 10, "missing": 9, "children": [
        { "nodeid": 9, "leaf": -0.0586533062 },
        { "nodeid": 10, "leaf": 0.0497634783 }
      ]}
    ]},
    { "nodeid": 2, "depth": 1, "split": "f1", "split_condition": 144.5, "yes": 5, "no": 6, "missing": 5, "children": [
      { "nodeid": 5, "depth": 2, "split": "f2", "split_condition": 42, "yes": 11, "no": 12, "missing": 11, "children": [
        { "nodeid": 11, "leaf": 0.0747729838 },
        { "nodeid": 12, "leaf": -0.0286454596 }
      ]},
      { "nodeid": 6, "depth": 2, "split": "f0", "split_condition": 6.5, "yes": 13, "no": 14, "missing": 13, "children": [
        { "nodeid": 13, "leaf": 0.0274013672 },
        { "nodeid": 14, "leaf": 0.102716602 }
      ]}
    ]}
  ]},
  { "nodeid": 0, "depth": 0, "split": "f1", "split_condition": 114.5, "yes": 1, "no": 2, "missing": 1, "children": [
    { "nodeid": 1, "depth": 1, "split": "f0", "split_condition": 4.5, "yes": 3, "no": 4, "missing": 3, "children": [
      { "nodeid": 3, "depth": 2, "split": "f3", "split_condition": 41.5, "yes": 7, "no": 8, "missing": 7, "children": [
        { "nodeid": 7, "leaf": -0.100821517 },
        { "nodeid": 8, "leaf": 0.0076292525 }
      ]},
      { "nodeid": 4, "depth": 2, "split": "f4", "split_condition": 127.5, "yes": 9, "no": 10, "missing": 9, "children": [
        { "nodeid": 9, "leaf": -0.0540435724 },
        { "nodeid": 10, "leaf": 0.046007704 }
      ]}
    ]},
    { "nodeid": 2, "depth": 1, "split": "f1", "split_condition": 144.5, "yes": 5, "no": 6, "missing": 5, "children": [
      { "nodeid": 5, "depth": 2, "split": "f2", "split_condition": 42, "yes": 11, "no": 12, "missing": 11, "children": [
        { "nodeid": 11, "leaf": 0.0692119449 },
        { "nodeid": 12, "leaf": -0.0259445887 }
      ]},
      { "nodeid": 6, "depth": 2, "split": "f0", "split_condition": 6.5, "yes": 13, "no": 14, "missing": 13, "children": [
        { "nodeid": 13, "leaf": 0.0249310136 },
        { "nodeid": 14, "leaf": 0.0957768559 }
      ]}
    ]}
  ]},
  { "nodeid": 0, "depth": 0, "split": "f1", "split_condition": 114.5, "yes": 1, "no": 2, "missing": 1, "children": [
    { "nodeid": 1, "depth": 1, "split": "f3", "split_condition": 30.5, "yes": 3, "no": 4, "missing": 3, "children": [
      { "nodeid": 3, "depth": 2, "split": "f0", "split_condition": 11.5, "yes": 7, "no": 8, "missing": 7, "children": [
        { "nodeid": 7, "leaf": -0.0914354548 },
        { "nodeid": 8, "leaf": 0.0441951677 }
      ]},
      { "nodeid": 4, "depth": 2, "split": "f3", "split_condition": 31.5, "yes": 9, "no": 10, "missing": 9, "children": [
        { "nodeid": 9, "leaf": 0.0707748458 },
        { "nodeid": 10, "leaf": -0.0413992144 }
      ]}
    ]},
    { "nodeid": 2, "depth": 1, "split": "f1", "split_condition": 144.5, "yes": 5, "no": 6, "missing": 5, "children": [
      { "nodeid": 5, "depth": 2, "split": "f3", "split_condition": 34, "yes": 11, "no": 12, "missing": 11, "children": [
        { "nodeid": 11, "leaf": -0.0301998015 },
        { "nodeid": 12, "leaf": 0.0364657752 }
      ]},
      { "nodeid": 6, "depth": 2, "split": "f0", "split_condition": 6.5, "yes": 13, "no": 14, "missing": 13, "children": [
        { "nodeid": 13, "leaf": 0.0226807352 },
        { "nodeid": 14, "leaf": 0.089539364 }
      ]}
    ]}
  ]},
  { "nodeid": 0, "depth": 0, "split": "f1", "split_condition": 114.5, "yes": 1, "no": 2, "missing": 1, "children": [
    { "nodeid": 1, "depth": 1, "split": "f0", "split_condition": 4.5, "yes": 3, "no": 4, "missing": 3, "children": [
      { "nodeid": 3, "depth": 2, "split": "f3", "split_condition": 41.5, "yes": 7, "no": 8, "missing": 7, "children": [
        { "nodeid": 7, "leaf": -0.0911733508 },
        { "nodeid": 8, "leaf": 0.0100890277 }
      ]},
      { "nodeid": 4, "depth": 2, "split": "f4", "split_condition": 127.5, "yes": 9, "no": 10, "missing": 9, "children": [
        { "nodeid": 9, "leaf": -0.0447440483 },
        { "nodeid": 10, "leaf": 0.0455242433 }
      ]}
    ]},
    { "nodeid": 2, "depth": 1, "split": "f1", "split_condition": 166.5, "yes": 5, "no": 6, "missing": 5, "children": [
      { "nodeid": 5, "depth": 2, "split": "f2", "split_condition": 53, "yes": 11, "no": 12, "missing": 11, "children": [
        { "nodeid": 11, "leaf": 0.0650451705 },
        { "nodeid": 12, "leaf": -0.0151451919 }
      ]},
      { "nodeid": 6, "depth": 2, "split": "f3", "split_condition": 25.5, "yes": 13, "no": 14, "missing": 13, "children": [
        { "nodeid": 13, "leaf": 0.00903311465 },
        { "nodeid": 14, "leaf": 0.106379382 }
      ]}
    ]}
  ]},
  { "nodeid": 0, "depth": 0, "split": "f1", "split_condition": 101.5, "yes": 1, "no": 2, "missing": 1, "children": [
    { "nodeid": 1, "depth": 1, "split": "f4", "split_condition": 170, "yes": 3, "no": 4, "missing": 3, "children": [
      { "nodeid": 3, "depth": 2, "split": "f3", "split_condition": 30.5, "yes": 7, "no": 8, "missing": 7, "children": [
        { "nodeid": 7, "leaf": -0.105527796 },
        { "nodeid": 8, "leaf": -0.0314773135 }
      ]},
      { "nodeid": 4, "leaf": 0.0332234129 }
    ]},
    { "nodeid": 2, "depth": 1, "split": "f1", "split_condition": 144.5, "yes": 5, "no": 6, "missing": 5, "children": [
      { "nodeid": 5, "depth": 2, "split": "f3", "split_condition": 34.5, "yes": 9, "no": 10, "missing": 9, "children": [
        { "nodeid": 9, "leaf": -0.0317749493 },
        { "nodeid": 10, "leaf": 0.0202491581 }
      ]},
      { "nodeid": 6, "depth": 2, "split": "f0", "split_condition": 6.5, "yes": 11, "no": 12, "missing": 11, "children": [
        { "nodeid": 11, "leaf": 0.0186111815 },
        { "nodeid": 12, "leaf": 0.0830915794 }
      ]}
    ]}
  ]},
  { "nodeid": 0, "depth": 0, "split": "f1", "split_condition": 101.5, "yes": 1, "no": 2, "missing": 1, "children": [
    { "nodeid": 1, "depth": 1, "split": "f4", "split_condition": 170, "yes": 3, "no": 4, "missing": 3, "children": [
      { "nodeid": 3, "depth": 2, "split": "f1", "split_condition": 50, "yes": 7, "no": 8, "missing": 7, "children": [
        { "nodeid": 7, "leaf": 0.0291817542 },
        { "nodeid": 8, "leaf": -0.0921304747 }
      ]},
      { "nodeid": 4, "leaf": 0.0309368856 }
    ]},
    { "nodeid": 2, "depth": 1, "split": "f1", "split_condition": 144.5, "yes": 5, "no": 6, "missing": 5, "children": [
      { "nodeid": 5, "depth": 2, "split": "f0", "split_condition": 3.5, "yes": 9, "no": 10, "missing": 9, "children": [
        { "nodeid": 9, "leaf": -0.0383217409 },
        { "nodeid": 10, "leaf": 0.00550705381 }
      ]},
      { "nodeid": 6, "depth": 2, "split": "f0", "split_condition": 7.5, "yes": 11, "no": 12, "missing": 11, "children": [
        { "nodeid": 11, "leaf": 0.0203444492 },
        { "nodeid": 12, "leaf": 0.087637499 }
      ]}
    ]}
  ]},
  { "nodeid": 0, "depth": 0, "split": "f1", "split_condition": 101.5, "yes": 1, "no": 2, "missing": 1, "children": [
    { "nodeid": 1, "depth": 1, "split": "f0", "split_condition": 11.5, "yes": 3, "no": 4, "missing": 3, "children": [
      { "nodeid": 3, "depth": 2, "split": "f1", "split_condition": 50, "yes": 7, "no": 8, "missing": 7, "children": [
        { "nodeid": 7, "leaf": 0.0274484362 },
        { "nodeid": 8, "leaf": -0.086360015 }
      ]},
      { "nodeid": 4, "leaf": 0.0495013595 }
    ]},
    { "nodeid": 2, "depth": 1, "split": "f1", "split_condition": 166.5, "yes": 5, "no": 6, "missing": 5, "children": [
      { "nodeid": 5, "depth": 2, "split": "f0", "split_condition": 7.5, "yes": 9, "no": 10, "missing": 9, "children": [
        { "nodeid": 9, "leaf": -0.0214294959 },
        { "nodeid": 10, "leaf": 0.0415663011 }
      ]},
      { "nodeid": 6, "depth": 2, "split": "f3", "split_condition": 25.5, "yes": 11, "no": 12, "missing": 11, "children": [
        { "nodeid": 11, "leaf": 0.00255702785 },
        { "nodeid": 12, "leaf": 0.0985719413 }
      ]}
    ]}
  ]},
  { "nodeid": 0, "depth": 0, "split": "f1", "split_condition": 114.5, "yes": 1, "no": 2, "missing": 1, "children": [
    { "nodeid": 1, "depth": 1, "split": "f2", "split_condition": 61, "yes": 3, "no": 4, "missing": 3, "children": [
      { "nodeid": 3, "depth": 2, "split": "f0", "split_condition": 6.5, "yes": 7, "no": 8, "missing": 7, "children": [
        { "nodeid": 7, "leaf": -0.107683875 },
        { "nodeid": 8, "leaf": 0.0087747192 }
      ]},
      { "nodeid": 4, "depth": 2, "split": "f4", "split_condition": 152, "yes": 9, "no": 10, "missing": 9, "children": [
        { "nodeid": 9, "leaf": -0.0467440151 },
        { "nodeid": 10, "leaf": 0.0546280816 }
      ]}
    ]},
    { "nodeid": 2, "depth": 1, "split": "f1", "split_condition": 166.5, "yes": 5, "no": 6, "missing": 5, "children": [
      { "nodeid": 5, "depth": 2, "split": "f4", "split_condition": 25, "yes": 11, "no": 12, "missing": 11, "children": [
        { "nodeid": 11, "leaf": 0.0236776639 },
        { "nodeid": 12, "leaf": -0.0275828745 }
      ]},
      { "nodeid": 6, "depth": 2, "split": "f3", "split_condition": 25.5, "yes": 13, "no": 14, "missing": 13, "children": [
        { "nodeid": 13, "leaf": 0.00235219393 },
        { "nodeid": 14, "leaf": 0.0943049639 }
      ]}
    ]}
  ]},
  { "nodeid": 0, "depth": 0, "split": "f1", "split_condition": 101.5, "yes": 1, "no": 2, "missing": 1, "children": [
    { "nodeid": 1, "depth": 1, "split": "f4", "split_condition": 170, "yes": 3, "no": 4, "missing": 3, "children": [
      { "nodeid": 3, "depth": 2, "split": "f3", "split_condition": 30.5, "yes": 7, "no": 8, "missing": 7, "children": [
        { "nodeid": 7, "leaf": -0.0924512669 },
        { "nodeid": 8, "leaf": -0.0141906682 }
      ]},
      { "nodeid": 4, "leaf": 0.0313110836 }
    ]},
    { "nodeid": 2, "depth": 1, "split": "f1", "split_condition": 154.5, "yes": 5, "no": 6, "missing": 5, "children": [
      { "nodeid": 5, "depth": 2, "split": "f0", "split_condition": 5.5, "yes": 9, "no": 10, "missing": 9, "children": [
        { "nodeid": 9, "leaf": -0.0243804175 },
        { "nodeid": 10, "leaf": 0.0206550565 }
      ]},
      { "nodeid": 6, "depth": 2, "split": "f4", "split_condition": 350, "yes": 11, "no": 12, "missing": 11, "children": [
        { "nodeid": 11, "leaf": 0.0523226149 },
        { "nodeid": 12, "leaf": -0.0241458323 }
      ]}
    ]}
  ]},
  { "nodeid": 0, "depth": 0, "split": "f1", "split_condition": 101.5, "yes": 1, "no": 2, "missing": 1, "children": [
    { "nodeid": 1, "depth": 1, "split": "f0", "split_condition": 2.5, "yes": 3, "no": 4, "missing": 3, "children": [
      { "nodeid": 3, "depth": 2, "split": "f4", "split_condition": 122.5, "yes": 7, "no": 8, "missing": 7, "children": [
        { "nodeid": 7, "leaf": -0.0995844677 },
        { "nodeid": 8, "leaf": -0.0150082437 }
      ]},
      { "nodeid": 4, "depth": 2, "split": "f3", "split_condition": 21, "yes": 9, "no": 10, "missing": 9, "children": [
        { "nodeid": 9, "leaf": -0.0602505393 },
        { "nodeid": 10, "leaf": 0.00782000273 }
      ]}
    ]},
    { "nodeid": 2, "depth": 1, "split": "f2", "split_condition": 97, "yes": 5, "no": 6, "missing": 5, "children": [
      { "nodeid": 5, "depth": 2, "split": "f2", "split_condition": 87, "yes": 11, "no": 12, "missing": 11, "children": [
        { "nodeid": 11, "leaf": 0.00336677255 },
        { "nodeid": 12, "leaf": -0.0730352327 }
      ]},
      { "nodeid": 6, "leaf": 0.0907258019 }
    ]}
  ]},
  { "nodeid": 0, "depth": 0, "split": "f1", "split_condition": 130.5, "yes": 1, "no": 2, "missing": 1, "children": [
    { "nodeid": 1, "depth": 1, "split": "f0", "split_condition": 4.5, "yes": 3, "no": 4, "missing": 3, "children": [
      { "nodeid": 3, "depth": 2, "split": "f3", "split_condition": 29.5, "yes": 7, "no": 8, "missing": 7, "children": [
        { "nodeid": 7, "leaf": -0.0696767643 },
        { "nodeid": 8, "leaf": -0.00701339403 }
      ]},
      { "nodeid": 4, "depth": 2, "split": "f2", "split_condition": 83, "yes": 9, "no": 10, "missing": 9, "children": [
        { "nodeid": 9, "leaf": 0.0137215285 },
        { "nodeid": 10, "leaf": -0.0627372935 }
      ]}
    ]},
    { "nodeid": 2, "depth": 1, "split": "f2", "split_condition": 43, "yes": 5, "no": 6, "missing": 5, "children": [
      { "nodeid": 5, "leaf": 0.117090777 },
      { "nodeid": 6, "depth": 2, "split": "f2", "split_condition": 98.5, "yes": 11, "no": 12, "missing": 11, "children": [
        { "nodeid": 11, "leaf": 0.00336247939 },
        { "nodeid": 12, "leaf": 0.101822376 }
      ]}
    ]}
  ]},
  { "nodeid": 0, "depth": 0, "split": "f1", "split_condition": 101.5, "yes": 1, "no": 2, "missing": 1, "children": [
    { "nodeid": 1, "depth": 1, "split": "f0", "split_condition": 2.5, "yes": 3, "no": 4, "missing": 3, "children": [
      { "nodeid": 3, "depth": 2, "split": "f3", "split_condition": 36.5, "yes": 7, "no": 8, "missing": 7, "children": [
        { "nodeid": 7, "leaf": -0.095444344 },
        { "nodeid": 8, "leaf": -0.015137895 }
      ]},
      { "nodeid": 4, "depth": 2, "split": "f3", "split_condition": 21, "yes": 9, "no": 10, "missing": 9, "children": [
        { "nodeid": 9, "leaf": -0.0561966076 },
        { "nodeid": 10, "leaf": 0.00714617083 }
      ]}
    ]},
    { "nodeid": 2, "depth": 1, "split": "f1", "split_condition": 166.5, "yes": 5, "no": 6, "missing": 5, "children": [
      { "nodeid": 5, "depth": 2, "split": "f4", "split_condition": 49, "yes": 11, "no": 12, "missing": 11, "children": [
        { "nodeid": 11, "leaf": 0.0142559605 },
        { "nodeid": 12, "leaf": -0.0274515692 }
      ]},
      { "nodeid": 6, "depth": 2, "split": "f3", "split_condition": 25.5, "yes": 13, "no": 14, "missing": 13, "children": [
        { "nodeid": 13, "leaf": -0.00393183017 },
        { "nodeid": 14, "leaf": 0.0891440883 }
      ]}
    ]}
  ]},
  { "nodeid": 0, "depth": 0, "split": "f1", "split_condition": 101.5, "yes": 1, "no": 2, "missing": 1, "children": [
    { "nodeid": 1, "depth": 1, "split": "f0", "split_condition": 11.5, "yes": 3, "no": 4, "missing": 3, "children": [
      { "nodeid": 3, "depth": 2, "split": "f1", "split_condition": 56.5, "yes": 7, "no": 8, "missing": 7, "children": [
        { "nodeid": 7, "leaf": 0.0315874033 },
        { "nodeid": 8, "leaf": -0.069466345 }
      ]},
      { "nodeid": 4, "leaf": 0.0493684448 }
    ]},
    { "nodeid": 2, "depth": 1, "split": "f2", "split_condition": 97, "yes": 5, "no": 6, "missing": 5, "children": [
      { "nodeid": 5, "depth": 2, "split": "f2", "split_condition": 87, "yes": 9, "no": 10, "missing": 9, "children": [
        { "nodeid": 9, "leaf": 0.00427124975 },
        { "nodeid": 10, "leaf": -0.0665659532 }
      ]},
      { "nodeid": 6, "leaf": 0.0827299878 }
    ]}
  ]},
  { "nodeid": 0, "depth": 0, "split": "f1", "split_condition": 127.5, "yes": 1, "no": 2, "missing": 1, "children": [
    { "nodeid": 1, "depth": 1, "split": "f4", "split_condition": 7.5, "yes": 3, "no": 4, "missing": 3, "children": [
      { "nodeid": 3, "depth": 2, "split": "f1", "split_condition": 112.5, "yes": 7, "no": 8, "missing": 7, "children": [
        { "nodeid": 7, "leaf": -0.0250950009 },
        { "nodeid": 8, "leaf": 0.0307961497 }
      ]},
      { "nodeid": 4, "depth": 2, "split": "f4", "split_condition": 154, "yes": 9, "no": 10, "missing": 9, "children": [
        { "nodeid": 9, "leaf": -0.0824083015 },
        { "nodeid": 10, "leaf": 0.00539038656 }
      ]}
    ]},
    { "nodeid": 2, "depth": 1, "split": "f3", "split_condition": 31.5, "yes": 5, "no": 6, "missing": 5, "children": [
      { "nodeid": 5, "depth": 2, "split": "f2", "split_condition": 23, "yes": 11, "no": 12, "missing": 11, "children": [
        { "nodeid": 11, "leaf": 0.0907569081 },
        { "nodeid": 12, "leaf": -0.0172289126 }
      ]},
      { "nodeid": 6, "depth": 2, "split": "f4", "split_condition": 405, "yes": 13, "no": 14, "missing": 13, "children": [
        { "nodeid": 13, "leaf": 0.0678735748 },
        { "nodeid": 14, "leaf": -0.0348561332 }
      ]}
    ]}
  ]},
  { "nodeid": 0, "depth": 0, "split": "f1", "split_condition": 143.5, "yes": 1, "no": 2, "missing": 1, "children": [
    { "nodeid": 1, "depth": 1, "split": "f0", "split_condition": 2.5, "yes": 3, "no": 4, "missing": 3, "children": [
      { "nodeid": 3, "depth": 2, "split": "f0", "split_condition": 0.5, "yes": 7, "no": 8, "missing": 7, "children": [
        { "nodeid": 7, "leaf": -0.00267108367 },
        { "nodeid": 8, "leaf": -0.0638865754 }
      ]},
      { "nodeid": 4, "depth": 2, "split": "f3", "split_condition": 21.5, "yes": 9, "no": 10, "missing": 9, "children": [
        { "nodeid": 9, "leaf": -0.0232675336 },
        { "nodeid": 10, "leaf": 0.0243958198 }
      ]}
    ]},
    { "nodeid": 2, "depth": 1, "split": "f0", "split_condition": 7.5, "yes": 5, "no": 6, "missing": 5, "children": [
      { "nodeid": 5, "depth": 2, "split": "f4", "split_condition": 40.5, "yes": 11, "no": 12, "missing": 11, "children": [
        { "nodeid": 11, "leaf": 0.040611729 },
        { "nodeid": 12, "leaf": -0.0157868564 }
      ]},
      { "nodeid": 6, "depth": 2, "split": "f3", "split_condition": 20, "yes": 13, "no": 14, "missing": 13, "children": [
        { "nodeid": 13, "leaf": 0.0186362769 },
        { "nodeid": 14, "leaf": 0.0995336995 }
      ]}
    ]}
  ]},
  { "nodeid": 0, "depth": 0, "split": "f1", "split_condition": 99.5, "yes": 1, "no": 2, "missing": 1, "children": [
    { "nodeid": 1, "depth": 1, "split": "f3", "split_condition": 30.5, "yes": 3, "no": 4, "missing": 3, "children": [
      { "nodeid": 3, "depth": 2, "split": "f4", "split_condition": 97.5, "yes": 7, "no": 8, "missing": 7, "children": [
        { "nodeid": 7, "leaf": -0.0795402527 },
        { "nodeid": 8, "leaf": 0.0265095029 }
      ]},
      { "nodeid": 4, "depth": 2, "split": "f1", "split_condition": 90.5, "yes": 9, "no": 10, "missing": 9, "children": [
        { "nodeid": 9, "leaf": 0.0525818132 },
        { "nodeid": 10, "leaf": -0.0823952481 }
      ]}
    ]},
    { "nodeid": 2, "depth": 1, "split": "f1", "split_condition": 166.5, "yes": 5, "no": 6, "missing": 5, "children": [
      { "nodeid": 5, "depth": 2, "split": "f3", "split_condition": 3.5, "yes": 11, "no": 12, "missing": 11, "children": [
        { "nodeid": 11, "leaf": 0.023249669 },
        { "nodeid": 12, "leaf": -0.0201095026 }
      ]},
      { "nodeid": 6, "depth": 2, "split": "f3", "split_condition": 25.5, "yes": 13, "no": 14, "missing": 13, "children": [
        { "nodeid": 13, "leaf": -0.00505969627 },
        { "nodeid": 14, "leaf": 0.0847611055 }
      ]}
    ]}
  ]},
  { "nodeid": 0, "depth": 0, "split": "f1", "split_condition": 99.5, "yes": 1, "no": 2, "missing": 1, "children": [
    { "nodeid": 1, "depth": 1, "split": "f3", "split_condition": 21.5, "yes": 3, "no": 4, "missing": 3, "children": [
      { "nodeid": 3, "depth": 2, "split": "f4", "split_condition": 75, "yes": 7, "no": 8, "missing": 7, "children": [
        { "nodeid": 7, "leaf": -0.0842501894 },
        { "nodeid": 8, "leaf": -0.0179227106 }
      ]},
      { "nodeid": 4, "depth": 2, "split": "f4", "split_condition": 8, "yes": 9, "no": 10, "missing": 9, "children": [
        { "nodeid": 9, "leaf": 0.040255826 },
        { "nodeid": 10, "leaf": -0.0547240973 }
      ]}
    ]},
    { "nodeid": 2, "depth": 1, "split": "f3", "split_condition": 33.5, "yes": 5, "no": 6, "missing": 5, "children": [
      { "nodeid": 5, "depth": 2, "split": "f3", "split_condition": 3.5, "yes": 11, "no": 12, "missing": 11, "children": [
        { "nodeid": 11, "leaf": 0.0200180039 },
        { "nodeid": 12, "leaf": -0.0316947512 }
      ]},
      { "nodeid": 6, "depth": 2, "split": "f3", "split_condition": 49.5, "yes": 13, "no": 14, "missing": 13, "children": [
        { "nodeid": 13, "leaf": 0.040368557 },
        { "nodeid": 14, "leaf": -0.0674336776 }
      ]}
    ]}
  ]},
  { "nodeid": 0, "depth": 0, "split": "f1", "split_condition": 143.5, "yes": 1, "no": 2, "missing": 1, "children": [
    { "nodeid": 1, "depth": 1, "split": "f0", "split_condition": 2.5, "yes": 3, "no": 4, "missing": 3, "children": [
      { "nodeid": 3, "depth": 2, "split": "f0", "split_condition": 0.5, "yes": 7, "no": 8, "missing": 7, "children": [
        { "nodeid": 7, "leaf": -0.000964009843 },
        { "nodeid": 8, "leaf": -0.0576551259 }
      ]},
      { "nodeid": 4, "depth": 2, "split": "f2", "split_condition": 84.5, "yes": 9, "no": 10, "missing": 9, "children": [
        { "nodeid": 9, "leaf": 0.010517302 },
        { "nodeid": 10, "leaf": -0.0538615882 }
      ]}
    ]},
    { "nodeid": 2, "depth": 1, "split": "f0", "split_condition": 7.5, "yes": 5, "no": 6, "missing": 5, "children": [
      { "nodeid": 5, "depth": 2, "split": "f2", "split_condition": 84.5, "yes": 11, "no": 12, "missing": 11, "children": [
        { "nodeid": 11, "leaf": 0.0232049413 },
        { "nodeid": 12, "leaf": -0.0464477129 }
      ]},
      { "nodeid": 6, "depth": 2, "split": "f3", "split_condition": 20, "yes": 13, "no": 14, "missing": 13, "children": [
        { "nodeid": 13, "leaf": 0.0167537387 },
        { "nodeid": 14, "leaf": 0.0958274826 }
      ]}
    ]}
  ]},
  { "nodeid": 0, "depth": 0, "split": "f1", "split_condition": 99.5, "yes": 1, "no": 2, "missing": 1, "children": [
    { "nodeid": 1, "depth": 1, "split": "f3", "split_condition": 21.5, "yes": 3, "no": 4, "missing": 3, "children": [
      { "nodeid": 3, "depth": 2, "split": "f1", "split_condition": 91.5, "yes": 7, "no": 8, "missing": 7, "children": [
        { "nodeid": 7, "leaf": -0.0902203992 },
        { "nodeid": 8, "leaf": -0.0358406417 }
      ]},
      { "nodeid": 4, "depth": 2, "split": "f4", "split_condition": 8, "yes": 9, "no": 10, "missing": 9, "children": [
        { "nodeid": 9, "leaf": 0.0372194722 },
        { "nodeid": 10, "leaf": -0.0509006046 }
      ]}
    ]},
    { "nodeid": 2, "depth": 1, "split": "f2", "split_condition": 97, "yes": 5, "no": 6, "missing": 5, "children": [
      { "nodeid": 5, "depth": 2, "split": "f2", "split_condition": 89, "yes": 11, "no": 12, "missing": 11, "children": [
        { "nodeid": 11, "leaf": 0.00302697718 },
        { "nodeid": 12, "leaf": -0.07786192 }
      ]},
      { "nodeid": 6, "depth": 2, "split": "f1", "split_condition": 131, "yes": 13, "no": 14, "missing": 13, "children": [
        { "nodeid": 13, "leaf": 0.024752738 },
        { "nodeid": 14, "leaf": 0.0954269096 }
      ]}
    ]}
  ]},
  { "nodeid": 0, "depth": 0, "split": "f1", "split_condition": 166.5, "yes": 1, "no": 2, "missing": 1, "children": [
    { "nodeid": 1, "depth": 1, "split": "f0", "split_condition": 3.5, "yes": 3, "no": 4, "missing": 3, "children": [
      { "nodeid": 3, "depth": 2, "split": "f2", "split_condition": 53, "yes": 7, "no": 8, "missing": 7, "children": [
        { "nodeid": 7, "leaf": 0.0205345917 },
        { "nodeid": 8, "leaf": -0.0392115116 }
      ]},
      { "nodeid": 4, "depth": 2, "split": "f4", "split_condition": 21, "yes": 9, "no": 10, "missing": 9, "children": [
        { "nodeid": 9, "leaf": 0.0238957219 },
        { "nodeid": 10, "leaf": -0.0207122061 }
      ]}
    ]},
    { "nodeid": 2, "depth": 1, "split": "f3", "split_condition": 25.5, "yes": 5, "no": 6, "missing": 5, "children": [
      { "nodeid": 5, "depth": 2, "split": "f1", "split_condition": 188.5, "yes": 11, "no": 12, "missing": 11, "children": [
        { "nodeid": 11, "leaf": 0.0306445397 },
        { "nodeid": 12, "leaf": -0.074796401 }
      ]},
      { "nodeid": 6, "depth": 2, "split": "f0", "split_condition": 6, "yes": 13, "no": 14, "missing": 13, "children": [
        { "nodeid": 13, "leaf": 0.0958055258 },
        { "nodeid": 14, "leaf": 0.0131800175 }
      ]}
    ]}
  ]},
  { "nodeid": 0, "depth": 0, "split": "f1", "split_condition": 99.5, "yes": 1, "no": 2, "missing": 1, "children": [
    { "nodeid": 1, "depth": 1, "split": "f3", "split_condition": 21.5, "yes": 3, "no": 4, "missing": 3, "children": [
      { "nodeid": 3, "depth": 2, "split": "f1", "split_condition": 91.5, "yes": 7, "no": 8, "missing": 7, "children": [
        { "nodeid": 7, "leaf": -0.0880444348 },
        { "nodeid": 8, "leaf": -0.0331562646 }
      ]},
      { "nodeid": 4, "depth": 2, "split": "f2", "split_condition": 67, "yes": 9, "no": 10, "missing": 9, "children": [
        { "nodeid": 9, "leaf": -0.0643149465 },
        { "nodeid": 10, "leaf": 0.0237084664 }
      ]}
    ]},
    { "nodeid": 2, "depth": 1, "split": "f2", "split_condition": 97, "yes": 5, "no": 6, "missing": 5, "children": [
      { "nodeid": 5, "depth": 2, "split": "f2", "split_condition": 93, "yes": 11, "no": 12, "missing": 11, "children": [
        { "nodeid": 11, "leaf": 0.00162722007 },
        { "nodeid": 12, "leaf": -0.117169701 }
      ]},
      { "nodeid": 6, "depth": 2, "split": "f1", "split_condition": 131, "yes": 13, "no": 14, "missing": 13, "children": [
        { "nodeid": 13, "leaf": 0.0241156891 },
        { "nodeid": 14, "leaf": 0.0917089134 }
      ]}
    ]}
  ]},
  { "nodeid": 0, "depth": 0, "split": "f1", "split_condition": 127.5, "yes": 1, "no": 2, "missing": 1, "children": [
    { "nodeid": 1, "depth": 1, "split": "f4", "split_condition": 7.5, "yes": 3, "no": 4, "missing": 3, "children": [
      { "nodeid": 3, "depth": 2, "split": "f2", "split_condition": 85, "yes": 7, "no": 8, "missing": 7, "children": [
        { "nodeid": 7, "leaf": 0.0121106496 },
        { "nodeid": 8, "leaf": -0.0529180244 }
      ]},
      { "nodeid": 4, "depth": 2, "split": "f4", "split_condition": 154, "yes": 9, "no": 10, "missing": 9, "children": [
        { "nodeid": 9, "leaf": -0.0705756769 },
        { "nodeid": 10, "leaf": 0.0132261142 }
      ]}
    ]},
    { "nodeid": 2, "depth": 1, "split": "f2", "split_condition": 97, "yes": 5, "no": 6, "missing": 5, "children": [
      { "nodeid": 5, "depth": 2, "split": "f3", "split_condition": 31.5, "yes": 11, "no": 12, "missing": 11, "children": [
        { "nodeid": 11, "leaf": -0.0123389177 },
        { "nodeid": 12, "leaf": 0.0407272913 }
      ]},
      { "nodeid": 6, "leaf": 0.103394978 }
    ]}
  ]},
  { "nodeid": 0, "depth": 0, "split": "f1", "split_condition": 166.5, "yes": 1, "no": 2, "missing": 1, "children": [
    { "nodeid": 1, "depth": 1, "split": "f0", "split_condition": 3.5, "yes": 3, "no": 4, "missing": 3, "children": [
      { "nodeid": 3, "depth": 2, "split": "f2", "split_condition": 53, "yes": 7, "no": 8, "missing": 7, "children": [
        { "nodeid": 7, "leaf": 0.0201507527 },
        { "nodeid": 8, "leaf": -0.0348671935 }
      ]},
      { "nodeid": 4, "depth": 2, "split": "f4", "split_condition": 21, "yes": 9, "no": 10, "missing": 9, "children": [
        { "nodeid": 9, "leaf": 0.0215183105 },
        { "nodeid": 10, "leaf": -0.0178780556 }
      ]}
    ]},
    { "nodeid": 2, "depth": 1, "split": "f3", "split_condition": 25.5, "yes": 5, "no": 6, "missing": 5, "children": [
      { "nodeid": 5, "depth": 2, "split": "f1", "split_condition": 188.5, "yes": 11, "no": 12, "missing": 11, "children": [
        { "nodeid": 11, "leaf": 0.0295497477 },
        { "nodeid": 12, "leaf": -0.0717160478 }
      ]},
      { "nodeid": 6, "depth": 2, "split": "f0", "split_condition": 6, "yes": 13, "no": 14, "missing": 13, "children": [
        { "nodeid": 13, "leaf": 0.0919638127 },
        { "nodeid": 14, "leaf": 0.0122860884 }
      ]}
    ]}
  ]},
  { "nodeid": 0, "depth": 0, "split": "f1", "split_condition": 99.5, "yes": 1, "no": 2, "missing": 1, "children": [
    { "nodeid": 1, "depth": 1, "split": "f3", "split_condition": 21.5, "yes": 3, "no": 4, "missing": 3, "children": [
      { "nodeid": 3, "depth": 2, "split": "f1", "split_condition": 91.5, "yes": 7, "no": 8, "missing": 7, "children": [
        { "nodeid": 7, "leaf": -0.0859583542 },
        { "nodeid": 8, "leaf": -0.0293768644 }
      ]},
      { "nodeid": 4, "depth": 2, "split": "f2", "split_condition": 67, "yes": 9, "no": 10, "missing": 9, "children": [
        { "nodeid": 9, "leaf": -0.0594695322 },
        { "nodeid": 10, "leaf": 0.0248850994 }
      ]}
    ]},
    { "nodeid": 2, "depth": 1, "split": "f3", "split_condition": 33.5, "yes": 5, "no": 6, "missing": 5, "children": [
      { "nodeid": 5, "depth": 2, "split": "f3", "split_condition": 3.5, "yes": 11, "no": 12, "missing": 11, "children": [
        { "nodeid": 11, "leaf": 0.0171121005 },
        { "nodeid": 12, "leaf": -0.0254247729 }
      ]},
      { "nodeid": 6, "depth": 2, "split": "f3", "split_condition": 49.5, "yes": 13, "no": 14, "missing": 13, "children": [
        { "nodeid": 13, "leaf": 0.0379570723 },
        { "nodeid": 14, "leaf": -0.065140292 }
      ]}
    ]}
  ]},
  { "nodeid": 0, "depth": 0, "split": "f1", "split_condition": 99.5, "yes": 1, "no": 2, "missing": 1, "children": [
    { "nodeid": 1, "depth": 1, "split": "f3", "split_condition": 21.5, "yes": 3, "no": 4, "missing": 3, "children": [
      { "nodeid": 3, "depth": 2, "split": "f1", "split_condition": 91.5, "yes": 7, "no": 8, "missing": 7, "children": [
        { "nodeid": 7, "leaf": -0.0838472173 },
        { "nodeid": 8, "leaf": -0.0277123544 }
      ]},
      { "nodeid": 4, "depth": 2, "split": "f2", "split_condition": 67, "yes": 9, "no": 10, "missing": 9, "children": [
        { "nodeid": 9, "leaf": -0.0570322052 },
        { "nodeid": 10, "leaf": 0.0224968698 }
      ]}
    ]},
    { "nodeid": 2, "depth": 1, "split": "f2", "split_condition": 97, "yes": 5, "no": 6, "missing": 5, "children": [
      { "nodeid": 5, "depth": 2, "split": "f2", "split_condition": 87, "yes": 11, "no": 12, "missing": 11, "children": [
        { "nodeid": 11, "leaf": 0.00541852042 },
        { "nodeid": 12, "leaf": -0.0590797327 }
      ]},
      { "nodeid": 6, "depth": 2, "split": "f1", "split_condition": 131, "yes": 13, "no": 14, "missing": 13, "children": [
        { "nodeid": 13, "leaf": 0.0206972603 },
        { "nodeid": 14, "leaf": 0.084408462 }
      ]}
    ]}
  ]},
  { "nodeid": 0, "depth": 0, "split": "f1", "split_condition": 166.5, "yes": 1, "no": 2, "missing": 1, "children": [
    { "nodeid": 1, "depth": 1, "split": "f0", "split_condition": 3.5, "yes": 3, "no": 4, "missing": 3, "children": [
      { "nodeid": 3, "depth": 2, "split": "f4", "split_condition": 250, "yes": 7, "no": 8, "missing": 7, "children": [
        { "nodeid": 7, "leaf": -0.0163768176 },
        { "nodeid": 8, "leaf": -0.0940357223 }
      ]},
      { "nodeid": 4, "depth": 2, "split": "f4", "split_condition": 21, "yes": 9, "no": 10, "missing": 9, "children": [
        { "nodeid": 9, "leaf": 0.0193653777 },
        { "nodeid": 10, "leaf": -0.0157086197 }
      ]}
    ]},
    { "nodeid": 2, "depth": 1, "split": "f3", "split_condition": 25.5, "yes": 5, "no": 6, "missing": 5, "children": [
      { "nodeid": 5, "depth": 2, "split": "f1", "split_condition": 188.5, "yes": 11, "no": 12, "missing": 11, "children": [
        { "nodeid": 11, "leaf": 0.0277638286 },
        { "nodeid": 12, "leaf": -0.0678379908 }
      ]},
      { "nodeid": 6, "depth": 2, "split": "f0", "split_condition": 6, "yes": 13, "no": 14, "missing": 13, "children": [
        { "nodeid": 13, "leaf": 0.0896208957 },
        { "nodeid": 14, "leaf": 0.0122242104 }
      ]}
    ]}
  ]},
  { "nodeid": 0, "depth": 0, "split": "f1", "split_condition": 127.5, "yes": 1, "no": 2, "missing": 1, "children": [
    { "nodeid": 1, "depth": 1, "split": "f2", "split_condition": 61, "yes": 3, "no": 4, "missing": 3, "children": [
      { "nodeid": 3, "depth": 2, "split": "f0", "split_condition": 5.5, "yes": 7, "no": 8, "missing": 7, "children": [
        { "nodeid": 7, "leaf": -0.0721814558 },
        { "nodeid": 8, "leaf": 0.0155623555 }
      ]},
      { "nodeid": 4, "depth": 2, "split": "f2", "split_condition": 87, "yes": 9, "no": 10, "missing": 9, "children": [
        { "nodeid": 9, "leaf": 0.00644213427 },
        { "nodeid": 10, "leaf": -0.0741417706 }
      ]}
    ]},
    { "nodeid": 2, "depth": 1, "split": "f2", "split_condition": 97, "yes": 5, "no": 6, "missing": 5, "children": [
      { "nodeid": 5, "depth": 2, "split": "f2", "split_condition": 43, "yes": 11, "no": 12, "missing": 11, "children": [
        { "nodeid": 11, "leaf": 0.0845122263 },
        { "nodeid": 12, "leaf": -0.00266345497 }
      ]},
      { "nodeid": 6, "leaf": 0.0967614502 }
    ]}
  ]},
  { "nodeid": 0, "depth": 0, "split": "f3", "split_condition": 33.5, "yes": 1, "no": 2, "missing": 1, "children": [
    { "nodeid": 1, "depth": 1, "split": "f1", "split_condition": 143.5, "yes": 3, "no": 4, "missing": 3, "children": [
      { "nodeid": 3, "depth": 2, "split": "f0", "split_condition": 11.5, "yes": 7, "no": 8, "missing": 7, "children": [
        { "nodeid": 7, "leaf": -0.0247713923 },
        { "nodeid": 8, "leaf": 0.0632980242 }
      ]},
      { "nodeid": 4, "depth": 2, "split": "f4", "split_condition": 35, "yes": 9, "no": 10, "missing": 9, "children": [
        { "nodeid": 9, "leaf": 0.0396683402 },
        { "nodeid": 10, "leaf": -0.00857546087 }
      ]}
    ]},
    { "nodeid": 2, "depth": 1, "split": "f3", "split_condition": 49.5, "yes": 5, "no": 6, "missing": 5, "children": [
      { "nodeid": 5, "depth": 2, "split": "f1", "split_condition": 103.5, "yes": 11, "no": 12, "missing": 11, "children": [
        { "nodeid": 11, "leaf": -0.0231576767 },
        { "nodeid": 12, "leaf": 0.0415293314 }
      ]},
      { "nodeid": 6, "leaf": -0.0630160347 }
    ]}
  ]},
  { "nodeid": 0, "depth": 0, "split": "f2", "split_condition": 97, "yes": 1, "no": 2, "missing": 1, "children": [
    { "nodeid": 1, "depth": 1, "split": "f2", "split_condition": 87, "yes": 3, "no": 4, "missing": 3, "children": [
      { "nodeid": 3, "depth": 2, "split": "f3", "split_condition": 29.5, "yes": 7, "no": 8, "missing": 7, "children": [
        { "nodeid": 7, "leaf": -0.0116998069 },
        { "nodeid": 8, "leaf": 0.0220709462 }
      ]},
      { "nodeid": 4, "depth": 2, "split": "f2", "split_condition": 93, "yes": 9, "no": 10, "missing": 9, "children": [
        { "nodeid": 9, "leaf": -0.0330904797 },
        { "nodeid": 10, "leaf": -0.110137083 }
      ]}
    ]},
    { "nodeid": 2, "depth": 1, "split": "f1", "split_condition": 128.5, "yes": 5, "no": 6, "missing": 5, "children": [
      { "nodeid": 5, "leaf": 0.00123188109 },
      { "nodeid": 6, "leaf": 0.0848567262 }
    ]}
  ]},
  { "nodeid": 0, "depth": 0, "split": "f1", "split_condition": 99.5, "yes": 1, "no": 2, "missing": 1, "children": [
    { "nodeid": 1, "depth": 1, "split": "f3", "split_condition": 21.5, "yes": 3, "no": 4, "missing": 3, "children": [
      { "nodeid": 3, "depth": 2, "split": "f1", "split_condition": 91.5, "yes": 7, "no": 8, "missing": 7, "children": [
        { "nodeid": 7, "leaf": -0.0809320584 },
        { "nodeid": 8, "leaf": -0.0232053362 }
      ]},
      { "nodeid": 4, "depth": 2, "split": "f2", "split_condition": 71, "yes": 9, "no": 10, "missing": 9, "children": [
        { "nodeid": 9, "leaf": -0.037962433 },
        { "nodeid": 10, "leaf": 0.0335663371 }
      ]}
    ]},
    { "nodeid": 2, "depth": 1, "split": "f4", "split_condition": 230.5, "yes": 5, "no": 6, "missing": 5, "children": [
      { "nodeid": 5, "depth": 2, "split": "f4", "split_condition": 153.5, "yes": 11, "no": 12, "missing": 11, "children": [
        { "nodeid": 11, "leaf": -0.00111431291 },
        { "nodeid": 12, "leaf": 0.044246193 }
      ]},
      { "nodeid": 6, "depth": 2, "split": "f0", "split_condition": 5.5, "yes": 13, "no": 14, "missing": 13, "children": [
        { "nodeid": 13, "leaf": -0.0690702274 },
        { "nodeid": 14, "leaf": 0.0547472313 }
      ]}
    ]}
  ]},
  { "nodeid": 0, "depth": 0, "split": "f1", "split_condition": 166.5, "yes": 1, "no": 2, "missing": 1, "children": [
    { "nodeid": 1, "depth": 1, "split": "f3", "split_condition": 49.5, "yes": 3, "no": 4, "missing": 3, "children": [
      { "nodeid": 3, "depth": 2, "split": "f4", "split_condition": 230.5, "yes": 7, "no": 8, "missing": 7, "children": [
        { "nodeid": 7, "leaf": -0.000314763136 },
        { "nodeid": 8, "leaf": -0.0435595885 }
      ]},
      { "nodeid": 4, "leaf": -0.0844185427 }
    ]},
    { "nodeid": 2, "depth": 1, "split": "f3", "split_condition": 25.5, "yes": 5, "no": 6, "missing": 5, "children": [
      { "nodeid": 5, "depth": 2, "split": "f1", "split_condition": 188.5, "yes": 9, "no": 10, "missing": 9, "children": [
        { "nodeid": 9, "leaf": 0.0244647842 },
        { "nodeid": 10, "leaf": -0.065125607 }
      ]},
      { "nodeid": 6, "depth": 2, "split": "f0", "split_condition": 6, "yes": 11, "no": 12, "missing": 11, "children": [
        { "nodeid": 11, "leaf": 0.0869249627 },
        { "nodeid": 12, "leaf": 0.00996976998 }
      ]}
    ]}
  ]},
  { "nodeid": 0, "depth": 0, "split": "f2", "split_condition": 97, "yes": 1, "no": 2, "missing": 1, "children": [
    { "nodeid": 1, "depth": 1, "split": "f2", "split_condition": 87, "yes": 3, "no": 4, "missing": 3, "children": [
      { "nodeid": 3, "depth": 2, "split": "f1", "split_condition": 166.5, "yes": 7, "no": 8, "missing": 7, "children": [
        { "nodeid": 7, "leaf": -0.00401309226 },
        { "nodeid": 8, "leaf": 0.0498068035 }
      ]},
      { "nodeid": 4, "depth": 2, "split": "f2", "split_condition": 93, "yes": 9, "no": 10, "missing": 9, "children": [
        { "nodeid": 9, "leaf": -0.0315538757 },
        { "nodeid": 10, "leaf": -0.105556369 }
      ]}
    ]},
    { "nodeid": 2, "depth": 1, "split": "f1", "split_condition": 128.5, "yes": 5, "no": 6, "missing": 5, "children": [
      { "nodeid": 5, "leaf": 0.00260723615 },
      { "nodeid": 6, "leaf": 0.0818508044 }
    ]}
  ]},
  { "nodeid": 0, "depth": 0, "split": "f1", "split_condition": 101.5, "yes": 1, "no": 2, "missing": 1, "children": [
    { "nodeid": 1, "depth": 1, "split": "f0", "split_condition": 2.5, "yes": 3, "no": 4, "missing": 3, "children": [
      { "nodeid": 3, "depth": 2, "split": "f2", "split_condition": 75, "yes": 7, "no": 8, "missing": 7, "children": [
        { "nodeid": 7, "leaf": -0.0735618472 },
        { "nodeid": 8, "leaf": -0.00721979514 }
      ]},
      { "nodeid": 4, "depth": 2, "split": "f3", "split_condition": 32.5, "yes": 9, "no": 10, "missing": 9, "children": [
        { "nodeid": 9, "leaf": 0.0220514219 },
        { "nodeid": 10, "leaf": -0.0426207371 }
      ]}
    ]},
    { "nodeid": 2, "depth": 1, "split": "f0", "split_condition": 7.5, "yes": 5, "no": 6, "missing": 5, "children": [
      { "nodeid": 5, "depth": 2, "split": "f4", "split_condition": 230.5, "yes": 11, "no": 12, "missing": 11, "children": [
        { "nodeid": 11, "leaf": 0.00413470017 },
        { "nodeid": 12, "leaf": -0.053316284 }
      ]},
      { "nodeid": 6, "depth": 2, "split": "f4", "split_condition": 126, "yes": 13, "no": 14, "missing": 13, "children": [
        { "nodeid": 13, "leaf": -0.000696806703 },
        { "nodeid": 14, "leaf": 0.100124851 }
      ]}
    ]}
  ]},
  { "nodeid": 0, "depth": 0, "split": "f2", "split_condition": 97, "yes": 1, "no": 2, "missing": 1, "children": [
    { "nodeid": 1, "depth": 1, "split": "f2", "split_condition": 93, "yes": 3, "no": 4, "missing": 3, "children": [
      { "nodeid": 3, "depth": 2, "split": "f1", "split_condition": 166.5, "yes": 7, "no": 8, "missing": 7, "children": [
        { "nodeid": 7, "leaf": -0.00631157635 },
        { "nodeid": 8, "leaf": 0.0458062664 }
      ]},
      { "nodeid": 4, "leaf": -0.101097964 }
    ]},
    { "nodeid": 2, "depth": 1, "split": "f1", "split_condition": 128.5, "yes": 5, "no": 6, "missing": 5, "children": [
      { "nodeid": 5, "leaf": 0.0030202053 },
      { "nodeid": 6, "leaf": 0.0785800517 }
    ]}
  ]},
  { "nodeid": 0, "depth": 0, "split": "f3", "split_condition": 34.5, "yes": 1, "no": 2, "missing": 1, "children": [
    { "nodeid": 1, "depth": 1, "split": "f3", "split_condition": 7.5, "yes": 3, "no": 4, "missing": 3, "children": [
      { "nodeid": 3, "depth": 2, "split": "f1", "split_condition": 91.5, "yes": 7, "no": 8, "missing": 7, "children": [
        { "nodeid": 7, "leaf": -0.0728239566 },
        { "nodeid": 8, "leaf": 0.0183340311 }
      ]},
      { "nodeid": 4, "depth": 2, "split": "f3", "split_condition": 21.5, "yes": 9, "no": 10, "missing": 9, "children": [
        { "nodeid": 9, "leaf": -0.0612910464 },
        { "nodeid": 10, "leaf": -0.00105307566 }
      ]}
    ]},
    { "nodeid": 2, "depth": 1, "split": "f3", "split_condition": 49.5, "yes": 5, "no": 6, "missing": 5, "children": [
      { "nodeid": 5, "depth": 2, "split": "f2", "split_condition": 87, "yes": 11, "no": 12, "missing": 11, "children": [
        { "nodeid": 11, "leaf": 0.038846001 },
        { "nodeid": 12, "leaf": -0.0299903899 }
      ]},
      { "nodeid": 6, "leaf": -0.0604832135 }
    ]}
  ]},
  { "nodeid": 0, "depth": 0, "split": "f2", "split_condition": 97, "yes": 1, "no": 2, "missing": 1, "children": [
    { "nodeid": 1, "depth": 1, "split": "f2", "split_condition": 87, "yes": 3, "no": 4, "missing": 3, "children": [
      { "nodeid": 3, "depth": 2, "split": "f4", "split_condition": 143, "yes": 7, "no": 8, "missing": 7, "children": [
        { "nodeid": 7, "leaf": -0.00695439568 },
        { "nodeid": 8, "leaf": 0.0238871723 }
      ]},
      { "nodeid": 4, "depth": 2, "split": "f1", "split_condition": 125.5, "yes": 9, "no": 10, "missing": 9, "children": [
        { "nodeid": 9, "leaf": -0.0866177678 },
        { "nodeid": 10, "leaf": -0.0202128794 }
      ]}
    ]},
    { "nodeid": 2, "depth": 1, "split": "f1", "split_condition": 128.5, "yes": 5, "no": 6, "missing": 5, "children": [
      { "nodeid": 5, "leaf": 0.0030559653 },
      { "nodeid": 6, "leaf": 0.0757798776 }
    ]}
  ]},
  { "nodeid": 0, "depth": 0, "split": "f2", "split_condition": 15, "yes": 1, "no": 2, "missing": 1, "children": [
    { "nodeid": 1, "depth": 1, "split": "f1", "split_condition": 117.5, "yes": 3, "no": 4, "missing": 3, "children": [
      { "nodeid": 3, "leaf": -0.0522507988 },
      { "nodeid": 4, "leaf": 0.0949264616 }
    ]},
    { "nodeid": 2, "depth": 1, "split": "f0", "split_condition": 2.5, "yes": 5, "no": 6, "missing": 5, "children": [
      { "nodeid": 5, "depth": 2, "split": "f3", "split_condition": 24.5, "yes": 7, "no": 8, "missing": 7, "children": [
        { "nodeid": 7, "leaf": -0.0496711619 },
        { "nodeid": 8, "leaf": 0.00251251343 }
      ]},
      { "nodeid": 6, "depth": 2, "split": "f4", "split_condition": 142, "yes": 9, "no": 10, "missing": 9, "children": [
        { "nodeid": 9, "leaf": -0.00582189672 },
        { "nodeid": 10, "leaf": 0.0412113853 }
      ]}
    ]}
  ]},
  { "nodeid": 0, "depth": 0, "split": "f2", "split_condition": 97, "yes": 1, "no": 2, "missing": 1, "children": [
    { "nodeid": 1, "depth": 1, "split": "f2", "split_condition": 87, "yes": 3, "no": 4, "missing": 3, "children": [
      { "nodeid": 3, "depth": 2, "split": "f4", "split_condition": 14.5, "yes": 7, "no": 8, "missing": 7, "children": [
        { "nodeid": 7, "leaf": 0.0138056157 },
        { "nodeid": 8, "leaf": -0.0124852713 }
      ]},
      { "nodeid": 4, "depth": 2, "split": "f1", "split_condition": 125.5, "yes": 9, "no": 10, "missing": 9, "children": [
        { "nodeid": 9, "leaf": -0.0834469721 },
        { "nodeid": 10, "leaf": -0.0187841188 }
      ]}
    ]},
    { "nodeid": 2, "depth": 1, "split": "f1", "split_condition": 128.5, "yes": 5, "no": 6, "missing": 5, "children": [
      { "nodeid": 5, "leaf": 0.0026893171 },
      { "nodeid": 6, "leaf": 0.0731274039 }
    ]}
  ]},
  { "nodeid": 0, "depth": 0, "split": "f1", "split_condition": 99.5, "yes": 1, "no": 2, "missing": 1, "children": [
    { "nodeid": 1, "depth": 1, "split": "f3", "split_condition": 21.5, "yes": 3, "no": 4, "missing": 3, "children": [
      { "nodeid": 3, "depth": 2, "split": "f1", "split_condition": 91.5, "yes": 7, "no": 8, "missing": 7, "children": [
        { "nodeid": 7, "leaf": -0.076377891 },
        { "nodeid": 8, "leaf": -0.0169863589 }
      ]},
      { "nodeid": 4, "depth": 2, "split": "f2", "split_condition": 67, "yes": 9, "no": 10, "missing": 9, "children": [
        { "nodeid": 9, "leaf": -0.0481173433 },
        { "nodeid": 10, "leaf": 0.0237660632 }
      ]}
    ]},
    { "nodeid": 2, "depth": 1, "split": "f4", "split_condition": 230.5, "yes": 5, "no": 6, "missing": 5, "children": [
      { "nodeid": 5, "depth": 2, "split": "f4", "split_condition": 153.5, "yes": 11, "no": 12, "missing": 11, "children": [
        { "nodeid": 11, "leaf": -0.000214203406 },
        { "nodeid": 12, "leaf": 0.0379287861 }
      ]},
      { "nodeid": 6, "depth": 2, "split": "f0", "split_condition": 5.5, "yes": 13, "no": 14, "missing": 13, "children": [
        { "nodeid": 13, "leaf": -0.0609339587 },
        { "nodeid": 14, "leaf": 0.0471395515 }
      ]}
    ]}
  ]},
  { "nodeid": 0, "depth": 0, "split": "f2", "split_condition": 15, "yes": 1, "no": 2, "missing": 1, "children": [
    { "nodeid": 1, "depth": 1, "split": "f1", "split_condition": 117.5, "yes": 3, "no": 4, "missing": 3, "children": [
      { "nodeid": 3, "leaf": -0.0499872677 },
      { "nodeid": 4, "leaf": 0.0889031291 }
    ]},
    { "nodeid": 2, "depth": 1, "split": "f3", "split_condition": 33.5, "yes": 5, "no": 6, "missing": 5, "children": [
      { "nodeid": 5, "depth": 2, "split": "f2", "split_condition": 69, "yes": 7, "no": 8, "missing": 7, "children": [
        { "nodeid": 7, "leaf": -0.0334044322 },
        { "nodeid": 8, "leaf": 0.00292572961 }
      ]},
      { "nodeid": 6, "depth": 2, "split": "f3", "split_condition": 49.5, "yes": 9, "no": 10, "missing": 9, "children": [
        { "nodeid": 9, "leaf": 0.0228991918 },
        { "nodeid": 10, "leaf": -0.0580048449 }
      ]}
    ]}
  ]},
  { "nodeid": 0, "depth": 0, "split": "f2", "split_condition": 97, "yes": 1, "no": 2, "missing": 1, "children": [
    { "nodeid": 1, "depth": 1, "split": "f2", "split_condition": 91, "yes": 3, "no": 4, "missing": 3, "children": [
      { "nodeid": 3, "depth": 2, "split": "f1", "split_condition": 166.5, "yes": 7, "no": 8, "missing": 7, "children": [
        { "nodeid": 7, "leaf": -0.00477343937 },
        { "nodeid": 8, "leaf": 0.0432091318 }
      ]},
      { "nodeid": 4, "leaf": -0.0749408528 }
    ]},
    { "nodeid": 2, "depth": 1, "split": "f1", "split_condition": 128.5, "yes": 5, "no": 6, "missing": 5, "children": [
      { "nodeid": 5, "leaf": 0.00269581424 },
      { "nodeid": 6, "leaf": 0.0703713223 }
    ]}
  ]},
  { "nodeid": 0, "depth": 0, "split": "f4", "split_condition": 14.5, "yes": 1, "no": 2, "missing": 1, "children": [
    { "nodeid": 1, "depth": 1, "split": "f2", "split_condition": 83, "yes": 3, "no": 4, "missing": 3, "children": [
      { "nodeid": 3, "depth": 2, "split": "f3", "split_condition": 28.5, "yes": 7, "no": 8, "missing": 7, "children": [
        { "nodeid": 7, "leaf": 0.00171910529 },
        { "nodeid": 8, "leaf": 0.0643746108 }
      ]},
      { "nodeid": 4, "depth": 2, "split": "f3", "split_condition": 25.5, "yes": 9, "no": 10, "missing": 9, "children": [
        { "nodeid": 9, "leaf": 0.0196629856 },
        { "nodeid": 10, "leaf": -0.105449498 }
      ]}
    ]},
    { "nodeid": 2, "depth": 1, "split": "f3", "split_condition": 21.5, "yes": 5, "no": 6, "missing": 5, "children": [
      { "nodeid": 5, "depth": 2, "split": "f1", "split_condition": 107.5, "yes": 11, "no": 12, "missing": 11, "children": [
        { "nodeid": 11, "leaf": 0.00525437528 },
        { "nodeid": 12, "leaf": -0.0886790305 }
      ]},
      { "nodeid": 6, "depth": 2, "split": "f4", "split_condition": 123.5, "yes": 13, "no": 14, "missing": 13, "children": [
        { "nodeid": 13, "leaf": -0.0414919369 },
        { "nodeid": 14, "leaf": 0.029121194 }
      ]}
    ]}
  ]},
  { "nodeid": 0, "depth": 0, "split": "f2", "split_condition": 15, "yes": 1, "no": 2, "missing": 1, "children": [
    { "nodeid": 1, "depth": 1, "split": "f1", "split_condition": 117.5, "yes": 3, "no": 4, "missing": 3, "children": [
      { "nodeid": 3, "leaf": -0.047454685 },
      { "nodeid": 4, "leaf": 0.0838297829 }
    ]},
    { "nodeid": 2, "depth": 1, "split": "f0", "split_condition": 2.5, "yes": 5, "no": 6, "missing": 5, "children": [
      { "nodeid": 5, "depth": 2, "split": "f2", "split_condition": 64.5, "yes": 7, "no": 8, "missing": 7, "children": [
        { "nodeid": 7, "leaf": -0.0475258231 },
        { "nodeid": 8, "leaf": -0.000219837224 }
      ]},
      { "nodeid": 6, "depth": 2, "split": "f4", "split_condition": 142, "yes": 9, "no": 10, "missing": 9, "children": [
        { "nodeid": 9, "leaf": -0.00509001268 },
        { "nodeid": 10, "leaf": 0.0372851454 }
      ]}
    ]}
  ]},
  { "nodeid": 0, "depth": 0, "split": "f2", "split_condition": 97, "yes": 1, "no": 2, "missing": 1, "children": [
    { "nodeid": 1, "depth": 1, "split": "f2", "split_condition": 91, "yes": 3, "no": 4, "missing": 3, "children": [
      { "nodeid": 3, "depth": 2, "split": "f1", "split_condition": 166.5, "yes": 7, "no": 8, "missing": 7, "children": [
        { "nodeid": 7, "leaf": -0.00416682567 },
        { "nodeid": 8, "leaf": 0.0405957811 }
      ]},
      { "nodeid": 4, "leaf": -0.0712955445 }
    ]},
    { "nodeid": 2, "depth": 1, "split": "f1", "split_condition": 128.5, "yes": 5, "no": 6, "missing": 5, "children": [
      { "nodeid": 5, "leaf": 0.00187303778 },
      { "nodeid": 6, "leaf": 0.0672730058 }
    ]}
  ]},
  { "nodeid": 0, "depth": 0, "split": "f3", "split_condition": 49.5, "yes": 1, "no": 2, "missing": 1, "children": [
    { "nodeid": 1, "depth": 1, "split": "f3", "split_condition": 34.5, "yes": 3, "no": 4, "missing": 3, "children": [
      { "nodeid": 3, "depth": 2, "split": "f3", "split_condition": 32.5, "yes": 5, "no": 6, "missing": 5, "children": [
        { "nodeid": 5, "leaf": -0.00103745144 },
        { "nodeid": 6, "leaf": -0.061601188 }
      ]},
      { "nodeid": 4, "depth": 2, "split": "f2", "split_condition": 73, "yes": 7, "no": 8, "missing": 7, "children": [
        { "nodeid": 7, "leaf": 0.0473442115 },
        { "nodeid": 8, "leaf": -0.00140289217 }
      ]}
    ]},
    { "nodeid": 2, "leaf": -0.05661688 }
  ]},
  { "nodeid": 0, "depth": 0, "split": "f4", "split_condition": 14.5, "yes": 1, "no": 2, "missing": 1, "children": [
    { "nodeid": 1, "depth": 1, "split": "f2", "split_condition": 83, "yes": 3, "no": 4, "missing": 3, "children": [
      { "nodeid": 3, "depth": 2, "split": "f3", "split_condition": 28.5, "yes": 7, "no": 8, "missing": 7, "children": [
        { "nodeid": 7, "leaf": 0.00203191792 },
        { "nodeid": 8, "leaf": 0.0584071279 }
      ]},
      { "nodeid": 4, "depth": 2, "split": "f3", "split_condition": 29.5, "yes": 9, "no": 10, "missing": 9, "children": [
        { "nodeid": 9, "leaf": 0.0131631391 },
        { "nodeid": 10, "leaf": -0.114080749 }
      ]}
    ]},
    { "nodeid": 2, "depth": 1, "split": "f3", "split_condition": 21.5, "yes": 5, "no": 6, "missing": 5, "children": [
      { "nodeid": 5, "depth": 2, "split": "f1", "split_condition": 107.5, "yes": 11, "no": 12, "missing": 11, "children": [
        { "nodeid": 11, "leaf": 0.00521616964 },
        { "nodeid": 12, "leaf": -0.0835383907 }
      ]},
      { "nodeid": 6, "depth": 2, "split": "f4", "split_condition": 123.5, "yes": 13, "no": 14, "missing": 13, "children": [
        { "nodeid": 13, "leaf": -0.0375662819 },
        { "nodeid": 14, "leaf": 0.0257907957 }
      ]}
    ]}
  ]},
  { "nodeid": 0, "depth": 0, "split": "f1", "split_condition": 99.5, "yes": 1, "no": 2, "missing": 1, "children": [
    { "nodeid": 1, "depth": 1, "split": "f3", "split_condition": 21.5, "yes": 3, "no": 4, "missing": 3, "children": [
      { "nodeid": 3, "depth": 2, "split": "f1", "split_condition": 91.5, "yes": 7, "no": 8, "missing": 7, "children": [
        { "nodeid": 7, "leaf": -0.0735057369 },
        { "nodeid": 8, "leaf": -0.0141426204 }
      ]},
      { "nodeid": 4, "depth": 2, "split": "f2", "split_condition": 73, "yes": 9, "no": 10, "missing": 9, "children": [
        { "nodeid": 9, "leaf": -0.0271062534 },
        { "nodeid": 10, "leaf": 0.0367178433 }
      ]}
    ]},
    { "nodeid": 2, "depth": 1, "split": "f4", "split_condition": 230.5, "yes": 5, "no": 6, "missing": 5, "children": [
      { "nodeid": 5, "depth": 2, "split": "f0", "split_condition": 0.5, "yes": 11, "no": 12, "missing": 11, "children": [
        { "nodeid": 11, "leaf": 0.0361028612 },
        { "nodeid": 12, "leaf": 0.00153121992 }
      ]},
      { "nodeid": 6, "depth": 2, "split": "f0", "split_condition": 5.5, "yes": 13, "no": 14, "missing": 13, "children": [
        { "nodeid": 13, "leaf": -0.0594731644 },
        { "nodeid": 14, "leaf": 0.041180443 }
      ]}
    ]}
  ]},
  { "nodeid": 0, "depth": 0, "split": "f3", "split_condition": 49.5, "yes": 1, "no": 2, "missing": 1, "children": [
    { "nodeid": 1, "depth": 1, "split": "f0", "split_condition": 11.5, "yes": 3, "no": 4, "missing": 3, "children": [
      { "nodeid": 3, "depth": 2, "split": "f1", "split_condition": 101.5, "yes": 5, "no": 6, "missing": 5, "children": [
        { "nodeid": 5, "leaf": -0.0285710339 },
        { "nodeid": 6, "leaf": 0.00355307362 }
      ]},
      { "nodeid": 4, "depth": 2, "split": "f2", "split_condition": 75, "yes": 7, "no": 8, "missing": 7, "children": [
        { "nodeid": 7, "leaf": 0.0740233883 },
        { "nodeid": 8, "leaf": -0.00814178679 }
      ]}
    ]},
    { "nodeid": 2, "leaf": -0.0549386032 }
  ]},
  { "nodeid": 0, "depth": 0, "split": "f2", "split_condition": 97, "yes": 1, "no": 2, "missing": 1, "children": [
    { "nodeid": 1, "depth": 1, "split": "f2", "split_condition": 91, "yes": 3, "no": 4, "missing": 3, "children": [
      { "nodeid": 3, "depth": 2, "split": "f1", "split_condition": 166.5, "yes": 5, "no": 6, "missing": 5, "children": [
        { "nodeid": 5, "leaf": -0.00381095707 },
        { "nodeid": 6, "leaf": 0.0386035629 }
      ]},
      { "nodeid": 4, "leaf": -0.0678001046 }
    ]},
    { "nodeid": 2, "leaf": 0.043691393 }
  ]},
  { "nodeid": 0, "depth": 0, "split": "f0", "split_condition": 3.5, "yes": 1, "no": 2, "missing": 1, "children": [
    { "nodeid": 1, "depth": 1, "split": "f3", "split_condition": 27.5, "yes": 3, "no": 4, "missing": 3, "children": [
      { "nodeid": 3, "depth": 2, "split": "f2", "split_condition": 69, "yes": 7, "no": 8, "missing": 7, "children": [
        { "nodeid": 7, "leaf": -0.0607842803 },
        { "nodeid": 8, "leaf": 0.0159297921 }
      ]},
      { "nodeid": 4, "depth": 2, "split": "f2", "split_condition": 69, "yes": 9, "no": 10, "missing": 9, "children": [
        { "nodeid": 9, "leaf": 0.042179063 },
        { "nodeid": 10, "leaf": -0.015094663 }
      ]}
    ]},
    { "nodeid": 2, "depth": 1, "split": "f2", "split_condition": 84.5, "yes": 5, "no": 6, "missing": 5, "children": [
      { "nodeid": 5, "depth": 2, "split": "f4", "split_condition": 21, "yes": 11, "no": 12, "missing": 11, "children": [
        { "nodeid": 11, "leaf": 0.0255943481 },
        { "nodeid": 12, "leaf": -0.00360078737 }
      ]},
      { "nodeid": 6, "depth": 2, "split": "f0", "split_condition": 7.5, "yes": 13, "no": 14, "missing": 13, "children": [
        { "nodeid": 13, "leaf": -0.0652081296 },
        { "nodeid": 14, "leaf": 0.0429088846 }
      ]}
    ]}
  ]},
  { "nodeid": 0, "depth": 0, "split": "f2", "split_condition": 15, "yes": 1, "no": 2, "missing": 1, "children": [
    { "nodeid": 1, "depth": 1, "split": "f1", "split_condition": 117.5, "yes": 3, "no": 4, "missing": 3, "children": [
      { "nodeid": 3, "leaf": -0.0443362519 },
      { "nodeid": 4, "leaf": 0.0796960965 }
    ]},
    { "nodeid": 2, "depth": 1, "split": "f2", "split_condition": 47, "yes": 5, "no": 6, "missing": 5, "children": [
      { "nodeid": 5, "leaf": -0.0587826855 },
      { "nodeid": 6, "depth": 2, "split": "f2", "split_condition": 53, "yes": 7, "no": 8, "missing": 7, "children": [
        { "nodeid": 7, "leaf": 0.0430722013 },
        { "nodeid": 8, "leaf": -0.00347758154 }
      ]}
    ]}
  ]},
  { "nodeid": 0, "depth": 0, "split": "f3", "split_condition": 49.5, "yes": 1, "no": 2, "missing": 1, "children": [
    { "nodeid": 1, "depth": 1, "split": "f3", "split_condition": 43.5, "yes": 3, "no": 4, "missing": 3, "children": [
      { "nodeid": 3, "depth": 2, "split": "f4", "split_condition": 7.5, "yes": 5, "no": 6, "missing": 5, "children": [
        { "nodeid": 5, "leaf": 0.00781956315 },
        { "nodeid": 6, "leaf": -0.0131960306 }
      ]},
      { "nodeid": 4, "depth": 2, "split": "f4", "split_condition": 185.5, "yes": 7, "no": 8, "missing": 7, "children": [
        { "nodeid": 7, "leaf": -0.00464380719 },
        { "nodeid": 8, "leaf": 0.0744697675 }
      ]}
    ]},
    { "nodeid": 2, "leaf": -0.0520812757 }
  ]},
  { "nodeid": 0, "depth": 0, "split": "f2", "split_condition": 97, "yes": 1, "no": 2, "missing": 1, "children": [
    { "nodeid": 1, "depth": 1, "split": "f2", "split_condition": 87, "yes": 3, "no": 4, "missing": 3, "children": [
      { "nodeid": 3, "depth": 2, "split": "f0", "split_condition": 1.5, "yes": 5, "no": 6, "missing": 5, "children": [
        { "nodeid": 5, "leaf": -0.0157423001 },
        { "nodeid": 6, "leaf": 0.00798297208 }
      ]},
      { "nodeid": 4, "depth": 2, "split": "f1", "split_condition": 125.5, "yes": 7, "no": 8, "missing": 7, "children": [
        { "nodeid": 7, "leaf": -0.0764978603 },
        { "nodeid": 8, "leaf": -0.0130893802 }
      ]}
    ]},
    { "nodeid": 2, "leaf": 0.0422250852 }
  ]},
  { "nodeid": 0, "depth": 0, "split": "f2", "split_condition": 15, "yes": 1, "no": 2, "missing": 1, "children": [
    { "nodeid": 1, "depth": 1, "split": "f1", "split_condition": 117.5, "yes": 3, "no": 4, "missing": 3, "children": [
      { "nodeid": 3, "leaf": -0.0429074429 },
      { "nodeid": 4, "leaf": 0.075447157 }
    ]},
    { "nodeid": 2, "depth": 1, "split": "f2", "split_condition": 47, "yes": 5, "no": 6, "missing": 5, "children": [
      { "nodeid": 5, "leaf": -0.0553613193 },
      { "nodeid": 6, "depth": 2, "split": "f1", "split_condition": 101.5, "yes": 7, "no": 8, "missing": 7, "children": [
        { "nodeid": 7, "leaf": -0.0217286628 },
        { "nodeid": 8, "leaf": 0.00352608901 }
      ]}
    ]}
  ]},
  { "nodeid": 0, "depth": 0, "split": "f3", "split_condition": 49.5, "yes": 1, "no": 2, "missing": 1, "children": [
    { "nodeid": 1, "depth": 1, "split": "f0", "split_condition": 11.5, "yes": 3, "no": 4, "missing": 3, "children": [
      { "nodeid": 3, "depth": 2, "split": "f4", "split_condition": 230.5, "yes": 5, "no": 6, "missing": 5, "children": [
        { "nodeid": 5, "leaf": 0.00202212366 },
        { "nodeid": 6, "leaf": -0.0332028978 }
      ]},
      { "nodeid": 4, "depth": 2, "split": "f2", "split_condition": 75, "yes": 7, "no": 8, "missing": 7, "children": [
        { "nodeid": 7, "leaf": 0.067947872 },
        { "nodeid": 8, "leaf": -0.00835766736 }
      ]}
    ]},
    { "nodeid": 2, "leaf": -0.0494027548 }
  ]},
  { "nodeid": 0, "depth": 0, "split": "f4", "split_condition": 143, "yes": 1, "no": 2, "missing": 1, "children": [
    { "nodeid": 1, "depth": 1, "split": "f4", "split_condition": 99.5, "yes": 3, "no": 4, "missing": 3, "children": [
      { "nodeid": 3, "depth": 2, "split": "f4", "split_condition": 87.5, "yes": 7, "no": 8, "missing": 7, "children": [
        { "nodeid": 7, "leaf": -0.00181151484 },
        { "nodeid": 8, "leaf": 0.0723391622 }
      ]},
      { "nodeid": 4, "depth": 2, "split": "f1", "split_condition": 127.5, "yes": 9, "no": 10, "missing": 9, "children": [
        { "nodeid": 9, "leaf": -0.0892690644 },
        { "nodeid": 10, "leaf": 0.0071723843 }
      ]}
    ]},
    { "nodeid": 2, "depth": 1, "split": "f0", "split_condition": 7.5, "yes": 5, "no": 6, "missing": 5, "children": [
      { "nodeid": 5, "depth": 2, "split": "f4", "split_condition": 208.5, "yes": 11, "no": 12, "missing": 11, "children": [
        { "nodeid": 11, "leaf": 0.0290257372 },
        { "nodeid": 12, "leaf": -0.0417028517 }
      ]},
      { "nodeid": 6, "depth": 2, "split": "f3", "split_condition": 32.5, "yes": 13, "no": 14, "missing": 13, "children": [
        { "nodeid": 13, "leaf": 0.111509517 },
        { "nodeid": 14, "leaf": 0.0143654812 }
      ]}
    ]}
  ]},
  { "nodeid": 0, "depth": 0, "split": "f4", "split_condition": 126.5, "yes": 1, "no": 2, "missing": 1, "children": [
    { "nodeid": 1, "depth": 1, "split": "f4", "split_condition": 99.5, "yes": 3, "no": 4, "missing": 3, "children": [
      { "nodeid": 3, "depth": 2, "split": "f4", "split_condition": 87.5, "yes": 7, "no": 8, "missing": 7, "children": [
        { "nodeid": 7, "leaf": -0.00163468427 },
        { "nodeid": 8, "leaf": 0.0658175573 }
      ]},
      { "nodeid": 4, "depth": 2, "split": "f4", "split_condition": 123.5, "yes": 9, "no": 10, "missing": 9, "children": [
        { "nodeid": 9, "leaf": -0.0886983573 },
        { "nodeid": 10, "leaf": -0.00086255325 }
      ]}
    ]},
    { "nodeid": 2, "depth": 1, "split": "f0", "split_condition": 7.5, "yes": 5, "no": 6, "missing": 5, "children": [
      { "nodeid": 5, "depth": 2, "split": "f3", "split_condition": 17.5, "yes": 11, "no": 12, "missing": 11, "children": [
        { "nodeid": 11, "leaf": -0.0744582489 },
        { "nodeid": 12, "leaf": 0.00954551529 }
      ]},
      { "nodeid": 6, "depth": 2, "split": "f3", "split_condition": 32.5, "yes": 13, "no": 14, "missing": 13, "children": [
        { "nodeid": 13, "leaf": 0.106049113 },
        { "nodeid": 14, "leaf": 0.0322316699 }
      ]}
    ]}
  ]},
  { "nodeid": 0, "depth": 0, "split": "f2", "split_condition": 97, "yes": 1, "no": 2, "missing": 1, "children": [
    { "nodeid": 1, "depth": 1, "split": "f2", "split_condition": 91, "yes": 3, "no": 4, "missing": 3, "children": [
      { "nodeid": 3, "depth": 2, "split": "f1", "split_condition": 166.5, "yes": 5, "no": 6, "missing": 5, "children": [
        { "nodeid": 5, "leaf": -0.00307993614 },
        { "nodeid": 6, "leaf": 0.0366985425 }
      ]},
      { "nodeid": 4, "leaf": -0.0618147664 }
    ]},
    { "nodeid": 2, "leaf": 0.0398460776 }
  ]},
  { "nodeid": 0, "depth": 0, "split": "f3", "split_condition": 49.5, "yes": 1, "no": 2, "missing": 1, "children": [
    { "nodeid": 1, "depth": 1, "split": "f3", "split_condition": 33.5, "yes": 3, "no": 4, "missing": 3, "children": [
      { "nodeid": 3, "depth": 2, "split": "f3", "split_condition": 32.5, "yes": 5, "no": 6, "missing": 5, "children": [
        { "nodeid": 5, "leaf": -0.000154233348 },
        { "nodeid": 6, "leaf": -0.0669561923 }
      ]},
      { "nodeid": 4, "depth": 2, "split": "f0", "split_condition": 8.5, "yes": 7, "no": 8, "missing": 7, "children": [
        { "nodeid": 7, "leaf": 0.00836323854 },
        { "nodeid": 8, "leaf": 0.0666814893 }
      ]}
    ]},
    { "nodeid": 2, "leaf": -0.0473646782 }
  ]},
  { "nodeid": 0, "depth": 0, "split": "f2", "split_condition": 15, "yes": 1, "no": 2, "missing": 1, "children": [
    { "nodeid": 1, "depth": 1, "split": "f1", "split_condition": 117.5, "yes": 3, "no": 4, "missing": 3, "children": [
      { "nodeid": 3, "leaf": -0.0406615287 },
      { "nodeid": 4, "leaf": 0.0715386122 }
    ]},
    { "nodeid": 2, "depth": 1, "split": "f2", "split_condition": 47, "yes": 5, "no": 6, "missing": 5, "children": [
      { "nodeid": 5, "leaf": -0.0527884178 },
      { "nodeid": 6, "depth": 2, "split": "f2", "split_condition": 53, "yes": 7, "no": 8, "missing": 7, "children": [
        { "nodeid": 7, "leaf": 0.0391837209 },
        { "nodeid": 8, "leaf": -0.00269383728 }
      ]}
    ]}
  ]},
  { "nodeid": 0, "depth": 0, "split": "f2", "split_condition": 97, "yes": 1, "no": 2, "missing": 1, "children": [
    { "nodeid": 1, "depth": 1, "split": "f2", "split_condition": 91, "yes": 3, "no": 4, "missing": 3, "children": [
      { "nodeid": 3, "depth": 2, "split": "f1", "split_condition": 166.5, "yes": 5, "no": 6, "missing": 5, "children": [
        { "nodeid": 5, "leaf": -0.00278154924 },
        { "nodeid": 6, "leaf": 0.0343478806 }
      ]},
      { "nodeid": 4, "leaf": -0.0587983206 }
    ]},
    { "nodeid": 2, "leaf": 0.0374567769 }
  ]},
  { "nodeid": 0, "depth": 0, "split": "f3", "split_condition": 49.5, "yes": 1, "no": 2, "missing": 1, "children": [
    { "nodeid": 1, "depth": 1, "split": "f0", "split_condition": 11.5, "yes": 3, "no": 4, "missing": 3, "children": [
      { "nodeid": 3, "depth": 2, "split": "f1", "split_condition": 94.5, "yes": 5, "no": 6, "missing": 5, "children": [
        { "nodeid": 5, "leaf": -0.0306365173 },
        { "nodeid": 6, "leaf": 0.00258429255 }
      ]},
      { "nodeid": 4, "depth": 2, "split": "f2", "split_condition": 75, "yes": 7, "no": 8, "missing": 7, "children": [
        { "nodeid": 7, "leaf": 0.0626078099 },
        { "nodeid": 8, "leaf": -0.00648346869 }
      ]}
    ]},
    { "nodeid": 2, "leaf": -0.045365151 }
  ]},
  { "nodeid": 0, "depth": 0, "split": "f4", "split_condition": 230.5, "yes": 1, "no": 2, "missing": 1, "children": [
    { "nodeid": 1, "depth": 1, "split": "f4", "split_condition": 153.5, "yes": 3, "no": 4, "missing": 3, "children": [
      { "nodeid": 3, "depth": 2, "split": "f4", "split_condition": 99.5, "yes": 7, "no": 8, "missing": 7, "children": [
        { "nodeid": 7, "leaf": 0.00281886547 },
        { "nodeid": 8, "leaf": -0.0345117114 }
      ]},
      { "nodeid": 4, "depth": 2, "split": "f2", "split_condition": 77, "yes": 9, "no": 10, "missing": 9, "children": [
        { "nodeid": 9, "leaf": 0.00250568171 },
        { "nodeid": 10, "leaf": 0.0699519962 }
      ]}
    ]},
    { "nodeid": 2, "depth": 1, "split": "f0", "split_condition": 5.5, "yes": 5, "no": 6, "missing": 5, "children": [
      { "nodeid": 5, "depth": 2, "split": "f1", "split_condition": 168.5, "yes": 11, "no": 12, "missing": 11, "children": [
        { "nodeid": 11, "leaf": -0.0701100603 },
        { "nodeid": 12, "leaf": 0.0218340643 }
      ]},
      { "nodeid": 6, "leaf": 0.049192816 }
    ]}
  ]},
  { "nodeid": 0, "depth": 0, "split": "f1", "split_condition": 143.5, "yes": 1, "no": 2, "missing": 1, "children": [
    { "nodeid": 1, "depth": 1, "split": "f1", "split_condition": 138.5, "yes": 3, "no": 4, "missing": 3, "children": [
      { "nodeid": 3, "depth": 2, "split": "f1", "split_condition": 133.5, "yes": 7, "no": 8, "missing": 7, "children": [
        { "nodeid": 7, "leaf": -0.00463473145 },
        { "nodeid": 8, "leaf": 0.0489551537 }
      ]},
      { "nodeid": 4, "depth": 2, "split": "f2", "split_condition": 70, "yes": 9, "no": 10, "missing": 9, "children": [
        { "nodeid": 9, "leaf": -0.00377054815 },
        { "nodeid": 10, "leaf": -0.0772908404 }
      ]}
    ]},
    { "nodeid": 2, "depth": 1, "split": "f2", "split_condition": 61, "yes": 5, "no": 6, "missing": 5, "children": [
      { "nodeid": 5, "leaf": 0.0673343018 },
      { "nodeid": 6, "depth": 2, "split": "f2", "split_condition": 69, "yes": 11, "no": 12, "missing": 11, "children": [
        { "nodeid": 11, "leaf": -0.0600316189 },
        { "nodeid": 12, "leaf": 0.0177298542 }
      ]}
    ]}
  ]},
  { "nodeid": 0, "depth": 0, "split": "f3", "split_condition": 49.5, "yes": 1, "no": 2, "missing": 1, "children": [
    { "nodeid": 1, "depth": 1, "split": "f3", "split_condition": 34.5, "yes": 3, "no": 4, "missing": 3, "children": [
      { "nodeid": 3, "depth": 2, "split": "f3", "split_condition": 32.5, "yes": 5, "no": 6, "missing": 5, "children": [
        { "nodeid": 5, "leaf": 2.59782155e-05 },
        { "nodeid": 6, "leaf": -0.0533102565 }
      ]},
      { "nodeid": 4, "depth": 2, "split": "f2", "split_condition": 73, "yes": 7, "no": 8, "missing": 7, "children": [
        { "nodeid": 7, "leaf": 0.0394829772 },
        { "nodeid": 8, "leaf": -0.00210519833 }
      ]}
    ]},
    { "nodeid": 2, "leaf": -0.0440210849 }
  ]},
  { "nodeid": 0, "depth": 0, "split": "f0", "split_condition": 2.5, "yes": 1, "no": 2, "missing": 1, "children": [
    { "nodeid": 1, "depth": 1, "split": "f3", "split_condition": 4, "yes": 3, "no": 4, "missing": 3, "children": [
      { "nodeid": 3, "depth": 2, "split": "f1", "split_condition": 119.5, "yes": 7, "no": 8, "missing": 7, "children": [
        { "nodeid": 7, "leaf": 0.0737151504 },
        { "nodeid": 8, "leaf": -0.0128132124 }
      ]},
      { "nodeid": 4, "depth": 2, "split": "f3", "split_condition": 24.5, "yes": 9, "no": 10, "missing": 9, "children": [
        { "nodeid": 9, "leaf": -0.0723895952 },
        { "nodeid": 10, "leaf": 0.00193736365 }
      ]}
    ]},
    { "nodeid": 2, "depth": 1, "split": "f4", "split_condition": 142, "yes": 5, "no": 6, "missing": 5, "children": [
      { "nodeid": 5, "depth": 2, "split": "f4", "split_condition": 99.5, "yes": 11, "no": 12, "missing": 11, "children": [
        { "nodeid": 11, "leaf": 0.00692172116 },
        { "nodeid": 12, "leaf": -0.0535277985 }
      ]},
      { "nodeid": 6, "depth": 2, "split": "f4", "split_condition": 212.5, "yes": 13, "no": 14, "missing": 13, "children": [
        { "nodeid": 13, "leaf": 0.0671362504 },
        { "nodeid": 14, "leaf": -0.00473754434 }
      ]}
    ]}
  ]},
  { "nodeid": 0, "depth": 0, "split": "f2", "split_condition": 97, "yes": 1, "no": 2, "missing": 1, "children": [
    { "nodeid": 1, "depth": 1, "split": "f2", "split_condition": 87, "yes": 3, "no": 4, "missing": 3, "children": [
      { "nodeid": 3, "depth": 2, "split": "f0", "split_condition": 1.5, "yes": 5, "no": 6, "missing": 5, "children": [
        { "nodeid": 5, "leaf": -0.0134429308 },
        { "nodeid": 6, "leaf": 0.00760698086 }
      ]},
      { "nodeid": 4, "depth": 2, "split": "f1", "split_condition": 125.5, "yes": 7, "no": 8, "missing": 7, "children": [
        { "nodeid": 7, "leaf": -0.0735263973 },
        { "nodeid": 8, "leaf": -0.0115303127 }
      ]}
    ]},
    { "nodeid": 2, "leaf": 0.0353704654 }
  ]},
  { "nodeid": 0, "depth": 0, "split": "f4", "split_condition": 123.5, "yes": 1, "no": 2, "missing": 1, "children": [
    { "nodeid": 1, "depth": 1, "split": "f4", "split_condition": 99.5, "yes": 3, "no": 4, "missing": 3, "children": [
      { "nodeid": 3, "depth": 2, "split": "f4", "split_condition": 87.5, "yes": 7, "no": 8, "missing": 7, "children": [
        { "nodeid": 7, "leaf": -0.00179318583 },
        { "nodeid": 8, "leaf": 0.0614748895 }
      ]},
      { "nodeid": 4, "depth": 2, "split": "f3", "split_condition": 31.5, "yes": 9, "no": 10, "missing": 9, "children": [
        { "nodeid": 9, "leaf": -0.0968456194 },
        { "nodeid": 10, "leaf": -0.0179881901 }
      ]}
    ]},
    { "nodeid": 2, "depth": 1, "split": "f0", "split_condition": 6.5, "yes": 5, "no": 6, "missing": 5, "children": [
      { "nodeid": 5, "depth": 2, "split": "f3", "split_condition": 17.5, "yes": 11, "no": 12, "missing": 11, "children": [
        { "nodeid": 11, "leaf": -0.0669559091 },
        { "nodeid": 12, "leaf": 0.0048021758 }
      ]},
      { "nodeid": 6, "depth": 2, "split": "f1", "split_condition": 134.5, "yes": 13, "no": 14, "missing": 13, "children": [
        { "nodeid": 13, "leaf": 0.0212362316 },
        { "nodeid": 14, "leaf": 0.0952198058 }
      ]}
    ]}
  ]},
  { "nodeid": 0, "depth": 0, "split": "f3", "split_condition": 49.5, "yes": 1, "no": 2, "missing": 1, "children": [
    { "nodeid": 1, "depth": 1, "split": "f0", "split_condition": 11.5, "yes": 3, "no": 4, "missing": 3, "children": [
      { "nodeid": 3, "depth": 2, "split": "f0", "split_condition": 9.5, "yes": 5, "no": 6, "missing": 5, "children": [
        { "nodeid": 5, "leaf": 0.0015756425 },
        { "nodeid": 6, "leaf": -0.0453763418 }
      ]},
      { "nodeid": 4, "depth": 2, "split": "f2", "split_condition": 75, "yes": 7, "no": 8, "missing": 7, "children": [
        { "nodeid": 7, "leaf": 0.0578425787 },
        { "nodeid": 8, "leaf": -0.00370940357 }
      ]}
    ]},
    { "nodeid": 2, "leaf": -0.0418426581 }
  ]},
  { "nodeid": 0, "depth": 0, "split": "f2", "split_condition": 15, "yes": 1, "no": 2, "missing": 1, "children": [
    { "nodeid": 1, "depth": 1, "split": "f1", "split_condition": 117.5, "yes": 3, "no": 4, "missing": 3, "children": [
      { "nodeid": 3, "leaf": -0.0387402065 },
      { "nodeid": 4, "leaf": 0.0665373132 }
    ]},
    { "nodeid": 2, "depth": 1, "split": "f2", "split_condition": 49, "yes": 5, "no": 6, "missing": 5, "children": [
      { "nodeid": 5, "leaf": -0.0463310741 },
      { "nodeid": 6, "depth": 2, "split": "f2", "split_condition": 51, "yes": 7, "no": 8, "missing": 7, "children": [
        { "nodeid": 7, "leaf": 0.0585085452 },
        { "nodeid": 8, "leaf": -0.00188769144 }
      ]}
    ]}
  ]},
  { "nodeid": 0, "depth": 0, "split": "f1", "split_condition": 99.5, "yes": 1, "no": 2, "missing": 1, "children": [
    { "nodeid": 1, "depth": 1, "split": "f3", "split_condition": 21.5, "yes": 3, "no": 4, "missing": 3, "children": [
      { "nodeid": 3, "depth": 2, "split": "f1", "split_condition": 91.5, "yes": 7, "no": 8, "missing": 7, "children": [
        { "nodeid": 7, "leaf": -0.0702453107 },
        { "nodeid": 8, "leaf": -0.0112793995 }
      ]},
      { "nodeid": 4, "depth": 2, "split": "f2", "split_condition": 73, "yes": 9, "no": 10, "missing": 9, "children": [
        { "nodeid": 9, "leaf": -0.0209832601 },
        { "nodeid": 10, "leaf": 0.0412656553 }
      ]}
    ]},
    { "nodeid": 2, "depth": 1, "split": "f4", "split_condition": 230.5, "yes": 5, "no": 6, "missing": 5, "children": [
      { "nodeid": 5, "depth": 2, "split": "f0", "split_condition": 0.5, "yes": 11, "no": 12, "missing": 11, "children": [
        { "nodeid": 11, "leaf": 0.0344449244 },
        { "nodeid": 12, "leaf": 0.000340773229 }
      ]},
      { "nodeid": 6, "depth": 2, "split": "f4", "split_condition": 487.5, "yes": 13, "no": 14, "missing": 13, "children": [
        { "nodeid": 13, "leaf": -0.0486399233 },
        { "nodeid": 14, "leaf": 0.035606727 }
      ]}
    ]}
  ]},
  { "nodeid": 0, "depth": 0, "split": "f4", "split_condition": 126.5, "yes": 1, "no": 2, "missing": 1, "children": [
    { "nodeid": 1, "depth": 1, "split": "f4", "split_condition": 99.5, "yes": 3, "no": 4, "missing": 3, "children": [
      { "nodeid": 3, "depth": 2, "split": "f4", "split_condition": 87.5, "yes": 7, "no": 8, "missing": 7, "children": [
        { "nodeid": 7, "leaf": -0.00179852534 },
        { "nodeid": 8, "leaf": 0.0554603226 }
      ]},
      { "nodeid": 4, "depth": 2, "split": "f0", "split_condition": 6.5, "yes": 9, "no": 10, "missing": 9, "children": [
        { "nodeid": 9, "leaf": -0.0856652185 },
        { "nodeid": 10, "leaf": -0.00670034299 }
      ]}
    ]},
    { "nodeid": 2, "depth": 1, "split": "f0", "split_condition": 7.5, "yes": 5, "no": 6, "missing": 5, "children": [
      { "nodeid": 5, "depth": 2, "split": "f3", "split_condition": 17.5, "yes": 11, "no": 12, "missing": 11, "children": [
        { "nodeid": 11, "leaf": -0.0672886297 },
        { "nodeid": 12, "leaf": 0.00867251214 }
      ]},
      { "nodeid": 6, "depth": 2, "split": "f3", "split_condition": 32.5, "yes": 13, "no": 14, "missing": 13, "children": [
        { "nodeid": 13, "leaf": 0.0948689356 },
        { "nodeid": 14, "leaf": 0.0247752666 }
      ]}
    ]}
  ]},
  { "nodeid": 0, "depth": 0, "split": "f1", "split_condition": 143.5, "yes": 1, "no": 2, "missing": 1, "children": [
    { "nodeid": 1, "depth": 1, "split": "f1", "split_condition": 138.5, "yes": 3, "no": 4, "missing": 3, "children": [
      { "nodeid": 3, "depth": 2, "split": "f1", "split_condition": 133.5, "yes": 7, "no": 8, "missing": 7, "children": [
        { "nodeid": 7, "leaf": -0.00427364185 },
        { "nodeid": 8, "leaf": 0.0439411923 }
      ]},
      { "nodeid": 4, "depth": 2, "split": "f2", "split_condition": 70, "yes": 9, "no": 10, "missing": 9, "children": [
        { "nodeid": 9, "leaf": -0.00221572444 },
        { "nodeid": 10, "leaf": -0.0724168792 }
      ]}
    ]},
    { "nodeid": 2, "depth": 1, "split": "f2", "split_condition": 61, "yes": 5, "no": 6, "missing": 5, "children": [
      { "nodeid": 5, "leaf": 0.0638497919 },
      { "nodeid": 6, "depth": 2, "split": "f2", "split_condition": 67, "yes": 11, "no": 12, "missing": 11, "children": [
        { "nodeid": 11, "leaf": -0.0657794252 },
        { "nodeid": 12, "leaf": 0.0138362693 }
      ]}
    ]}
  ]},
  { "nodeid": 0, "depth": 0, "split": "f3", "split_condition": 49.5, "yes": 1, "no": 2, "missing": 1, "children": [
    { "nodeid": 1, "depth": 1, "split": "f0", "split_condition": 11.5, "yes": 3, "no": 4, "missing": 3, "children": [
      { "nodeid": 3, "depth": 2, "split": "f0", "split_condition": 9.5, "yes": 5, "no": 6, "missing": 5, "children": [
        { "nodeid": 5, "leaf": 0.00156053074 },
        { "nodeid": 6, "leaf": -0.0423808321 }
      ]},
      { "nodeid": 4, "depth": 2, "split": "f1", "split_condition": 127.5, "yes": 7, "no": 8, "missing": 7, "children": [
        { "nodeid": 7, "leaf": 0.0541019626 },
        { "nodeid": 8, "leaf": -0.00524548395 }
      ]}
    ]},
    { "nodeid": 2, "leaf": -0.0411057584 }
  ]},
  { "nodeid": 0, "depth": 0, "split": "f2", "split_condition": 97, "yes": 1, "no": 2, "missing": 1, "children": [
    { "nodeid": 1, "depth": 1, "split": "f2", "split_condition": 87, "yes": 3, "no": 4, "missing": 3, "children": [
      { "nodeid": 3, "depth": 2, "split": "f1", "split_condition": 166.5, "yes": 5, "no": 6, "missing": 5, "children": [
        { "nodeid": 5, "leaf": -0.000907471578 },
        { "nodeid": 6, "leaf": 0.0345468894 }
      ]},
      { "nodeid": 4, "depth": 2, "split": "f1", "split_condition": 125.5, "yes": 7, "no": 8, "missing": 7, "children": [
        { "nodeid": 7, "leaf": -0.0715569481 },
        { "nodeid": 8, "leaf": -0.0121581675 }
      ]}
    ]},
    { "nodeid": 2, "leaf": 0.0338371657 }
  ]},
  { "nodeid": 0, "depth": 0, "split": "f4", "split_condition": 230.5, "yes": 1, "no": 2, "missing": 1, "children": [
    { "nodeid": 1, "depth": 1, "split": "f4", "split_condition": 153.5, "yes": 3, "no": 4, "missing": 3, "children": [
      { "nodeid": 3, "depth": 2, "split": "f4", "split_condition": 14.5, "yes": 7, "no": 8, "missing": 7, "children": [
        { "nodeid": 7, "leaf": 0.00543754408 },
        { "nodeid": 8, "leaf": -0.0213239361 }
      ]},
      { "nodeid": 4, "depth": 2, "split": "f2", "split_condition": 77, "yes": 9, "no": 10, "missing": 9, "children": [
        { "nodeid": 9, "leaf": -0.000539725064 },
        { "nodeid": 10, "leaf": 0.0627457425 }
      ]}
    ]},
    { "nodeid": 2, "depth": 1, "split": "f0", "split_condition": 5.5, "yes": 5, "no": 6, "missing": 5, "children": [
      { "nodeid": 5, "depth": 2, "split": "f1", "split_condition": 147.5, "yes": 11, "no": 12, "missing": 11, "children": [
        { "nodeid": 11, "leaf": -0.0885138959 },
        { "nodeid": 12, "leaf": -0.00646068389 }
      ]},
      { "nodeid": 6, "leaf": 0.0436194167 }
    ]}
  ]},
  { "nodeid": 0, "depth": 0, "split": "f3", "split_condition": 49.5, "yes": 1, "no": 2, "missing": 1, "children": [
    { "nodeid": 1, "depth": 1, "split": "f3", "split_condition": 46.5, "yes": 3, "no": 4, "missing": 3, "children": [
      { "nodeid": 3, "depth": 2, "split": "f4", "split_condition": 226.5, "yes": 5, "no": 6, "missing": 5, "children": [
        { "nodeid": 5, "leaf": 0.0024375373 },
        { "nodeid": 6, "leaf": -0.0301659591 }
      ]},
      { "nodeid": 4, "leaf": 0.0411302783 }
    ]},
    { "nodeid": 2, "leaf": -0.0397191681 }
  ]},
  { "nodeid": 0, "depth": 0, "split": "f2", "split_condition": 97, "yes": 1, "no": 2, "missing": 1, "children": [
    { "nodeid": 1, "depth": 1, "split": "f2", "split_condition": 91, "yes": 3, "no": 4, "missing": 3, "children": [
      { "nodeid": 3, "depth": 2, "split": "f1", "split_condition": 166.5, "yes": 5, "no": 6, "missing": 5, "children": [
        { "nodeid": 5, "leaf": -0.00227240566 },
        { "nodeid": 6, "leaf": 0.0308618378 }
      ]},
      { "nodeid": 4, "leaf": -0.0573176406 }
    ]},
    { "nodeid": 2, "leaf": 0.0329310559 }
  ]},
  { "nodeid": 0, "depth": 0, "split": "f0", "split_condition": 2.5, "yes": 1, "no": 2, "missing": 1, "children": [
    { "nodeid": 1, "depth": 1, "split": "f1", "split_condition": 89.5, "yes": 3, "no": 4, "missing": 3, "children": [
      { "nodeid": 3, "leaf": -0.0700175017 },
      { "nodeid": 4, "depth": 2, "split": "f3", "split_condition": 4, "yes": 7, "no": 8, "missing": 7, "children": [
        { "nodeid": 7, "leaf": 0.0282261651 },
        { "nodeid": 8, "leaf": -0.0111585958 }
      ]}
    ]},
    { "nodeid": 2, "depth": 1, "split": "f2", "split_condition": 63, "yes": 5, "no": 6, "missing": 5, "children": [
      { "nodeid": 5, "depth": 2, "split": "f1", "split_condition": 116.5, "yes": 9, "no": 10, "missing": 9, "children": [
        { "nodeid": 9, "leaf": -0.00746737001 },
        { "nodeid": 10, "leaf": 0.0820535123 }
      ]},
      { "nodeid": 6, "depth": 2, "split": "f4", "split_condition": 142, "yes": 11, "no": 12, "missing": 11, "children": [
        { "nodeid": 11, "leaf": -0.0111669311 },
        { "nodeid": 12, "leaf": 0.0277446192 }
      ]}
    ]}
  ]},
  { "nodeid": 0, "depth": 0, "split": "f1", "split_condition": 190, "yes": 1, "no": 2, "missing": 1, "children": [
    { "nodeid": 1, "depth": 1, "split": "f1", "split_condition": 166.5, "yes": 3, "no": 4, "missing": 3, "children": [
      { "nodeid": 3, "depth": 2, "split": "f4", "split_condition": 250, "yes": 5, "no": 6, "missing": 5, "children": [
        { "nodeid": 5, "leaf": 0.00107040978 },
        { "nodeid": 6, "leaf": -0.034921512 }
      ]},
      { "nodeid": 4, "depth": 2, "split": "f4", "split_condition": 80, "yes": 7, "no": 8, "missing": 7, "children": [
        { "nodeid": 7, "leaf": -0.0125780357 },
        { "nodeid": 8, "leaf": 0.0788474828 }
      ]}
    ]},
    { "nodeid": 2, "leaf": -0.0346847139 }
  ]},
  { "nodeid": 0, "depth": 0, "split": "f3", "split_condition": 49.5, "yes": 1, "no": 2, "missing": 1, "children": [
    { "nodeid": 1, "depth": 1, "split": "f0", "split_condition": 11.5, "yes": 3, "no": 4, "missing": 3, "children": [
      { "nodeid": 3, "depth": 2, "split": "f0", "split_condition": 9.5, "yes": 5, "no": 6, "missing": 5, "children": [
        { "nodeid": 5, "leaf": 0.0015392981 },
        { "nodeid": 6, "leaf": -0.0406628586 }
      ]},
      { "nodeid": 4, "depth": 2, "split": "f2", "split_condition": 75, "yes": 7, "no": 8, "missing": 7, "children": [
        { "nodeid": 7, "leaf": 0.0523305051 },
        { "nodeid": 8, "leaf": -0.00498674996 }
      ]}
    ]},
    { "nodeid": 2, "leaf": -0.0373720415 }
  ]},
  { "nodeid": 0, "depth": 0, "split": "f2", "split_condition": 97, "yes": 1, "no": 2, "missing": 1, "children": [
    { "nodeid": 1, "depth": 1, "split": "f2", "split_condition": 87, "yes": 3, "no": 4, "missing": 3, "children": [
      { "nodeid": 3, "depth": 2, "split": "f3", "split_condition": 29.5, "yes": 5, "no": 6, "missing": 5, "children": [
        { "nodeid": 5, "leaf": -0.00494254334 },
        { "nodeid": 6, "leaf": 0.0138950441 }
      ]},
      { "nodeid": 4, "depth": 2, "split": "f1", "split_condition": 125.5, "yes": 7, "no": 8, "missing": 7, "children": [
        { "nodeid": 7, "leaf": -0.0691938549 },
        { "nodeid": 8, "leaf": -0.0117889121 }
      ]}
    ]},
    { "nodeid": 2, "leaf": 0.0313175954 }
  ]},
  { "nodeid": 0, "depth": 0, "split": "f0", "split_condition": 3.5, "yes": 1, "no": 2, "missing": 1, "children": [
    { "nodeid": 1, "depth": 1, "split": "f3", "split_condition": 27.5, "yes": 3, "no": 4, "missing": 3, "children": [
      { "nodeid": 3, "depth": 2, "split": "f2", "split_condition": 69, "yes": 7, "no": 8, "missing": 7, "children": [
        { "nodeid": 7, "leaf": -0.0579427667 },
        { "nodeid": 8, "leaf": 0.0171515476 }
      ]},
      { "nodeid": 4, "depth": 2, "split": "f3", "split_condition": 40.5, "yes": 9, "no": 10, "missing": 9, "children": [
        { "nodeid": 9, "leaf": 0.0313009061 },
        { "nodeid": 10, "leaf": -0.024466373 }
      ]}
    ]},
    { "nodeid": 2, "depth": 1, "split": "f2", "split_condition": 67, "yes": 5, "no": 6, "missing": 5, "children": [
      { "nodeid": 5, "depth": 2, "split": "f3", "split_condition": 27.5, "yes": 11, "no": 12, "missing": 11, "children": [
        { "nodeid": 11, "leaf": 0.0554753505 },
        { "nodeid": 12, "leaf": -0.0196010303 }
      ]},
      { "nodeid": 6, "depth": 2, "split": "f1", "split_condition": 133.5, "yes": 13, "no": 14, "missing": 13, "children": [
        { "nodeid": 13, "leaf": -0.020702498 },
        { "nodeid": 14, "leaf": 0.0217717476 }
      ]}
    ]}
  ]},
  { "nodeid": 0, "depth": 0, "split": "f4", "split_condition": 208.5, "yes": 1, "no": 2, "missing": 1, "children": [
    { "nodeid": 1, "depth": 1, "split": "f0", "split_condition": 0.5, "yes": 3, "no": 4, "missing": 3, "children": [
      { "nodeid": 3, "depth": 2, "split": "f1", "split_condition": 103, "yes": 7, "no": 8, "missing": 7, "children": [
        { "nodeid": 7, "leaf": -0.068621099 },
        { "nodeid": 8, "leaf": 0.0540753193 }
      ]},
      { "nodeid": 4, "depth": 2, "split": "f2", "split_condition": 65.5, "yes": 9, "no": 10, "missing": 9, "children": [
        { "nodeid": 9, "leaf": -0.0229978319 },
        { "nodeid": 10, "leaf": 0.00565608265 }
      ]}
    ]},
    { "nodeid": 2, "depth": 1, "split": "f0", "split_condition": 7.5, "yes": 5, "no": 6, "missing": 5, "children": [
      { "nodeid": 5, "depth": 2, "split": "f3", "split_condition": 35.5, "yes": 11, "no": 12, "missing": 11, "children": [
        { "nodeid": 11, "leaf": -0.068719916 },
        { "nodeid": 12, "leaf": 0.0166274514 }
      ]},
      { "nodeid": 6, "leaf": 0.0553803407 }
    ]}
  ]},
  { "nodeid": 0, "depth": 0, "split": "f0", "split_condition": 2.5, "yes": 1, "no": 2, "missing": 1, "children": [
    { "nodeid": 1, "depth": 1, "split": "f1", "split_condition": 143.5, "yes": 3, "no": 4, "missing": 3, "children": [
      { "nodeid": 3, "depth": 2, "split": "f3", "split_condition": 4, "yes": 7, "no": 8, "missing": 7, "children": [
        { "nodeid": 7, "leaf": 0.0234400965 },
        { "nodeid": 8, "leaf": -0.030178979 }
      ]},
      { "nodeid": 4, "depth": 2, "split": "f1", "split_condition": 156, "yes": 9, "no": 10, "missing": 9, "children": [
        { "nodeid": 9, "leaf": 0.0955354199 },
        { "nodeid": 10, "leaf": -0.0112275509 }
      ]}
    ]},
    { "nodeid": 2, "depth": 1, "split": "f2", "split_condition": 63, "yes": 5, "no": 6, "missing": 5, "children": [
      { "nodeid": 5, "depth": 2, "split": "f1", "split_condition": 116.5, "yes": 11, "no": 12, "missing": 11, "children": [
        { "nodeid": 11, "leaf": -0.00636130059 },
        { "nodeid": 12, "leaf": 0.0773140788 }
      ]},
      { "nodeid": 6, "depth": 2, "split": "f2", "split_condition": 65.5, "yes": 13, "no": 14, "missing": 13, "children": [
        { "nodeid": 13, "leaf": -0.0523663163 },
        { "nodeid": 14, "leaf": 0.00220366055 }
      ]}
    ]}
  ]},
  { "nodeid": 0, "depth": 0, "split": "f3", "split_condition": 49.5, "yes": 1, "no": 2, "missing": 1, "children": [
    { "nodeid": 1, "depth": 1, "split": "f3", "split_condition": 43.5, "yes": 3, "no": 4, "missing": 3, "children": [
      { "nodeid": 3, "depth": 2, "split": "f3", "split_condition": 41.5, "yes": 5, "no": 6, "missing": 5, "children": [
        { "nodeid": 5, "leaf": 0.000536404317 },
        { "nodeid": 6, "leaf": -0.0506328046 }
      ]},
      { "nodeid": 4, "depth": 2, "split": "f4", "split_condition": 185.5, "yes": 7, "no": 8, "missing": 7, "children": [
        { "nodeid": 7, "leaf": -0.00606889324 },
        { "nodeid": 8, "leaf": 0.0642106086 }
      ]}
    ]},
    { "nodeid": 2, "leaf": -0.0365194269 }
  ]},
  { "nodeid": 0, "depth": 0, "split": "f4", "split_condition": 230.5, "yes": 1, "no": 2, "missing": 1, "children": [
    { "nodeid": 1, "depth": 1, "split": "f3", "split_condition": 28.5, "yes": 3, "no": 4, "missing": 3, "children": [
      { "nodeid": 3, "depth": 2, "split": "f1", "split_condition": 94.5, "yes": 7, "no": 8, "missing": 7, "children": [
        { "nodeid": 7, "leaf": -0.0631610081 },
        { "nodeid": 8, "leaf": 0.000429786945 }
      ]},
      { "nodeid": 4, "depth": 2, "split": "f2", "split_condition": 84.5, "yes": 9, "no": 10, "missing": 9, "children": [
        { "nodeid": 9, "leaf": 0.0229240805 },
        { "nodeid": 10, "leaf": -0.0302523021 }
      ]}
    ]},
    { "nodeid": 2, "depth": 1, "split": "f0", "split_condition": 5.5, "yes": 5, "no": 6, "missing": 5, "children": [
      { "nodeid": 5, "depth": 2, "split": "f1", "split_condition": 147.5, "yes": 11, "no": 12, "missing": 11, "children": [
        { "nodeid": 11, "leaf": -0.0827825814 },
        { "nodeid": 12, "leaf": -0.00432662992 }
      ]},
      { "nodeid": 6, "leaf": 0.0391101092 }
    ]}
  ]},
  { "nodeid": 0, "depth": 0, "split": "f2", "split_condition": 97, "yes": 1, "no": 2, "missing": 1, "children": [
    { "nodeid": 1, "depth": 1, "split": "f2", "split_condition": 87, "yes": 3, "no": 4, "missing": 3, "children": [
      { "nodeid": 3, "depth": 2, "split": "f0", "split_condition": 1.5, "yes": 5, "no": 6, "missing": 5, "children": [
        { "nodeid": 5, "leaf": -0.0124341939 },
        { "nodeid": 6, "leaf": 0.00678406889 }
      ]},
      { "nodeid": 4, "depth": 2, "split": "f1", "split_condition": 125.5, "yes": 7, "no": 8, "missing": 7, "children": [
        { "nodeid": 7, "leaf": -0.066868186 },
        { "nodeid": 8, "leaf": -0.0109723853 }
      ]}
    ]},
    { "nodeid": 2, "leaf": 0.030687442 }
  ]},
  { "nodeid": 0, "depth": 0, "split": "f3", "split_condition": 49.5, "yes": 1, "no": 2, "missing": 1, "children": [
    { "nodeid": 1, "depth": 1, "split": "f3", "split_condition": 43.5, "yes": 3, "no": 4, "missing": 3, "children": [
      { "nodeid": 3, "depth": 2, "split": "f3", "split_condition": 41.5, "yes": 5, "no": 6, "missing": 5, "children": [
        { "nodeid": 5, "leaf": 0.000342511776 },
        { "nodeid": 6, "leaf": -0.0483406149 }
      ]},
      { "nodeid": 4, "depth": 2, "split": "f4", "split_condition": 185.5, "yes": 7, "no": 8, "missing": 7, "children": [
        { "nodeid": 7, "leaf": -0.00587611925 },
        { "nodeid": 8, "leaf": 0.0602745414 }
      ]}
    ]},
    { "nodeid": 2, "leaf": -0.0351804644 }
  ]},
  { "nodeid": 0, "depth": 0, "split": "f4", "split_condition": 230.5, "yes": 1, "no": 2, "missing": 1, "children": [
    { "nodeid": 1, "depth": 1, "split": "f4", "split_condition": 153.5, "yes": 3, "no": 4, "missing": 3, "children": [
      { "nodeid": 3, "depth": 2, "split": "f4", "split_condition": 137.5, "yes": 7, "no": 8, "missing": 7, "children": [
        { "nodeid": 7, "leaf": 0.000131811306 },
        { "nodeid": 8, "leaf": -0.051391352 }
      ]},
      { "nodeid": 4, "depth": 2, "split": "f2", "split_condition": 77, "yes": 9, "no": 10, "missing": 9, "children": [
        { "nodeid": 9, "leaf": -0.00255210209 },
        { "nodeid": 10, "leaf": 0.0567146428 }
      ]}
    ]},
    { "nodeid": 2, "depth": 1, "split": "f0", "split_condition": 5.5, "yes": 5, "no": 6, "missing": 5, "children": [
