[
  { "nodeid": 0, "depth": 0, "split": "f4", "split_condition": -1.63703609, "yes": 1, "no": 2, "missing": 1, "children": [
    { "nodeid": 1, "depth": 1, "split": "f4", "split_condition": -1.79105687, "yes": 3, "no": 4, "missing": 3, "children": [
      { "nodeid": 3, "depth": 2, "split": "f3", "split_condition": -0.8629089, "yes": 7, "no": 8, "missing": 7, "children": [
        { "nodeid": 7, "leaf": -0.019411765 },
        { "nodeid": 8, "leaf": 0.00151202758 }
      ]},
      { "nodeid": 4, "depth": 2, "split": "f1", "split_condition": -0.0521787852, "yes": 9, "no": 10, "missing": 9, "children": [
        { "nodeid": 9, "leaf": -0.00772532215 },
        { "nodeid": 10, "leaf": -0.0414565839 }
      ]}
    ]},
    { "nodeid": 2, "depth": 1, "split": "f3", "split_condition": -2.46467161, "yes": 5, "no": 6, "missing": 5, "children": [
      { "nodeid": 5, "depth": 2, "split": "f1", "split_condition": 1.21210933, "yes": 11, "no": 12, "missing": 11, "children": [
        { "nodeid": 11, "leaf": -0.0295532644 },
        { "nodeid": 12, "leaf": 0.0411764719 }
      ]},
      { "nodeid": 6, "depth": 2, "split": "f4", "split_condition": 2.96806288, "yes": 13, "no": 14, "missing": 13, "children": [
        { "nodeid": 13, "leaf": -0.000292912795 },
        { "nodeid": 14, "leaf": -0.0483660139 }
      ]}
    ]}
  ]},
  { "nodeid": 0, "depth": 0, "split": "f1", "split_condition": 2.64568901, "yes": 1, "no": 2, "missing": 1, "children": [
    { "nodeid": 1, "depth": 1, "split": "f3", "split_condition": 1.69127941, "yes": 3, "no": 4, "missing": 3, "children": [
      { "nodeid": 3, "depth": 2, "split": "f2", "split_condition": -0.279392779, "yes": 7, "no": 8, "missing": 7, "children": [
        { "nodeid": 7, "leaf": 0.00184481149 },
        { "nodeid": 8, "leaf": -0.00179041119 }
      ]},
      { "nodeid": 4, "depth": 2, "split": "f4", "split_condition": 1.85277224, "yes": 9, "no": 10, "missing": 9, "children": [
        { "nodeid": 9, "leaf": -0.00990734436 },
        { "nodeid": 10, "leaf": 0.0358483046 }
      ]}
    ]},
    { "nodeid": 2, "depth": 1, "split": "f2", "split_condition": -2.33819938, "yes": 5, "no": 6, "missing": 5, "children": [
      { "nodeid": 5, "leaf": 0.111127377 },
      { "nodeid": 6, "depth": 2, "split": "f3", "split_condition": 0.650009811, "yes": 11, "no": 12, "missing": 11, "children": [
        { "nodeid": 11, "leaf": -0.0167608764 },
        { "nodeid": 12, "leaf": -0.0641186237 }
      ]}
    ]}
  ]},
  { "nodeid": 0, "depth": 0, "split": "f4", "split_condition": -1.60334969, "yes": 1, "no": 2, "missing": 1, "children": [
    { "nodeid": 1, "depth": 1, "split": "f4", "split_condition": -1.79105687, "yes": 3, "no": 4, "missing": 3, "children": [
      { "nodeid": 3, "depth": 2, "split": "f0", "split_condition": 1.79742408, "yes": 7, "no": 8, "missing": 7, "children": [
        { "nodeid": 7, "leaf": -0.00366697018 },
        { "nodeid": 8, "leaf": 0.0362825282 }
      ]},
      { "nodeid": 4, "depth": 2, "split": "f4", "split_condition": -1.77775073, "yes": 9, "no": 10, "missing": 9, "children": [
        { "nodeid": 9, "leaf": -0.0778202415 },
        { "nodeid": 10, "leaf": -0.0142481253 }
      ]}
    ]},
    { "nodeid": 2, "depth": 1, "split": "f2", "split_condition": 2.59875822, "yes": 5, "no": 6, "missing": 5, "children": [
      { "nodeid": 5, "depth": 2, "split": "f2", "split_condition": 2.41073036, "yes": 11, "no": 12, "missing": 11, "children": [
        { "nodeid": 11, "leaf": -0.000361531944 },
        { "nodeid": 12, "leaf": 0.0311087221 }
      ]},
      { "nodeid": 6, "depth": 2, "split": "f3", "split_condition": 0.669371009, "yes": 13, "no": 14, "missing": 13, "children": [
        { "nodeid": 13, "leaf": -0.0426231697 },
        { "nodeid": 14, "leaf": 0.0157360397 }
      ]}
    ]}
  ]},
  { "nodeid": 0, "depth": 0, "split": "f3", "split_condition": -2.46467161, "yes": 1, "no": 2, "missing": 1, "children": [
    { "nodeid": 1, "depth": 1, "split": "f3", "split_condition": -2.55697203, "yes": 3, "no": 4, "missing": 3, "children": [
      { "nodeid": 3, "depth": 2, "split": "f1", "split_condition": 1.29809391, "yes": 7, "no": 8, "missing": 7, "children": [
        { "nodeid": 7, "leaf": -0.0180665087 },
        { "nodeid": 8, "leaf": 0.0949051976 }
      ]},
      { "nodeid": 4, "depth": 2, "split": "f4", "split_condition": 1.51226103, "yes": 9, "no": 10, "missing": 9, "children": [
        { "nodeid": 9, "leaf": -0.0653933212 },
        { "nodeid": 10, "leaf": 0.112847053 }
      ]}
    ]},
    { "nodeid": 2, "depth": 1, "split": "f4", "split_condition": 2.96806288, "yes": 5, "no": 6, "missing": 5, "children": [
      { "nodeid": 5, "depth": 2, "split": "f1", "split_condition": 2.64568901, "yes": 11, "no": 12, "missing": 11, "children": [
        { "nodeid": 11, "leaf": -0.000385056192 },
        { "nodeid": 12, "leaf": -0.0250858162 }
      ]},
      { "nodeid": 6, "depth": 2, "split": "f0", "split_condition": 0.734372497, "yes": 13, "no": 14, "missing": 13, "children": [
        { "nodeid": 13, "leaf": -0.0693552122 },
        { "nodeid": 14, "leaf": 0.0216421541 }
      ]}
    ]}
  ]},
  { "nodeid": 0, "depth": 0, "split": "f0", "split_condition": 0.961384237, "yes": 1, "no": 2, "missing": 1, "children": [
    { "nodeid": 1, "depth": 1, "split": "f0", "split_condition": 0.96044451, "yes": 3, "no": 4, "missing": 3, "children": [
      { "nodeid": 3, "depth": 2, "split": "f2", "split_condition": 2.83289599, "yes": 7, "no": 8, "missing": 7, "children": [
        { "nodeid": 7, "leaf": -0.00116372493 },
        { "nodeid": 8, "leaf": -0.0408466049 }
      ]},
      { "nodeid": 4, "depth": 2, "split": "f2", "split_condition": 0.356971681, "yes": 9, "no": 10, "missing": 9, "children": [
        { "nodeid": 9, "leaf": -0.126429334 },
        { "nodeid": 10, "leaf": -0.0331447236 }
      ]}
    ]},
    { "nodeid": 2, "depth": 1, "split": "f2", "split_condition": -1.67646456, "yes": 5, "no": 6, "missing": 5, "children": [
      { "nodeid": 5, "depth": 2, "split": "f2", "split_condition": -1.73084128, "yes": 11, "no": 12, "missing": 11, "children": [
        { "nodeid": 11, "leaf": -0.0041479338 },
        { "nodeid": 12, "leaf": -0.0976293012 }
      ]},
      { "nodeid": 6, "depth": 2, "split": "f0", "split_condition": 1.44254994, "yes": 13, "no": 14, "missing": 13, "children": [
        { "nodeid": 13, "leaf": 0.00749103678 },
        { "nodeid": 14, "leaf": -0.00136998936 }
      ]}
    ]}
  ]},
  { "nodeid": 0, "depth": 0, "split": "f3", "split_condition": 1.69127941, "yes": 1, "no": 2, "missing": 1, "children": [
    { "nodeid": 1, "depth": 1, "split": "f3", "split_condition": 1.67643952, "yes": 3, "no": 4, "missing": 3, "children": [
      { "nodeid": 3, "depth": 2, "split": "f3", "split_condition": 1.67046285, "yes": 7, "no": 8, "missing": 7, "children": [
        { "nodeid": 7, "leaf": -0.000250723853 },
        { "nodeid": 8, "leaf": -0.0688412413 }
      ]},
      { "nodeid": 4, "depth": 2, "split": "f0", "split_condition": -0.380469799, "yes": 9, "no": 10, "missing": 9, "children": [
        { "nodeid": 9, "leaf": -0.00404599262 },
        { "nodeid": 10, "leaf": 0.0616778396 }
      ]}
    ]},
    { "nodeid": 2, "depth": 1, "split": "f1", "split_condition": 0.0898990557, "yes": 5, "no": 6, "missing": 5, "children": [
      { "nodeid": 5, "depth": 2, "split": "f0", "split_condition": 1.7498908, "yes": 11, "no": 12, "missing": 11, "children": [
        { "nodeid": 11, "leaf": -0.017520735 },
        { "nodeid": 12, "leaf": 0.0416206382 }
      ]},
      { "nodeid": 6, "depth": 2, "split": "f3", "split_condition": 2.01857519, "yes": 13, "no": 14, "missing": 13, "children": [
        { "nodeid": 13, "leaf": -0.0107593713 },
        { "nodeid": 14, "leaf": 0.0147234621 }
      ]}
    ]}
  ]},
  { "nodeid": 0, "depth": 0, "split": "f4", "split_condition": -1.63703609, "yes": 1, "no": 2, "missing": 1, "children": [
    { "nodeid": 1, "depth": 1, "split": "f4", "split_condition": -1.79105687, "yes": 3, "no": 4, "missing": 3, "children": [
      { "nodeid": 3, "depth": 2, "split": "f1", "split_condition": 2.28125334, "yes": 7, "no": 8, "missing": 7, "children": [
        { "nodeid": 7, "leaf": -0.00254971976 },
        { "nodeid": 8, "leaf": 0.0684353039 }
      ]},
      { "nodeid": 4, "depth": 2, "split": "f1", "split_condition": -1.33991122, "yes": 9, "no": 10, "missing": 9, "children": [
        { "nodeid": 9, "leaf": 0.0276797712 },
        { "nodeid": 10, "leaf": -0.0252548214 }
      ]}
    ]},
    { "nodeid": 2, "depth": 1, "split": "f4", "split_condition": -1.63449311, "yes": 5, "no": 6, "missing": 5, "children": [
      { "nodeid": 5, "depth": 2, "split": "f0", "split_condition": -0.69494617, "yes": 11, "no": 12, "missing": 11, "children": [
        { "nodeid": 11, "leaf": 0.00120142405 },
        { "nodeid": 12, "leaf": 0.125175521 }
      ]},
      { "nodeid": 6, "depth": 2, "split": "f3", "split_condition": 2.42951107, "yes": 13, "no": 14, "missing": 13, "children": [
        { "nodeid": 13, "leaf": -4.90975617e-05 },
        { "nodeid": 14, "leaf": -0.0176243149 }
      ]}
    ]}
  ]},
  { "nodeid": 0, "depth": 0, "split": "f0", "split_condition": -3.30210829, "yes": 1, "no": 2, "missing": 1, "children": [
    { "nodeid": 1, "depth": 1, "split": "f2", "split_condition": 0.781280398, "yes": 3, "no": 4, "missing": 3, "children": [
      { "nodeid": 3, "depth": 2, "split": "f1", "split_condition": -0.334270358, "yes": 7, "no": 8, "missing": 7, "children": [
        { "nodeid": 7, "leaf": 0.0159570631 },
        { "nodeid": 8, "leaf": 0.133647695 }
      ]},
      { "nodeid": 4, "leaf": -0.0664283112 }
    ]},
    { "nodeid": 2, "depth": 1, "split": "f1", "split_condition": -3.35981607, "yes": 5, "no": 6, "missing": 5, "children": [
      { "nodeid": 5, "depth": 2, "split": "f3", "split_condition": -1.12975931, "yes": 9, "no": 10, "missing": 9, "children": [
        { "nodeid": 9, "leaf": 0.0810268745 },
        { "nodeid": 10, "leaf": -0.0905073285 }
      ]},
      { "nodeid": 6, "depth": 2, "split": "f4", "split_condition": 2.96806288, "yes": 11, "no": 12, "missing": 11, "children": [
        { "nodeid": 11, "leaf": -0.000387221779 },
        { "nodeid": 12, "leaf": -0.0359064899 }
      ]}
    ]}
  ]},
  { "nodeid": 0, "depth": 0, "split": "f3", "split_condition": -2.46467161, "yes": 1, "no": 2, "missing": 1, "children": [
    { "nodeid": 1, "depth": 1, "split": "f3", "split_condition": -2.55697203, "yes": 3, "no": 4, "missing": 3, "children": [
      { "nodeid": 3, "depth": 2, "split": "f1", "split_condition": 1.29809391, "yes": 7, "no": 8, "missing": 7, "children": [
        { "nodeid": 7, "leaf": -0.0160393696 },
        { "nodeid": 8, "leaf": 0.0867140964 }
      ]},
      { "nodeid": 4, "depth": 2, "split": "f4", "split_condition": 1.51226103, "yes": 9, "no": 10, "missing": 9, "children": [
        { "nodeid": 9, "leaf": -0.0589068122 },
        { "nodeid": 10, "leaf": 0.106762901 }
      ]}
    ]},
    { "nodeid": 2, "depth": 1, "split": "f3", "split_condition": -2.43592644, "yes": 5, "no": 6, "missing": 5, "children": [
      { "nodeid": 5, "depth": 2, "split": "f2", "split_condition": 0.539375424, "yes": 11, "no": 12, "missing": 11, "children": [
        { "nodeid": 11, "leaf": 0.103039384 },
        { "nodeid": 12, "leaf": -0.0174577869 }
      ]},
      { "nodeid": 6, "depth": 2, "split": "f4", "split_condition": 2.79265118, "yes": 13, "no": 14, "missing": 13, "children": [
        { "nodeid": 13, "leaf": -0.000244728464 },
        { "nodeid": 14, "leaf": -0.0275293496 }
      ]}
    ]}
  ]},
  { "nodeid": 0, "depth": 0, "split": "f1", "split_condition": 2.64568901, "yes": 1, "no": 2, "missing": 1, "children": [
    { "nodeid": 1, "depth": 1, "split": "f2", "split_condition": -0.14681378, "yes": 3, "no": 4, "missing": 3, "children": [
      { "nodeid": 3, "depth": 2, "split": "f3", "split_condition": 0.777017951, "yes": 7, "no": 8, "missing": 7, "children": [
        { "nodeid": 7, "leaf": 0.00274858135 },
        { "nodeid": 8, "leaf": -0.00404560892 }
      ]},
      { "nodeid": 4, "depth": 2, "split": "f4", "split_condition": -2.16302419, "yes": 9, "no": 10, "missing": 9, "children": [
        { "nodeid": 9, "leaf": -0.0198534038 },
        { "nodeid": 10, "leaf": -0.00119949679 }
      ]}
    ]},
    { "nodeid": 2, "depth": 1, "split": "f0", "split_condition": -0.849279583, "yes": 5, "no": 6, "missing": 5, "children": [
      { "nodeid": 5, "depth": 2, "split": "f4", "split_condition": -0.342487574, "yes": 11, "no": 12, "missing": 11, "children": [
        { "nodeid": 11, "leaf": -0.0408211946 },
        { "nodeid": 12, "leaf": 0.0631379113 }
      ]},
      { "nodeid": 6, "depth": 2, "split": "f1", "split_condition": 2.99834561, "yes": 13, "no": 14, "missing": 13, "children": [
        { "nodeid": 13, "leaf": -0.0507299714 },
        { "nodeid": 14, "leaf": 0.00164479786 }
      ]}
    ]}
  ]},
  { "nodeid": 0, "depth": 0, "split": "f0", "split_condition": 0.961384237, "yes": 1, "no": 2, "missing": 1, "children": [
    { "nodeid": 1, "depth": 1, "split": "f0", "split_condition": 0.96044451, "yes": 3, "no": 4, "missing": 3, "children": [
      { "nodeid": 3, "depth": 2, "split": "f2", "split_condition": 2.83289599, "yes": 7, "no": 8, "missing": 7, "children": [
        { "nodeid": 7, "leaf": -0.000815458887 },
        { "nodeid": 8, "leaf": -0.036453452 }
      ]},
      { "nodeid": 4, "depth": 2, "split": "f2", "split_condition": 0.356971681, "yes": 9, "no": 10, "missing": 9, "children": [
        { "nodeid": 9, "leaf": -0.116284393 },
        { "nodeid": 10, "leaf": -0.0308007039 }
      ]}
    ]},
    { "nodeid": 2, "depth": 1, "split": "f2", "split_condition": -1.67646456, "yes": 5, "no": 6, "missing": 5, "children": [
      { "nodeid": 5, "depth": 2, "split": "f2", "split_condition": -1.73084128, "yes": 11, "no": 12, "missing": 11, "children": [
        { "nodeid": 11, "leaf": -0.00369718601 },
        { "nodeid": 12, "leaf": -0.0884207934 }
      ]},
      { "nodeid": 6, "depth": 2, "split": "f0", "split_condition": 1.44254994, "yes": 13, "no": 14, "missing": 13, "children": [
        { "nodeid": 13, "leaf": 0.00698495749 },
        { "nodeid": 14, "leaf": -0.0010701596 }
      ]}
    ]}
  ]},
  { "nodeid": 0, "depth": 0, "split": "f0", "split_condition": -3.30210829, "yes": 1, "no": 2, "missing": 1, "children": [
    { "nodeid": 1, "depth": 1, "split": "f2", "split_condition": 0.781280398, "yes": 3, "no": 4, "missing": 3, "children": [
      { "nodeid": 3, "depth": 2, "split": "f1", "split_condition": -0.530787826, "yes": 7, "no": 8, "missing": 7, "children": [
        { "nodeid": 7, "leaf": -0.00015356802 },
        { "nodeid": 8, "leaf": 0.116636932 }
      ]},
      { "nodeid": 4, "leaf": -0.062660262 }
    ]},
    { "nodeid": 2, "depth": 1, "split": "f1", "split_condition": -3.35981607, "yes": 5, "no": 6, "missing": 5, "children": [
      { "nodeid": 5, "depth": 2, "split": "f3", "split_condition": -1.12975931, "yes": 9, "no": 10, "missing": 9, "children": [
        { "nodeid": 9, "leaf": 0.0761901438 },
        { "nodeid": 10, "leaf": -0.082353361 }
      ]},
      { "nodeid": 6, "depth": 2, "split": "f3", "split_condition": -2.46467161, "yes": 11, "no": 12, "missing": 11, "children": [
        { "nodeid": 11, "leaf": -0.0154928491 },
        { "nodeid": 12, "leaf": -0.000186125268 }
      ]}
    ]}
  ]},
  { "nodeid": 0, "depth": 0, "split": "f3", "split_condition": 1.79377174, "yes": 1, "no": 2, "missing": 1, "children": [
    { "nodeid": 1, "depth": 1, "split": "f2", "split_condition": -0.347414911, "yes": 3, "no": 4, "missing": 3, "children": [
      { "nodeid": 3, "depth": 2, "split": "f2", "split_condition": -1.13539195, "yes": 7, "no": 8, "missing": 7, "children": [
        { "nodeid": 7, "leaf": -0.00175181252 },
        { "nodeid": 8, "leaf": 0.00386726786 }
      ]},
      { "nodeid": 4, "depth": 2, "split": "f4", "split_condition": -0.662118912, "yes": 9, "no": 10, "missing": 9, "children": [
        { "nodeid": 9, "leaf": -0.00486034108 },
        { "nodeid": 10, "leaf": 0.000162765311 }
      ]}
    ]},
    { "nodeid": 2, "depth": 1, "split": "f1", "split_condition": 0.0900318995, "yes": 5, "no": 6, "missing": 5, "children": [
      { "nodeid": 5, "depth": 2, "split": "f0", "split_condition": 1.18549466, "yes": 11, "no": 12, "missing": 11, "children": [
        { "nodeid": 11, "leaf": -0.0210431162 },
        { "nodeid": 12, "leaf": 0.0201856028 }
      ]},
      { "nodeid": 6, "depth": 2, "split": "f3", "split_condition": 2.01857519, "yes": 13, "no": 14, "missing": 13, "children": [
        { "nodeid": 13, "leaf": -0.0100367628 },
        { "nodeid": 14, "leaf": 0.0142598227 }
      ]}
    ]}
  ]},
  { "nodeid": 0, "depth": 0, "split": "f2", "split_condition": -2.60623646, "yes": 1, "no": 2, "missing": 1, "children": [
    { "nodeid": 1, "depth": 1, "split": "f3", "split_condition": -0.723649502, "yes": 3, "no": 4, "missing": 3, "children": [
      { "nodeid": 3, "depth": 2, "split": "f2", "split_condition": -2.68867826, "yes": 7, "no": 8, "missing": 7, "children": [
        { "nodeid": 7, "leaf": -0.0501603261 },
        { "nodeid": 8, "leaf": 0.0430310667 }
      ]},
      { "nodeid": 4, "depth": 2, "split": "f4", "split_condition": -0.231763631, "yes": 9, "no": 10, "missing": 9, "children": [
        { "nodeid": 9, "leaf": 0.055454772 },
        { "nodeid": 10, "leaf": 0.0102286125 }
      ]}
    ]},
    { "nodeid": 2, "depth": 1, "split": "f1", "split_condition": 2.64568901, "yes": 5, "no": 6, "missing": 5, "children": [
      { "nodeid": 5, "depth": 2, "split": "f2", "split_condition": -2.5427053, "yes": 11, "no": 12, "missing": 11, "children": [
        { "nodeid": 11, "leaf": -0.0394378901 },
        { "nodeid": 12, "leaf": -0.000194028558 }
      ]},
      { "nodeid": 6, "depth": 2, "split": "f3", "split_condition": 0.650009811, "yes": 13, "no": 14, "missing": 13, "children": [
        { "nodeid": 13, "leaf": -0.00917432271 },
        { "nodeid": 14, "leaf": -0.0536254458 }
      ]}
    ]}
  ]},
  { "nodeid": 0, "depth": 0, "split": "f3", "split_condition": 2.3261621, "yes": 1, "no": 2, "missing": 1, "children": [
    { "nodeid": 1, "depth": 1, "split": "f3", "split_condition": 2.27682853, "yes": 3, "no": 4, "missing": 3, "children": [
      { "nodeid": 3, "depth": 2, "split": "f3", "split_condition": 2.27351522, "yes": 7, "no": 8, "missing": 7, "children": [
        { "nodeid": 7, "leaf": -0.000152223351 },
        { "nodeid": 8, "leaf": -0.113308601 }
      ]},
      { "nodeid": 4, "depth": 2, "split": "f1", "split_condition": 0.0670776665, "yes": 9, "no": 10, "missing": 9, "children": [
        { "nodeid": 9, "leaf": 0.0206040926 },
        { "nodeid": 10, "leaf": 0.0797701925 }
      ]}
    ]},
    { "nodeid": 2, "depth": 1, "split": "f2", "split_condition": -0.796518147, "yes": 5, "no": 6, "missing": 5, "children": [
      { "nodeid": 5, "depth": 2, "split": "f0", "split_condition": -0.0429202765, "yes": 11, "no": 12, "missing": 11, "children": [
        { "nodeid": 11, "leaf": -0.0779373199 },
        { "nodeid": 12, "leaf": -0.0163403582 }
      ]},
      { "nodeid": 6, "depth": 2, "split": "f0", "split_condition": 1.92548895, "yes": 13, "no": 14, "missing": 13, "children": [
        { "nodeid": 13, "leaf": -0.00614670431 },
        { "nodeid": 14, "leaf": 0.0983992144 }
      ]}
    ]}
  ]},
  { "nodeid": 0, "depth": 0, "split": "f0", "split_condition": -3.30210829, "yes": 1, "no": 2, "missing": 1, "children": [
    { "nodeid": 1, "depth": 1, "split": "f2", "split_condition": 0.781280398, "yes": 3, "no": 4, "missing": 3, "children": [
      { "nodeid": 3, "depth": 2, "split": "f0", "split_condition": -3.46757555, "yes": 7, "no": 8, "missing": 7, "children": [
        { "nodeid": 7, "leaf": 0.0335542485 },
        { "nodeid": 8, "leaf": 0.137171432 }
      ]},
      { "nodeid": 4, "leaf": -0.0592304282 }
    ]},
    { "nodeid": 2, "depth": 1, "split": "f0", "split_condition": 3.61415339, "yes": 5, "no": 6, "missing": 5, "children": [
      { "nodeid": 5, "depth": 2, "split": "f4", "split_condition": -1.63703609, "yes": 9, "no": 10, "missing": 9, "children": [
        { "nodeid": 9, "leaf": -0.0054937019 },
        { "nodeid": 10, "leaf": 4.39387477e-05 }
      ]},
      { "nodeid": 6, "depth": 2, "split": "f0", "split_condition": 3.76770473, "yes": 11, "no": 12, "missing": 11, "children": [
        { "nodeid": 11, "leaf": 0.121706598 },
        { "nodeid": 12, "leaf": 0.0337125994 }
      ]}
    ]}
  ]},
  { "nodeid": 0, "depth": 0, "split": "f0", "split_condition": 0.961384237, "yes": 1, "no": 2, "missing": 1, "children": [
    { "nodeid": 1, "depth": 1, "split": "f0", "split_condition": 0.960512519, "yes": 3, "no": 4, "missing": 3, "children": [
      { "nodeid": 3, "depth": 2, "split": "f4", "split_condition": 2.96815157, "yes": 7, "no": 8, "missing": 7, "children": [
        { "nodeid": 7, "leaf": -0.000609873619 },
        { "nodeid": 8, "leaf": -0.0439129733 }
      ]},
      { "nodeid": 4, "depth": 2, "split": "f2", "split_condition": 0.356971681, "yes": 9, "no": 10, "missing": 9, "children": [
        { "nodeid": 9, "leaf": -0.117998265 },
        { "nodeid": 10, "leaf": -0.028618414 }
      ]}
    ]},
    { "nodeid": 2, "depth": 1, "split": "f3", "split_condition": -1.27723718, "yes": 5, "no": 6, "missing": 5, "children": [
      { "nodeid": 5, "depth": 2, "split": "f0", "split_condition": 3.06180859, "yes": 11, "no": 12, "missing": 11, "children": [
        { "nodeid": 11, "leaf": 0.0138288606 },
        { "nodeid": 12, "leaf": -0.120305024 }
      ]},
      { "nodeid": 6, "depth": 2, "split": "f3", "split_condition": -1.26117373, "yes": 13, "no": 14, "missing": 13, "children": [
        { "nodeid": 13, "leaf": -0.0667083487 },
        { "nodeid": 14, "leaf": 0.00153608609 }
      ]}
    ]}
  ]},
  { "nodeid": 0, "depth": 0, "split": "f1", "split_condition": -3.5510993, "yes": 1, "no": 2, "missing": 1, "children": [
    { "nodeid": 1, "depth": 1, "split": "f1", "split_condition": -4.03985071, "yes": 3, "no": 4, "missing": 3, "children": [
      { "nodeid": 3, "leaf": 0.0765747279 },
      { "nodeid": 4, "depth": 2, "split": "f2", "split_condition": 0.379851282, "yes": 7, "no": 8, "missing": 7, "children": [
        { "nodeid": 7, "leaf": -0.12785764 },
        { "nodeid": 8, "leaf": -0.0191366244 }
      ]}
    ]},
    { "nodeid": 2, "depth": 1, "split": "f3", "split_condition": -2.32129598, "yes": 5, "no": 6, "missing": 5, "children": [
      { "nodeid": 5, "depth": 2, "split": "f3", "split_condition": -2.35897636, "yes": 9, "no": 10, "missing": 9, "children": [
        { "nodeid": 9, "leaf": -0.00569843501 },
        { "nodeid": 10, "leaf": -0.0739351884 }
      ]},
      { "nodeid": 6, "depth": 2, "split": "f2", "split_condition": -2.90191078, "yes": 11, "no": 12, "missing": 11, "children": [
        { "nodeid": 11, "leaf": 0.026469091 },
        { "nodeid": 12, "leaf": -7.86397941e-05 }
      ]}
    ]}
  ]},
  { "nodeid": 0, "depth": 0, "split": "f2", "split_condition": 2.83289599, "yes": 1, "no": 2, "missing": 1, "children": [
    { "nodeid": 1, "depth": 1, "split": "f2", "split_condition": 2.81800604, "yes": 3, "no": 4, "missing": 3, "children": [
      { "nodeid": 3, "depth": 2, "split": "f1", "split_condition": 2.48030353, "yes": 7, "no": 8, "missing": 7, "children": [
        { "nodeid": 7, "leaf": -9.79408378e-06 },
        { "nodeid": 8, "leaf": -0.0146211479 }
      ]},
      { "nodeid": 4, "leaf": 0.139554039 }
    ]},
    { "nodeid": 2, "depth": 1, "split": "f3", "split_condition": 0.696583927, "yes": 5, "no": 6, "missing": 5, "children": [
      { "nodeid": 5, "depth": 2, "split": "f3", "split_condition": -1.05131674, "yes": 9, "no": 10, "missing": 9, "children": [
        { "nodeid": 9, "leaf": 0.0232844912 },
        { "nodeid": 10, "leaf": -0.0616809838 }
      ]},
      { "nodeid": 6, "depth": 2, "split": "f2", "split_condition": 3.52216148, "yes": 11, "no": 12, "missing": 11, "children": [
        { "nodeid": 11, "leaf": 0.0502319224 },
        { "nodeid": 12, "leaf": -0.109228134 }
      ]}
    ]}
  ]},
  { "nodeid": 0, "depth": 0, "split": "f0", "split_condition": 3.61415339, "yes": 1, "no": 2, "missing": 1, "children": [
    { "nodeid": 1, "depth": 1, "split": "f0", "split_condition": -3.30210829, "yes": 3, "no": 4, "missing": 3, "children": [
      { "nodeid": 3, "depth": 2, "split": "f2", "split_condition": 0.781280398, "yes": 7, "no": 8, "missing": 7, "children": [
        { "nodeid": 7, "leaf": 0.0820067078 },
        { "nodeid": 8, "leaf": -0.0560703576 }
      ]},
      { "nodeid": 4, "depth": 2, "split": "f3", "split_condition": 0.919127703, "yes": 9, "no": 10, "missing": 9, "children": [
        { "nodeid": 9, "leaf": 0.000358961232 },
        { "nodeid": 10, "leaf": -0.00255029486 }
      ]}
    ]},
    { "nodeid": 2, "depth": 1, "split": "f0", "split_condition": 3.76770473, "yes": 5, "no": 6, "missing": 5, "children": [
      { "nodeid": 5, "leaf": 0.115813486 },
      { "nodeid": 6, "leaf": 0.0313730985 }
    ]}
  ]},
  { "nodeid": 0, "depth": 0, "split": "f3", "split_condition": -2.46467161, "yes": 1, "no": 2, "missing": 1, "children": [
    { "nodeid": 1, "depth": 1, "split": "f3", "split_condition": -2.55697203, "yes": 3, "no": 4, "missing": 3, "children": [
      { "nodeid": 3, "depth": 2, "split": "f1", "split_condition": 1.29809391, "yes": 7, "no": 8, "missing": 7, "children": [
        { "nodeid": 7, "leaf": -0.0124219852 },
        { "nodeid": 8, "leaf": 0.0814596266 }
      ]},
      { "nodeid": 4, "depth": 2, "split": "f2", "split_condition": -0.749821186, "yes": 9, "no": 10, "missing": 9, "children": [
        { "nodeid": 9, "leaf": -0.110075608 },
        { "nodeid": 10, "leaf": -0.0232334286 }
      ]}
    ]},
    { "nodeid": 2, "depth": 1, "split": "f3", "split_condition": -2.43592644, "yes": 5, "no": 6, "missing": 5, "children": [
      { "nodeid": 5, "depth": 2, "split": "f2", "split_condition": 0.539375424, "yes": 11, "no": 12, "missing": 11, "children": [
        { "nodeid": 11, "leaf": 0.0942886695 },
        { "nodeid": 12, "leaf": -0.015351966 }
      ]},
      { "nodeid": 6, "depth": 2, "split": "f4", "split_condition": 2.79265118, "yes": 13, "no": 14, "missing": 13, "children": [
        { "nodeid": 13, "leaf": 9.28250938e-06 },
        { "nodeid": 14, "leaf": -0.0229991153 }
      ]}
    ]}
  ]},
  { "nodeid": 0, "depth": 0, "split": "f2", "split_condition": -0.14681378, "yes": 1, "no": 2, "missing": 1, "children": [
    { "nodeid": 1, "depth": 1, "split": "f4", "split_condition": -2.80683994, "yes": 3, "no": 4, "missing": 3, "children": [
      { "nodeid": 3, "depth": 2, "split": "f2", "split_condition": -0.580878019, "yes": 7, "no": 8, "missing": 7, "children": [
        { "nodeid": 7, "leaf": 0.0128628239 },
        { "nodeid": 8, "leaf": 0.116922796 }
      ]},
      { "nodeid": 4, "depth": 2, "split": "f3", "split_condition": 2.32580924, "yes": 9, "no": 10, "missing": 9, "children": [
        { "nodeid": 9, "leaf": 0.00126934738 },
        { "nodeid": 10, "leaf": -0.0243521444 }
      ]}
    ]},
    { "nodeid": 2, "depth": 1, "split": "f2", "split_condition": -0.120410092, "yes": 5, "no": 6, "missing": 5, "children": [
      { "nodeid": 5, "depth": 2, "split": "f1", "split_condition": -0.04622145, "yes": 11, "no": 12, "missing": 11, "children": [
        { "nodeid": 11, "leaf": -0.041237846 },
        { "nodeid": 12, "leaf": 0.00547677604 }
      ]},
      { "nodeid": 6, "depth": 2, "split": "f4", "split_condition": -2.39083672, "yes": 13, "no": 14, "missing": 13, "children": [
        { "nodeid": 13, "leaf": -0.0227984376 },
        { "nodeid": 14, "leaf": -0.000604503206 }
      ]}
    ]}
  ]},
  { "nodeid": 0, "depth": 0, "split": "f1", "split_condition": -3.5510993, "yes": 1, "no": 2, "missing": 1, "children": [
    { "nodeid": 1, "depth": 1, "split": "f1", "split_condition": -4.03985071, "yes": 3, "no": 4, "missing": 3, "children": [
      { "nodeid": 3, "leaf": 0.0721548423 },
      { "nodeid": 4, "depth": 2, "split": "f4", "split_condition": 0.873069406, "yes": 7, "no": 8, "missing": 7, "children": [
        { "nodeid": 7, "leaf": -0.120938241 },
        { "nodeid": 8, "leaf": -0.0134111149 }
      ]}
    ]},
    { "nodeid": 2, "depth": 1, "split": "f0", "split_condition": 3.61415339, "yes": 5, "no": 6, "missing": 5, "children": [
      { "nodeid": 5, "depth": 2, "split": "f0", "split_condition": 2.84579587, "yes": 9, "no": 10, "missing": 9, "children": [
        { "nodeid": 9, "leaf": -3.6082336e-05 },
        { "nodeid": 10, "leaf": -0.0234754086 }
      ]},
      { "nodeid": 6, "depth": 2, "split": "f3", "split_condition": 0.0389367528, "yes": 11, "no": 12, "missing": 11, "children": [
        { "nodeid": 11, "leaf": 0.100732923 },
        { "nodeid": 12, "leaf": 0.0146780983 }
      ]}
    ]}
  ]},
  { "nodeid": 0, "depth": 0, "split": "f0", "split_condition": 2.35838175, "yes": 1, "no": 2, "missing": 1, "children": [
    { "nodeid": 1, "depth": 1, "split": "f0", "split_condition": 2.13282394, "yes": 3, "no": 4, "missing": 3, "children": [
      { "nodeid": 3, "depth": 2, "split": "f0", "split_condition": 1.62979507, "yes": 7, "no": 8, "missing": 7, "children": [
        { "nodeid": 7, "leaf": -0.000312958844 },
        { "nodeid": 8, "leaf": 0.00796070416 }
      ]},
      { "nodeid": 4, "depth": 2, "split": "f2", "split_condition": -2.72863913, "yes": 9, "no": 10, "missing": 9, "children": [
        { "nodeid": 9, "leaf": 0.116538957 },
        { "nodeid": 10, "leaf": -0.0237620622 }
      ]}
    ]},
    { "nodeid": 2, "depth": 1, "split": "f3", "split_condition": 0.510814011, "yes": 5, "no": 6, "missing": 5, "children": [
      { "nodeid": 5, "depth": 2, "split": "f0", "split_condition": 2.60733032, "yes": 11, "no": 12, "missing": 11, "children": [
        { "nodeid": 11, "leaf": 0.0396994352 },
        { "nodeid": 12, "leaf": 0.00245021121 }
      ]},
      { "nodeid": 6, "depth": 2, "split": "f3", "split_condition": 1.65237403, "yes": 13, "no": 14, "missing": 13, "children": [
        { "nodeid": 13, "leaf": -0.0284908265 },
        { "nodeid": 14, "leaf": 0.0537222512 }
      ]}
    ]}
  ]},
  { "nodeid": 0, "depth": 0, "split": "f4", "split_condition": -1.60334969, "yes": 1, "no": 2, "missing": 1, "children": [
    { "nodeid": 1, "depth": 1, "split": "f1", "split_condition": -0.795156956, "yes": 3, "no": 4, "missing": 3, "children": [
      { "nodeid": 3, "depth": 2, "split": "f2", "split_condition": -0.179733068, "yes": 7, "no": 8, "missing": 7, "children": [
        { "nodeid": 7, "leaf": 0.0306184236 },
        { "nodeid": 8, "leaf": -0.0056915218 }
      ]},
      { "nodeid": 4, "depth": 2, "split": "f4", "split_condition": -1.79388547, "yes": 9, "no": 10, "missing": 9, "children": [
        { "nodeid": 9, "leaf": -0.00250372174 },
        { "nodeid": 10, "leaf": -0.0194925684 }
      ]}
    ]},
    { "nodeid": 2, "depth": 1, "split": "f4", "split_condition": -1.59803104, "yes": 5, "no": 6, "missing": 5, "children": [
      { "nodeid": 5, "depth": 2, "split": "f2", "split_condition": 0.168911874, "yes": 11, "no": 12, "missing": 11, "children": [
        { "nodeid": 11, "leaf": 0.103340916 },
        { "nodeid": 12, "leaf": -0.00513271196 }
      ]},
      { "nodeid": 6, "depth": 2, "split": "f2", "split_condition": 2.59875822, "yes": 13, "no": 14, "missing": 13, "children": [
        { "nodeid": 13, "leaf": 0.000233118029 },
        { "nodeid": 14, "leaf": -0.0184467658 }
      ]}
    ]}
  ]},
  { "nodeid": 0, "depth": 0, "split": "f4", "split_condition": -3.94232249, "yes": 1, "no": 2, "missing": 1, "children": [
    { "nodeid": 1, "leaf": -0.112760305 },
    { "nodeid": 2, "depth": 1, "split": "f4", "split_condition": -3.65648127, "yes": 3, "no": 4, "missing": 3, "children": [
      { "nodeid": 3, "leaf": 0.108518124 },
      { "nodeid": 4, "depth": 2, "split": "f4", "split_condition": -3.15350389, "yes": 5, "no": 6, "missing": 5, "children": [
        { "nodeid": 5, "leaf": -0.0433573797 },
        { "nodeid": 6, "leaf": -3.84160157e-05 }
      ]}
    ]}
  ]},
  { "nodeid": 0, "depth": 0, "split": "f1", "split_condition": 2.64568901, "yes": 1, "no": 2, "missing": 1, "children": [
    { "nodeid": 1, "depth": 1, "split": "f1", "split_condition": 2.59771919, "yes": 3, "no": 4, "missing": 3, "children": [
      { "nodeid": 3, "depth": 2, "split": "f1", "split_condition": 2.58933425, "yes": 7, "no": 8, "missing": 7, "children": [
        { "nodeid": 7, "leaf": -1.54623103e-06 },
        { "nodeid": 8, "leaf": -0.113821678 }
      ]},
      { "nodeid": 4, "depth": 2, "split": "f0", "split_condition": 0.803036451, "yes": 9, "no": 10, "missing": 9, "children": [
        { "nodeid": 9, "leaf": 0.0157985762 },
        { "nodeid": 10, "leaf": 0.111467339 }
      ]}
    ]},
    { "nodeid": 2, "depth": 1, "split": "f0", "split_condition": 1.58625281, "yes": 5, "no": 6, "missing": 5, "children": [
      { "nodeid": 5, "depth": 2, "split": "f0", "split_condition": 0.698945761, "yes": 11, "no": 12, "missing": 11, "children": [
        { "nodeid": 11, "leaf": -0.0239838269 },
        { "nodeid": 12, "leaf": 0.0387277417 }
      ]},
      { "nodeid": 6, "depth": 2, "split": "f1", "split_condition": 3.19582176, "yes": 13, "no": 14, "missing": 13, "children": [
        { "nodeid": 13, "leaf": -0.10860014 },
        { "nodeid": 14, "leaf": 0.0242547747 }
      ]}
    ]}
  ]},
  { "nodeid": 0, "depth": 0, "split": "f2", "split_condition": -2.60623646, "yes": 1, "no": 2, "missing": 1, "children": [
    { "nodeid": 1, "depth": 1, "split": "f3", "split_condition": -0.723649502, "yes": 3, "no": 4, "missing": 3, "children": [
      { "nodeid": 3, "depth": 2, "split": "f0", "split_condition": 0.674472213, "yes": 7, "no": 8, "missing": 7, "children": [
        { "nodeid": 7, "leaf": 0.00184585189 },
        { "nodeid": 8, "leaf": -0.0835879818 }
      ]},
      { "nodeid": 4, "depth": 2, "split": "f3", "split_condition": 0.527442098, "yes": 9, "no": 10, "missing": 9, "children": [
        { "nodeid": 9, "leaf": 0.0448328257 },
        { "nodeid": 10, "leaf": 0.000775185821 }
      ]}
    ]},
    { "nodeid": 2, "depth": 1, "split": "f2", "split_condition": -2.5427053, "yes": 5, "no": 6, "missing": 5, "children": [
      { "nodeid": 5, "depth": 2, "split": "f3", "split_condition": -0.733156502, "yes": 11, "no": 12, "missing": 11, "children": [
        { "nodeid": 11, "leaf": 0.0542182513 },
        { "nodeid": 12, "leaf": -0.0668545589 }
      ]},
      { "nodeid": 6, "depth": 2, "split": "f3", "split_condition": -3.91168594, "yes": 13, "no": 14, "missing": 13, "children": [
        { "nodeid": 13, "leaf": 0.116813853 },
        { "nodeid": 14, "leaf": -9.47997396e-05 }
      ]}
    ]}
  ]},
  { "nodeid": 0, "depth": 0, "split": "f0", "split_condition": 0.955780625, "yes": 1, "no": 2, "missing": 1, "children": [
    { "nodeid": 1, "depth": 1, "split": "f2", "split_condition": -3.26565504, "yes": 3, "no": 4, "missing": 3, "children": [
      { "nodeid": 3, "depth": 2, "split": "f4", "split_condition": 0.240765005, "yes": 7, "no": 8, "missing": 7, "children": [
        { "nodeid": 7, "leaf": 0.0128601966 },
        { "nodeid": 8, "leaf": -0.13105011 }
      ]},
      { "nodeid": 4, "depth": 2, "split": "f2", "split_condition": -2.95736384, "yes": 9, "no": 10, "missing": 9, "children": [
        { "nodeid": 9, "leaf": 0.059797328 },
        { "nodeid": 10, "leaf": -0.000543491391 }
      ]}
    ]},
    { "nodeid": 2, "depth": 1, "split": "f2", "split_condition": -1.67646456, "yes": 5, "no": 6, "missing": 5, "children": [
      { "nodeid": 5, "depth": 2, "split": "f2", "split_condition": -1.73084128, "yes": 11, "no": 12, "missing": 11, "children": [
        { "nodeid": 11, "leaf": -0.00379669643 },
        { "nodeid": 12, "leaf": -0.0805453882 }
      ]},
      { "nodeid": 6, "depth": 2, "split": "f0", "split_condition": 1.44254994, "yes": 13, "no": 14, "missing": 13, "children": [
        { "nodeid": 13, "leaf": 0.0061579817 },
        { "nodeid": 14, "leaf": -0.00126809522 }
      ]}
    ]}
  ]},
  { "nodeid": 0, "depth": 0, "split": "f0", "split_condition": -3.30210829, "yes": 1, "no": 2, "missing": 1, "children": [
    { "nodeid": 1, "depth": 1, "split": "f2", "split_condition": 0.781280398, "yes": 3, "no": 4, "missing": 3, "children": [
      { "nodeid": 3, "depth": 2, "split": "f0", "split_condition": -3.46757555, "yes": 7, "no": 8, "missing": 7, "children": [
        { "nodeid": 7, "leaf": 0.0249511991 },
        { "nodeid": 8, "leaf": 0.124020852 }
      ]},
      { "nodeid": 4, "leaf": -0.0530904941 }
    ]},
    { "nodeid": 2, "depth": 1, "split": "f3", "split_condition": 1.79377174, "yes": 5, "no": 6, "missing": 5, "children": [
      { "nodeid": 5, "depth": 2, "split": "f4", "split_condition": -0.662694156, "yes": 9, "no": 10, "missing": 9, "children": [
        { "nodeid": 9, "leaf": -0.00191997015 },
        { "nodeid": 10, "leaf": 0.000833832601 }
      ]},
      { "nodeid": 6, "depth": 2, "split": "f1", "split_condition": 0.0900318995, "yes": 11, "no": 12, "missing": 11, "children": [
        { "nodeid": 11, "leaf": -0.0138399024 },
        { "nodeid": 12, "leaf": 0.00452238228 }
      ]}
    ]}
  ]},
  { "nodeid": 0, "depth": 0, "split": "f3", "split_condition": -2.47525692, "yes": 1, "no": 2, "missing": 1, "children": [
    { "nodeid": 1, "depth": 1, "split": "f4", "split_condition": 0.374351203, "yes": 3, "no": 4, "missing": 3, "children": [
      { "nodeid": 3, "depth": 2, "split": "f4", "split_condition": -1.06235719, "yes": 7, "no": 8, "missing": 7, "children": [
        { "nodeid": 7, "leaf": -0.041422829 },
        { "nodeid": 8, "leaf": 0.0146144051 }
      ]},
      { "nodeid": 4, "depth": 2, "split": "f4", "split_condition": 2.05869293, "yes": 9, "no": 10, "missing": 9, "children": [
        { "nodeid": 9, "leaf": -0.0442755781 },
        { "nodeid": 10, "leaf": 0.086176917 }
      ]}
    ]},
    { "nodeid": 2, "depth": 1, "split": "f4", "split_condition": 3.14379144, "yes": 5, "no": 6, "missing": 5, "children": [
      { "nodeid": 5, "depth": 2, "split": "f4", "split_condition": 3.10242128, "yes": 11, "no": 12, "missing": 11, "children": [
        { "nodeid": 11, "leaf": 6.16942707e-05 },
        { "nodeid": 12, "leaf": 0.0917270109 }
      ]},
      { "nodeid": 6, "depth": 2, "split": "f2", "split_condition": -0.0166033991, "yes": 13, "no": 14, "missing": 13, "children": [
        { "nodeid": 13, "leaf": 0.010189686 },
        { "nodeid": 14, "leaf": -0.0791106448 }
      ]}
    ]}
  ]},
  { "nodeid": 0, "depth": 0, "split": "f0", "split_condition": 3.61415339, "yes": 1, "no": 2, "missing": 1, "children": [
    { "nodeid": 1, "depth": 1, "split": "f4", "split_condition": -3.94232249, "yes": 3, "no": 4, "missing": 3, "children": [
      { "nodeid": 3, "leaf": -0.106458545 },
      { "nodeid": 4, "depth": 2, "split": "f4", "split_condition": -3.65648127, "yes": 7, "no": 8, "missing": 7, "children": [
        { "nodeid": 7, "leaf": 0.101303235 },
        { "nodeid": 8, "leaf": -5.23508716e-05 }
      ]}
    ]},
    { "nodeid": 2, "depth": 1, "split": "f0", "split_condition": 3.76770473, "yes": 5, "no": 6, "missing": 5, "children": [
      { "nodeid": 5, "leaf": 0.107561447 },
      { "nodeid": 6, "leaf": 0.0242760144 }
    ]}
  ]},
  { "nodeid": 0, "depth": 0, "split": "f1", "split_condition": -3.35981607, "yes": 1, "no": 2, "missing": 1, "children": [
    { "nodeid": 1, "depth": 1, "split": "f3", "split_condition": 0.0715248138, "yes": 3, "no": 4, "missing": 3, "children": [
      { "nodeid": 3, "depth": 2, "split": "f0", "split_condition": 0.128295198, "yes": 7, "no": 8, "missing": 7, "children": [
        { "nodeid": 7, "leaf": -0.0268936362 },
        { "nodeid": 8, "leaf": 0.0764869452 }
      ]},
      { "nodeid": 4, "depth": 2, "split": "f2", "split_condition": -0.0710957646, "yes": 9, "no": 10, "missing": 9, "children": [
        { "nodeid": 9, "leaf": -0.134005889 },
        { "nodeid": 10, "leaf": -0.0209260136 }
      ]}
    ]},
    { "nodeid": 2, "depth": 1, "split": "f2", "split_condition": -0.395122617, "yes": 5, "no": 6, "missing": 5, "children": [
      { "nodeid": 5, "depth": 2, "split": "f1", "split_condition": 0.899160862, "yes": 11, "no": 12, "missing": 11, "children": [
        { "nodeid": 11, "leaf": 0.00276031322 },
        { "nodeid": 12, "leaf": -0.00467965147 }
      ]},
      { "nodeid": 6, "depth": 2, "split": "f2", "split_condition": -0.38038826, "yes": 13, "no": 14, "missing": 13, "children": [
        { "nodeid": 13, "leaf": -0.0287651308 },
        { "nodeid": 14, "leaf": -0.000514506304 }
      ]}
    ]}
  ]},
  { "nodeid": 0, "depth": 0, "split": "f0", "split_condition": 2.35838175, "yes": 1, "no": 2, "missing": 1, "children": [
    { "nodeid": 1, "depth": 1, "split": "f0", "split_condition": 2.13282394, "yes": 3, "no": 4, "missing": 3, "children": [
      { "nodeid": 3, "depth": 2, "split": "f0", "split_condition": 1.62979507, "yes": 7, "no": 8, "missing": 7, "children": [
        { "nodeid": 7, "leaf": -0.000247063988 },
        { "nodeid": 8, "leaf": 0.00743739028 }
      ]},
      { "nodeid": 4, "depth": 2, "split": "f3", "split_condition": 2.41406798, "yes": 9, "no": 10, "missing": 9, "children": [
        { "nodeid": 9, "leaf": -0.0212592948 },
        { "nodeid": 10, "leaf": 0.115606681 }
      ]}
    ]},
    { "nodeid": 2, "depth": 1, "split": "f2", "split_condition": -0.677755952, "yes": 5, "no": 6, "missing": 5, "children": [
      { "nodeid": 5, "depth": 2, "split": "f2", "split_condition": -1.04531908, "yes": 11, "no": 12, "missing": 11, "children": [
        { "nodeid": 11, "leaf": 0.00933316629 },
        { "nodeid": 12, "leaf": -0.0483866073 }
      ]},
      { "nodeid": 6, "depth": 2, "split": "f0", "split_condition": 2.846066, "yes": 13, "no": 14, "missing": 13, "children": [
        { "nodeid": 13, "leaf": 0.0274191387 },
        { "nodeid": 14, "leaf": -0.00976904389 }
      ]}
    ]}
  ]},
  { "nodeid": 0, "depth": 0, "split": "f0", "split_condition": -2.89153671, "yes": 1, "no": 2, "missing": 1, "children": [
    { "nodeid": 1, "depth": 1, "split": "f1", "split_condition": -0.531295657, "yes": 3, "no": 4, "missing": 3, "children": [
      { "nodeid": 3, "depth": 2, "split": "f4", "split_condition": 0.176167816, "yes": 7, "no": 8, "missing": 7, "children": [
        { "nodeid": 7, "leaf": 0.0167767908 },
        { "nodeid": 8, "leaf": -0.106289029 }
      ]},
      { "nodeid": 4, "depth": 2, "split": "f1", "split_condition": 1.22407126, "yes": 9, "no": 10, "missing": 9, "children": [
        { "nodeid": 9, "leaf": 0.0621670745 },
        { "nodeid": 10, "leaf": -0.0480130166 }
      ]}
    ]},
    { "nodeid": 2, "depth": 1, "split": "f4", "split_condition": -2.76847601, "yes": 5, "no": 6, "missing": 5, "children": [
      { "nodeid": 5, "depth": 2, "split": "f4", "split_condition": -3.15350389, "yes": 11, "no": 12, "missing": 11, "children": [
        { "nodeid": 11, "leaf": -0.0292030554 },
        { "nodeid": 12, "leaf": 0.0399154425 }
      ]},
      { "nodeid": 6, "depth": 2, "split": "f4", "split_condition": -2.66668749, "yes": 13, "no": 14, "missing": 13, "children": [
        { "nodeid": 13, "leaf": -0.0476393364 },
        { "nodeid": 14, "leaf": -6.29829156e-05 }
      ]}
    ]}
  ]},
  { "nodeid": 0, "depth": 0, "split": "f0", "split_condition": 3.61415339, "yes": 1, "no": 2, "missing": 1, "children": [
    { "nodeid": 1, "depth": 1, "split": "f1", "split_condition": 2.48030353, "yes": 3, "no": 4, "missing": 3, "children": [
      { "nodeid": 3, "depth": 2, "split": "f1", "split_condition": 2.4697752, "yes": 7, "no": 8, "missing": 7, "children": [
        { "nodeid": 7, "leaf": 2.15369491e-05 },
        { "nodeid": 8, "leaf": 0.129547238 }
      ]},
      { "nodeid": 4, "depth": 2, "split": "f4", "split_condition": 0.0516343191, "yes": 9, "no": 10, "missing": 9, "children": [
        { "nodeid": 9, "leaf": -0.0278500356 },
        { "nodeid": 10, "leaf": 0.00350796059 }
      ]}
    ]},
    { "nodeid": 2, "depth": 1, "split": "f0", "split_condition": 3.76770473, "yes": 5, "no": 6, "missing": 5, "children": [
      { "nodeid": 5, "leaf": 0.102328621 },
      { "nodeid": 6, "leaf": 0.023589747 }
    ]}
  ]},
  { "nodeid": 0, "depth": 0, "split": "f2", "split_condition": 2.83289599, "yes": 1, "no": 2, "missing": 1, "children": [
    { "nodeid": 1, "depth": 1, "split": "f2", "split_condition": 2.81800604, "yes": 3, "no": 4, "missing": 3, "children": [
      { "nodeid": 3, "depth": 2, "split": "f2", "split_condition": 2.1211915, "yes": 7, "no": 8, "missing": 7, "children": [
        { "nodeid": 7, "leaf": -0.000132463552 },
        { "nodeid": 8, "leaf": 0.00910991337 }
      ]},
      { "nodeid": 4, "leaf": 0.13143374 }
    ]},
    { "nodeid": 2, "depth": 1, "split": "f3", "split_condition": 0.696583927, "yes": 5, "no": 6, "missing": 5, "children": [
      { "nodeid": 5, "depth": 2, "split": "f1", "split_condition": -0.930962145, "yes": 9, "no": 10, "missing": 9, "children": [
        { "nodeid": 9, "leaf": 0.0287502315 },
        { "nodeid": 10, "leaf": -0.0530491956 }
      ]},
      { "nodeid": 6, "depth": 2, "split": "f0", "split_condition": -1.28827786, "yes": 11, "no": 12, "missing": 11, "children": [
        { "nodeid": 11, "leaf": -0.10528741 },
        { "nodeid": 12, "leaf": 0.0482996963 }
      ]}
    ]}
  ]},
  { "nodeid": 0, "depth": 0, "split": "f3", "split_condition": 0.919127703, "yes": 1, "no": 2, "missing": 1, "children": [
    { "nodeid": 1, "depth": 1, "split": "f2", "split_condition": -0.337339759, "yes": 3, "no": 4, "missing": 3, "children": [
      { "nodeid": 3, "depth": 2, "split": "f2", "split_condition": -0.374704599, "yes": 7, "no": 8, "missing": 7, "children": [
        { "nodeid": 7, "leaf": 0.00183318334 },
        { "nodeid": 8, "leaf": 0.0179864131 }
      ]},
      { "nodeid": 4, "depth": 2, "split": "f3", "split_condition": 0.904653192, "yes": 9, "no": 10, "missing": 9, "children": [
        { "nodeid": 9, "leaf": -0.000886696798 },
        { "nodeid": 10, "leaf": 0.0332908668 }
      ]}
    ]},
    { "nodeid": 2, "depth": 1, "split": "f3", "split_condition": 0.938401103, "yes": 5, "no": 6, "missing": 5, "children": [
      { "nodeid": 5, "depth": 2, "split": "f2", "split_condition": -2.06305099, "yes": 11, "no": 12, "missing": 11, "children": [
        { "nodeid": 11, "leaf": 0.10662967 },
        { "nodeid": 12, "leaf": -0.0377945043 }
      ]},
      { "nodeid": 6, "depth": 2, "split": "f3", "split_condition": 0.94082725, "yes": 13, "no": 14, "missing": 13, "children": [
        { "nodeid": 13, "leaf": 0.0608145259 },
        { "nodeid": 14, "leaf": -0.00134508114 }
      ]}
    ]}
  ]},
  { "nodeid": 0, "depth": 0, "split": "f1", "split_condition": -0.427999377, "yes": 1, "no": 2, "missing": 1, "children": [
    { "nodeid": 1, "depth": 1, "split": "f1", "split_condition": -0.539968967, "yes": 3, "no": 4, "missing": 3, "children": [
      { "nodeid": 3, "depth": 2, "split": "f0", "split_condition": -1.1896193, "yes": 7, "no": 8, "missing": 7, "children": [
        { "nodeid": 7, "leaf": 0.009914211 },
        { "nodeid": 8, "leaf": -0.00141870545 }
      ]},
      { "nodeid": 4, "depth": 2, "split": "f1", "split_condition": -0.539331496, "yes": 9, "no": 10, "missing": 9, "children": [
        { "nodeid": 9, "leaf": -0.142068967 },
        { "nodeid": 10, "leaf": -0.0102524068 }
      ]}
    ]},
    { "nodeid": 2, "depth": 1, "split": "f0", "split_condition": -1.06813192, "yes": 5, "no": 6, "missing": 5, "children": [
      { "nodeid": 5, "depth": 2, "split": "f0", "split_condition": -1.07139802, "yes": 11, "no": 12, "missing": 11, "children": [
        { "nodeid": 11, "leaf": -0.00383666507 },
        { "nodeid": 12, "leaf": -0.0886148661 }
      ]},
      { "nodeid": 6, "depth": 2, "split": "f1", "split_condition": -0.421690285, "yes": 13, "no": 14, "missing": 13, "children": [
        { "nodeid": 13, "leaf": 0.0375712924 },
        { "nodeid": 14, "leaf": 0.00133288268 }
      ]}
    ]}
  ]},
  { "nodeid": 0, "depth": 0, "split": "f4", "split_condition": -3.94232249, "yes": 1, "no": 2, "missing": 1, "children": [
    { "nodeid": 1, "leaf": -0.0997089967 },
    { "nodeid": 2, "depth": 1, "split": "f4", "split_condition": -3.65648127, "yes": 3, "no": 4, "missing": 3, "children": [
      { "nodeid": 3, "leaf": 0.0963890478 },
      { "nodeid": 4, "depth": 2, "split": "f4", "split_condition": -3.15350389, "yes": 5, "no": 6, "missing": 5, "children": [
        { "nodeid": 5, "leaf": -0.0362762585 },
        { "nodeid": 6, "leaf": 8.23254504e-06 }
      ]}
    ]}
  ]},
  { "nodeid": 0, "depth": 0, "split": "f3", "split_condition": 2.42951107, "yes": 1, "no": 2, "missing": 1, "children": [
    { "nodeid": 1, "depth": 1, "split": "f3", "split_condition": 2.41132498, "yes": 3, "no": 4, "missing": 3, "children": [
      { "nodeid": 3, "depth": 2, "split": "f3", "split_condition": 2.40358615, "yes": 7, "no": 8, "missing": 7, "children": [
        { "nodeid": 7, "leaf": 5.79868756e-05 },
        { "nodeid": 8, "leaf": -0.0672637299 }
      ]},
      { "nodeid": 4, "depth": 2, "split": "f2", "split_condition": -0.566657424, "yes": 9, "no": 10, "missing": 9, "children": [
        { "nodeid": 9, "leaf": -0.0613856278 },
        { "nodeid": 10, "leaf": 0.105000131 }
      ]}
    ]},
    { "nodeid": 2, "depth": 1, "split": "f3", "split_condition": 2.4482832, "yes": 5, "no": 6, "missing": 5, "children": [
      { "nodeid": 5, "depth": 2, "split": "f1", "split_condition": 1.23218107, "yes": 11, "no": 12, "missing": 11, "children": [
        { "nodeid": 11, "leaf": -0.130162671 },
        { "nodeid": 12, "leaf": -0.0184822977 }
      ]},
      { "nodeid": 6, "depth": 2, "split": "f3", "split_condition": 2.4524703, "yes": 13, "no": 14, "missing": 13, "children": [
        { "nodeid": 13, "leaf": 0.112871051 },
        { "nodeid": 14, "leaf": -0.00628910586 }
      ]}
    ]}
  ]},
  { "nodeid": 0, "depth": 0, "split": "f4", "split_condition": 2.96806288, "yes": 1, "no": 2, "missing": 1, "children": [
    { "nodeid": 1, "depth": 1, "split": "f4", "split_condition": 2.93881845, "yes": 3, "no": 4, "missing": 3, "children": [
      { "nodeid": 3, "depth": 2, "split": "f4", "split_condition": 2.92004824, "yes": 7, "no": 8, "missing": 7, "children": [
        { "nodeid": 7, "leaf": 2.52863392e-05 },
        { "nodeid": 8, "leaf": -0.111282401 }
      ]},
      { "nodeid": 4, "depth": 2, "split": "f1", "split_condition": -0.034845233, "yes": 9, "no": 10, "missing": 9, "children": [
        { "nodeid": 9, "leaf": 0.122922681 },
        { "nodeid": 10, "leaf": 0.0208865982 }
      ]}
    ]},
    { "nodeid": 2, "depth": 1, "split": "f0", "split_condition": 0.734372497, "yes": 5, "no": 6, "missing": 5, "children": [
      { "nodeid": 5, "depth": 2, "split": "f4", "split_condition": 3.51902771, "yes": 11, "no": 12, "missing": 11, "children": [
        { "nodeid": 11, "leaf": -0.0670150593 },
        { "nodeid": 12, "leaf": 0.0478576273 }
      ]},
      { "nodeid": 6, "depth": 2, "split": "f2", "split_condition": 0.0265665762, "yes": 13, "no": 14, "missing": 13, "children": [
        { "nodeid": 13, "leaf": 0.0870456249 },
        { "nodeid": 14, "leaf": -0.0169460773 }
      ]}
    ]}
  ]},
  { "nodeid": 0, "depth": 0, "split": "f1", "split_condition": -3.5510993, "yes": 1, "no": 2, "missing": 1, "children": [
    { "nodeid": 1, "depth": 1, "split": "f1", "split_condition": -4.03985071, "yes": 3, "no": 4, "missing": 3, "children": [
      { "nodeid": 3, "leaf": 0.067071259 },
      { "nodeid": 4, "depth": 2, "split": "f4", "split_condition": 0.873069406, "yes": 7, "no": 8, "missing": 7, "children": [
        { "nodeid": 7, "leaf": -0.109391056 },
        { "nodeid": 8, "leaf": -0.00995628908 }
      ]}
    ]},
    { "nodeid": 2, "depth": 1, "split": "f3", "split_condition": -2.47525692, "yes": 5, "no": 6, "missing": 5, "children": [
      { "nodeid": 5, "depth": 2, "split": "f3", "split_condition": -2.55697203, "yes": 9, "no": 10, "missing": 9, "children": [
        { "nodeid": 9, "leaf": -0.00256958581 },
        { "nodeid": 10, "leaf": -0.0437777601 }
      ]},
      { "nodeid": 6, "depth": 2, "split": "f3", "split_condition": -2.43592644, "yes": 11, "no": 12, "missing": 11, "children": [
        { "nodeid": 11, "leaf": 0.0384964943 },
        { "nodeid": 12, "leaf": 5.20423418e-05 }
      ]}
    ]}
  ]},
  { "nodeid": 0, "depth": 0, "split": "f4", "split_condition": -1.65583622, "yes": 1, "no": 2, "missing": 1, "children": [
    { "nodeid": 1, "depth": 1, "split": "f1", "split_condition": -1.0407548, "yes": 3, "no": 4, "missing": 3, "children": [
      { "nodeid": 3, "depth": 2, "split": "f3", "split_condition": -0.865859032, "yes": 7, "no": 8, "missing": 7, "children": [
        { "nodeid": 7, "leaf": -0.0286734756 },
        { "nodeid": 8, "leaf": 0.0255149733 }
      ]},
      { "nodeid": 4, "depth": 2, "split": "f4", "split_condition": -1.79140246, "yes": 9, "no": 10, "missing": 9, "children": [
        { "nodeid": 9, "leaf": -0.00201344839 },
        { "nodeid": 10, "leaf": -0.0231311526 }
      ]}
    ]},
    { "nodeid": 2, "depth": 1, "split": "f3", "split_condition": -0.308776349, "yes": 5, "no": 6, "missing": 5, "children": [
      { "nodeid": 5, "depth": 2, "split": "f3", "split_condition": -0.310098886, "yes": 11, "no": 12, "missing": 11, "children": [
        { "nodeid": 11, "leaf": 0.00147896726 },
        { "nodeid": 12, "leaf": 0.0858374611 }
      ]},
      { "nodeid": 6, "depth": 2, "split": "f3", "split_condition": -0.306501091, "yes": 13, "no": 14, "missing": 13, "children": [
        { "nodeid": 13, "leaf": -0.0684170946 },
        { "nodeid": 14, "leaf": -0.000556159415 }
      ]}
    ]}
  ]},
  { "nodeid": 0, "depth": 0, "split": "f0", "split_condition": 3.61415339, "yes": 1, "no": 2, "missing": 1, "children": [
    { "nodeid": 1, "depth": 1, "split": "f0", "split_condition": 2.84579587, "yes": 3, "no": 4, "missing": 3, "children": [
      { "nodeid": 3, "depth": 2, "split": "f0", "split_condition": 2.35838175, "yes": 7, "no": 8, "missing": 7, "children": [
        { "nodeid": 7, "leaf": -9.35802382e-05 },
        { "nodeid": 8, "leaf": 0.0167486388 }
      ]},
      { "nodeid": 4, "depth": 2, "split": "f4", "split_condition": 0.29845798, "yes": 9, "no": 10, "missing": 9, "children": [
        { "nodeid": 9, "leaf": 0.00929848943 },
        { "nodeid": 10, "leaf": -0.0580533408 }
      ]}
    ]},
    { "nodeid": 2, "depth": 1, "split": "f3", "split_condition": 0.0389367528, "yes": 5, "no": 6, "missing": 5, "children": [
      { "nodeid": 5, "leaf": 0.0885518342 },
      { "nodeid": 6, "leaf": 0.00873548351 }
    ]}
  ]},
  { "nodeid": 0, "depth": 0, "split": "f4", "split_condition": -3.94232249, "yes": 1, "no": 2, "missing": 1, "children": [
    { "nodeid": 1, "leaf": -0.0953805 },
    { "nodeid": 2, "depth": 1, "split": "f4", "split_condition": -2.76847601, "yes": 3, "no": 4, "missing": 3, "children": [
      { "nodeid": 3, "depth": 2, "split": "f0", "split_condition": 0.00197818177, "yes": 5, "no": 6, "missing": 5, "children": [
        { "nodeid": 5, "leaf": 0.0437546633 },
        { "nodeid": 6, "leaf": -0.00674274424 }
      ]},
      { "nodeid": 4, "depth": 2, "split": "f4", "split_condition": -2.66668749, "yes": 7, "no": 8, "missing": 7, "children": [
        { "nodeid": 7, "leaf": -0.0429466516 },
        { "nodeid": 8, "leaf": -6.4125984e-06 }
      ]}
    ]}
  ]},
  { "nodeid": 0, "depth": 0, "split": "f0", "split_condition": -3.30210829, "yes": 1, "no": 2, "missing": 1, "children": [
    { "nodeid": 1, "depth": 1, "split": "f2", "split_condition": 0.781280398, "yes": 3, "no": 4, "missing": 3, "children": [
      { "nodeid": 3, "depth": 2, "split": "f1", "split_condition": -0.334270358, "yes": 7, "no": 8, "missing": 7, "children": [
        { "nodeid": 7, "leaf": -0.00215686066 },
        { "nodeid": 8, "leaf": 0.0968811139 }
      ]},
      { "nodeid": 4, "leaf": -0.0532600097 }
    ]},
    { "nodeid": 2, "depth": 1, "split": "f0", "split_condition": -3.23720551, "yes": 5, "no": 6, "missing": 5, "children": [
      { "nodeid": 5, "depth": 2, "split": "f0", "split_condition": -3.2727561, "yes": 9, "no": 10, "missing": 9, "children": [
        { "nodeid": 9, "leaf": -0.000116688294 },
        { "nodeid": 10, "leaf": -0.120643675 }
      ]},
      { "nodeid": 6, "depth": 2, "split": "f2", "split_condition": -2.90191078, "yes": 11, "no": 12, "missing": 11, "children": [
        { "nodeid": 11, "leaf": 0.0190835204 },
        { "nodeid": 12, "leaf": -5.34151004e-05 }
      ]}
    ]}
  ]},
  { "nodeid": 0, "depth": 0, "split": "f2", "split_condition": -3.26565504, "yes": 1, "no": 2, "missing": 1, "children": [
    { "nodeid": 1, "depth": 1, "split": "f4", "split_condition": 0.0932865739, "yes": 3, "no": 4, "missing": 3, "children": [
      { "nodeid": 3, "depth": 2, "split": "f1", "split_condition": 0.756818593, "yes": 7, "no": 8, "missing": 7, "children": [
        { "nodeid": 7, "leaf": 0.00212237518 },
        { "nodeid": 8, "leaf": 0.0865463018 }
      ]},
      { "nodeid": 4, "depth": 2, "split": "f1", "split_condition": -1.2901057, "yes": 9, "no": 10, "missing": 9, "children": [
        { "nodeid": 9, "leaf": 0.0409124307 },
        { "nodeid": 10, "leaf": -0.123777978 }
      ]}
    ]},
    { "nodeid": 2, "depth": 1, "split": "f2", "split_condition": -3.19899249, "yes": 5, "no": 6, "missing": 5, "children": [
      { "nodeid": 5, "leaf": 0.113573469 },
      { "nodeid": 6, "depth": 2, "split": "f2", "split_condition": -2.90191078, "yes": 11, "no": 12, "missing": 11, "children": [
        { "nodeid": 11, "leaf": 0.0274829213 },
        { "nodeid": 12, "leaf": -4.39297146e-05 }
      ]}
    ]}
  ]},
  { "nodeid": 0, "depth": 0, "split": "f4", "split_condition": 2.12910557, "yes": 1, "no": 2, "missing": 1, "children": [
    { "nodeid": 1, "depth": 1, "split": "f4", "split_condition": 2.12333441, "yes": 3, "no": 4, "missing": 3, "children": [
      { "nodeid": 3, "depth": 2, "split": "f4", "split_condition": 1.79562426, "yes": 7, "no": 8, "missing": 7, "children": [
        { "nodeid": 7, "leaf": -0.000127240826 },
        { "nodeid": 8, "leaf": 0.0101409061 }
      ]},
      { "nodeid": 4, "depth": 2, "split": "f0", "split_condition": -0.701284468, "yes": 9, "no": 10, "missing": 9, "children": [
        { "nodeid": 9, "leaf": 0.0184320472 },
        { "nodeid": 10, "leaf": 0.152922556 }
      ]}
    ]},
    { "nodeid": 2, "depth": 1, "split": "f0", "split_condition": 1.44189608, "yes": 5, "no": 6, "missing": 5, "children": [
      { "nodeid": 5, "depth": 2, "split": "f0", "split_condition": 0.657530546, "yes": 11, "no": 12, "missing": 11, "children": [
        { "nodeid": 11, "leaf": -0.0112012066 },
        { "nodeid": 12, "leaf": 0.0274682827 }
      ]},
      { "nodeid": 6, "depth": 2, "split": "f2", "split_condition": -0.0168940872, "yes": 13, "no": 14, "missing": 13, "children": [
        { "nodeid": 13, "leaf": -0.00670868531 },
        { "nodeid": 14, "leaf": -0.082809411 }
      ]}
    ]}
  ]},
  { "nodeid": 0, "depth": 0, "split": "f2", "split_condition": 2.7645607, "yes": 1, "no": 2, "missing": 1, "children": [
    { "nodeid": 1, "depth": 1, "split": "f2", "split_condition": 2.73005867, "yes": 3, "no": 4, "missing": 3, "children": [
      { "nodeid": 3, "depth": 2, "split": "f2", "split_condition": 2.59875822, "yes": 7, "no": 8, "missing": 7, "children": [
        { "nodeid": 7, "leaf": 5.29175923e-05 },
        { "nodeid": 8, "leaf": -0.0303061455 }
      ]},
      { "nodeid": 4, "depth": 2, "split": "f0", "split_condition": -0.34610939, "yes": 9, "no": 10, "missing": 9, "children": [
        { "nodeid": 9, "leaf": 0.0134185655 },
        { "nodeid": 10, "leaf": 0.134617195 }
      ]}
    ]},
    { "nodeid": 2, "depth": 1, "split": "f3", "split_condition": 0.696583927, "yes": 5, "no": 6, "missing": 5, "children": [
      { "nodeid": 5, "depth": 2, "split": "f3", "split_condition": -0.265831232, "yes": 11, "no": 12, "missing": 11, "children": [
        { "nodeid": 11, "leaf": -0.00464969035 },
        { "nodeid": 12, "leaf": -0.0632930174 }
      ]},
      { "nodeid": 6, "depth": 2, "split": "f0", "split_condition": -1.28827786, "yes": 13, "no": 14, "missing": 13, "children": [
        { "nodeid": 13, "leaf": -0.109582543 },
        { "nodeid": 14, "leaf": 0.0455485135 }
      ]}
    ]}
  ]},
  { "nodeid": 0, "depth": 0, "split": "f1", "split_condition": 2.64568901, "yes": 1, "no": 2, "missing": 1, "children": [
    { "nodeid": 1, "depth": 1, "split": "f1", "split_condition": 2.62123585, "yes": 3, "no": 4, "missing": 3, "children": [
      { "nodeid": 3, "depth": 2, "split": "f1", "split_condition": 2.61637068, "yes": 7, "no": 8, "missing": 7, "children": [
        { "nodeid": 7, "leaf": 4.10758039e-05 },
        { "nodeid": 8, "leaf": -0.0895460322 }
      ]},
      { "nodeid": 4, "depth": 2, "split": "f2", "split_condition": -0.41406548, "yes": 9, "no": 10, "missing": 9, "children": [
        { "nodeid": 9, "leaf": 0.13195689 },
        { "nodeid": 10, "leaf": 0.0136710228 }
      ]}
    ]},
    { "nodeid": 2, "depth": 1, "split": "f1", "split_condition": 2.66440511, "yes": 5, "no": 6, "missing": 5, "children": [
      { "nodeid": 5, "depth": 2, "split": "f2", "split_condition": 0.47353828, "yes": 11, "no": 12, "missing": 11, "children": [
        { "nodeid": 11, "leaf": -0.116824806 },
        { "nodeid": 12, "leaf": -0.0139594777 }
      ]},
      { "nodeid": 6, "depth": 2, "split": "f0", "split_condition": -0.849279583, "yes": 13, "no": 14, "missing": 13, "children": [
        { "nodeid": 13, "leaf": 0.0368740894 },
        { "nodeid": 14, "leaf": -0.0189896002 }
      ]}
    ]}
  ]},
  { "nodeid": 0, "depth": 0, "split": "f1", "split_condition": 3.43515587, "yes": 1, "no": 2, "missing": 1, "children": [
    { "nodeid": 1, "depth": 1, "split": "f1", "split_condition": 3.35344744, "yes": 3, "no": 4, "missing": 3, "children": [
      { "nodeid": 3, "depth": 2, "split": "f1", "split_condition": -0.427999377, "yes": 7, "no": 8, "missing": 7, "children": [
        { "nodeid": 7, "leaf": -0.00123996404 },
        { "nodeid": 8, "leaf": 0.00061895512 }
      ]},
      { "nodeid": 4, "leaf": -0.136668175 }
    ]},
    { "nodeid": 2, "depth": 1, "split": "f3", "split_condition": 0.36534971, "yes": 5, "no": 6, "missing": 5, "children": [
      { "nodeid": 5, "depth": 2, "split": "f2", "split_condition": 0.110583723, "yes": 9, "no": 10, "missing": 9, "children": [
        { "nodeid": 9, "leaf": 0.0282845143 },
        { "nodeid": 10, "leaf": 0.142251387 }
      ]},
      { "nodeid": 6, "leaf": -0.0590531826 }
    ]}
  ]},
  { "nodeid": 0, "depth": 0, "split": "f3", "split_condition": -2.32129598, "yes": 1, "no": 2, "missing": 1, "children": [
    { "nodeid": 1, "depth": 1, "split": "f3", "split_condition": -2.35897636, "yes": 3, "no": 4, "missing": 3, "children": [
      { "nodeid": 3, "depth": 2, "split": "f1", "split_condition": 1.22343588, "yes": 7, "no": 8, "missing": 7, "children": [
        { "nodeid": 7, "leaf": -0.00838633161 },
        { "nodeid": 8, "leaf": 0.0398271084 }
      ]},
      { "nodeid": 4, "depth": 2, "split": "f4", "split_condition": -1.21053839, "yes": 9, "no": 10, "missing": 9, "children": [
        { "nodeid": 9, "leaf": 0.0642190874 },
        { "nodeid": 10, "leaf": -0.0875438824 }
      ]}
    ]},
    { "nodeid": 2, "depth": 1, "split": "f3", "split_condition": -2.3169024, "yes": 5, "no": 6, "missing": 5, "children": [
      { "nodeid": 5, "depth": 2, "split": "f3", "split_condition": -2.31870842, "yes": 11, "no": 12, "missing": 11, "children": [
        { "nodeid": 11, "leaf": 0.0218741186 },
        { "nodeid": 12, "leaf": 0.120207541 }
      ]},
      { "nodeid": 6, "depth": 2, "split": "f3", "split_condition": -1.83942556, "yes": 13, "no": 14, "missing": 13, "children": [
        { "nodeid": 13, "leaf": 0.00634929631 },
        { "nodeid": 14, "leaf": -7.77431633e-05 }
      ]}
    ]}
  ]},
  { "nodeid": 0, "depth": 0, "split": "f3", "split_condition": 3.5413518, "yes": 1, "no": 2, "missing": 1, "children": [
    { "nodeid": 1, "depth": 1, "split": "f3", "split_condition": 3.3181572, "yes": 3, "no": 4, "missing": 3, "children": [
      { "nodeid": 3, "depth": 2, "split": "f3", "split_condition": 2.91874957, "yes": 7, "no": 8, "missing": 7, "children": [
        { "nodeid": 7, "leaf": 3.18248894e-05 },
        { "nodeid": 8, "leaf": -0.0283343289 }
      ]},
      { "nodeid": 4, "depth": 2, "split": "f0", "split_condition": -0.372867644, "yes": 9, "no": 10, "missing": 9, "children": [
        { "nodeid": 9, "leaf": -0.0127543313 },
        { "nodeid": 10, "leaf": 0.103995167 }
      ]}
    ]},
    { "nodeid": 2, "depth": 1, "split": "f1", "split_condition": 0.454628289, "yes": 5, "no": 6, "missing": 5, "children": [
      { "nodeid": 5, "depth": 2, "split": "f4", "split_condition": -0.681295753, "yes": 11, "no": 12, "missing": 11, "children": [
        { "nodeid": 11, "leaf": -0.0147666652 },
        { "nodeid": 12, "leaf": -0.129854083 }
      ]},
      { "nodeid": 6, "leaf": 0.0354400724 }
    ]}
  ]},
  { "nodeid": 0, "depth": 0, "split": "f1", "split_condition": -3.35981607, "yes": 1, "no": 2, "missing": 1, "children": [
    { "nodeid": 1, "depth": 1, "split": "f3", "split_condition": 0.0715248138, "yes": 3, "no": 4, "missing": 3, "children": [
      { "nodeid": 3, "depth": 2, "split": "f0", "split_condition": 0.128295198, "yes": 7, "no": 8, "missing": 7, "children": [
        { "nodeid": 7, "leaf": -0.0211442001 },
        { "nodeid": 8, "leaf": 0.0725864246 }
      ]},
      { "nodeid": 4, "depth": 2, "split": "f1", "split_condition": -3.73462915, "yes": 9, "no": 10, "missing": 9, "children": [
        { "nodeid": 9, "leaf": -0.00168506091 },
        { "nodeid": 10, "leaf": -0.115207985 }
      ]}
    ]},
    { "nodeid": 2, "depth": 1, "split": "f1", "split_condition": -2.85901117, "yes": 5, "no": 6, "missing": 5, "children": [
      { "nodeid": 5, "depth": 2, "split": "f2", "split_condition": 0.704093575, "yes": 11, "no": 12, "missing": 11, "children": [
        { "nodeid": 11, "leaf": 0.044154983 },
        { "nodeid": 12, "leaf": -0.0481504761 }
      ]},
      { "nodeid": 6, "depth": 2, "split": "f1", "split_condition": -2.49285078, "yes": 13, "no": 14, "missing": 13, "children": [
        { "nodeid": 13, "leaf": -0.0207793117 },
        { "nodeid": 14, "leaf": 6.38165438e-05 }
      ]}
    ]}
  ]},
  { "nodeid": 0, "depth": 0, "split": "f0", "split_condition": 3.12986517, "yes": 1, "no": 2, "missing": 1, "children": [
    { "nodeid": 1, "depth": 1, "split": "f0", "split_condition": 2.84579587, "yes": 3, "no": 4, "missing": 3, "children": [
      { "nodeid": 3, "depth": 2, "split": "f0", "split_condition": 2.35838175, "yes": 7, "no": 8, "missing": 7, "children": [
        { "nodeid": 7, "leaf": -7.97107714e-05 },
        { "nodeid": 8, "leaf": 0.0151554421 }
      ]},
      { "nodeid": 4, "depth": 2, "split": "f4", "split_condition": -1.40041327, "yes": 9, "no": 10, "missing": 9, "children": [
        { "nodeid": 9, "leaf": 0.0778495967 },
        { "nodeid": 10, "leaf": -0.0518975668 }
      ]}
    ]},
    { "nodeid": 2, "depth": 1, "split": "f3", "split_condition": -1.17487884, "yes": 5, "no": 6, "missing": 5, "children": [
      { "nodeid": 5, "depth": 2, "split": "f1", "split_condition": -0.657252192, "yes": 11, "no": 12, "missing": 11, "children": [
        { "nodeid": 11, "leaf": -0.0231355354 },
        { "nodeid": 12, "leaf": -0.117660679 }
      ]},
      { "nodeid": 6, "depth": 2, "split": "f0", "split_condition": 3.36868191, "yes": 13, "no": 14, "missing": 13, "children": [
        { "nodeid": 13, "leaf": 0.0897173807 },
        { "nodeid": 14, "leaf": 0.00311788707 }
      ]}
    ]}
  ]},
  { "nodeid": 0, "depth": 0, "split": "f4", "split_condition": -3.94232249, "yes": 1, "no": 2, "missing": 1, "children": [
    { "nodeid": 1, "leaf": -0.0910024494 },
    { "nodeid": 2, "depth": 1, "split": "f4", "split_condition": -3.65648127, "yes": 3, "no": 4, "missing": 3, "children": [
      { "nodeid": 3, "leaf": 0.0887500122 },
      { "nodeid": 4, "depth": 2, "split": "f4", "split_condition": -3.29755878, "yes": 5, "no": 6, "missing": 5, "children": [
        { "nodeid": 5, "leaf": -0.0458602309 },
        { "nodeid": 6, "leaf": 1.32408122e-05 }
      ]}
    ]}
  ]},
  { "nodeid": 0, "depth": 0, "split": "f0", "split_condition": 3.61415339, "yes": 1, "no": 2, "missing": 1, "children": [
    { "nodeid": 1, "depth": 1, "split": "f0", "split_condition": 3.37340117, "yes": 3, "no": 4, "missing": 3, "children": [
      { "nodeid": 3, "depth": 2, "split": "f0", "split_condition": 3.26589155, "yes": 7, "no": 8, "missing": 7, "children": [
        { "nodeid": 7, "leaf": -1.81441428e-05 },
        { "nodeid": 8, "leaf": 0.0993915349 }
      ]},
      { "nodeid": 4, "depth": 2, "split": "f2", "split_condition": 0.489420891, "yes": 9, "no": 10, "missing": 9, "children": [
        { "nodeid": 9, "leaf": -0.103882171 },
        { "nodeid": 10, "leaf": 0.016541956 }
      ]}
    ]},
    { "nodeid": 2, "depth": 1, "split": "f0", "split_condition": 3.76770473, "yes": 5, "no": 6, "missing": 5, "children": [
      { "nodeid": 5, "leaf": 0.0955167264 },
      { "nodeid": 6, "leaf": 0.0174078401 }
    ]}
  ]},
  { "nodeid": 0, "depth": 0, "split": "f0", "split_condition": -2.89153671, "yes": 1, "no": 2, "missing": 1, "children": [
    { "nodeid": 1, "depth": 1, "split": "f1", "split_condition": -0.592449665, "yes": 3, "no": 4, "missing": 3, "children": [
      { "nodeid": 3, "depth": 2, "split": "f1", "split_condition": -1.13467479, "yes": 7, "no": 8, "missing": 7, "children": [
        { "nodeid": 7, "leaf": 0.0123402765 },
        { "nodeid": 8, "leaf": -0.0894055292 }
      ]},
      { "nodeid": 4, "depth": 2, "split": "f1", "split_condition": 1.22407126, "yes": 9, "no": 10, "missing": 9, "children": [
        { "nodeid": 9, "leaf": 0.0551397465 },
        { "nodeid": 10, "leaf": -0.0444187932 }
      ]}
    ]},
    { "nodeid": 2, "depth": 1, "split": "f0", "split_condition": -2.71413946, "yes": 5, "no": 6, "missing": 5, "children": [
      { "nodeid": 5, "depth": 2, "split": "f3", "split_condition": 1.58806252, "yes": 11, "no": 12, "missing": 11, "children": [
        { "nodeid": 11, "leaf": -0.0422090329 },
        { "nodeid": 12, "leaf": 0.12319731 }
      ]},
      { "nodeid": 6, "depth": 2, "split": "f3", "split_condition": 2.3261621, "yes": 13, "no": 14, "missing": 13, "children": [
        { "nodeid": 13, "leaf": 9.03624605e-05 },
        { "nodeid": 14, "leaf": -0.00904244836 }
      ]}
    ]}
  ]},
  { "nodeid": 0, "depth": 0, "split": "f4", "split_condition": -0.662817121, "yes": 1, "no": 2, "missing": 1, "children": [
    { "nodeid": 1, "depth": 1, "split": "f4", "split_condition": -0.748665929, "yes": 3, "no": 4, "missing": 3, "children": [
      { "nodeid": 3, "depth": 2, "split": "f4", "split_condition": -0.777856171, "yes": 7, "no": 8, "missing": 7, "children": [
        { "nodeid": 7, "leaf": -0.00112921977 },
        { "nodeid": 8, "leaf": 0.0197697487 }
      ]},
      { "nodeid": 4, "depth": 2, "split": "f4", "split_condition": -0.7460742, "yes": 9, "no": 10, "missing": 9, "children": [
        { "nodeid": 9, "leaf": -0.0685056448 },
        { "nodeid": 10, "leaf": -0.00875694305 }
      ]}
    ]},
    { "nodeid": 2, "depth": 1, "split": "f4", "split_condition": -0.63537848, "yes": 5, "no": 6, "missing": 5, "children": [
      { "nodeid": 5, "depth": 2, "split": "f3", "split_condition": 1.46426749, "yes": 11, "no": 12, "missing": 11, "children": [
        { "nodeid": 11, "leaf": 0.0279054251 },
        { "nodeid": 12, "leaf": -0.0575711206 }
      ]},
      { "nodeid": 6, "depth": 2, "split": "f4", "split_condition": -0.633001328, "yes": 13, "no": 14, "missing": 13, "children": [
        { "nodeid": 13, "leaf": -0.0431890488 },
        { "nodeid": 14, "leaf": 0.000273522019 }
      ]}
    ]}
  ]},
  { "nodeid": 0, "depth": 0, "split": "f0", "split_condition": 0.955780625, "yes": 1, "no": 2, "missing": 1, "children": [
    { "nodeid": 1, "depth": 1, "split": "f0", "split_condition": 0.86479497, "yes": 3, "no": 4, "missing": 3, "children": [
      { "nodeid": 3, "depth": 2, "split": "f0", "split_condition": 0.85099268, "yes": 7, "no": 8, "missing": 7, "children": [
        { "nodeid": 7, "leaf": -0.000290361204 },
        { "nodeid": 8, "leaf": 0.0334149748 }
      ]},
      { "nodeid": 4, "depth": 2, "split": "f4", "split_condition": -1.81107831, "yes": 9, "no": 10, "missing": 9, "children": [
        { "nodeid": 9, "leaf": 0.0563256145 },
        { "nodeid": 10, "leaf": -0.0101924613 }
      ]}
    ]},
    { "nodeid": 2, "depth": 1, "split": "f2", "split_condition": 0.552318394, "yes": 5, "no": 6, "missing": 5, "children": [
      { "nodeid": 5, "depth": 2, "split": "f3", "split_condition": -2.16168308, "yes": 11, "no": 12, "missing": 11, "children": [
        { "nodeid": 11, "leaf": 0.0357462168 },
        { "nodeid": 12, "leaf": -0.000728093379 }
      ]},
      { "nodeid": 6, "depth": 2, "split": "f2", "split_condition": 0.972961009, "yes": 13, "no": 14, "missing": 13, "children": [
        { "nodeid": 13, "leaf": 0.0170571525 },
        { "nodeid": 14, "leaf": -0.00109972898 }
      ]}
    ]}
  ]},
  { "nodeid": 0, "depth": 0, "split": "f3", "split_condition": -2.46467161, "yes": 1, "no": 2, "missing": 1, "children": [
    { "nodeid": 1, "depth": 1, "split": "f4", "split_condition": 2.05869293, "yes": 3, "no": 4, "missing": 3, "children": [
      { "nodeid": 3, "depth": 2, "split": "f4", "split_condition": 0.363936305, "yes": 7, "no": 8, "missing": 7, "children": [
        { "nodeid": 7, "leaf": 0.000272970618 },
        { "nodeid": 8, "leaf": -0.0370133445 }
      ]},
      { "nodeid": 4, "depth": 2, "split": "f2", "split_condition": -0.0860073343, "yes": 9, "no": 10, "missing": 9, "children": [
        { "nodeid": 9, "leaf": 0.0176468007 },
        { "nodeid": 10, "leaf": 0.120081805 }
      ]}
    ]},
    { "nodeid": 2, "depth": 1, "split": "f3", "split_condition": -2.43592644, "yes": 5, "no": 6, "missing": 5, "children": [
      { "nodeid": 5, "depth": 2, "split": "f1", "split_condition": 1.15091181, "yes": 11, "no": 12, "missing": 11, "children": [
        { "nodeid": 11, "leaf": 0.069661133 },
        { "nodeid": 12, "leaf": -0.0615640283 }
      ]},
      { "nodeid": 6, "depth": 2, "split": "f3", "split_condition": -2.43306541, "yes": 13, "no": 14, "missing": 13, "children": [
        { "nodeid": 13, "leaf": -0.0985420644 },
        { "nodeid": 14, "leaf": 5.42667767e-05 }
      ]}
    ]}
  ]},
  { "nodeid": 0, "depth": 0, "split": "f2", "split_condition": -0.14681378, "yes": 1, "no": 2, "missing": 1, "children": [
    { "nodeid": 1, "depth": 1, "split": "f4", "split_condition": -2.80683994, "yes": 3, "no": 4, "missing": 3, "children": [
      { "nodeid": 3, "depth": 2, "split": "f2", "split_condition": -0.580878019, "yes": 7, "no": 8, "missing": 7, "children": [
        { "nodeid": 7, "leaf": 0.0106822737 },
        { "nodeid": 8, "leaf": 0.105386607 }
      ]},
      { "nodeid": 4, "depth": 2, "split": "f4", "split_condition": -2.70472622, "yes": 9, "no": 10, "missing": 9, "children": [
        { "nodeid": 9, "leaf": -0.0665883571 },
        { "nodeid": 10, "leaf": 0.000900993298 }
      ]}
    ]},
    { "nodeid": 2, "depth": 1, "split": "f1", "split_condition": -1.42277575, "yes": 5, "no": 6, "missing": 5, "children": [
      { "nodeid": 5, "depth": 2, "split": "f2", "split_condition": -0.0569391474, "yes": 11, "no": 12, "missing": 11, "children": [
        { "nodeid": 11, "leaf": 0.0320246331 },
        { "nodeid": 12, "leaf": 0.00428034365 }
      ]},
      { "nodeid": 6, "depth": 2, "split": "f1", "split_condition": -1.39385116, "yes": 13, "no": 14, "missing": 13, "children": [
        { "nodeid": 13, "leaf": -0.0389403589 },
        { "nodeid": 14, "leaf": -0.00114791351 }
      ]}
    ]}
  ]},
  { "nodeid": 0, "depth": 0, "split": "f2", "split_condition": 2.1211915, "yes": 1, "no": 2, "missing": 1, "children": [
    { "nodeid": 1, "depth": 1, "split": "f3", "split_condition": 3.5413518, "yes": 3, "no": 4, "missing": 3, "children": [
      { "nodeid": 3, "depth": 2, "split": "f3", "split_condition": 3.12098074, "yes": 7, "no": 8, "missing": 7, "children": [
        { "nodeid": 7, "leaf": -0.000124205239 },
        { "nodeid": 8, "leaf": 0.0371036008 }
      ]},
      { "nodeid": 4, "depth": 2, "split": "f1", "split_condition": 0.454628289, "yes": 9, "no": 10, "missing": 9, "children": [
        { "nodeid": 9, "leaf": -0.0941391513 },
        { "nodeid": 10, "leaf": 0.0193637144 }
      ]}
    ]},
    { "nodeid": 2, "depth": 1, "split": "f2", "split_condition": 2.15955734, "yes": 5, "no": 6, "missing": 5, "children": [
      { "nodeid": 5, "depth": 2, "split": "f1", "split_condition": -0.682871699, "yes": 11, "no": 12, "missing": 11, "children": [
        { "nodeid": 11, "leaf": -0.0449172147 },
        { "nodeid": 12, "leaf": 0.0691776499 }
      ]},
      { "nodeid": 6, "depth": 2, "split": "f2", "split_condition": 2.16088271, "yes": 13, "no": 14, "missing": 13, "children": [
        { "nodeid": 13, "leaf": -0.119392037 },
        { "nodeid": 14, "leaf": 0.00364954956 }
      ]}
    ]}
  ]},
  { "nodeid": 0, "depth": 0, "split": "f4", "split_condition": -1.66827178, "yes": 1, "no": 2, "missing": 1, "children": [
    { "nodeid": 1, "depth": 1, "split": "f4", "split_condition": -1.79105687, "yes": 3, "no": 4, "missing": 3, "children": [
      { "nodeid": 3, "depth": 2, "split": "f1", "split_condition": 2.28125334, "yes": 7, "no": 8, "missing": 7, "children": [
        { "nodeid": 7, "leaf": -0.000377597898 },
        { "nodeid": 8, "leaf": 0.0670869499 }
      ]},
      { "nodeid": 4, "depth": 2, "split": "f1", "split_condition": -0.0521787852, "yes": 9, "no": 10, "missing": 9, "children": [
        { "nodeid": 9, "leaf": -0.000810233352 },
        { "nodeid": 10, "leaf": -0.0338144042 }
      ]}
    ]},
    { "nodeid": 2, "depth": 1, "split": "f4", "split_condition": -1.66526604, "yes": 5, "no": 6, "missing": 5, "children": [
      { "nodeid": 5, "depth": 2, "split": "f3", "split_condition": -0.614362955, "yes": 11, "no": 12, "missing": 11, "children": [
        { "nodeid": 11, "leaf": -0.0474642105 },
        { "nodeid": 12, "leaf": 0.135130122 }
      ]},
      { "nodeid": 6, "depth": 2, "split": "f3", "split_condition": -0.308833599, "yes": 13, "no": 14, "missing": 13, "children": [
        { "nodeid": 13, "leaf": 0.00145377207 },
        { "nodeid": 14, "leaf": -0.000636473473 }
      ]}
    ]}
  ]},
  { "nodeid": 0, "depth": 0, "split": "f1", "split_condition": 2.48030353, "yes": 1, "no": 2, "missing": 1, "children": [
    { "nodeid": 1, "depth": 1, "split": "f1", "split_condition": 2.4697752, "yes": 3, "no": 4, "missing": 3, "children": [
      { "nodeid": 3, "depth": 2, "split": "f1", "split_condition": 2.30380964, "yes": 7, "no": 8, "missing": 7, "children": [
        { "nodeid": 7, "leaf": -1.35242026e-05 },
        { "nodeid": 8, "leaf": 0.0133160977 }
      ]},
      { "nodeid": 4, "leaf": 0.119332053 }
    ]},
    { "nodeid": 2, "depth": 1, "split": "f2", "split_condition": 0.651963115, "yes": 5, "no": 6, "missing": 5, "children": [
      { "nodeid": 5, "depth": 2, "split": "f2", "split_condition": 0.242100656, "yes": 9, "no": 10, "missing": 9, "children": [
        { "nodeid": 9, "leaf": -0.00512184296 },
        { "nodeid": 10, "leaf": -0.0654792711 }
      ]},
      { "nodeid": 6, "depth": 2, "split": "f2", "split_condition": 1.04028893, "yes": 11, "no": 12, "missing": 11, "children": [
        { "nodeid": 11, "leaf": 0.0637765527 },
        { "nodeid": 12, "leaf": -0.015764663 }
      ]}
    ]}
  ]},
  { "nodeid": 0, "depth": 0, "split": "f4", "split_condition": -3.94232249, "yes": 1, "no": 2, "missing": 1, "children": [
    { "nodeid": 1, "leaf": -0.0890191048 },
    { "nodeid": 2, "depth": 1, "split": "f4", "split_condition": -3.65648127, "yes": 3, "no": 4, "missing": 3, "children": [
      { "nodeid": 3, "leaf": 0.0827274919 },
      { "nodeid": 4, "depth": 2, "split": "f4", "split_condition": -3.15350389, "yes": 5, "no": 6, "missing": 5, "children": [
        { "nodeid": 5, "leaf": -0.0332399346 },
        { "nodeid": 6, "leaf": 2.13188086e-05 }
      ]}
    ]}
  ]},
  { "nodeid": 0, "depth": 0, "split": "f1", "split_condition": -3.5510993, "yes": 1, "no": 2, "missing": 1, "children": [
    { "nodeid": 1, "depth": 1, "split": "f1", "split_condition": -4.03985071, "yes": 3, "no": 4, "missing": 3, "children": [
      { "nodeid": 3, "leaf": 0.0617907345 },
      { "nodeid": 4, "depth": 2, "split": "f0", "split_condition": -0.101609863, "yes": 7, "no": 8, "missing": 7, "children": [
        { "nodeid": 7, "leaf": -0.0201698653 },
        { "nodeid": 8, "leaf": -0.113377891 }
      ]}
    ]},
    { "nodeid": 2, "depth": 1, "split": "f4", "split_condition": 2.79265118, "yes": 5, "no": 6, "missing": 5, "children": [
      { "nodeid": 5, "depth": 2, "split": "f4", "split_condition": 2.53792334, "yes": 9, "no": 10, "missing": 9, "children": [
        { "nodeid": 9, "leaf": -1.7336537e-05 },
        { "nodeid": 10, "leaf": 0.0233382937 }
      ]},
      { "nodeid": 6, "depth": 2, "split": "f2", "split_condition": 1.48942494, "yes": 11, "no": 12, "missing": 11, "children": [
        { "nodeid": 11, "leaf": -0.00832086336 },
        { "nodeid": 12, "leaf": -0.119403102 }
      ]}
    ]}
  ]},
  { "nodeid": 0, "depth": 0, "split": "f4", "split_condition": 2.12910557, "yes": 1, "no": 2, "missing": 1, "children": [
    { "nodeid": 1, "depth": 1, "split": "f4", "split_condition": 2.12333441, "yes": 3, "no": 4, "missing": 3, "children": [
      { "nodeid": 3, "depth": 2, "split": "f4", "split_condition": 1.79562426, "yes": 7, "no": 8, "missing": 7, "children": [
        { "nodeid": 7, "leaf": -0.000105030209 },
        { "nodeid": 8, "leaf": 0.00906337332 }
      ]},
      { "nodeid": 4, "depth": 2, "split": "f0", "split_condition": -0.701284468, "yes": 9, "no": 10, "missing": 9, "children": [
        { "nodeid": 9, "leaf": 0.0172871575 },
        { "nodeid": 10, "leaf": 0.141788706 }
      ]}
    ]},
    { "nodeid": 2, "depth": 1, "split": "f1", "split_condition": 1.93756604, "yes": 5, "no": 6, "missing": 5, "children": [
      { "nodeid": 5, "depth": 2, "split": "f1", "split_condition": 1.11510837, "yes": 11, "no": 12, "missing": 11, "children": [
        { "nodeid": 11, "leaf": -0.0040089516 },
        { "nodeid": 12, "leaf": -0.0396656469 }
      ]},
      { "nodeid": 6, "depth": 2, "split": "f1", "split_condition": 2.21047497, "yes": 13, "no": 14, "missing": 13, "children": [
        { "nodeid": 13, "leaf": 0.118002132 },
        { "nodeid": 14, "leaf": -0.00325362314 }
      ]}
    ]}
  ]},
  { "nodeid": 0, "depth": 0, "split": "f1", "split_condition": 3.43515587, "yes": 1, "no": 2, "missing": 1, "children": [
    { "nodeid": 1, "depth": 1, "split": "f1", "split_condition": 3.35344744, "yes": 3, "no": 4, "missing": 3, "children": [
      { "nodeid": 3, "depth": 2, "split": "f1", "split_condition": -0.427999377, "yes": 7, "no": 8, "missing": 7, "children": [
        { "nodeid": 7, "leaf": -0.00114021392 },
        { "nodeid": 8, "leaf": 0.000574406469 }
      ]},
      { "nodeid": 4, "leaf": -0.125600144 }
    ]},
    { "nodeid": 2, "depth": 1, "split": "f3", "split_condition": 0.36534971, "yes": 5, "no": 6, "missing": 5, "children": [
      { "nodeid": 5, "depth": 2, "split": "f0", "split_condition": -0.202252001, "yes": 9, "no": 10, "missing": 9, "children": [
        { "nodeid": 9, "leaf": 0.00288473419 },
        { "nodeid": 10, "leaf": 0.113212943 }
      ]},
      { "nodeid": 6, "leaf": -0.0552644394 }
    ]}
  ]},
  { "nodeid": 0, "depth": 0, "split": "f3", "split_condition": -3.91168594, "yes": 1, "no": 2, "missing": 1, "children": [
    { "nodeid": 1, "leaf": 0.0806468725 },
    { "nodeid": 2, "depth": 1, "split": "f3", "split_condition": -3.39023399, "yes": 3, "no": 4, "missing": 3, "children": [
      { "nodeid": 3, "depth": 2, "split": "f4", "split_condition": 0.220098466, "yes": 5, "no": 6, "missing": 5, "children": [
        { "nodeid": 5, "leaf": -0.081128113 },
        { "nodeid": 6, "leaf": 0.00347378966 }
      ]},
      { "nodeid": 4, "depth": 2, "split": "f3", "split_condition": -3.33212519, "yes": 7, "no": 8, "missing": 7, "children": [
        { "nodeid": 7, "leaf": 0.0750576109 },
        { "nodeid": 8, "leaf": -7.51049285e-08 }
      ]}
    ]}
  ]},
  { "nodeid": 0, "depth": 0, "split": "f2", "split_condition": 2.7645607, "yes": 1, "no": 2, "missing": 1, "children": [
    { "nodeid": 1, "depth": 1, "split": "f2", "split_condition": 2.69664431, "yes": 3, "no": 4, "missing": 3, "children": [
      { "nodeid": 3, "depth": 2, "split": "f2", "split_condition": 2.67206383, "yes": 7, "no": 8, "missing": 7, "children": [
        { "nodeid": 7, "leaf": 3.03257893e-05 },
        { "nodeid": 8, "leaf": -0.0766859576 }
      ]},
      { "nodeid": 4, "depth": 2, "split": "f4", "split_condition": -1.0013386, "yes": 9, "no": 10, "missing": 9, "children": [
        { "nodeid": 9, "leaf": -0.0304711554 },
        { "nodeid": 10, "leaf": 0.0868851319 }
      ]}
    ]},
    { "nodeid": 2, "depth": 1, "split": "f3", "split_condition": 0.696583927, "yes": 5, "no": 6, "missing": 5, "children": [
      { "nodeid": 5, "depth": 2, "split": "f3", "split_condition": -0.265831232, "yes": 11, "no": 12, "missing": 11, "children": [
        { "nodeid": 11, "leaf": -0.00437516021 },
        { "nodeid": 12, "leaf": -0.0576732717 }
      ]},
      { "nodeid": 6, "depth": 2, "split": "f0", "split_condition": -1.28827786, "yes": 13, "no": 14, "missing": 13, "children": [
        { "nodeid": 13, "leaf": -0.103916906 },
        { "nodeid": 14, "leaf": 0.0413599424 }
      ]}
    ]}
  ]},
  { "nodeid": 0, "depth": 0, "split": "f0", "split_condition": 3.61415339, "yes": 1, "no": 2, "missing": 1, "children": [
    { "nodeid": 1, "depth": 1, "split": "f0", "split_condition": 2.84579587, "yes": 3, "no": 4, "missing": 3, "children": [
      { "nodeid": 3, "depth": 2, "split": "f0", "split_condition": 2.35838175, "yes": 7, "no": 8, "missing": 7, "children": [
        { "nodeid": 7, "leaf": -6.58952558e-05 },
        { "nodeid": 8, "leaf": 0.0133728059 }
      ]},
      { "nodeid": 4, "depth": 2, "split": "f1", "split_condition": -0.523983002, "yes": 9, "no": 10, "missing": 9, "children": [
        { "nodeid": 9, "leaf": 0.0230218284 },
        { "nodeid": 10, "leaf": -0.0393262729 }
      ]}
    ]},
    { "nodeid": 2, "depth": 1, "split": "f3", "split_condition": 0.0389367528, "yes": 5, "no": 6, "missing": 5, "children": [
      { "nodeid": 5, "leaf": 0.0809807107 },
      { "nodeid": 6, "leaf": 0.00496097375 }
    ]}
  ]},
  { "nodeid": 0, "depth": 0, "split": "f2", "split_condition": -3.26565504, "yes": 1, "no": 2, "missing": 1, "children": [
    { "nodeid": 1, "depth": 1, "split": "f4", "split_condition": 0.0932865739, "yes": 3, "no": 4, "missing": 3, "children": [
      { "nodeid": 3, "depth": 2, "split": "f0", "split_condition": 0.996206403, "yes": 7, "no": 8, "missing": 7, "children": [
        { "nodeid": 7, "leaf": 0.0106181391 },
        { "nodeid": 8, "leaf": 0.10580992 }
      ]},
      { "nodeid": 4, "depth": 2, "split": "f1", "split_condition": -1.2901057, "yes": 9, "no": 10, "missing": 9, "children": [
        { "nodeid": 9, "leaf": 0.0385664068 },
        { "nodeid": 10, "leaf": -0.113691606 }
      ]}
    ]},
    { "nodeid": 2, "depth": 1, "split": "f2", "split_condition": -3.19899249, "yes": 5, "no": 6, "missing": 5, "children": [
      { "nodeid": 5, "leaf": 0.10535723 },
      { "nodeid": 6, "depth": 2, "split": "f2", "split_condition": -2.91523647, "yes": 11, "no": 12, "missing": 11, "children": [
        { "nodeid": 11, "leaf": 0.0255735405 },
        { "nodeid": 12, "leaf": -3.26943482e-05 }
      ]}
    ]}
  ]},
  { "nodeid": 0, "depth": 0, "split": "f4", "split_condition": -2.76847601, "yes": 1, "no": 2, "missing": 1, "children": [
    { "nodeid": 1, "depth": 1, "split": "f4", "split_condition": -3.15350389, "yes": 3, "no": 4, "missing": 3, "children": [
      { "nodeid": 3, "depth": 2, "split": "f4", "split_condition": -3.19810033, "yes": 7, "no": 8, "missing": 7, "children": [
        { "nodeid": 7, "leaf": -0.0081475731 },
        { "nodeid": 8, "leaf": -0.118981376 }
      ]},
      { "nodeid": 4, "depth": 2, "split": "f2", "split_condition": 1.65838194, "yes": 9, "no": 10, "missing": 9, "children": [
        { "nodeid": 9, "leaf": 0.0383177213 },
        { "nodeid": 10, "leaf": -0.0764028803 }
      ]}
    ]},
    { "nodeid": 2, "depth": 1, "split": "f4", "split_condition": -2.42275143, "yes": 5, "no": 6, "missing": 5, "children": [
      { "nodeid": 5, "depth": 2, "split": "f3", "split_condition": -0.658877254, "yes": 11, "no": 12, "missing": 11, "children": [
        { "nodeid": 11, "leaf": -0.0640654117 },
        { "nodeid": 12, "leaf": -0.00328682619 }
      ]},
      { "nodeid": 6, "depth": 2, "split": "f4", "split_condition": -2.41287541, "yes": 13, "no": 14, "missing": 13, "children": [
        { "nodeid": 13, "leaf": 0.0936084315 },
        { "nodeid": 14, "leaf": 2.85312799e-05 }
      ]}
    ]}
  ]},
  { "nodeid": 0, "depth": 0, "split": "f3", "split_condition": 1.69127941, "yes": 1, "no": 2, "missing": 1, "children": [
    { "nodeid": 1, "depth": 1, "split": "f3", "split_condition": 1.67435372, "yes": 3, "no": 4, "missing": 3, "children": [
      { "nodeid": 3, "depth": 2, "split": "f3", "split_condition": 1.67046285, "yes": 7, "no": 8, "missing": 7, "children": [
        { "nodeid": 7, "leaf": 0.000149185245 },
        { "nodeid": 8, "leaf": -0.0883375555 }
      ]},
      { "nodeid": 4, "depth": 2, "split": "f0", "split_condition": -0.380469799, "yes": 9, "no": 10, "missing": 9, "children": [
        { "nodeid": 9, "leaf": -0.0087461276 },
        { "nodeid": 10, "leaf": 0.0582453609 }
      ]}
    ]},
    { "nodeid": 2, "depth": 1, "split": "f4", "split_condition": 1.85277224, "yes": 5, "no": 6, "missing": 5, "children": [
      { "nodeid": 5, "depth": 2, "split": "f4", "split_condition": 1.36804676, "yes": 11, "no": 12, "missing": 11, "children": [
        { "nodeid": 11, "leaf": -0.00345002301 },
        { "nodeid": 12, "leaf": -0.0303601027 }
      ]},
      { "nodeid": 6, "depth": 2, "split": "f4", "split_condition": 1.91367924, "yes": 13, "no": 14, "missing": 13, "children": [
        { "nodeid": 13, "leaf": 0.127007842 },
        { "nodeid": 14, "leaf": 0.0205254536 }
      ]}
    ]}
  ]},
  { "nodeid": 0, "depth": 0, "split": "f4", "split_condition": -3.94232249, "yes": 1, "no": 2, "missing": 1, "children": [
    { "nodeid": 1, "leaf": -0.0848821402 },
    { "nodeid": 2, "depth": 1, "split": "f4", "split_condition": -3.65648127, "yes": 3, "no": 4, "missing": 3, "children": [
      { "nodeid": 3, "leaf": 0.078535974 },
      { "nodeid": 4, "depth": 2, "split": "f4", "split_condition": -3.29755878, "yes": 5, "no": 6, "missing": 5, "children": [
        { "nodeid": 5, "leaf": -0.0392165892 },
        { "nodeid": 6, "leaf": 1.40732227e-05 }
      ]}
    ]}
  ]},
  { "nodeid": 0, "depth": 0, "split": "f1", "split_condition": 1.90742111, "yes": 1, "no": 2, "missing": 1, "children": [
    { "nodeid": 1, "depth": 1, "split": "f1", "split_condition": 1.89467275, "yes": 3, "no": 4, "missing": 3, "children": [
      { "nodeid": 3, "depth": 2, "split": "f1", "split_condition": 1.45837235, "yes": 7, "no": 8, "missing": 7, "children": [
        { "nodeid": 7, "leaf": -0.000144643927 },
        { "nodeid": 8, "leaf": 0.00515022641 }
      ]},
      { "nodeid": 4, "depth": 2, "split": "f3", "split_condition": -0.0142429667, "yes": 9, "no": 10, "missing": 9, "children": [
        { "nodeid": 9, "leaf": 0.00898321066 },
        { "nodeid": 10, "leaf": 0.096744433 }
      ]}
    ]},
    { "nodeid": 2, "depth": 1, "split": "f1", "split_condition": 1.97841167, "yes": 5, "no": 6, "missing": 5, "children": [
      { "nodeid": 5, "depth": 2, "split": "f1", "split_condition": 1.94793415, "yes": 11, "no": 12, "missing": 11, "children": [
        { "nodeid": 11, "leaf": -0.00406551873 },
        { "nodeid": 12, "leaf": -0.0619147606 }
      ]},
      { "nodeid": 6, "depth": 2, "split": "f2", "split_condition": -2.81902933, "yes": 13, "no": 14, "missing": 13, "children": [
        { "nodeid": 13, "leaf": 0.13247928 },
        { "nodeid": 14, "leaf": -0.00157331885 }
      ]}
    ]}
  ]},
  { "nodeid": 0, "depth": 0, "split": "f2", "split_condition": 2.00228167, "yes": 1, "no": 2, "missing": 1, "children": [
    { "nodeid": 1, "depth": 1, "split": "f2", "split_condition": 1.99143982, "yes": 3, "no": 4, "missing": 3, "children": [
      { "nodeid": 3, "depth": 2, "split": "f1", "split_condition": -3.35981607, "yes": 7, "no": 8, "missing": 7, "children": [
        { "nodeid": 7, "leaf": -0.0447757691 },
        { "nodeid": 8, "leaf": -5.73729703e-05 }
      ]},
      { "nodeid": 4, "depth": 2, "split": "f4", "split_condition": 0.352160752, "yes": 9, "no": 10, "missing": 9, "children": [
        { "nodeid": 9, "leaf": -0.104745485 },
        { "nodeid": 10, "leaf": 0.0224084612 }
      ]}
    ]},
    { "nodeid": 2, "depth": 1, "split": "f2", "split_condition": 2.0136447, "yes": 5, "no": 6, "missing": 5, "children": [
      { "nodeid": 5, "depth": 2, "split": "f0", "split_condition": -0.0620761663, "yes": 11, "no": 12, "missing": 11, "children": [
        { "nodeid": 11, "leaf": 0.0134897474 },
        { "nodeid": 12, "leaf": 0.109949626 }
      ]},
      { "nodeid": 6, "depth": 2, "split": "f4", "split_condition": -0.818182349, "yes": 13, "no": 14, "missing": 13, "children": [
        { "nodeid": 13, "leaf": -0.0150942728 },
        { "nodeid": 14, "leaf": 0.00834316295 }
      ]}
    ]}
  ]},
  { "nodeid": 0, "depth": 0, "split": "f3", "split_condition": -2.32129598, "yes": 1, "no": 2, "missing": 1, "children": [
    { "nodeid": 1, "depth": 1, "split": "f3", "split_condition": -2.35897636, "yes": 3, "no": 4, "missing": 3, "children": [
      { "nodeid": 3, "depth": 2, "split": "f2", "split_condition": 0.552204251, "yes": 7, "no": 8, "missing": 7, "children": [
        { "nodeid": 7, "leaf": 0.00649270276 },
        { "nodeid": 8, "leaf": -0.0255317893 }
      ]},
      { "nodeid": 4, "depth": 2, "split": "f4", "split_condition": -1.21053839, "yes": 9, "no": 10, "missing": 9, "children": [
        { "nodeid": 9, "leaf": 0.0596244149 },
        { "nodeid": 10, "leaf": -0.0800265893 }
      ]}
    ]},
    { "nodeid": 2, "depth": 1, "split": "f3", "split_condition": -2.31349969, "yes": 5, "no": 6, "missing": 5, "children": [
      { "nodeid": 5, "depth": 2, "split": "f4", "split_condition": 0.461296201, "yes": 11, "no": 12, "missing": 11, "children": [
        { "nodeid": 11, "leaf": 0.0967028737 },
        { "nodeid": 12, "leaf": -0.0245066807 }
      ]},
      { "nodeid": 6, "depth": 2, "split": "f4", "split_condition": 3.14379144, "yes": 13, "no": 14, "missing": 13, "children": [
        { "nodeid": 13, "leaf": 8.64062094e-05 },
        { "nodeid": 14, "leaf": -0.0302517843 }
      ]}
    ]}
  ]},
  { "nodeid": 0, "depth": 0, "split": "f2", "split_condition": 2.59875822, "yes": 1, "no": 2, "missing": 1, "children": [
    { "nodeid": 1, "depth": 1, "split": "f2", "split_condition": 2.39796996, "yes": 3, "no": 4, "missing": 3, "children": [
      { "nodeid": 3, "depth": 2, "split": "f2", "split_condition": 2.38024139, "yes": 7, "no": 8, "missing": 7, "children": [
        { "nodeid": 7, "leaf": -1.14945751e-05 },
        { "nodeid": 8, "leaf": -0.0555949695 }
      ]},
      { "nodeid": 4, "depth": 2, "split": "f3", "split_condition": 0.207436115, "yes": 9, "no": 10, "missing": 9, "children": [
        { "nodeid": 9, "leaf": 0.0421073884 },
        { "nodeid": 10, "leaf": -9.88989705e-05 }
      ]}
    ]},
    { "nodeid": 2, "depth": 1, "split": "f4", "split_condition": -1.39188862, "yes": 5, "no": 6, "missing": 5, "children": [
      { "nodeid": 5, "depth": 2, "split": "f1", "split_condition": 0.144868016, "yes": 11, "no": 12, "missing": 11, "children": [
        { "nodeid": 11, "leaf": 0.0140803577 },
        { "nodeid": 12, "leaf": 0.105070464 }
      ]},
      { "nodeid": 6, "depth": 2, "split": "f4", "split_condition": -1.16335058, "yes": 13, "no": 14, "missing": 13, "children": [
        { "nodeid": 13, "leaf": -0.118184291 },
        { "nodeid": 14, "leaf": -0.0113946423 }
      ]}
    ]}
  ]},
  { "nodeid": 0, "depth": 0, "split": "f2", "split_condition": -0.395122617, "yes": 1, "no": 2, "missing": 1, "children": [
    { "nodeid": 1, "depth": 1, "split": "f2", "split_condition": -0.426820189, "yes": 3, "no": 4, "missing": 3, "children": [
      { "nodeid": 3, "depth": 2, "split": "f1", "split_condition": 0.899160862, "yes": 7, "no": 8, "missing": 7, "children": [
        { "nodeid": 7, "leaf": 0.00180917571 },
        { "nodeid": 8, "leaf": -0.00499150716 }
      ]},
      { "nodeid": 4, "depth": 2, "split": "f4", "split_condition": 0.738606751, "yes": 9, "no": 10, "missing": 9, "children": [
        { "nodeid": 9, "leaf": 0.0248529483 },
        { "nodeid": 10, "leaf": -0.0175056309 }
      ]}
    ]},
    { "nodeid": 2, "depth": 1, "split": "f2", "split_condition": -0.392150998, "yes": 5, "no": 6, "missing": 5, "children": [
      { "nodeid": 5, "depth": 2, "split": "f3", "split_condition": -1.58719039, "yes": 11, "no": 12, "missing": 11, "children": [
        { "nodeid": 11, "leaf": 0.0805358514 },
        { "nodeid": 12, "leaf": -0.0643922165 }
      ]},
      { "nodeid": 6, "depth": 2, "split": "f1", "split_condition": 0.687376261, "yes": 13, "no": 14, "missing": 13, "children": [
        { "nodeid": 13, "leaf": -0.00142281968 },
        { "nodeid": 14, "leaf": 0.00251895911 }
      ]}
    ]}
  ]},
  { "nodeid": 0, "depth": 0, "split": "f2", "split_condition": -1.13539195, "yes": 1, "no": 2, "missing": 1, "children": [
    { "nodeid": 1, "depth": 1, "split": "f1", "split_condition": 0.843273997, "yes": 3, "no": 4, "missing": 3, "children": [
      { "nodeid": 3, "depth": 2, "split": "f0", "split_condition": -2.57650709, "yes": 7, "no": 8, "missing": 7, "children": [
        { "nodeid": 7, "leaf": 0.0656121895 },
        { "nodeid": 8, "leaf": 0.000664540101 }
      ]},
      { "nodeid": 4, "depth": 2, "split": "f1", "split_condition": 1.16467404, "yes": 9, "no": 10, "missing": 9, "children": [
        { "nodeid": 9, "leaf": -0.0277989935 },
        { "nodeid": 10, "leaf": -0.00543312915 }
      ]}
    ]},
    { "nodeid": 2, "depth": 1, "split": "f2", "split_condition": -0.991901159, "yes": 5, "no": 6, "missing": 5, "children": [
      { "nodeid": 5, "depth": 2, "split": "f2", "split_condition": -1.00571704, "yes": 11, "no": 12, "missing": 11, "children": [
        { "nodeid": 11, "leaf": 0.00487342244 },
        { "nodeid": 12, "leaf": 0.0477145948 }
      ]},
      { "nodeid": 6, "depth": 2, "split": "f2", "split_condition": -0.989263237, "yes": 13, "no": 14, "missing": 13, "children": [
        { "nodeid": 13, "leaf": -0.0441332832 },
        { "nodeid": 14, "leaf": -2.28104491e-05 }
      ]}
    ]}
  ]},
  { "nodeid": 0, "depth": 0, "split": "f3", "split_condition": -3.91168594, "yes": 1, "no": 2, "missing": 1, "children": [
    { "nodeid": 1, "leaf": 0.0760783106 },
    { "nodeid": 2, "depth": 1, "split": "f3", "split_condition": -3.39023399, "yes": 3, "no": 4, "missing": 3, "children": [
      { "nodeid": 3, "depth": 2, "split": "f4", "split_condition": 0.220098466, "yes": 5, "no": 6, "missing": 5, "children": [
        { "nodeid": 5, "leaf": -0.0746507272 },
        { "nodeid": 6, "leaf": 0.00396858295 }
      ]},
      { "nodeid": 4, "depth": 2, "split": "f3", "split_condition": -3.33212519, "yes": 7, "no": 8, "missing": 7, "children": [
        { "nodeid": 7, "leaf": 0.0692630708 },
        { "nodeid": 8, "leaf": 1.77790298e-07 }
      ]}
    ]}
  ]},
