[
  { "nodeid": 0, "depth": 0, "split": "f3", "split_condition": 0.975762963, "yes": 1, "no": 2, "missing": 1, "children": [
    { "nodeid": 1, "depth": 1, "split": "f3", "split_condition": 0.9646734, "yes": 3, "no": 4, "missing": 3, "children": [
      { "nodeid": 3, "depth": 2, "split": "f1", "split_condition": 2.18279433, "yes": 7, "no": 8, "missing": 7, "children": [
        { "nodeid": 7, "leaf": -0.00244021486 },
        { "nodeid": 8, "leaf": 0.0740740746 }
      ]},
      { "nodeid": 4, "leaf": 0.13333334 }
    ]},
    { "nodeid": 2, "depth": 1, "split": "f2", "split_condition": -1.62705791, "yes": 5, "no": 6, "missing": 5, "children": [
      { "nodeid": 5, "depth": 2, "split": "f3", "split_condition": 1.34557819, "yes": 9, "no": 10, "missing": 9, "children": [
        { "nodeid": 9, "leaf": -0.0200000014 },
        { "nodeid": 10, "leaf": 0.0967741907 }
      ]},
      { "nodeid": 6, "depth": 2, "split": "f1", "split_condition": 1.75457311, "yes": 11, "no": 12, "missing": 11, "children": [
        { "nodeid": 11, "leaf": -0.0214747749 },
        { "nodeid": 12, "leaf": -0.105882362 }
      ]}
    ]}
  ]},
  { "nodeid": 0, "depth": 0, "split": "f3", "split_condition": 0.975762963, "yes": 1, "no": 2, "missing": 1, "children": [
    { "nodeid": 1, "depth": 1, "split": "f3", "split_condition": 0.9646734, "yes": 3, "no": 4, "missing": 3, "children": [
      { "nodeid": 3, "depth": 2, "split": "f1", "split_condition": 2.18279433, "yes": 7, "no": 8, "missing": 7, "children": [
        { "nodeid": 7, "leaf": -0.00219641696 },
        { "nodeid": 8, "leaf": 0.0673039109 }
      ]},
      { "nodeid": 4, "leaf": 0.123403631 }
    ]},
    { "nodeid": 2, "depth": 1, "split": "f3", "split_condition": 1.00972033, "yes": 5, "no": 6, "missing": 5, "children": [
      { "nodeid": 5, "depth": 2, "split": "f2", "split_condition": -0.827017426, "yes": 9, "no": 10, "missing": 9, "children": [
        { "nodeid": 9, "leaf": 0.0243608113 },
        { "nodeid": 10, "leaf": -0.128638431 }
      ]},
      { "nodeid": 6, "depth": 2, "split": "f2", "split_condition": 0.0848166794, "yes": 11, "no": 12, "missing": 11, "children": [
        { "nodeid": 11, "leaf": -9.15345081e-05 },
        { "nodeid": 12, "leaf": -0.0334546678 }
      ]}
    ]}
  ]},
  { "nodeid": 0, "depth": 0, "split": "f2", "split_condition": 1.6687938, "yes": 1, "no": 2, "missing": 1, "children": [
    { "nodeid": 1, "depth": 1, "split": "f3", "split_condition": 0.704573393, "yes": 3, "no": 4, "missing": 3, "children": [
      { "nodeid": 3, "depth": 2, "split": "f3", "split_condition": -0.136773556, "yes": 7, "no": 8, "missing": 7, "children": [
        { "nodeid": 7, "leaf": -0.00596493809 },
        { "nodeid": 8, "leaf": 0.0136260707 }
      ]},
      { "nodeid": 4, "depth": 2, "split": "f2", "split_condition": -1.62705791, "yes": 9, "no": 10, "missing": 9, "children": [
        { "nodeid": 9, "leaf": 0.052452106 },
        { "nodeid": 10, "leaf": -0.0189207606 }
      ]}
    ]},
    { "nodeid": 2, "depth": 1, "split": "f2", "split_condition": 1.77578259, "yes": 5, "no": 6, "missing": 5, "children": [
      { "nodeid": 5, "depth": 2, "split": "f4", "split_condition": -0.65743506, "yes": 11, "no": 12, "missing": 11, "children": [
        { "nodeid": 11, "leaf": -0.00963182002 },
        { "nodeid": 12, "leaf": -0.100719772 }
      ]},
      { "nodeid": 6, "depth": 2, "split": "f3", "split_condition": -0.303750098, "yes": 13, "no": 14, "missing": 13, "children": [
        { "nodeid": 13, "leaf": -0.0502279997 },
        { "nodeid": 14, "leaf": 0.00996141415 }
      ]}
    ]}
  ]},
  { "nodeid": 0, "depth": 0, "split": "f4", "split_condition": -0.739670157, "yes": 1, "no": 2, "missing": 1, "children": [
    { "nodeid": 1, "depth": 1, "split": "f4", "split_condition": -0.839705944, "yes": 3, "no": 4, "missing": 3, "children": [
      { "nodeid": 3, "depth": 2, "split": "f4", "split_condition": -0.892848611, "yes": 7, "no": 8, "missing": 7, "children": [
        { "nodeid": 7, "leaf": -0.0115319183 },
        { "nodeid": 8, "leaf": 0.0340279713 }
      ]},
      { "nodeid": 4, "depth": 2, "split": "f0", "split_condition": -0.653559208, "yes": 9, "no": 10, "missing": 9, "children": [
        { "nodeid": 9, "leaf": 0.0305184722 },
        { "nodeid": 10, "leaf": -0.0877290592 }
      ]}
    ]},
    { "nodeid": 2, "depth": 1, "split": "f4", "split_condition": -0.725631535, "yes": 5, "no": 6, "missing": 5, "children": [
      { "nodeid": 5, "depth": 2, "split": "f3", "split_condition": -1.23907745, "yes": 11, "no": 12, "missing": 11, "children": [
        { "nodeid": 11, "leaf": -0.0793652609 },
        { "nodeid": 12, "leaf": 0.136246607 }
      ]},
      { "nodeid": 6, "depth": 2, "split": "f3", "split_condition": -1.98438716, "yes": 13, "no": 14, "missing": 13, "children": [
        { "nodeid": 13, "leaf": -0.0479358397 },
        { "nodeid": 14, "leaf": 0.000930366747 }
      ]}
    ]}
  ]},
  { "nodeid": 0, "depth": 0, "split": "f1", "split_condition": -1.49743342, "yes": 1, "no": 2, "missing": 1, "children": [
    { "nodeid": 1, "depth": 1, "split": "f3", "split_condition": -2.20087862, "yes": 3, "no": 4, "missing": 3, "children": [
      { "nodeid": 3, "leaf": 0.0946847275 },
      { "nodeid": 4, "depth": 2, "split": "f1", "split_condition": -1.60827434, "yes": 7, "no": 8, "missing": 7, "children": [
        { "nodeid": 7, "leaf": -0.0175961796 },
        { "nodeid": 8, "leaf": -0.077677004 }
      ]}
    ]},
    { "nodeid": 2, "depth": 1, "split": "f2", "split_condition": -2.35176706, "yes": 5, "no": 6, "missing": 5, "children": [
      { "nodeid": 5, "depth": 2, "split": "f4", "split_condition": -0.598490596, "yes": 9, "no": 10, "missing": 9, "children": [
        { "nodeid": 9, "leaf": -0.000277125073 },
        { "nodeid": 10, "leaf": 0.109552898 }
      ]},
      { "nodeid": 6, "depth": 2, "split": "f3", "split_condition": -1.98438716, "yes": 11, "no": 12, "missing": 11, "children": [
        { "nodeid": 11, "leaf": -0.0444882363 },
        { "nodeid": 12, "leaf": -0.00071898289 }
      ]}
    ]}
  ]},
  { "nodeid": 0, "depth": 0, "split": "f2", "split_condition": 1.6687938, "yes": 1, "no": 2, "missing": 1, "children": [
    { "nodeid": 1, "depth": 1, "split": "f3", "split_condition": 0.704573393, "yes": 3, "no": 4, "missing": 3, "children": [
      { "nodeid": 3, "depth": 2, "split": "f3", "split_condition": 0.687933028, "yes": 7, "no": 8, "missing": 7, "children": [
        { "nodeid": 7, "leaf": 0.00179660541 },
        { "nodeid": 8, "leaf": 0.123362981 }
      ]},
      { "nodeid": 4, "depth": 2, "split": "f2", "split_condition": -1.62705791, "yes": 9, "no": 10, "missing": 9, "children": [
        { "nodeid": 9, "leaf": 0.0471109413 },
        { "nodeid": 10, "leaf": -0.0165914148 }
      ]}
    ]},
    { "nodeid": 2, "depth": 1, "split": "f2", "split_condition": 1.77578259, "yes": 5, "no": 6, "missing": 5, "children": [
      { "nodeid": 5, "depth": 2, "split": "f4", "split_condition": -0.65743506, "yes": 11, "no": 12, "missing": 11, "children": [
        { "nodeid": 11, "leaf": -0.00807811413 },
        { "nodeid": 12, "leaf": -0.0917494148 }
      ]},
      { "nodeid": 6, "depth": 2, "split": "f2", "split_condition": 1.79643214, "yes": 13, "no": 14, "missing": 13, "children": [
        { "nodeid": 13, "leaf": 0.0928198397 },
        { "nodeid": 14, "leaf": -0.0220446195 }
      ]}
    ]}
  ]},
  { "nodeid": 0, "depth": 0, "split": "f4", "split_condition": -0.739670157, "yes": 1, "no": 2, "missing": 1, "children": [
    { "nodeid": 1, "depth": 1, "split": "f4", "split_condition": -0.839705944, "yes": 3, "no": 4, "missing": 3, "children": [
      { "nodeid": 3, "depth": 2, "split": "f4", "split_condition": -2.64541578, "yes": 7, "no": 8, "missing": 7, "children": [
        { "nodeid": 7, "leaf": 0.0682071 },
        { "nodeid": 8, "leaf": -0.00857927836 }
      ]},
      { "nodeid": 4, "depth": 2, "split": "f0", "split_condition": -0.653559208, "yes": 9, "no": 10, "missing": 9, "children": [
        { "nodeid": 9, "leaf": 0.0282930434 },
        { "nodeid": 10, "leaf": -0.0789683983 }
      ]}
    ]},
    { "nodeid": 2, "depth": 1, "split": "f4", "split_condition": -0.725631535, "yes": 5, "no": 6, "missing": 5, "children": [
      { "nodeid": 5, "depth": 2, "split": "f3", "split_condition": -1.23907745, "yes": 11, "no": 12, "missing": 11, "children": [
        { "nodeid": 11, "leaf": -0.0743397698 },
        { "nodeid": 12, "leaf": 0.125032946 }
      ]},
      { "nodeid": 6, "depth": 2, "split": "f0", "split_condition": 0.657636583, "yes": 13, "no": 14, "missing": 13, "children": [
        { "nodeid": 13, "leaf": -0.00377756916 },
        { "nodeid": 14, "leaf": 0.0114931157 }
      ]}
    ]}
  ]},
  { "nodeid": 0, "depth": 0, "split": "f1", "split_condition": -1.49743342, "yes": 1, "no": 2, "missing": 1, "children": [
    { "nodeid": 1, "depth": 1, "split": "f2", "split_condition": 1.50301099, "yes": 3, "no": 4, "missing": 3, "children": [
      { "nodeid": 3, "depth": 2, "split": "f2", "split_condition": 1.11390424, "yes": 7, "no": 8, "missing": 7, "children": [
        { "nodeid": 7, "leaf": -0.0259083249 },
        { "nodeid": 8, "leaf": 0.0483389422 }
      ]},
      { "nodeid": 4, "depth": 2, "split": "f4", "split_condition": -0.0109262634, "yes": 9, "no": 10, "missing": 9, "children": [
        { "nodeid": 9, "leaf": -0.0265803523 },
        { "nodeid": 10, "leaf": -0.136434063 }
      ]}
    ]},
    { "nodeid": 2, "depth": 1, "split": "f2", "split_condition": -2.35176706, "yes": 5, "no": 6, "missing": 5, "children": [
      { "nodeid": 5, "depth": 2, "split": "f4", "split_condition": -0.598490596, "yes": 11, "no": 12, "missing": 11, "children": [
        { "nodeid": 11, "leaf": -0.000818920322 },
        { "nodeid": 12, "leaf": 0.0991613045 }
      ]},
      { "nodeid": 6, "depth": 2, "split": "f3", "split_condition": 0.62048614, "yes": 13, "no": 14, "missing": 13, "children": [
        { "nodeid": 13, "leaf": 0.00272516906 },
        { "nodeid": 14, "leaf": -0.0113700069 }
      ]}
    ]}
  ]},
  { "nodeid": 0, "depth": 0, "split": "f0", "split_condition": 3.1718142, "yes": 1, "no": 2, "missing": 1, "children": [
    { "nodeid": 1, "depth": 1, "split": "f0", "split_condition": 2.20930338, "yes": 3, "no": 4, "missing": 3, "children": [
      { "nodeid": 3, "depth": 2, "split": "f0", "split_condition": 0.656431317, "yes": 5, "no": 6, "missing": 5, "children": [
        { "nodeid": 5, "leaf": -0.00445996923 },
        { "nodeid": 6, "leaf": 0.00846421998 }
      ]},
      { "nodeid": 4, "depth": 2, "split": "f0", "split_condition": 2.42886472, "yes": 7, "no": 8, "missing": 7, "children": [
        { "nodeid": 7, "leaf": -0.0867420509 },
        { "nodeid": 8, "leaf": -0.00378100621 }
      ]}
    ]},
    { "nodeid": 2, "leaf": 0.119792581 }
  ]},
  { "nodeid": 0, "depth": 0, "split": "f2", "split_condition": 1.6687938, "yes": 1, "no": 2, "missing": 1, "children": [
    { "nodeid": 1, "depth": 1, "split": "f2", "split_condition": 1.64217091, "yes": 3, "no": 4, "missing": 3, "children": [
      { "nodeid": 3, "depth": 2, "split": "f2", "split_condition": 1.62324393, "yes": 7, "no": 8, "missing": 7, "children": [
        { "nodeid": 7, "leaf": -0.000460172829 },
        { "nodeid": 8, "leaf": -0.11500144 }
      ]},
      { "nodeid": 4, "leaf": 0.116664052 }
    ]},
    { "nodeid": 2, "depth": 1, "split": "f2", "split_condition": 2.01158857, "yes": 5, "no": 6, "missing": 5, "children": [
      { "nodeid": 5, "depth": 2, "split": "f1", "split_condition": 0.270179868, "yes": 9, "no": 10, "missing": 9, "children": [
        { "nodeid": 9, "leaf": -0.0697864294 },
        { "nodeid": 10, "leaf": -0.0124706104 }
      ]},
      { "nodeid": 6, "depth": 2, "split": "f4", "split_condition": 0.526045382, "yes": 11, "no": 12, "missing": 11, "children": [
        { "nodeid": 11, "leaf": 0.0369160511 },
        { "nodeid": 12, "leaf": -0.0656172261 }
      ]}
    ]}
  ]},
  { "nodeid": 0, "depth": 0, "split": "f2", "split_condition": -1.97143078, "yes": 1, "no": 2, "missing": 1, "children": [
    { "nodeid": 1, "depth": 1, "split": "f2", "split_condition": -2.06242704, "yes": 3, "no": 4, "missing": 3, "children": [
      { "nodeid": 3, "depth": 2, "split": "f3", "split_condition": -0.95046556, "yes": 7, "no": 8, "missing": 7, "children": [
        { "nodeid": 7, "leaf": 0.063793838 },
        { "nodeid": 8, "leaf": -0.00616615405 }
      ]},
      { "nodeid": 4, "depth": 2, "split": "f2", "split_condition": -2.02038813, "yes": 9, "no": 10, "missing": 9, "children": [
        { "nodeid": 9, "leaf": 0.147048503 },
        { "nodeid": 10, "leaf": 0.0263217147 }
      ]}
    ]},
    { "nodeid": 2, "depth": 1, "split": "f2", "split_condition": -1.75410569, "yes": 5, "no": 6, "missing": 5, "children": [
      { "nodeid": 5, "depth": 2, "split": "f3", "split_condition": -0.969870865, "yes": 11, "no": 12, "missing": 11, "children": [
        { "nodeid": 11, "leaf": 0.025621986 },
        { "nodeid": 12, "leaf": -0.0609747283 }
      ]},
      { "nodeid": 6, "depth": 2, "split": "f3", "split_condition": 0.975762963, "yes": 13, "no": 14, "missing": 13, "children": [
        { "nodeid": 13, "leaf": 0.000828407996 },
        { "nodeid": 14, "leaf": -0.0133152893 }
      ]}
    ]}
  ]},
  { "nodeid": 0, "depth": 0, "split": "f2", "split_condition": 2.73155689, "yes": 1, "no": 2, "missing": 1, "children": [
    { "nodeid": 1, "depth": 1, "split": "f4", "split_condition": -0.739231944, "yes": 3, "no": 4, "missing": 3, "children": [
      { "nodeid": 3, "depth": 2, "split": "f4", "split_condition": -0.831971467, "yes": 5, "no": 6, "missing": 5, "children": [
        { "nodeid": 5, "leaf": -0.0054298616 },
        { "nodeid": 6, "leaf": -0.0448660515 }
      ]},
      { "nodeid": 4, "depth": 2, "split": "f4", "split_condition": -0.725631535, "yes": 7, "no": 8, "missing": 7, "children": [
        { "nodeid": 7, "leaf": 0.0824546143 },
        { "nodeid": 8, "leaf": 0.00119614997 }
      ]}
    ]},
    { "nodeid": 2, "leaf": -0.116769545 }
  ]},
  { "nodeid": 0, "depth": 0, "split": "f0", "split_condition": 3.1718142, "yes": 1, "no": 2, "missing": 1, "children": [
    { "nodeid": 1, "depth": 1, "split": "f0", "split_condition": 2.07295942, "yes": 3, "no": 4, "missing": 3, "children": [
      { "nodeid": 3, "depth": 2, "split": "f0", "split_condition": 2.00263023, "yes": 5, "no": 6, "missing": 5, "children": [
        { "nodeid": 5, "leaf": -0.00105043163 },
        { "nodeid": 6, "leaf": 0.11447531 }
      ]},
      { "nodeid": 4, "depth": 2, "split": "f4", "split_condition": -0.343939662, "yes": 7, "no": 8, "missing": 7, "children": [
        { "nodeid": 7, "leaf": 0.00251845736 },
        { "nodeid": 8, "leaf": -0.0682958886 }
      ]}
    ]},
    { "nodeid": 2, "leaf": 0.112845674 }
  ]},
  { "nodeid": 0, "depth": 0, "split": "f1", "split_condition": -1.49743342, "yes": 1, "no": 2, "missing": 1, "children": [
    { "nodeid": 1, "depth": 1, "split": "f1", "split_condition": -1.79404259, "yes": 3, "no": 4, "missing": 3, "children": [
      { "nodeid": 3, "depth": 2, "split": "f4", "split_condition": -0.214813307, "yes": 7, "no": 8, "missing": 7, "children": [
        { "nodeid": 7, "leaf": 0.0406345092 },
        { "nodeid": 8, "leaf": -0.038648732 }
      ]},
      { "nodeid": 4, "depth": 2, "split": "f2", "split_condition": -0.543884397, "yes": 9, "no": 10, "missing": 9, "children": [
        { "nodeid": 9, "leaf": 0.00874232035 },
        { "nodeid": 10, "leaf": -0.0607674979 }
      ]}
    ]},
    { "nodeid": 2, "depth": 1, "split": "f3", "split_condition": -1.98438716, "yes": 5, "no": 6, "missing": 5, "children": [
      { "nodeid": 5, "depth": 2, "split": "f2", "split_condition": 0.357657552, "yes": 11, "no": 12, "missing": 11, "children": [
        { "nodeid": 11, "leaf": -0.066983223 },
        { "nodeid": 12, "leaf": 0.00448103761 }
      ]},
      { "nodeid": 6, "depth": 2, "split": "f3", "split_condition": -1.94025469, "yes": 13, "no": 14, "missing": 13, "children": [
        { "nodeid": 13, "leaf": 0.134101257 },
        { "nodeid": 14, "leaf": 0.000925570377 }
      ]}
    ]}
  ]},
  { "nodeid": 0, "depth": 0, "split": "f2", "split_condition": 2.73155689, "yes": 1, "no": 2, "missing": 1, "children": [
    { "nodeid": 1, "depth": 1, "split": "f4", "split_condition": -0.739670157, "yes": 3, "no": 4, "missing": 3, "children": [
      { "nodeid": 3, "depth": 2, "split": "f4", "split_condition": -0.839705944, "yes": 5, "no": 6, "missing": 5, "children": [
        { "nodeid": 5, "leaf": -0.00476973644 },
        { "nodeid": 6, "leaf": -0.0400293618 }
      ]},
      { "nodeid": 4, "depth": 2, "split": "f4", "split_condition": -0.725631535, "yes": 7, "no": 8, "missing": 7, "children": [
        { "nodeid": 7, "leaf": 0.0716656819 },
        { "nodeid": 8, "leaf": 0.00140886824 }
      ]}
    ]},
    { "nodeid": 2, "leaf": -0.110251702 }
  ]},
  { "nodeid": 0, "depth": 0, "split": "f0", "split_condition": -2.11024189, "yes": 1, "no": 2, "missing": 1, "children": [
    { "nodeid": 1, "depth": 1, "split": "f0", "split_condition": -2.44406581, "yes": 3, "no": 4, "missing": 3, "children": [
      { "nodeid": 3, "depth": 2, "split": "f1", "split_condition": 0.232712448, "yes": 7, "no": 8, "missing": 7, "children": [
        { "nodeid": 7, "leaf": -0.0962437615 },
        { "nodeid": 8, "leaf": 0.0656602308 }
      ]},
      { "nodeid": 4, "depth": 2, "split": "f3", "split_condition": -1.18261266, "yes": 9, "no": 10, "missing": 9, "children": [
        { "nodeid": 9, "leaf": -0.0255866144 },
        { "nodeid": 10, "leaf": 0.105676651 }
      ]}
    ]},
    { "nodeid": 2, "depth": 1, "split": "f0", "split_condition": -1.95309412, "yes": 5, "no": 6, "missing": 5, "children": [
      { "nodeid": 5, "depth": 2, "split": "f2", "split_condition": -0.442892224, "yes": 11, "no": 12, "missing": 11, "children": [
        { "nodeid": 11, "leaf": 0.0231375154 },
        { "nodeid": 12, "leaf": -0.106103562 }
      ]},
      { "nodeid": 6, "depth": 2, "split": "f0", "split_condition": -1.83261096, "yes": 13, "no": 14, "missing": 13, "children": [
        { "nodeid": 13, "leaf": 0.0633245558 },
        { "nodeid": 14, "leaf": -0.00151382864 }
      ]}
    ]}
  ]},
  { "nodeid": 0, "depth": 0, "split": "f2", "split_condition": -1.97143078, "yes": 1, "no": 2, "missing": 1, "children": [
    { "nodeid": 1, "depth": 1, "split": "f2", "split_condition": -2.06242704, "yes": 3, "no": 4, "missing": 3, "children": [
      { "nodeid": 3, "depth": 2, "split": "f1", "split_condition": -0.628011465, "yes": 7, "no": 8, "missing": 7, "children": [
        { "nodeid": 7, "leaf": -0.0437640436 },
        { "nodeid": 8, "leaf": 0.0257752538 }
      ]},
      { "nodeid": 4, "depth": 2, "split": "f2", "split_condition": -2.02038813, "yes": 9, "no": 10, "missing": 9, "children": [
        { "nodeid": 9, "leaf": 0.136845157 },
        { "nodeid": 10, "leaf": 0.0240715798 }
      ]}
    ]},
    { "nodeid": 2, "depth": 1, "split": "f1", "split_condition": 2.18279433, "yes": 5, "no": 6, "missing": 5, "children": [
      { "nodeid": 5, "depth": 2, "split": "f1", "split_condition": 1.70020771, "yes": 11, "no": 12, "missing": 11, "children": [
        { "nodeid": 11, "leaf": -0.000776974892 },
        { "nodeid": 12, "leaf": -0.0443143807 }
      ]},
      { "nodeid": 6, "depth": 2, "split": "f3", "split_condition": 0.843381166, "yes": 13, "no": 14, "missing": 13, "children": [
        { "nodeid": 13, "leaf": 0.0722452328 },
        { "nodeid": 14, "leaf": -0.0612822063 }
      ]}
    ]}
  ]},
  { "nodeid": 0, "depth": 0, "split": "f0", "split_condition": 3.1718142, "yes": 1, "no": 2, "missing": 1, "children": [
    { "nodeid": 1, "depth": 1, "split": "f0", "split_condition": 2.20930338, "yes": 3, "no": 4, "missing": 3, "children": [
      { "nodeid": 3, "depth": 2, "split": "f0", "split_condition": 0.656431317, "yes": 5, "no": 6, "missing": 5, "children": [
        { "nodeid": 5, "leaf": -0.00314397668 },
        { "nodeid": 6, "leaf": 0.00859200303 }
      ]},
      { "nodeid": 4, "depth": 2, "split": "f3", "split_condition": 0.0375097245, "yes": 7, "no": 8, "missing": 7, "children": [
        { "nodeid": 7, "leaf": -0.00685059745 },
        { "nodeid": 8, "leaf": -0.083669804 }
      ]}
    ]},
    { "nodeid": 2, "leaf": 0.106812969 }
  ]},
  { "nodeid": 0, "depth": 0, "split": "f4", "split_condition": -2.64541578, "yes": 1, "no": 2, "missing": 1, "children": [
    { "nodeid": 1, "depth": 1, "split": "f2", "split_condition": -0.398710132, "yes": 3, "no": 4, "missing": 3, "children": [
      { "nodeid": 3, "leaf": 0.125286922 },
      { "nodeid": 4, "depth": 2, "split": "f1", "split_condition": -0.263177812, "yes": 7, "no": 8, "missing": 7, "children": [
        { "nodeid": 7, "leaf": -0.0670039132 },
        { "nodeid": 8, "leaf": 0.0233403631 }
      ]}
    ]},
    { "nodeid": 2, "depth": 1, "split": "f4", "split_condition": -1.18800497, "yes": 5, "no": 6, "missing": 5, "children": [
      { "nodeid": 5, "depth": 2, "split": "f4", "split_condition": -1.23544836, "yes": 9, "no": 10, "missing": 9, "children": [
        { "nodeid": 9, "leaf": -0.010503388 },
        { "nodeid": 10, "leaf": -0.0805811211 }
      ]},
      { "nodeid": 6, "depth": 2, "split": "f4", "split_condition": -1.09352756, "yes": 11, "no": 12, "missing": 11, "children": [
        { "nodeid": 11, "leaf": 0.0440457202 },
        { "nodeid": 12, "leaf": 0.00013636754 }
      ]}
    ]}
  ]},
  { "nodeid": 0, "depth": 0, "split": "f4", "split_condition": 1.32650733, "yes": 1, "no": 2, "missing": 1, "children": [
    { "nodeid": 1, "depth": 1, "split": "f4", "split_condition": 0.715724707, "yes": 3, "no": 4, "missing": 3, "children": [
      { "nodeid": 3, "depth": 2, "split": "f4", "split_condition": 0.696449459, "yes": 7, "no": 8, "missing": 7, "children": [
        { "nodeid": 7, "leaf": -0.00140328438 },
        { "nodeid": 8, "leaf": -0.0699405149 }
      ]},
      { "nodeid": 4, "depth": 2, "split": "f3", "split_condition": -0.142976075, "yes": 9, "no": 10, "missing": 9, "children": [
        { "nodeid": 9, "leaf": -0.00132026942 },
        { "nodeid": 10, "leaf": 0.0354651138 }
      ]}
    ]},
    { "nodeid": 2, "depth": 1, "split": "f0", "split_condition": 0.437378645, "yes": 5, "no": 6, "missing": 5, "children": [
      { "nodeid": 5, "depth": 2, "split": "f4", "split_condition": 1.36383295, "yes": 11, "no": 12, "missing": 11, "children": [
        { "nodeid": 11, "leaf": -0.0895288289 },
        { "nodeid": 12, "leaf": 0.0109899119 }
      ]},
      { "nodeid": 6, "depth": 2, "split": "f1", "split_condition": 0.987561226, "yes": 13, "no": 14, "missing": 13, "children": [
        { "nodeid": 13, "leaf": -0.0641853735 },
        { "nodeid": 14, "leaf": 0.0202515405 }
      ]}
    ]}
  ]},
  { "nodeid": 0, "depth": 0, "split": "f2", "split_condition": 1.6687938, "yes": 1, "no": 2, "missing": 1, "children": [
    { "nodeid": 1, "depth": 1, "split": "f2", "split_condition": 1.42937768, "yes": 3, "no": 4, "missing": 3, "children": [
      { "nodeid": 3, "depth": 2, "split": "f2", "split_condition": 1.37962818, "yes": 7, "no": 8, "missing": 7, "children": [
        { "nodeid": 7, "leaf": -2.71361059e-05 },
        { "nodeid": 8, "leaf": -0.0539570525 }
      ]},
      { "nodeid": 4, "depth": 2, "split": "f3", "split_condition": 0.991831005, "yes": 9, "no": 10, "missing": 9, "children": [
        { "nodeid": 9, "leaf": 0.0488272496 },
        { "nodeid": 10, "leaf": -0.108931556 }
      ]}
    ]},
    { "nodeid": 2, "depth": 1, "split": "f2", "split_condition": 1.77578259, "yes": 5, "no": 6, "missing": 5, "children": [
      { "nodeid": 5, "depth": 2, "split": "f0", "split_condition": 1.25423205, "yes": 11, "no": 12, "missing": 11, "children": [
        { "nodeid": 11, "leaf": -0.0702528656 },
        { "nodeid": 12, "leaf": 0.0337774716 }
      ]},
      { "nodeid": 6, "depth": 2, "split": "f3", "split_condition": -0.303750098, "yes": 13, "no": 14, "missing": 13, "children": [
        { "nodeid": 13, "leaf": -0.0396566465 },
        { "nodeid": 14, "leaf": 0.0167850349 }
      ]}
    ]}
  ]},
  { "nodeid": 0, "depth": 0, "split": "f0", "split_condition": 3.1718142, "yes": 1, "no": 2, "missing": 1, "children": [
    { "nodeid": 1, "depth": 1, "split": "f0", "split_condition": 2.07295942, "yes": 3, "no": 4, "missing": 3, "children": [
      { "nodeid": 3, "depth": 2, "split": "f0", "split_condition": 2.00263023, "yes": 5, "no": 6, "missing": 5, "children": [
        { "nodeid": 5, "leaf": -0.000420206081 },
        { "nodeid": 6, "leaf": 0.10493841 }
      ]},
      { "nodeid": 4, "depth": 2, "split": "f4", "split_condition": -0.343939662, "yes": 7, "no": 8, "missing": 7, "children": [
        { "nodeid": 7, "leaf": 0.00541290035 },
        { "nodeid": 8, "leaf": -0.05834217 }
      ]}
    ]},
    { "nodeid": 2, "leaf": 0.102515854 }
  ]},
  { "nodeid": 0, "depth": 0, "split": "f2", "split_condition": 2.73155689, "yes": 1, "no": 2, "missing": 1, "children": [
    { "nodeid": 1, "depth": 1, "split": "f1", "split_condition": -1.49743342, "yes": 3, "no": 4, "missing": 3, "children": [
      { "nodeid": 3, "depth": 2, "split": "f3", "split_condition": -2.20087862, "yes": 5, "no": 6, "missing": 5, "children": [
        { "nodeid": 5, "leaf": 0.0945465714 },
        { "nodeid": 6, "leaf": -0.0213931426 }
      ]},
      { "nodeid": 4, "depth": 2, "split": "f2", "split_condition": -2.35176706, "yes": 7, "no": 8, "missing": 7, "children": [
        { "nodeid": 7, "leaf": 0.0642003566 },
        { "nodeid": 8, "leaf": 0.000481802184 }
      ]}
    ]},
    { "nodeid": 2, "leaf": -0.102150619 }
  ]},
  { "nodeid": 0, "depth": 0, "split": "f3", "split_condition": 2.51775336, "yes": 1, "no": 2, "missing": 1, "children": [
    { "nodeid": 1, "depth": 1, "split": "f3", "split_condition": 2.27301311, "yes": 3, "no": 4, "missing": 3, "children": [
      { "nodeid": 3, "depth": 2, "split": "f4", "split_condition": -0.34577471, "yes": 7, "no": 8, "missing": 7, "children": [
        { "nodeid": 7, "leaf": -0.00638480717 },
        { "nodeid": 8, "leaf": 0.00325124129 }
      ]},
      { "nodeid": 4, "leaf": -0.0998673066 }
    ]},
    { "nodeid": 2, "depth": 1, "split": "f2", "split_condition": -0.613651216, "yes": 5, "no": 6, "missing": 5, "children": [
      { "nodeid": 5, "depth": 2, "split": "f2", "split_condition": -1.22635126, "yes": 9, "no": 10, "missing": 9, "children": [
        { "nodeid": 9, "leaf": 0.0260986537 },
        { "nodeid": 10, "leaf": 0.140907615 }
      ]},
      { "nodeid": 6, "depth": 2, "split": "f3", "split_condition": 2.67394924, "yes": 11, "no": 12, "missing": 11, "children": [
        { "nodeid": 11, "leaf": 0.0810173824 },
        { "nodeid": 12, "leaf": -0.0661165863 }
      ]}
    ]}
  ]},
  { "nodeid": 0, "depth": 0, "split": "f3", "split_condition": -3.09575272, "yes": 1, "no": 2, "missing": 1, "children": [
    { "nodeid": 1, "leaf": -0.104828946 },
    { "nodeid": 2, "depth": 1, "split": "f4", "split_condition": 1.32650733, "yes": 3, "no": 4, "missing": 3, "children": [
      { "nodeid": 3, "depth": 2, "split": "f4", "split_condition": 0.785062492, "yes": 5, "no": 6, "missing": 5, "children": [
        { "nodeid": 5, "leaf": -0.00115407642 },
        { "nodeid": 6, "leaf": 0.017903788 }
      ]},
      { "nodeid": 4, "depth": 2, "split": "f1", "split_condition": 0.835696518, "yes": 7, "no": 8, "missing": 7, "children": [
        { "nodeid": 7, "leaf": -0.0253396183 },
        { "nodeid": 8, "leaf": 0.0279361065 }
      ]}
    ]}
  ]},
  { "nodeid": 0, "depth": 0, "split": "f4", "split_condition": -2.64541578, "yes": 1, "no": 2, "missing": 1, "children": [
    { "nodeid": 1, "depth": 1, "split": "f2", "split_condition": -0.398710132, "yes": 3, "no": 4, "missing": 3, "children": [
      { "nodeid": 3, "leaf": 0.116737023 },
      { "nodeid": 4, "depth": 2, "split": "f0", "split_condition": 0.167449862, "yes": 7, "no": 8, "missing": 7, "children": [
        { "nodeid": 7, "leaf": -0.0643550381 },
        { "nodeid": 8, "leaf": 0.0244958121 }
      ]}
    ]},
    { "nodeid": 2, "depth": 1, "split": "f4", "split_condition": -2.3891139, "yes": 5, "no": 6, "missing": 5, "children": [
      { "nodeid": 5, "depth": 2, "split": "f2", "split_condition": -0.908259332, "yes": 9, "no": 10, "missing": 9, "children": [
        { "nodeid": 9, "leaf": 0.041337166 },
        { "nodeid": 10, "leaf": -0.0873392001 }
      ]},
      { "nodeid": 6, "depth": 2, "split": "f4", "split_condition": -2.29981232, "yes": 11, "no": 12, "missing": 11, "children": [
        { "nodeid": 11, "leaf": 0.0729847252 },
        { "nodeid": 12, "leaf": -0.000479959504 }
      ]}
    ]}
  ]},
  { "nodeid": 0, "depth": 0, "split": "f0", "split_condition": -2.11024189, "yes": 1, "no": 2, "missing": 1, "children": [
    { "nodeid": 1, "depth": 1, "split": "f0", "split_condition": -2.44406581, "yes": 3, "no": 4, "missing": 3, "children": [
      { "nodeid": 3, "depth": 2, "split": "f1", "split_condition": 0.232712448, "yes": 7, "no": 8, "missing": 7, "children": [
        { "nodeid": 7, "leaf": -0.0868558809 },
        { "nodeid": 8, "leaf": 0.0598790459 }
      ]},
      { "nodeid": 4, "depth": 2, "split": "f3", "split_condition": -1.18261266, "yes": 9, "no": 10, "missing": 9, "children": [
        { "nodeid": 9, "leaf": -0.0259310659 },
        { "nodeid": 10, "leaf": 0.0966071188 }
      ]}
    ]},
    { "nodeid": 2, "depth": 1, "split": "f0", "split_condition": -1.95309412, "yes": 5, "no": 6, "missing": 5, "children": [
      { "nodeid": 5, "depth": 2, "split": "f1", "split_condition": -1.02851439, "yes": 11, "no": 12, "missing": 11, "children": [
        { "nodeid": 11, "leaf": 0.0244676303 },
        { "nodeid": 12, "leaf": -0.0976616144 }
      ]},
      { "nodeid": 6, "depth": 2, "split": "f0", "split_condition": -1.83261096, "yes": 13, "no": 14, "missing": 13, "children": [
        { "nodeid": 13, "leaf": 0.0582332201 },
        { "nodeid": 14, "leaf": -0.000854863261 }
      ]}
    ]}
  ]},
  { "nodeid": 0, "depth": 0, "split": "f0", "split_condition": 3.1718142, "yes": 1, "no": 2, "missing": 1, "children": [
    { "nodeid": 1, "depth": 1, "split": "f0", "split_condition": 2.20930338, "yes": 3, "no": 4, "missing": 3, "children": [
      { "nodeid": 3, "depth": 2, "split": "f0", "split_condition": 0.656431317, "yes": 5, "no": 6, "missing": 5, "children": [
        { "nodeid": 5, "leaf": -0.00256175059 },
        { "nodeid": 6, "leaf": 0.00827224459 }
      ]},
      { "nodeid": 4, "depth": 2, "split": "f0", "split_condition": 2.42886472, "yes": 7, "no": 8, "missing": 7, "children": [
        { "nodeid": 7, "leaf": -0.0685565546 },
        { "nodeid": 8, "leaf": 0.00930210017 }
      ]}
    ]},
    { "nodeid": 2, "leaf": 0.0979015157 }
  ]},
  { "nodeid": 0, "depth": 0, "split": "f2", "split_condition": 2.73155689, "yes": 1, "no": 2, "missing": 1, "children": [
    { "nodeid": 1, "depth": 1, "split": "f3", "split_condition": 0.975762963, "yes": 3, "no": 4, "missing": 3, "children": [
      { "nodeid": 3, "depth": 2, "split": "f3", "split_condition": 0.9646734, "yes": 5, "no": 6, "missing": 5, "children": [
        { "nodeid": 5, "leaf": 0.0013901958 },
        { "nodeid": 6, "leaf": 0.118207268 }
      ]},
      { "nodeid": 4, "depth": 2, "split": "f1", "split_condition": 1.75457311, "yes": 7, "no": 8, "missing": 7, "children": [
        { "nodeid": 7, "leaf": -0.0059929858 },
        { "nodeid": 8, "leaf": -0.089891538 }
      ]}
    ]},
    { "nodeid": 2, "leaf": -0.096345298 }
  ]},
  { "nodeid": 0, "depth": 0, "split": "f3", "split_condition": -0.409968913, "yes": 1, "no": 2, "missing": 1, "children": [
    { "nodeid": 1, "depth": 1, "split": "f3", "split_condition": -0.443821728, "yes": 3, "no": 4, "missing": 3, "children": [
      { "nodeid": 3, "depth": 2, "split": "f4", "split_condition": 1.6778605, "yes": 7, "no": 8, "missing": 7, "children": [
        { "nodeid": 7, "leaf": -0.00157831702 },
        { "nodeid": 8, "leaf": -0.0402943119 }
      ]},
      { "nodeid": 4, "depth": 2, "split": "f3", "split_condition": -0.437139928, "yes": 9, "no": 10, "missing": 9, "children": [
        { "nodeid": 9, "leaf": -0.140722215 },
        { "nodeid": 10, "leaf": -0.0353041179 }
      ]}
    ]},
    { "nodeid": 2, "depth": 1, "split": "f3", "split_condition": -0.354040295, "yes": 5, "no": 6, "missing": 5, "children": [
      { "nodeid": 5, "depth": 2, "split": "f1", "split_condition": -0.0391774327, "yes": 11, "no": 12, "missing": 11, "children": [
        { "nodeid": 11, "leaf": -0.0333923511 },
        { "nodeid": 12, "leaf": 0.105731368 }
      ]},
      { "nodeid": 6, "depth": 2, "split": "f4", "split_condition": -1.18800497, "yes": 13, "no": 14, "missing": 13, "children": [
        { "nodeid": 13, "leaf": -0.01979688 },
        { "nodeid": 14, "leaf": 0.00433157803 }
      ]}
    ]}
  ]},
  { "nodeid": 0, "depth": 0, "split": "f3", "split_condition": 2.51775336, "yes": 1, "no": 2, "missing": 1, "children": [
    { "nodeid": 1, "depth": 1, "split": "f3", "split_condition": 2.27301311, "yes": 3, "no": 4, "missing": 3, "children": [
      { "nodeid": 3, "depth": 2, "split": "f3", "split_condition": 2.06301689, "yes": 7, "no": 8, "missing": 7, "children": [
        { "nodeid": 7, "leaf": -0.000654875766 },
        { "nodeid": 8, "leaf": 0.044165615 }
      ]},
      { "nodeid": 4, "leaf": -0.09229853 }
    ]},
    { "nodeid": 2, "depth": 1, "split": "f2", "split_condition": -0.613651216, "yes": 5, "no": 6, "missing": 5, "children": [
      { "nodeid": 5, "depth": 2, "split": "f2", "split_condition": -1.22635126, "yes": 9, "no": 10, "missing": 9, "children": [
        { "nodeid": 9, "leaf": 0.0246826988 },
        { "nodeid": 10, "leaf": 0.131669506 }
      ]},
      { "nodeid": 6, "depth": 2, "split": "f3", "split_condition": 2.67394924, "yes": 11, "no": 12, "missing": 11, "children": [
        { "nodeid": 11, "leaf": 0.0750801414 },
        { "nodeid": 12, "leaf": -0.0604154952 }
      ]}
    ]}
  ]},
  { "nodeid": 0, "depth": 0, "split": "f3", "split_condition": -3.09575272, "yes": 1, "no": 2, "missing": 1, "children": [
    { "nodeid": 1, "leaf": -0.0995170325 },
    { "nodeid": 2, "depth": 1, "split": "f4", "split_condition": -2.64541578, "yes": 3, "no": 4, "missing": 3, "children": [
      { "nodeid": 3, "depth": 2, "split": "f2", "split_condition": -0.398710132, "yes": 5, "no": 6, "missing": 5, "children": [
        { "nodeid": 5, "leaf": 0.109640442 },
        { "nodeid": 6, "leaf": -0.022650402 }
      ]},
      { "nodeid": 4, "depth": 2, "split": "f4", "split_condition": -2.3891139, "yes": 7, "no": 8, "missing": 7, "children": [
        { "nodeid": 7, "leaf": -0.0555528291 },
        { "nodeid": 8, "leaf": 0.000125061473 }
      ]}
    ]}
  ]},
  { "nodeid": 0, "depth": 0, "split": "f2", "split_condition": -1.97143078, "yes": 1, "no": 2, "missing": 1, "children": [
    { "nodeid": 1, "depth": 1, "split": "f3", "split_condition": -0.95046556, "yes": 3, "no": 4, "missing": 3, "children": [
      { "nodeid": 3, "depth": 2, "split": "f4", "split_condition": 1.63717616, "yes": 7, "no": 8, "missing": 7, "children": [
        { "nodeid": 7, "leaf": 0.0997596905 },
        { "nodeid": 8, "leaf": -0.0242003985 }
      ]},
      { "nodeid": 4, "depth": 2, "split": "f3", "split_condition": -0.377453208, "yes": 9, "no": 10, "missing": 9, "children": [
        { "nodeid": 9, "leaf": -0.0703388825 },
        { "nodeid": 10, "leaf": 0.0298728142 }
      ]}
    ]},
    { "nodeid": 2, "depth": 1, "split": "f2", "split_condition": -1.73415041, "yes": 5, "no": 6, "missing": 5, "children": [
      { "nodeid": 5, "depth": 2, "split": "f3", "split_condition": -0.969870865, "yes": 11, "no": 12, "missing": 11, "children": [
        { "nodeid": 11, "leaf": 0.034615159 },
        { "nodeid": 12, "leaf": -0.0541297011 }
      ]},
      { "nodeid": 6, "depth": 2, "split": "f1", "split_condition": 2.18279433, "yes": 13, "no": 14, "missing": 13, "children": [
        { "nodeid": 13, "leaf": -0.00062842312 },
        { "nodeid": 14, "leaf": 0.0406915769 }
      ]}
    ]}
  ]},
  { "nodeid": 0, "depth": 0, "split": "f3", "split_condition": -1.98438716, "yes": 1, "no": 2, "missing": 1, "children": [
    { "nodeid": 1, "depth": 1, "split": "f1", "split_condition": -1.18680286, "yes": 3, "no": 4, "missing": 3, "children": [
      { "nodeid": 3, "depth": 2, "split": "f2", "split_condition": 0.291173518, "yes": 7, "no": 8, "missing": 7, "children": [
        { "nodeid": 7, "leaf": -0.00646159379 },
        { "nodeid": 8, "leaf": 0.128417417 }
      ]},
      { "nodeid": 4, "depth": 2, "split": "f4", "split_condition": 1.00617123, "yes": 9, "no": 10, "missing": 9, "children": [
        { "nodeid": 9, "leaf": -0.0540624037 },
        { "nodeid": 10, "leaf": 0.0420452245 }
      ]}
    ]},
    { "nodeid": 2, "depth": 1, "split": "f3", "split_condition": -1.94025469, "yes": 5, "no": 6, "missing": 5, "children": [
      { "nodeid": 5, "leaf": 0.127663061 },
      { "nodeid": 6, "depth": 2, "split": "f1", "split_condition": -1.49743342, "yes": 11, "no": 12, "missing": 11, "children": [
        { "nodeid": 11, "leaf": -0.018034989 },
        { "nodeid": 12, "leaf": 0.00144801592 }
      ]}
    ]}
  ]},
  { "nodeid": 0, "depth": 0, "split": "f0", "split_condition": 3.1718142, "yes": 1, "no": 2, "missing": 1, "children": [
    { "nodeid": 1, "depth": 1, "split": "f0", "split_condition": 2.07295942, "yes": 3, "no": 4, "missing": 3, "children": [
      { "nodeid": 3, "depth": 2, "split": "f0", "split_condition": 2.00263023, "yes": 5, "no": 6, "missing": 5, "children": [
        { "nodeid": 5, "leaf": -0.000108051419 },
        { "nodeid": 6, "leaf": 0.0972447693 }
      ]},
      { "nodeid": 4, "depth": 2, "split": "f0", "split_condition": 2.09196568, "yes": 7, "no": 8, "missing": 7, "children": [
        { "nodeid": 7, "leaf": -0.11893785 },
        { "nodeid": 8, "leaf": -0.0170883089 }
      ]}
    ]},
    { "nodeid": 2, "leaf": 0.0928899869 }
  ]},
  { "nodeid": 0, "depth": 0, "split": "f2", "split_condition": 1.6687938, "yes": 1, "no": 2, "missing": 1, "children": [
    { "nodeid": 1, "depth": 1, "split": "f2", "split_condition": 1.64217091, "yes": 3, "no": 4, "missing": 3, "children": [
      { "nodeid": 3, "depth": 2, "split": "f2", "split_condition": 1.62324393, "yes": 7, "no": 8, "missing": 7, "children": [
        { "nodeid": 7, "leaf": 0.000801724091 },
        { "nodeid": 8, "leaf": -0.1044925 }
      ]},
      { "nodeid": 4, "leaf": 0.104891896 }
    ]},
    { "nodeid": 2, "depth": 1, "split": "f2", "split_condition": 2.06053233, "yes": 5, "no": 6, "missing": 5, "children": [
      { "nodeid": 5, "depth": 2, "split": "f1", "split_condition": 0.270179868, "yes": 9, "no": 10, "missing": 9, "children": [
        { "nodeid": 9, "leaf": -0.0542483293 },
        { "nodeid": 10, "leaf": -0.00791364536 }
      ]},
      { "nodeid": 6, "depth": 2, "split": "f2", "split_condition": 2.24804616, "yes": 11, "no": 12, "missing": 11, "children": [
        { "nodeid": 11, "leaf": 0.0743244886 },
        { "nodeid": 12, "leaf": -0.0281688552 }
      ]}
    ]}
  ]},
  { "nodeid": 0, "depth": 0, "split": "f0", "split_condition": -2.11024189, "yes": 1, "no": 2, "missing": 1, "children": [
    { "nodeid": 1, "depth": 1, "split": "f3", "split_condition": -0.488888681, "yes": 3, "no": 4, "missing": 3, "children": [
      { "nodeid": 3, "depth": 2, "split": "f1", "split_condition": -0.482224345, "yes": 7, "no": 8, "missing": 7, "children": [
        { "nodeid": 7, "leaf": -0.117073275 },
        { "nodeid": 8, "leaf": 0.0067666336 }
      ]},
      { "nodeid": 4, "depth": 2, "split": "f2", "split_condition": 0.100633837, "yes": 9, "no": 10, "missing": 9, "children": [
        { "nodeid": 9, "leaf": 0.0191393737 },
        { "nodeid": 10, "leaf": 0.102844909 }
      ]}
    ]},
    { "nodeid": 2, "depth": 1, "split": "f0", "split_condition": -1.95309412, "yes": 5, "no": 6, "missing": 5, "children": [
      { "nodeid": 5, "depth": 2, "split": "f2", "split_condition": -0.442892224, "yes": 11, "no": 12, "missing": 11, "children": [
        { "nodeid": 11, "leaf": 0.0264017023 },
        { "nodeid": 12, "leaf": -0.0919282883 }
      ]},
      { "nodeid": 6, "depth": 2, "split": "f0", "split_condition": -1.83261096, "yes": 13, "no": 14, "missing": 13, "children": [
        { "nodeid": 13, "leaf": 0.0534794033 },
        { "nodeid": 14, "leaf": -0.000617584621 }
      ]}
    ]}
  ]},
  { "nodeid": 0, "depth": 0, "split": "f3", "split_condition": 0.929114282, "yes": 1, "no": 2, "missing": 1, "children": [
    { "nodeid": 1, "depth": 1, "split": "f3", "split_condition": 0.924648285, "yes": 3, "no": 4, "missing": 3, "children": [
      { "nodeid": 3, "depth": 2, "split": "f3", "split_condition": -0.137304068, "yes": 7, "no": 8, "missing": 7, "children": [
        { "nodeid": 7, "leaf": -0.00407931907 },
        { "nodeid": 8, "leaf": 0.00809722301 }
      ]},
      { "nodeid": 4, "leaf": 0.134522602 }
    ]},
    { "nodeid": 2, "depth": 1, "split": "f1", "split_condition": 1.76045811, "yes": 5, "no": 6, "missing": 5, "children": [
      { "nodeid": 5, "depth": 2, "split": "f2", "split_condition": -0.605344832, "yes": 9, "no": 10, "missing": 9, "children": [
        { "nodeid": 9, "leaf": 0.0176405925 },
        { "nodeid": 10, "leaf": -0.0146027282 }
      ]},
      { "nodeid": 6, "depth": 2, "split": "f3", "split_condition": 1.83565199, "yes": 11, "no": 12, "missing": 11, "children": [
        { "nodeid": 11, "leaf": -0.110797666 },
        { "nodeid": 12, "leaf": 0.039525304 }
      ]}
    ]}
  ]},
  { "nodeid": 0, "depth": 0, "split": "f1", "split_condition": 2.90487337, "yes": 1, "no": 2, "missing": 1, "children": [
    { "nodeid": 1, "depth": 1, "split": "f1", "split_condition": 0.879310966, "yes": 3, "no": 4, "missing": 3, "children": [
      { "nodeid": 3, "depth": 2, "split": "f1", "split_condition": 0.598524451, "yes": 5, "no": 6, "missing": 5, "children": [
        { "nodeid": 5, "leaf": -0.000540088746 },
        { "nodeid": 6, "leaf": 0.0236189608 }
      ]},
      { "nodeid": 4, "depth": 2, "split": "f1", "split_condition": 0.894405961, "yes": 7, "no": 8, "missing": 7, "children": [
        { "nodeid": 7, "leaf": -0.132422552 },
        { "nodeid": 8, "leaf": -0.00588219427 }
      ]}
    ]},
    { "nodeid": 2, "leaf": 0.0855242983 }
  ]},
  { "nodeid": 0, "depth": 0, "split": "f2", "split_condition": 2.73155689, "yes": 1, "no": 2, "missing": 1, "children": [
    { "nodeid": 1, "depth": 1, "split": "f3", "split_condition": -3.09575272, "yes": 3, "no": 4, "missing": 3, "children": [
      { "nodeid": 3, "leaf": -0.0925000533 },
      { "nodeid": 4, "depth": 2, "split": "f3", "split_condition": -2.46010017, "yes": 5, "no": 6, "missing": 5, "children": [
        { "nodeid": 5, "leaf": 0.0500688553 },
        { "nodeid": 6, "leaf": -5.78859472e-05 }
      ]}
    ]},
    { "nodeid": 2, "leaf": -0.0902615115 }
  ]},
  { "nodeid": 0, "depth": 0, "split": "f4", "split_condition": -2.64541578, "yes": 1, "no": 2, "missing": 1, "children": [
    { "nodeid": 1, "depth": 1, "split": "f2", "split_condition": -0.398710132, "yes": 3, "no": 4, "missing": 3, "children": [
      { "nodeid": 3, "leaf": 0.102626517 },
      { "nodeid": 4, "depth": 2, "split": "f1", "split_condition": -0.263177812, "yes": 7, "no": 8, "missing": 7, "children": [
        { "nodeid": 7, "leaf": -0.0589383915 },
        { "nodeid": 8, "leaf": 0.0277907997 }
      ]}
    ]},
    { "nodeid": 2, "depth": 1, "split": "f4", "split_condition": -1.18800497, "yes": 5, "no": 6, "missing": 5, "children": [
      { "nodeid": 5, "depth": 2, "split": "f4", "split_condition": -1.23544836, "yes": 9, "no": 10, "missing": 9, "children": [
        { "nodeid": 9, "leaf": -0.00668822462 },
        { "nodeid": 10, "leaf": -0.0717805699 }
      ]},
      { "nodeid": 6, "depth": 2, "split": "f4", "split_condition": -1.09352756, "yes": 11, "no": 12, "missing": 11, "children": [
        { "nodeid": 11, "leaf": 0.0412130989 },
        { "nodeid": 12, "leaf": 0.000326701236 }
      ]}
    ]}
  ]},
  { "nodeid": 0, "depth": 0, "split": "f3", "split_condition": 2.51775336, "yes": 1, "no": 2, "missing": 1, "children": [
    { "nodeid": 1, "depth": 1, "split": "f3", "split_condition": 2.27301311, "yes": 3, "no": 4, "missing": 3, "children": [
      { "nodeid": 3, "depth": 2, "split": "f0", "split_condition": 0.656431317, "yes": 7, "no": 8, "missing": 7, "children": [
        { "nodeid": 7, "leaf": -0.00253612059 },
        { "nodeid": 8, "leaf": 0.00674960855 }
      ]},
      { "nodeid": 4, "leaf": -0.0863099545 }
    ]},
    { "nodeid": 2, "depth": 1, "split": "f2", "split_condition": -0.613651216, "yes": 5, "no": 6, "missing": 5, "children": [
      { "nodeid": 5, "depth": 2, "split": "f2", "split_condition": -1.22635126, "yes": 9, "no": 10, "missing": 9, "children": [
        { "nodeid": 9, "leaf": 0.0221769325 },
        { "nodeid": 10, "leaf": 0.122120701 }
      ]},
      { "nodeid": 6, "depth": 2, "split": "f3", "split_condition": 2.67394924, "yes": 11, "no": 12, "missing": 11, "children": [
        { "nodeid": 11, "leaf": 0.0699550062 },
        { "nodeid": 12, "leaf": -0.0557595678 }
      ]}
    ]}
  ]},
  { "nodeid": 0, "depth": 0, "split": "f4", "split_condition": 1.32650733, "yes": 1, "no": 2, "missing": 1, "children": [
    { "nodeid": 1, "depth": 1, "split": "f4", "split_condition": 0.715724707, "yes": 3, "no": 4, "missing": 3, "children": [
      { "nodeid": 3, "depth": 2, "split": "f4", "split_condition": 0.528289139, "yes": 7, "no": 8, "missing": 7, "children": [
        { "nodeid": 7, "leaf": 0.000820829067 },
        { "nodeid": 8, "leaf": -0.022953989 }
      ]},
      { "nodeid": 4, "depth": 2, "split": "f3", "split_condition": -0.142976075, "yes": 9, "no": 10, "missing": 9, "children": [
        { "nodeid": 9, "leaf": -0.00250085746 },
        { "nodeid": 10, "leaf": 0.0297883954 }
      ]}
    ]},
    { "nodeid": 2, "depth": 1, "split": "f0", "split_condition": 0.437378645, "yes": 5, "no": 6, "missing": 5, "children": [
      { "nodeid": 5, "depth": 2, "split": "f4", "split_condition": 1.37335455, "yes": 11, "no": 12, "missing": 11, "children": [
        { "nodeid": 11, "leaf": -0.0742709711 },
        { "nodeid": 12, "leaf": 0.0124441599 }
      ]},
      { "nodeid": 6, "depth": 2, "split": "f1", "split_condition": 0.987561226, "yes": 13, "no": 14, "missing": 13, "children": [
        { "nodeid": 13, "leaf": -0.0552247055 },
        { "nodeid": 14, "leaf": 0.0157804396 }
      ]}
    ]}
  ]},
  { "nodeid": 0, "depth": 0, "split": "f0", "split_condition": 3.1718142, "yes": 1, "no": 2, "missing": 1, "children": [
    { "nodeid": 1, "depth": 1, "split": "f0", "split_condition": 2.20930338, "yes": 3, "no": 4, "missing": 3, "children": [
      { "nodeid": 3, "depth": 2, "split": "f0", "split_condition": 0.656431317, "yes": 5, "no": 6, "missing": 5, "children": [
        { "nodeid": 5, "leaf": -0.00208459049 },
        { "nodeid": 6, "leaf": 0.00736529892 }
      ]},
      { "nodeid": 4, "depth": 2, "split": "f2", "split_condition": -1.24117815, "yes": 7, "no": 8, "missing": 7, "children": [
        { "nodeid": 7, "leaf": 0.0384085514 },
        { "nodeid": 8, "leaf": -0.0497325733 }
      ]}
    ]},
    { "nodeid": 2, "leaf": 0.0891842768 }
  ]},
  { "nodeid": 0, "depth": 0, "split": "f3", "split_condition": 0.704573393, "yes": 1, "no": 2, "missing": 1, "children": [
    { "nodeid": 1, "depth": 1, "split": "f3", "split_condition": 0.689595103, "yes": 3, "no": 4, "missing": 3, "children": [
      { "nodeid": 3, "depth": 2, "split": "f1", "split_condition": 2.18279433, "yes": 7, "no": 8, "missing": 7, "children": [
        { "nodeid": 7, "leaf": 0.000720906828 },
        { "nodeid": 8, "leaf": 0.0620839782 }
      ]},
      { "nodeid": 4, "leaf": 0.128479764 }
    ]},
    { "nodeid": 2, "depth": 1, "split": "f1", "split_condition": 1.76045811, "yes": 5, "no": 6, "missing": 5, "children": [
      { "nodeid": 5, "depth": 2, "split": "f3", "split_condition": 0.771457314, "yes": 9, "no": 10, "missing": 9, "children": [
        { "nodeid": 9, "leaf": -0.0507763922 },
        { "nodeid": 10, "leaf": -4.60609954e-05 }
      ]},
      { "nodeid": 6, "depth": 2, "split": "f3", "split_condition": 1.83565199, "yes": 11, "no": 12, "missing": 11, "children": [
        { "nodeid": 11, "leaf": -0.0909589455 },
        { "nodeid": 12, "leaf": 0.0371805169 }
      ]}
    ]}
  ]},
  { "nodeid": 0, "depth": 0, "split": "f4", "split_condition": -0.34577471, "yes": 1, "no": 2, "missing": 1, "children": [
    { "nodeid": 1, "depth": 1, "split": "f4", "split_condition": -0.354594648, "yes": 3, "no": 4, "missing": 3, "children": [
      { "nodeid": 3, "depth": 2, "split": "f4", "split_condition": -0.360884726, "yes": 7, "no": 8, "missing": 7, "children": [
        { "nodeid": 7, "leaf": -0.00426025596 },
        { "nodeid": 8, "leaf": 0.0968227237 }
      ]},
      { "nodeid": 4, "depth": 2, "split": "f3", "split_condition": 0.565152526, "yes": 9, "no": 10, "missing": 9, "children": [
        { "nodeid": 9, "leaf": -0.120179348 },
        { "nodeid": 10, "leaf": -0.0237053726 }
      ]}
    ]},
    { "nodeid": 2, "depth": 1, "split": "f4", "split_condition": -0.287077308, "yes": 5, "no": 6, "missing": 5, "children": [
      { "nodeid": 5, "depth": 2, "split": "f0", "split_condition": 0.173990533, "yes": 11, "no": 12, "missing": 11, "children": [
        { "nodeid": 11, "leaf": 0.0254566912 },
        { "nodeid": 12, "leaf": 0.119033776 }
      ]},
      { "nodeid": 6, "depth": 2, "split": "f4", "split_condition": -0.278390467, "yes": 13, "no": 14, "missing": 13, "children": [
        { "nodeid": 13, "leaf": -0.115846574 },
        { "nodeid": 14, "leaf": 0.0015468708 }
      ]}
    ]}
  ]},
  { "nodeid": 0, "depth": 0, "split": "f2", "split_condition": -1.97143078, "yes": 1, "no": 2, "missing": 1, "children": [
    { "nodeid": 1, "depth": 1, "split": "f2", "split_condition": -2.06242704, "yes": 3, "no": 4, "missing": 3, "children": [
      { "nodeid": 3, "depth": 2, "split": "f4", "split_condition": -1.10981274, "yes": 7, "no": 8, "missing": 7, "children": [
        { "nodeid": 7, "leaf": -0.0564233474 },
        { "nodeid": 8, "leaf": 0.0183473472 }
      ]},
      { "nodeid": 4, "depth": 2, "split": "f3", "split_condition": 0.17847158, "yes": 9, "no": 10, "missing": 9, "children": [
        { "nodeid": 9, "leaf": 0.0231621377 },
        { "nodeid": 10, "leaf": 0.131007925 }
      ]}
    ]},
    { "nodeid": 2, "depth": 1, "split": "f2", "split_condition": -1.73415041, "yes": 5, "no": 6, "missing": 5, "children": [
      { "nodeid": 5, "depth": 2, "split": "f0", "split_condition": -0.0901955068, "yes": 11, "no": 12, "missing": 11, "children": [
        { "nodeid": 11, "leaf": 0.00140298309 },
        { "nodeid": 12, "leaf": -0.0655946955 }
      ]},
      { "nodeid": 6, "depth": 2, "split": "f2", "split_condition": -1.4652884, "yes": 13, "no": 14, "missing": 13, "children": [
        { "nodeid": 13, "leaf": 0.0236030482 },
        { "nodeid": 14, "leaf": -0.000725865597 }
      ]}
    ]}
  ]},
  { "nodeid": 0, "depth": 0, "split": "f2", "split_condition": 2.73155689, "yes": 1, "no": 2, "missing": 1, "children": [
    { "nodeid": 1, "depth": 1, "split": "f3", "split_condition": 0.929114282, "yes": 3, "no": 4, "missing": 3, "children": [
      { "nodeid": 3, "depth": 2, "split": "f3", "split_condition": 0.924648285, "yes": 5, "no": 6, "missing": 5, "children": [
        { "nodeid": 5, "leaf": 0.00158089423 },
        { "nodeid": 6, "leaf": 0.126085207 }
      ]},
      { "nodeid": 4, "depth": 2, "split": "f3", "split_condition": 1.36674821, "yes": 7, "no": 8, "missing": 7, "children": [
        { "nodeid": 7, "leaf": -0.0212421883 },
        { "nodeid": 8, "leaf": 0.00593615044 }
      ]}
    ]},
    { "nodeid": 2, "leaf": -0.0860798508 }
  ]},
  { "nodeid": 0, "depth": 0, "split": "f3", "split_condition": -1.98438716, "yes": 1, "no": 2, "missing": 1, "children": [
    { "nodeid": 1, "depth": 1, "split": "f1", "split_condition": -1.18680286, "yes": 3, "no": 4, "missing": 3, "children": [
      { "nodeid": 3, "depth": 2, "split": "f2", "split_condition": 0.291173518, "yes": 7, "no": 8, "missing": 7, "children": [
        { "nodeid": 7, "leaf": -0.00571570452 },
        { "nodeid": 8, "leaf": 0.121566229 }
      ]},
      { "nodeid": 4, "depth": 2, "split": "f2", "split_condition": 0.494423002, "yes": 9, "no": 10, "missing": 9, "children": [
        { "nodeid": 9, "leaf": -0.0615697913 },
        { "nodeid": 10, "leaf": 0.00898724049 }
      ]}
    ]},
    { "nodeid": 2, "depth": 1, "split": "f3", "split_condition": -1.94025469, "yes": 5, "no": 6, "missing": 5, "children": [
      { "nodeid": 5, "leaf": 0.119289994 },
      { "nodeid": 6, "depth": 2, "split": "f4", "split_condition": 1.32650733, "yes": 11, "no": 12, "missing": 11, "children": [
        { "nodeid": 11, "leaf": 0.00175669009 },
        { "nodeid": 12, "leaf": -0.0132042188 }
      ]}
    ]}
  ]},
  { "nodeid": 0, "depth": 0, "split": "f0", "split_condition": 3.1718142, "yes": 1, "no": 2, "missing": 1, "children": [
    { "nodeid": 1, "depth": 1, "split": "f0", "split_condition": 1.30227196, "yes": 3, "no": 4, "missing": 3, "children": [
      { "nodeid": 3, "depth": 2, "split": "f0", "split_condition": 1.26684666, "yes": 5, "no": 6, "missing": 5, "children": [
        { "nodeid": 5, "leaf": 0.000503207557 },
        { "nodeid": 6, "leaf": 0.0698450804 }
      ]},
      { "nodeid": 4, "depth": 2, "split": "f4", "split_condition": 0.0657522529, "yes": 7, "no": 8, "missing": 7, "children": [
        { "nodeid": 7, "leaf": 0.00918456446 },
        { "nodeid": 8, "leaf": -0.037394695 }
      ]}
    ]},
    { "nodeid": 2, "leaf": 0.0855818316 }
  ]},
  { "nodeid": 0, "depth": 0, "split": "f4", "split_condition": 2.69443393, "yes": 1, "no": 2, "missing": 1, "children": [
    { "nodeid": 1, "depth": 1, "split": "f4", "split_condition": 2.32465649, "yes": 3, "no": 4, "missing": 3, "children": [
      { "nodeid": 3, "depth": 2, "split": "f4", "split_condition": 2.13974953, "yes": 7, "no": 8, "missing": 7, "children": [
        { "nodeid": 7, "leaf": -0.000275191123 },
        { "nodeid": 8, "leaf": 0.0917417035 }
      ]},
      { "nodeid": 4, "depth": 2, "split": "f0", "split_condition": -0.361675382, "yes": 9, "no": 10, "missing": 9, "children": [
        { "nodeid": 9, "leaf": -0.00109852874 },
        { "nodeid": 10, "leaf": -0.0963025838 }
      ]}
    ]},
    { "nodeid": 2, "depth": 1, "split": "f4", "split_condition": 2.77560472, "yes": 5, "no": 6, "missing": 5, "children": [
      { "nodeid": 5, "leaf": 0.120105743 },
      { "nodeid": 6, "depth": 2, "split": "f1", "split_condition": 0.547508955, "yes": 11, "no": 12, "missing": 11, "children": [
        { "nodeid": 11, "leaf": 0.0514104553 },
        { "nodeid": 12, "leaf": -0.0649687871 }
      ]}
    ]}
  ]},
  { "nodeid": 0, "depth": 0, "split": "f1", "split_condition": 2.90487337, "yes": 1, "no": 2, "missing": 1, "children": [
    { "nodeid": 1, "depth": 1, "split": "f1", "split_condition": 0.879310966, "yes": 3, "no": 4, "missing": 3, "children": [
      { "nodeid": 3, "depth": 2, "split": "f1", "split_condition": 0.598524451, "yes": 5, "no": 6, "missing": 5, "children": [
        { "nodeid": 5, "leaf": -0.000387474895 },
        { "nodeid": 6, "leaf": 0.0216461029 }
      ]},
      { "nodeid": 4, "depth": 2, "split": "f1", "split_condition": 0.894405961, "yes": 7, "no": 8, "missing": 7, "children": [
        { "nodeid": 7, "leaf": -0.123005763 },
        { "nodeid": 8, "leaf": -0.0053866487 }
      ]}
    ]},
    { "nodeid": 2, "leaf": 0.0790940672 }
  ]},
  { "nodeid": 0, "depth": 0, "split": "f0", "split_condition": -2.11024189, "yes": 1, "no": 2, "missing": 1, "children": [
    { "nodeid": 1, "depth": 1, "split": "f0", "split_condition": -2.44406581, "yes": 3, "no": 4, "missing": 3, "children": [
      { "nodeid": 3, "depth": 2, "split": "f1", "split_condition": 0.232712448, "yes": 7, "no": 8, "missing": 7, "children": [
        { "nodeid": 7, "leaf": -0.078091152 },
        { "nodeid": 8, "leaf": 0.0514893308 }
      ]},
      { "nodeid": 4, "depth": 2, "split": "f4", "split_condition": 0.977805972, "yes": 9, "no": 10, "missing": 9, "children": [
        { "nodeid": 9, "leaf": 0.0891426653 },
        { "nodeid": 10, "leaf": -0.0119742034 }
      ]}
    ]},
    { "nodeid": 2, "depth": 1, "split": "f0", "split_condition": -1.95309412, "yes": 5, "no": 6, "missing": 5, "children": [
      { "nodeid": 5, "depth": 2, "split": "f2", "split_condition": -0.442892224, "yes": 11, "no": 12, "missing": 11, "children": [
        { "nodeid": 11, "leaf": 0.0246052202 },
        { "nodeid": 12, "leaf": -0.0856644958 }
      ]},
      { "nodeid": 6, "depth": 2, "split": "f0", "split_condition": -1.83261096, "yes": 13, "no": 14, "missing": 13, "children": [
        { "nodeid": 13, "leaf": 0.0489596762 },
        { "nodeid": 14, "leaf": -0.000473455992 }
      ]}
    ]}
  ]},
  { "nodeid": 0, "depth": 0, "split": "f3", "split_condition": -3.09575272, "yes": 1, "no": 2, "missing": 1, "children": [
    { "nodeid": 1, "leaf": -0.0876495615 },
    { "nodeid": 2, "depth": 1, "split": "f3", "split_condition": -2.46010017, "yes": 3, "no": 4, "missing": 3, "children": [
      { "nodeid": 3, "depth": 2, "split": "f2", "split_condition": -0.394858718, "yes": 5, "no": 6, "missing": 5, "children": [
        { "nodeid": 5, "leaf": -0.0659528226 },
        { "nodeid": 6, "leaf": 0.0922862366 }
      ]},
      { "nodeid": 4, "depth": 2, "split": "f3", "split_condition": -2.32672739, "yes": 7, "no": 8, "missing": 7, "children": [
        { "nodeid": 7, "leaf": -0.0818020627 },
        { "nodeid": 8, "leaf": 0.000194644541 }
      ]}
    ]}
  ]},
  { "nodeid": 0, "depth": 0, "split": "f4", "split_condition": -0.34577471, "yes": 1, "no": 2, "missing": 1, "children": [
    { "nodeid": 1, "depth": 1, "split": "f4", "split_condition": -0.354594648, "yes": 3, "no": 4, "missing": 3, "children": [
      { "nodeid": 3, "depth": 2, "split": "f4", "split_condition": -0.360884726, "yes": 7, "no": 8, "missing": 7, "children": [
        { "nodeid": 7, "leaf": -0.00416775886 },
        { "nodeid": 8, "leaf": 0.0893565938 }
      ]},
      { "nodeid": 4, "depth": 2, "split": "f3", "split_condition": 0.565152526, "yes": 9, "no": 10, "missing": 9, "children": [
        { "nodeid": 9, "leaf": -0.111468852 },
        { "nodeid": 10, "leaf": -0.022840187 }
      ]}
    ]},
    { "nodeid": 2, "depth": 1, "split": "f4", "split_condition": -0.287077308, "yes": 5, "no": 6, "missing": 5, "children": [
      { "nodeid": 5, "depth": 2, "split": "f0", "split_condition": 0.173990533, "yes": 11, "no": 12, "missing": 11, "children": [
        { "nodeid": 11, "leaf": 0.0230257567 },
        { "nodeid": 12, "leaf": 0.108360045 }
      ]},
      { "nodeid": 6, "depth": 2, "split": "f4", "split_condition": -0.278390467, "yes": 13, "no": 14, "missing": 13, "children": [
        { "nodeid": 13, "leaf": -0.107670546 },
        { "nodeid": 14, "leaf": 0.00165935815 }
      ]}
    ]}
  ]},
  { "nodeid": 0, "depth": 0, "split": "f4", "split_condition": -2.64541578, "yes": 1, "no": 2, "missing": 1, "children": [
    { "nodeid": 1, "depth": 1, "split": "f2", "split_condition": -0.398710132, "yes": 3, "no": 4, "missing": 3, "children": [
      { "nodeid": 3, "leaf": 0.0962823927 },
      { "nodeid": 4, "depth": 2, "split": "f0", "split_condition": 0.167449862, "yes": 7, "no": 8, "missing": 7, "children": [
        { "nodeid": 7, "leaf": -0.056555219 },
        { "nodeid": 8, "leaf": 0.0288668033 }
      ]}
    ]},
    { "nodeid": 2, "depth": 1, "split": "f4", "split_condition": -2.3891139, "yes": 5, "no": 6, "missing": 5, "children": [
      { "nodeid": 5, "depth": 2, "split": "f2", "split_condition": -0.908259332, "yes": 9, "no": 10, "missing": 9, "children": [
        { "nodeid": 9, "leaf": 0.0426668972 },
        { "nodeid": 10, "leaf": -0.0719708428 }
      ]},
      { "nodeid": 6, "depth": 2, "split": "f4", "split_condition": -2.29981232, "yes": 11, "no": 12, "missing": 11, "children": [
        { "nodeid": 11, "leaf": 0.0671217591 },
        { "nodeid": 12, "leaf": -0.000195173605 }
      ]}
    ]}
  ]},
  { "nodeid": 0, "depth": 0, "split": "f1", "split_condition": -0.09560287, "yes": 1, "no": 2, "missing": 1, "children": [
    { "nodeid": 1, "depth": 1, "split": "f1", "split_condition": -0.171858847, "yes": 3, "no": 4, "missing": 3, "children": [
      { "nodeid": 3, "depth": 2, "split": "f1", "split_condition": -0.178250238, "yes": 7, "no": 8, "missing": 7, "children": [
        { "nodeid": 7, "leaf": 0.0025889622 },
        { "nodeid": 8, "leaf": -0.0988343731 }
      ]},
      { "nodeid": 4, "depth": 2, "split": "f4", "split_condition": -1.04593718, "yes": 9, "no": 10, "missing": 9, "children": [
        { "nodeid": 9, "leaf": -0.0468117818 },
        { "nodeid": 10, "leaf": 0.0527156107 }
      ]}
    ]},
    { "nodeid": 2, "depth": 1, "split": "f3", "split_condition": -1.75118351, "yes": 5, "no": 6, "missing": 5, "children": [
      { "nodeid": 5, "depth": 2, "split": "f2", "split_condition": 0.342620999, "yes": 11, "no": 12, "missing": 11, "children": [
        { "nodeid": 11, "leaf": -0.0758547932 },
        { "nodeid": 12, "leaf": 0.00228232937 }
      ]},
      { "nodeid": 6, "depth": 2, "split": "f3", "split_condition": -1.34949744, "yes": 13, "no": 14, "missing": 13, "children": [
        { "nodeid": 13, "leaf": 0.043648947 },
        { "nodeid": 14, "leaf": -0.00379057787 }
      ]}
    ]}
  ]},
  { "nodeid": 0, "depth": 0, "split": "f1", "split_condition": -1.49743342, "yes": 1, "no": 2, "missing": 1, "children": [
    { "nodeid": 1, "depth": 1, "split": "f1", "split_condition": -2.41844773, "yes": 3, "no": 4, "missing": 3, "children": [
      { "nodeid": 3, "depth": 2, "split": "f2", "split_condition": 0.396671653, "yes": 7, "no": 8, "missing": 7, "children": [
        { "nodeid": 7, "leaf": 0.0930191055 },
        { "nodeid": 8, "leaf": -0.0281288959 }
      ]},
      { "nodeid": 4, "depth": 2, "split": "f3", "split_condition": -0.535023451, "yes": 9, "no": 10, "missing": 9, "children": [
        { "nodeid": 9, "leaf": 0.00959869288 },
        { "nodeid": 10, "leaf": -0.0358577184 }
      ]}
    ]},
    { "nodeid": 2, "depth": 1, "split": "f1", "split_condition": -1.18639946, "yes": 5, "no": 6, "missing": 5, "children": [
      { "nodeid": 5, "depth": 2, "split": "f0", "split_condition": -0.686389089, "yes": 11, "no": 12, "missing": 11, "children": [
        { "nodeid": 11, "leaf": 0.082619898 },
        { "nodeid": 12, "leaf": 0.00131472934 }
      ]},
      { "nodeid": 6, "depth": 2, "split": "f1", "split_condition": -1.17600012, "yes": 13, "no": 14, "missing": 13, "children": [
        { "nodeid": 13, "leaf": -0.107110523 },
        { "nodeid": 14, "leaf": 1.39069425e-05 }
      ]}
    ]}
  ]},
  { "nodeid": 0, "depth": 0, "split": "f2", "split_condition": 1.6687938, "yes": 1, "no": 2, "missing": 1, "children": [
    { "nodeid": 1, "depth": 1, "split": "f2", "split_condition": 1.42937768, "yes": 3, "no": 4, "missing": 3, "children": [
      { "nodeid": 3, "depth": 2, "split": "f1", "split_condition": -2.35287619, "yes": 7, "no": 8, "missing": 7, "children": [
        { "nodeid": 7, "leaf": 0.0572557822 },
        { "nodeid": 8, "leaf": -0.000678375072 }
      ]},
      { "nodeid": 4, "depth": 2, "split": "f3", "split_condition": -0.529160202, "yes": 9, "no": 10, "missing": 9, "children": [
        { "nodeid": 9, "leaf": 0.0926333889 },
        { "nodeid": 10, "leaf": -0.00349990139 }
      ]}
    ]},
    { "nodeid": 2, "depth": 1, "split": "f2", "split_condition": 1.81439209, "yes": 5, "no": 6, "missing": 5, "children": [
      { "nodeid": 5, "depth": 2, "split": "f0", "split_condition": 1.25423205, "yes": 11, "no": 12, "missing": 11, "children": [
        { "nodeid": 11, "leaf": -0.0570548847 },
        { "nodeid": 12, "leaf": 0.0517856479 }
      ]},
      { "nodeid": 6, "depth": 2, "split": "f1", "split_condition": -0.752645493, "yes": 13, "no": 14, "missing": 13, "children": [
        { "nodeid": 13, "leaf": -0.0568758138 },
        { "nodeid": 14, "leaf": 0.0175893772 }
      ]}
    ]}
  ]},
  { "nodeid": 0, "depth": 0, "split": "f3", "split_condition": -0.409968913, "yes": 1, "no": 2, "missing": 1, "children": [
    { "nodeid": 1, "depth": 1, "split": "f3", "split_condition": -0.443821728, "yes": 3, "no": 4, "missing": 3, "children": [
      { "nodeid": 3, "depth": 2, "split": "f1", "split_condition": -0.452989519, "yes": 7, "no": 8, "missing": 7, "children": [
        { "nodeid": 7, "leaf": 0.00906631816 },
        { "nodeid": 8, "leaf": -0.00862822402 }
      ]},
      { "nodeid": 4, "depth": 2, "split": "f3", "split_condition": -0.437139928, "yes": 9, "no": 10, "missing": 9, "children": [
        { "nodeid": 9, "leaf": -0.128551885 },
        { "nodeid": 10, "leaf": -0.0301874969 }
      ]}
    ]},
    { "nodeid": 2, "depth": 1, "split": "f3", "split_condition": -0.354040295, "yes": 5, "no": 6, "missing": 5, "children": [
      { "nodeid": 5, "depth": 2, "split": "f1", "split_condition": -0.0391774327, "yes": 11, "no": 12, "missing": 11, "children": [
        { "nodeid": 11, "leaf": -0.0295046028 },
        { "nodeid": 12, "leaf": 0.0970964655 }
      ]},
      { "nodeid": 6, "depth": 2, "split": "f4", "split_condition": -1.18800497, "yes": 13, "no": 14, "missing": 13, "children": [
        { "nodeid": 13, "leaf": -0.0164292157 },
        { "nodeid": 14, "leaf": 0.00364952139 }
      ]}
    ]}
  ]},
  { "nodeid": 0, "depth": 0, "split": "f3", "split_condition": -3.09575272, "yes": 1, "no": 2, "missing": 1, "children": [
    { "nodeid": 1, "leaf": -0.0846637115 },
    { "nodeid": 2, "depth": 1, "split": "f1", "split_condition": -1.49743342, "yes": 3, "no": 4, "missing": 3, "children": [
      { "nodeid": 3, "depth": 2, "split": "f1", "split_condition": -1.51571143, "yes": 5, "no": 6, "missing": 5, "children": [
        { "nodeid": 5, "leaf": -0.00904390495 },
        { "nodeid": 6, "leaf": -0.10032618 }
      ]},
      { "nodeid": 4, "depth": 2, "split": "f2", "split_condition": -2.35176706, "yes": 7, "no": 8, "missing": 7, "children": [
        { "nodeid": 7, "leaf": 0.0536421053 },
        { "nodeid": 8, "leaf": 0.000659835467 }
      ]}
    ]}
  ]},
  { "nodeid": 0, "depth": 0, "split": "f2", "split_condition": 2.73155689, "yes": 1, "no": 2, "missing": 1, "children": [
    { "nodeid": 1, "depth": 1, "split": "f3", "split_condition": 0.882865369, "yes": 3, "no": 4, "missing": 3, "children": [
      { "nodeid": 3, "depth": 2, "split": "f3", "split_condition": 0.856634438, "yes": 5, "no": 6, "missing": 5, "children": [
        { "nodeid": 5, "leaf": 0.00125825324 },
        { "nodeid": 6, "leaf": 0.0729281157 }
      ]},
      { "nodeid": 4, "depth": 2, "split": "f1", "split_condition": 1.76045811, "yes": 7, "no": 8, "missing": 7, "children": [
        { "nodeid": 7, "leaf": -0.00447384641 },
        { "nodeid": 8, "leaf": -0.0764245242 }
      ]}
    ]},
    { "nodeid": 2, "leaf": -0.081759803 }
  ]},
  { "nodeid": 0, "depth": 0, "split": "f1", "split_condition": 2.90487337, "yes": 1, "no": 2, "missing": 1, "children": [
    { "nodeid": 1, "depth": 1, "split": "f1", "split_condition": 2.53380728, "yes": 3, "no": 4, "missing": 3, "children": [
      { "nodeid": 3, "depth": 2, "split": "f1", "split_condition": 2.39424467, "yes": 5, "no": 6, "missing": 5, "children": [
        { "nodeid": 5, "leaf": -0.000236895081 },
        { "nodeid": 6, "leaf": 0.0812774599 }
      ]},
      { "nodeid": 4, "depth": 2, "split": "f1", "split_condition": 2.70154715, "yes": 7, "no": 8, "missing": 7, "children": [
        { "nodeid": 7, "leaf": -0.117610835 },
        { "nodeid": 8, "leaf": 0.0136313513 }
      ]}
    ]},
    { "nodeid": 2, "leaf": 0.0763633996 }
  ]},
  { "nodeid": 0, "depth": 0, "split": "f3", "split_condition": 2.51775336, "yes": 1, "no": 2, "missing": 1, "children": [
    { "nodeid": 1, "depth": 1, "split": "f3", "split_condition": 2.27301311, "yes": 3, "no": 4, "missing": 3, "children": [
      { "nodeid": 3, "depth": 2, "split": "f0", "split_condition": 0.656431317, "yes": 7, "no": 8, "missing": 7, "children": [
        { "nodeid": 7, "leaf": -0.00226807105 },
        { "nodeid": 8, "leaf": 0.00618512416 }
      ]},
      { "nodeid": 4, "leaf": -0.0804891437 }
    ]},
    { "nodeid": 2, "depth": 1, "split": "f3", "split_condition": 2.60778046, "yes": 5, "no": 6, "missing": 5, "children": [
      { "nodeid": 5, "leaf": 0.111077271 },
      { "nodeid": 6, "depth": 2, "split": "f2", "split_condition": -0.613651216, "yes": 9, "no": 10, "missing": 9, "children": [
        { "nodeid": 9, "leaf": 0.0733083785 },
        { "nodeid": 10, "leaf": -0.0339633711 }
      ]}
    ]}
  ]},
  { "nodeid": 0, "depth": 0, "split": "f4", "split_condition": 2.69443393, "yes": 1, "no": 2, "missing": 1, "children": [
    { "nodeid": 1, "depth": 1, "split": "f4", "split_condition": 2.32465649, "yes": 3, "no": 4, "missing": 3, "children": [
      { "nodeid": 3, "depth": 2, "split": "f4", "split_condition": 2.13974953, "yes": 7, "no": 8, "missing": 7, "children": [
        { "nodeid": 7, "leaf": -0.00026694726 },
        { "nodeid": 8, "leaf": 0.0830784664 }
      ]},
      { "nodeid": 4, "depth": 2, "split": "f2", "split_condition": 1.00162864, "yes": 9, "no": 10, "missing": 9, "children": [
        { "nodeid": 9, "leaf": -0.0871210098 },
        { "nodeid": 10, "leaf": 0.0118620005 }
      ]}
    ]},
    { "nodeid": 2, "depth": 1, "split": "f4", "split_condition": 2.77560472, "yes": 5, "no": 6, "missing": 5, "children": [
      { "nodeid": 5, "leaf": 0.113245957 },
      { "nodeid": 6, "depth": 2, "split": "f1", "split_condition": 0.547508955, "yes": 11, "no": 12, "missing": 11, "children": [
        { "nodeid": 11, "leaf": 0.0488298498 },
        { "nodeid": 12, "leaf": -0.0616976134 }
      ]}
    ]}
  ]},
  { "nodeid": 0, "depth": 0, "split": "f4", "split_condition": -2.64541578, "yes": 1, "no": 2, "missing": 1, "children": [
    { "nodeid": 1, "depth": 1, "split": "f2", "split_condition": -0.398710132, "yes": 3, "no": 4, "missing": 3, "children": [
      { "nodeid": 3, "leaf": 0.0906766951 },
      { "nodeid": 4, "depth": 2, "split": "f1", "split_condition": -0.263177812, "yes": 7, "no": 8, "missing": 7, "children": [
        { "nodeid": 7, "leaf": -0.0538118184 },
        { "nodeid": 8, "leaf": 0.0301538296 }
      ]}
    ]},
    { "nodeid": 2, "depth": 1, "split": "f4", "split_condition": -2.3891139, "yes": 5, "no": 6, "missing": 5, "children": [
      { "nodeid": 5, "depth": 2, "split": "f1", "split_condition": -0.826014519, "yes": 9, "no": 10, "missing": 9, "children": [
        { "nodeid": 9, "leaf": 0.0347349718 },
        { "nodeid": 10, "leaf": -0.0670499429 }
      ]},
      { "nodeid": 6, "depth": 2, "split": "f2", "split_condition": -2.58514237, "yes": 11, "no": 12, "missing": 11, "children": [
        { "nodeid": 11, "leaf": -0.0786533952 },
        { "nodeid": 12, "leaf": 0.000307906652 }
      ]}
    ]}
  ]},
  { "nodeid": 0, "depth": 0, "split": "f0", "split_condition": 3.1718142, "yes": 1, "no": 2, "missing": 1, "children": [
    { "nodeid": 1, "depth": 1, "split": "f0", "split_condition": 1.30097461, "yes": 3, "no": 4, "missing": 3, "children": [
      { "nodeid": 3, "depth": 2, "split": "f0", "split_condition": 1.28121996, "yes": 5, "no": 6, "missing": 5, "children": [
        { "nodeid": 5, "leaf": 0.000625904882 },
        { "nodeid": 6, "leaf": 0.0899486914 }
      ]},
      { "nodeid": 4, "depth": 2, "split": "f4", "split_condition": 0.0657522529, "yes": 7, "no": 8, "missing": 7, "children": [
        { "nodeid": 7, "leaf": 0.00885774288 },
        { "nodeid": 8, "leaf": -0.0352517143 }
      ]}
    ]},
    { "nodeid": 2, "leaf": 0.0797962993 }
  ]},
  { "nodeid": 0, "depth": 0, "split": "f3", "split_condition": -0.409968913, "yes": 1, "no": 2, "missing": 1, "children": [
    { "nodeid": 1, "depth": 1, "split": "f3", "split_condition": -0.483859777, "yes": 3, "no": 4, "missing": 3, "children": [
      { "nodeid": 3, "depth": 2, "split": "f3", "split_condition": -0.490689933, "yes": 7, "no": 8, "missing": 7, "children": [
        { "nodeid": 7, "leaf": -0.00206806464 },
        { "nodeid": 8, "leaf": 0.0992703363 }
      ]},
      { "nodeid": 4, "depth": 2, "split": "f4", "split_condition": -1.08776331, "yes": 9, "no": 10, "missing": 9, "children": [
        { "nodeid": 9, "leaf": 0.0336077027 },
        { "nodeid": 10, "leaf": -0.0576833561 }
      ]}
    ]},
    { "nodeid": 2, "depth": 1, "split": "f3", "split_condition": -0.354040295, "yes": 5, "no": 6, "missing": 5, "children": [
      { "nodeid": 5, "depth": 2, "split": "f1", "split_condition": -0.0391774327, "yes": 11, "no": 12, "missing": 11, "children": [
        { "nodeid": 11, "leaf": -0.0266452376 },
        { "nodeid": 12, "leaf": 0.0886273906 }
      ]},
      { "nodeid": 6, "depth": 2, "split": "f0", "split_condition": -2.11024189, "yes": 13, "no": 14, "missing": 13, "children": [
        { "nodeid": 13, "leaf": 0.0509013943 },
        { "nodeid": 14, "leaf": 0.000237465822 }
      ]}
    ]}
  ]},
  { "nodeid": 0, "depth": 0, "split": "f1", "split_condition": -0.09560287, "yes": 1, "no": 2, "missing": 1, "children": [
    { "nodeid": 1, "depth": 1, "split": "f1", "split_condition": -0.171858847, "yes": 3, "no": 4, "missing": 3, "children": [
      { "nodeid": 3, "depth": 2, "split": "f1", "split_condition": -0.178250238, "yes": 7, "no": 8, "missing": 7, "children": [
        { "nodeid": 7, "leaf": 0.00253767776 },
        { "nodeid": 8, "leaf": -0.0909008086 }
      ]},
      { "nodeid": 4, "depth": 2, "split": "f4", "split_condition": -0.989017487, "yes": 9, "no": 10, "missing": 9, "children": [
        { "nodeid": 9, "leaf": -0.0391898826 },
        { "nodeid": 10, "leaf": 0.0483342595 }
      ]}
    ]},
    { "nodeid": 2, "depth": 1, "split": "f3", "split_condition": -1.75118351, "yes": 5, "no": 6, "missing": 5, "children": [
      { "nodeid": 5, "depth": 2, "split": "f4", "split_condition": -0.740733147, "yes": 11, "no": 12, "missing": 11, "children": [
        { "nodeid": 11, "leaf": 0.0294847097 },
        { "nodeid": 12, "leaf": -0.0612042844 }
      ]},
      { "nodeid": 6, "depth": 2, "split": "f3", "split_condition": -0.929688692, "yes": 13, "no": 14, "missing": 13, "children": [
        { "nodeid": 13, "leaf": 0.0221625995 },
        { "nodeid": 14, "leaf": -0.00543245906 }
      ]}
    ]}
  ]},
  { "nodeid": 0, "depth": 0, "split": "f4", "split_condition": -0.34577471, "yes": 1, "no": 2, "missing": 1, "children": [
    { "nodeid": 1, "depth": 1, "split": "f4", "split_condition": -0.354594648, "yes": 3, "no": 4, "missing": 3, "children": [
      { "nodeid": 3, "depth": 2, "split": "f0", "split_condition": 1.5494976, "yes": 7, "no": 8, "missing": 7, "children": [
        { "nodeid": 7, "leaf": -0.00513594411 },
        { "nodeid": 8, "leaf": 0.0264624208 }
      ]},
      { "nodeid": 4, "depth": 2, "split": "f3", "split_condition": 0.565152526, "yes": 9, "no": 10, "missing": 9, "children": [
        { "nodeid": 9, "leaf": -0.105261207 },
        { "nodeid": 10, "leaf": -0.0229756497 }
      ]}
    ]},
    { "nodeid": 2, "depth": 1, "split": "f4", "split_condition": -0.287077308, "yes": 5, "no": 6, "missing": 5, "children": [
      { "nodeid": 5, "depth": 2, "split": "f2", "split_condition": 1.59397054, "yes": 11, "no": 12, "missing": 11, "children": [
        { "nodeid": 11, "leaf": 0.0675736368 },
        { "nodeid": 12, "leaf": -0.0649448559 }
      ]},
      { "nodeid": 6, "depth": 2, "split": "f4", "split_condition": -0.280156106, "yes": 13, "no": 14, "missing": 13, "children": [
        { "nodeid": 13, "leaf": -0.109251201 },
        { "nodeid": 14, "leaf": 0.00148512283 }
      ]}
    ]}
  ]},
  { "nodeid": 0, "depth": 0, "split": "f1", "split_condition": 2.90487337, "yes": 1, "no": 2, "missing": 1, "children": [
    { "nodeid": 1, "depth": 1, "split": "f1", "split_condition": 1.70020771, "yes": 3, "no": 4, "missing": 3, "children": [
      { "nodeid": 3, "depth": 2, "split": "f1", "split_condition": 1.67687917, "yes": 5, "no": 6, "missing": 5, "children": [
        { "nodeid": 5, "leaf": 0.000228245815 },
        { "nodeid": 6, "leaf": 0.0714314207 }
      ]},
      { "nodeid": 4, "depth": 2, "split": "f0", "split_condition": -0.277749002, "yes": 7, "no": 8, "missing": 7, "children": [
        { "nodeid": 7, "leaf": 0.0155393053 },
        { "nodeid": 8, "leaf": -0.0373986475 }
      ]}
    ]},
    { "nodeid": 2, "leaf": 0.0723724142 }
  ]},
  { "nodeid": 0, "depth": 0, "split": "f4", "split_condition": 1.32650733, "yes": 1, "no": 2, "missing": 1, "children": [
    { "nodeid": 1, "depth": 1, "split": "f4", "split_condition": 0.715724707, "yes": 3, "no": 4, "missing": 3, "children": [
      { "nodeid": 3, "depth": 2, "split": "f4", "split_condition": 0.528289139, "yes": 7, "no": 8, "missing": 7, "children": [
        { "nodeid": 7, "leaf": 0.000753016793 },
        { "nodeid": 8, "leaf": -0.0209378544 }
      ]},
      { "nodeid": 4, "depth": 2, "split": "f3", "split_condition": -0.142976075, "yes": 9, "no": 10, "missing": 9, "children": [
        { "nodeid": 9, "leaf": -0.00237733405 },
        { "nodeid": 10, "leaf": 0.0268828608 }
      ]}
    ]},
    { "nodeid": 2, "depth": 1, "split": "f1", "split_condition": 0.835696518, "yes": 5, "no": 6, "missing": 5, "children": [
      { "nodeid": 5, "depth": 2, "split": "f3", "split_condition": 0.211169839, "yes": 11, "no": 12, "missing": 11, "children": [
        { "nodeid": 11, "leaf": -0.0407518707 },
        { "nodeid": 12, "leaf": 0.00704514841 }
      ]},
      { "nodeid": 6, "depth": 2, "split": "f2", "split_condition": -1.2033844, "yes": 13, "no": 14, "missing": 13, "children": [
        { "nodeid": 13, "leaf": -0.0418948755 },
        { "nodeid": 14, "leaf": 0.0413586833 }
      ]}
    ]}
  ]},
  { "nodeid": 0, "depth": 0, "split": "f3", "split_condition": 0.62048614, "yes": 1, "no": 2, "missing": 1, "children": [
    { "nodeid": 1, "depth": 1, "split": "f3", "split_condition": 0.560122967, "yes": 3, "no": 4, "missing": 3, "children": [
      { "nodeid": 3, "depth": 2, "split": "f3", "split_condition": 0.552962363, "yes": 7, "no": 8, "missing": 7, "children": [
        { "nodeid": 7, "leaf": 0.00111800677 },
        { "nodeid": 8, "leaf": -0.102984808 }
      ]},
      { "nodeid": 4, "depth": 2, "split": "f4", "split_condition": -1.30136454, "yes": 9, "no": 10, "missing": 9, "children": [
        { "nodeid": 9, "leaf": -0.0574337952 },
        { "nodeid": 10, "leaf": 0.0687557235 }
      ]}
    ]},
    { "nodeid": 2, "depth": 1, "split": "f3", "split_condition": 0.630324006, "yes": 5, "no": 6, "missing": 5, "children": [
      { "nodeid": 5, "depth": 2, "split": "f2", "split_condition": 0.04157985, "yes": 11, "no": 12, "missing": 11, "children": [
        { "nodeid": 11, "leaf": -0.0258321669 },
        { "nodeid": 12, "leaf": -0.144562215 }
      ]},
      { "nodeid": 6, "depth": 2, "split": "f2", "split_condition": -1.62705791, "yes": 13, "no": 14, "missing": 13, "children": [
        { "nodeid": 13, "leaf": 0.036266055 },
        { "nodeid": 14, "leaf": -0.00626533246 }
      ]}
    ]}
  ]},
  { "nodeid": 0, "depth": 0, "split": "f4", "split_condition": 2.69443393, "yes": 1, "no": 2, "missing": 1, "children": [
    { "nodeid": 1, "depth": 1, "split": "f4", "split_condition": 2.32465649, "yes": 3, "no": 4, "missing": 3, "children": [
      { "nodeid": 3, "depth": 2, "split": "f4", "split_condition": 2.13974953, "yes": 7, "no": 8, "missing": 7, "children": [
        { "nodeid": 7, "leaf": -0.000271903584 },
        { "nodeid": 8, "leaf": 0.0772166625 }
      ]},
      { "nodeid": 4, "depth": 2, "split": "f0", "split_condition": -0.361675382, "yes": 9, "no": 10, "missing": 9, "children": [
        { "nodeid": 9, "leaf": 0.0025695588 },
        { "nodeid": 10, "leaf": -0.0836284235 }
      ]}
    ]},
    { "nodeid": 2, "depth": 1, "split": "f4", "split_condition": 2.77560472, "yes": 5, "no": 6, "missing": 5, "children": [
      { "nodeid": 5, "leaf": 0.107279353 },
      { "nodeid": 6, "depth": 2, "split": "f1", "split_condition": 0.547508955, "yes": 11, "no": 12, "missing": 11, "children": [
        { "nodeid": 11, "leaf": 0.0474492274 },
        { "nodeid": 12, "leaf": -0.0594147444 }
      ]}
    ]}
  ]},
  { "nodeid": 0, "depth": 0, "split": "f3", "split_condition": -3.09575272, "yes": 1, "no": 2, "missing": 1, "children": [
    { "nodeid": 1, "leaf": -0.0802999958 },
    { "nodeid": 2, "depth": 1, "split": "f3", "split_condition": -2.46010017, "yes": 3, "no": 4, "missing": 3, "children": [
      { "nodeid": 3, "depth": 2, "split": "f2", "split_condition": -0.394858718, "yes": 5, "no": 6, "missing": 5, "children": [
        { "nodeid": 5, "leaf": -0.0561055057 },
        { "nodeid": 6, "leaf": 0.085735701 }
      ]},
      { "nodeid": 4, "depth": 2, "split": "f3", "split_condition": -2.32672739, "yes": 7, "no": 8, "missing": 7, "children": [
        { "nodeid": 7, "leaf": -0.070401445 },
        { "nodeid": 8, "leaf": 0.000107707099 }
      ]}
    ]}
  ]},
  { "nodeid": 0, "depth": 0, "split": "f3", "split_condition": 2.51775336, "yes": 1, "no": 2, "missing": 1, "children": [
    { "nodeid": 1, "depth": 1, "split": "f3", "split_condition": 2.27301311, "yes": 3, "no": 4, "missing": 3, "children": [
      { "nodeid": 3, "depth": 2, "split": "f3", "split_condition": 2.06301689, "yes": 7, "no": 8, "missing": 7, "children": [
        { "nodeid": 7, "leaf": -0.000410366163 },
        { "nodeid": 8, "leaf": 0.0380229168 }
      ]},
      { "nodeid": 4, "depth": 2, "split": "f3", "split_condition": 2.35873652, "yes": 9, "no": 10, "missing": 9, "children": [
        { "nodeid": 9, "leaf": -0.0940738991 },
        { "nodeid": 10, "leaf": -0.0294720121 }
      ]}
    ]},
    { "nodeid": 2, "depth": 1, "split": "f4", "split_condition": 0.550547838, "yes": 5, "no": 6, "missing": 5, "children": [
      { "nodeid": 5, "depth": 2, "split": "f3", "split_condition": 2.68163776, "yes": 11, "no": 12, "missing": 11, "children": [
        { "nodeid": 11, "leaf": 0.102238216 },
        { "nodeid": 12, "leaf": 0.0161275677 }
      ]},
      { "nodeid": 6, "depth": 2, "split": "f0", "split_condition": -0.753743887, "yes": 13, "no": 14, "missing": 13, "children": [
        { "nodeid": 13, "leaf": 0.0431018434 },
        { "nodeid": 14, "leaf": -0.0790002495 }
      ]}
    ]}
  ]},
  { "nodeid": 0, "depth": 0, "split": "f2", "split_condition": 2.73155689, "yes": 1, "no": 2, "missing": 1, "children": [
    { "nodeid": 1, "depth": 1, "split": "f3", "split_condition": 0.981908262, "yes": 3, "no": 4, "missing": 3, "children": [
      { "nodeid": 3, "depth": 2, "split": "f3", "split_condition": 0.9646734, "yes": 5, "no": 6, "missing": 5, "children": [
        { "nodeid": 5, "leaf": 0.00112516212 },
        { "nodeid": 6, "leaf": 0.0815785676 }
      ]},
      { "nodeid": 4, "depth": 2, "split": "f3", "split_condition": 1.00972033, "yes": 7, "no": 8, "missing": 7, "children": [
        { "nodeid": 7, "leaf": -0.103581682 },
        { "nodeid": 8, "leaf": -0.00406860001 }
      ]}
    ]},
    { "nodeid": 2, "leaf": -0.0777407959 }
  ]},
  { "nodeid": 0, "depth": 0, "split": "f0", "split_condition": 3.1718142, "yes": 1, "no": 2, "missing": 1, "children": [
    { "nodeid": 1, "depth": 1, "split": "f0", "split_condition": 1.30097461, "yes": 3, "no": 4, "missing": 3, "children": [
      { "nodeid": 3, "depth": 2, "split": "f0", "split_condition": 0.656431317, "yes": 5, "no": 6, "missing": 5, "children": [
        { "nodeid": 5, "leaf": -0.00182747131 },
        { "nodeid": 6, "leaf": 0.0131887244 }
      ]},
      { "nodeid": 4, "depth": 2, "split": "f0", "split_condition": 1.36870944, "yes": 7, "no": 8, "missing": 7, "children": [
        { "nodeid": 7, "leaf": -0.0665745065 },
        { "nodeid": 8, "leaf": -0.00255439873 }
      ]}
    ]},
    { "nodeid": 2, "leaf": 0.0764109567 }
  ]},
  { "nodeid": 0, "depth": 0, "split": "f1", "split_condition": -1.49743342, "yes": 1, "no": 2, "missing": 1, "children": [
    { "nodeid": 1, "depth": 1, "split": "f2", "split_condition": 1.47573566, "yes": 3, "no": 4, "missing": 3, "children": [
      { "nodeid": 3, "depth": 2, "split": "f2", "split_condition": 1.11390424, "yes": 7, "no": 8, "missing": 7, "children": [
        { "nodeid": 7, "leaf": -0.0152333351 },
        { "nodeid": 8, "leaf": 0.0679231361 }
      ]},
      { "nodeid": 4, "depth": 2, "split": "f4", "split_condition": -0.0109262634, "yes": 9, "no": 10, "missing": 9, "children": [
        { "nodeid": 9, "leaf": 0.000232678562 },
        { "nodeid": 10, "leaf": -0.125086233 }
      ]}
    ]},
    { "nodeid": 2, "depth": 1, "split": "f1", "split_condition": -1.18639946, "yes": 5, "no": 6, "missing": 5, "children": [
      { "nodeid": 5, "depth": 2, "split": "f0", "split_condition": -0.686389089, "yes": 11, "no": 12, "missing": 11, "children": [
        { "nodeid": 11, "leaf": 0.0743826032 },
        { "nodeid": 12, "leaf": 0.000523916213 }
      ]},
      { "nodeid": 6, "depth": 2, "split": "f1", "split_condition": -1.17600012, "yes": 13, "no": 14, "missing": 13, "children": [
        { "nodeid": 13, "leaf": -0.0995550305 },
        { "nodeid": 14, "leaf": 1.65549191e-05 }
      ]}
    ]}
  ]},
  { "nodeid": 0, "depth": 0, "split": "f4", "split_condition": -2.64541578, "yes": 1, "no": 2, "missing": 1, "children": [
    { "nodeid": 1, "depth": 1, "split": "f2", "split_condition": -0.398710132, "yes": 3, "no": 4, "missing": 3, "children": [
      { "nodeid": 3, "depth": 2, "split": "f0", "split_condition": 0.428465486, "yes": 7, "no": 8, "missing": 7, "children": [
        { "nodeid": 7, "leaf": 0.0981635004 },
        { "nodeid": 8, "leaf": 0.0275621843 }
      ]},
      { "nodeid": 4, "depth": 2, "split": "f0", "split_condition": 0.167449862, "yes": 9, "no": 10, "missing": 9, "children": [
        { "nodeid": 9, "leaf": -0.0512414053 },
        { "nodeid": 10, "leaf": 0.0291117486 }
      ]}
    ]},
    { "nodeid": 2, "depth": 1, "split": "f4", "split_condition": -0.421181798, "yes": 5, "no": 6, "missing": 5, "children": [
      { "nodeid": 5, "depth": 2, "split": "f4", "split_condition": -0.497029245, "yes": 11, "no": 12, "missing": 11, "children": [
        { "nodeid": 11, "leaf": -0.00151427253 },
        { "nodeid": 12, "leaf": -0.0446000919 }
      ]},
      { "nodeid": 6, "depth": 2, "split": "f4", "split_condition": -0.415519297, "yes": 13, "no": 14, "missing": 13, "children": [
        { "nodeid": 13, "leaf": 0.133100361 },
        { "nodeid": 14, "leaf": 0.00176654372 }
      ]}
    ]}
  ]},
  { "nodeid": 0, "depth": 0, "split": "f2", "split_condition": 2.45892835, "yes": 1, "no": 2, "missing": 1, "children": [
    { "nodeid": 1, "depth": 1, "split": "f2", "split_condition": 2.06053233, "yes": 3, "no": 4, "missing": 3, "children": [
      { "nodeid": 3, "depth": 2, "split": "f2", "split_condition": 1.6687938, "yes": 7, "no": 8, "missing": 7, "children": [
        { "nodeid": 7, "leaf": 0.000622561667 },
        { "nodeid": 8, "leaf": -0.0276069175 }
      ]},
      { "nodeid": 4, "depth": 2, "split": "f3", "split_condition": -0.680081129, "yes": 9, "no": 10, "missing": 9, "children": [
        { "nodeid": 9, "leaf": -0.0425981283 },
        { "nodeid": 10, "leaf": 0.0769467205 }
      ]}
    ]},
    { "nodeid": 2, "depth": 1, "split": "f3", "split_condition": -0.901939869, "yes": 5, "no": 6, "missing": 5, "children": [
      { "nodeid": 5, "leaf": 0.0431772806 },
      { "nodeid": 6, "depth": 2, "split": "f2", "split_condition": 2.53928208, "yes": 11, "no": 12, "missing": 11, "children": [
        { "nodeid": 11, "leaf": -0.111467116 },
        { "nodeid": 12, "leaf": -0.0267161727 }
      ]}
    ]}
  ]},
  { "nodeid": 0, "depth": 0, "split": "f3", "split_condition": -3.01789474, "yes": 1, "no": 2, "missing": 1, "children": [
    { "nodeid": 1, "leaf": -0.0665403828 },
    { "nodeid": 2, "depth": 1, "split": "f3", "split_condition": -2.67164516, "yes": 3, "no": 4, "missing": 3, "children": [
      { "nodeid": 3, "depth": 2, "split": "f2", "split_condition": -0.743954897, "yes": 5, "no": 6, "missing": 5, "children": [
        { "nodeid": 5, "leaf": -0.0520350896 },
        { "nodeid": 6, "leaf": 0.131506398 }
      ]},
      { "nodeid": 4, "depth": 2, "split": "f1", "split_condition": 2.18279433, "yes": 7, "no": 8, "missing": 7, "children": [
        { "nodeid": 7, "leaf": -0.000483173848 },
        { "nodeid": 8, "leaf": 0.0309334677 }
      ]}
    ]}
  ]},
  { "nodeid": 0, "depth": 0, "split": "f1", "split_condition": 0.879310966, "yes": 1, "no": 2, "missing": 1, "children": [
    { "nodeid": 1, "depth": 1, "split": "f1", "split_condition": 0.736798406, "yes": 3, "no": 4, "missing": 3, "children": [
      { "nodeid": 3, "depth": 2, "split": "f1", "split_condition": 0.723091245, "yes": 7, "no": 8, "missing": 7, "children": [
        { "nodeid": 7, "leaf": 0.00056852441 },
        { "nodeid": 8, "leaf": -0.0806305632 }
      ]},
      { "nodeid": 4, "depth": 2, "split": "f2", "split_condition": 0.604207993, "yes": 9, "no": 10, "missing": 9, "children": [
        { "nodeid": 9, "leaf": 0.0501036607 },
        { "nodeid": 10, "leaf": -0.0254148878 }
      ]}
    ]},
    { "nodeid": 2, "depth": 1, "split": "f1", "split_condition": 0.894405961, "yes": 5, "no": 6, "missing": 5, "children": [
      { "nodeid": 5, "depth": 2, "split": "f2", "split_condition": -0.755746007, "yes": 11, "no": 12, "missing": 11, "children": [
        { "nodeid": 11, "leaf": -0.0108897788 },
        { "nodeid": 12, "leaf": -0.138594434 }
      ]},
      { "nodeid": 6, "depth": 2, "split": "f4", "split_condition": 0.601208448, "yes": 13, "no": 14, "missing": 13, "children": [
        { "nodeid": 13, "leaf": -0.0122855259 },
        { "nodeid": 14, "leaf": 0.0196749307 }
      ]}
    ]}
  ]},
  { "nodeid": 0, "depth": 0, "split": "f4", "split_condition": 1.32650733, "yes": 1, "no": 2, "missing": 1, "children": [
    { "nodeid": 1, "depth": 1, "split": "f4", "split_condition": 1.29382586, "yes": 3, "no": 4, "missing": 3, "children": [
      { "nodeid": 3, "depth": 2, "split": "f1", "split_condition": 0.864516616, "yes": 7, "no": 8, "missing": 7, "children": [
        { "nodeid": 7, "leaf": 0.00302884751 },
        { "nodeid": 8, "leaf": -0.00887935515 }
      ]},
      { "nodeid": 4, "depth": 2, "split": "f0", "split_condition": 0.236518756, "yes": 9, "no": 10, "missing": 9, "children": [
        { "nodeid": 9, "leaf": -0.00245056674 },
        { "nodeid": 10, "leaf": 0.128505588 }
      ]}
    ]},
    { "nodeid": 2, "depth": 1, "split": "f0", "split_condition": 0.437378645, "yes": 5, "no": 6, "missing": 5, "children": [
      { "nodeid": 5, "depth": 2, "split": "f4", "split_condition": 1.37335455, "yes": 11, "no": 12, "missing": 11, "children": [
        { "nodeid": 11, "leaf": -0.0654129833 },
        { "nodeid": 12, "leaf": 0.0114104645 }
      ]},
      { "nodeid": 6, "depth": 2, "split": "f4", "split_condition": 1.33612108, "yes": 13, "no": 14, "missing": 13, "children": [
        { "nodeid": 13, "leaf": 0.0748226568 },
        { "nodeid": 14, "leaf": -0.0409829989 }
      ]}
    ]}
  ]},
  { "nodeid": 0, "depth": 0, "split": "f2", "split_condition": -1.97143078, "yes": 1, "no": 2, "missing": 1, "children": [
    { "nodeid": 1, "depth": 1, "split": "f2", "split_condition": -2.06242704, "yes": 3, "no": 4, "missing": 3, "children": [
      { "nodeid": 3, "depth": 2, "split": "f3", "split_condition": -0.95046556, "yes": 7, "no": 8, "missing": 7, "children": [
        { "nodeid": 7, "leaf": 0.048390653 },
        { "nodeid": 8, "leaf": -0.0135343764 }
      ]},
      { "nodeid": 4, "depth": 2, "split": "f2", "split_condition": -2.02038813, "yes": 9, "no": 10, "missing": 9, "children": [
        { "nodeid": 9, "leaf": 0.124632291 },
        { "nodeid": 10, "leaf": 0.0172218438 }
      ]}
    ]},
    { "nodeid": 2, "depth": 1, "split": "f2", "split_condition": -1.75410569, "yes": 5, "no": 6, "missing": 5, "children": [
      { "nodeid": 5, "depth": 2, "split": "f1", "split_condition": 0.126533657, "yes": 11, "no": 12, "missing": 11, "children": [
        { "nodeid": 11, "leaf": -0.0638039708 },
        { "nodeid": 12, "leaf": 0.00236649881 }
      ]},
      { "nodeid": 6, "depth": 2, "split": "f1", "split_condition": 2.18279433, "yes": 13, "no": 14, "missing": 13, "children": [
        { "nodeid": 13, "leaf": -0.000332859316 },
        { "nodeid": 14, "leaf": 0.0330085345 }
      ]}
    ]}
  ]},
  { "nodeid": 0, "depth": 0, "split": "f3", "split_condition": -0.137304068, "yes": 1, "no": 2, "missing": 1, "children": [
    { "nodeid": 1, "depth": 1, "split": "f4", "split_condition": 1.6778605, "yes": 3, "no": 4, "missing": 3, "children": [
      { "nodeid": 3, "depth": 2, "split": "f4", "split_condition": 1.57972121, "yes": 7, "no": 8, "missing": 7, "children": [
        { "nodeid": 7, "leaf": -0.00291209458 },
        { "nodeid": 8, "leaf": 0.0942748636 }
      ]},
      { "nodeid": 4, "depth": 2, "split": "f4", "split_condition": 1.73191524, "yes": 9, "no": 10, "missing": 9, "children": [
        { "nodeid": 9, "leaf": -0.141459003 },
        { "nodeid": 10, "leaf": -0.0190017745 }
      ]}
    ]},
    { "nodeid": 2, "depth": 1, "split": "f3", "split_condition": -0.122887135, "yes": 5, "no": 6, "missing": 5, "children": [
      { "nodeid": 5, "depth": 2, "split": "f4", "split_condition": 1.15768445, "yes": 11, "no": 12, "missing": 11, "children": [
        { "nodeid": 11, "leaf": 0.105972253 },
        { "nodeid": 12, "leaf": -0.0293857586 }
      ]},
      { "nodeid": 6, "depth": 2, "split": "f3", "split_condition": 0.096262157, "yes": 13, "no": 14, "missing": 13, "children": [
        { "nodeid": 13, "leaf": 0.0177738164 },
        { "nodeid": 14, "leaf": -0.00130692439 }
      ]}
    ]}
  ]},
  { "nodeid": 0, "depth": 0, "split": "f4", "split_condition": 2.69443393, "yes": 1, "no": 2, "missing": 1, "children": [
    { "nodeid": 1, "depth": 1, "split": "f4", "split_condition": 2.44913149, "yes": 3, "no": 4, "missing": 3, "children": [
      { "nodeid": 3, "depth": 2, "split": "f4", "split_condition": 2.13974953, "yes": 7, "no": 8, "missing": 7, "children": [
        { "nodeid": 7, "leaf": -0.000244729483 },
        { "nodeid": 8, "leaf": 0.0372831672 }
      ]},
      { "nodeid": 4, "depth": 2, "split": "f3", "split_condition": -0.0794343799, "yes": 9, "no": 10, "missing": 9, "children": [
        { "nodeid": 9, "leaf": -0.116063297 },
        { "nodeid": 10, "leaf": -0.0162876155 }
      ]}
    ]},
    { "nodeid": 2, "depth": 1, "split": "f4", "split_condition": 2.77560472, "yes": 5, "no": 6, "missing": 5, "children": [
      { "nodeid": 5, "leaf": 0.102775231 },
      { "nodeid": 6, "depth": 2, "split": "f0", "split_condition": 0.257770747, "yes": 11, "no": 12, "missing": 11, "children": [
        { "nodeid": 11, "leaf": 0.0451057777 },
        { "nodeid": 12, "leaf": -0.0568430908 }
      ]}
    ]}
  ]},
  { "nodeid": 0, "depth": 0, "split": "f3", "split_condition": 2.51775336, "yes": 1, "no": 2, "missing": 1, "children": [
    { "nodeid": 1, "depth": 1, "split": "f3", "split_condition": 2.27301311, "yes": 3, "no": 4, "missing": 3, "children": [
      { "nodeid": 3, "depth": 2, "split": "f0", "split_condition": 0.656431317, "yes": 7, "no": 8, "missing": 7, "children": [
        { "nodeid": 7, "leaf": -0.00204604072 },
        { "nodeid": 8, "leaf": 0.00562475249 }
      ]},
      { "nodeid": 4, "depth": 2, "split": "f3", "split_condition": 2.35873652, "yes": 9, "no": 10, "missing": 9, "children": [
        { "nodeid": 9, "leaf": -0.0895283446 },
        { "nodeid": 10, "leaf": -0.0270486157 }
      ]}
    ]},
    { "nodeid": 2, "depth": 1, "split": "f2", "split_condition": -0.613651216, "yes": 5, "no": 6, "missing": 5, "children": [
      { "nodeid": 5, "depth": 2, "split": "f2", "split_condition": -1.22635126, "yes": 11, "no": 12, "missing": 11, "children": [
        { "nodeid": 11, "leaf": 0.0132970484 },
        { "nodeid": 12, "leaf": 0.109012976 }
      ]},
      { "nodeid": 6, "depth": 2, "split": "f3", "split_condition": 2.67394924, "yes": 13, "no": 14, "missing": 13, "children": [
        { "nodeid": 13, "leaf": 0.0558688417 },
        { "nodeid": 14, "leaf": -0.0496173166 }
      ]}
    ]}
  ]},
  { "nodeid": 0, "depth": 0, "split": "f2", "split_condition": 2.73155689, "yes": 1, "no": 2, "missing": 1, "children": [
    { "nodeid": 1, "depth": 1, "split": "f4", "split_condition": -2.64541578, "yes": 3, "no": 4, "missing": 3, "children": [
      { "nodeid": 3, "depth": 2, "split": "f2", "split_condition": -0.398710132, "yes": 5, "no": 6, "missing": 5, "children": [
        { "nodeid": 5, "leaf": 0.0821373463 },
        { "nodeid": 6, "leaf": -0.0128649864 }
      ]},
      { "nodeid": 4, "depth": 2, "split": "f4", "split_condition": -2.3891139, "yes": 7, "no": 8, "missing": 7, "children": [
        { "nodeid": 7, "leaf": -0.0397535264 },
        { "nodeid": 8, "leaf": 0.000199242917 }
      ]}
    ]},
    { "nodeid": 2, "leaf": -0.073505193 }
  ]},
  { "nodeid": 0, "depth": 0, "split": "f0", "split_condition": 3.1718142, "yes": 1, "no": 2, "missing": 1, "children": [
    { "nodeid": 1, "depth": 1, "split": "f0", "split_condition": 2.20930338, "yes": 3, "no": 4, "missing": 3, "children": [
      { "nodeid": 3, "depth": 2, "split": "f0", "split_condition": 1.90256071, "yes": 5, "no": 6, "missing": 5, "children": [
        { "nodeid": 5, "leaf": -0.000231134807 },
        { "nodeid": 6, "leaf": 0.029292766 }
      ]},
      { "nodeid": 4, "depth": 2, "split": "f3", "split_condition": 0.0375097245, "yes": 7, "no": 8, "missing": 7, "children": [
        { "nodeid": 7, "leaf": 0.00772958202 },
        { "nodeid": 8, "leaf": -0.0649445578 }
      ]}
    ]},
    { "nodeid": 2, "leaf": 0.0731583759 }
  ]},
  { "nodeid": 0, "depth": 0, "split": "f3", "split_condition": -3.09575272, "yes": 1, "no": 2, "missing": 1, "children": [
    { "nodeid": 1, "leaf": -0.0746569186 },
    { "nodeid": 2, "depth": 1, "split": "f3", "split_condition": -2.46010017, "yes": 3, "no": 4, "missing": 3, "children": [
      { "nodeid": 3, "depth": 2, "split": "f2", "split_condition": -0.394858718, "yes": 5, "no": 6, "missing": 5, "children": [
        { "nodeid": 5, "leaf": -0.0499074683 },
        { "nodeid": 6, "leaf": 0.0770783275 }
      ]},
      { "nodeid": 4, "depth": 2, "split": "f3", "split_condition": -2.32672739, "yes": 7, "no": 8, "missing": 7, "children": [
        { "nodeid": 7, "leaf": -0.0651362762 },
        { "nodeid": 8, "leaf": 0.000109179142 }
      ]}
    ]}
  ]},
  { "nodeid": 0, "depth": 0, "split": "f1", "split_condition": -0.09560287, "yes": 1, "no": 2, "missing": 1, "children": [
    { "nodeid": 1, "depth": 1, "split": "f3", "split_condition": -1.78752136, "yes": 3, "no": 4, "missing": 3, "children": [
      { "nodeid": 3, "depth": 2, "split": "f4", "split_condition": 0.630436957, "yes": 7, "no": 8, "missing": 7, "children": [
        { "nodeid": 7, "leaf": 0.00132873841 },
        { "nodeid": 8, "leaf": 0.116099119 }
      ]},
      { "nodeid": 4, "depth": 2, "split": "f3", "split_condition": -1.28135157, "yes": 9, "no": 10, "missing": 9, "children": [
        { "nodeid": 9, "leaf": -0.0446123369 },
        { "nodeid": 10, "leaf": 0.00526224636 }
      ]}
    ]},
    { "nodeid": 2, "depth": 1, "split": "f3", "split_condition": -1.75118351, "yes": 5, "no": 6, "missing": 5, "children": [
      { "nodeid": 5, "depth": 2, "split": "f4", "split_condition": -0.740733147, "yes": 11, "no": 12, "missing": 11, "children": [
        { "nodeid": 11, "leaf": 0.0267448481 },
        { "nodeid": 12, "leaf": -0.0545435026 }
      ]},
      { "nodeid": 6, "depth": 2, "split": "f3", "split_condition": -1.34949744, "yes": 13, "no": 14, "missing": 13, "children": [
        { "nodeid": 13, "leaf": 0.0384740494 },
        { "nodeid": 14, "leaf": -0.00345930271 }
      ]}
    ]}
  ]},
