<?xml version="1.0"?>
<MethodSetup Method="DNN::DNN">
  <GeneralInfo>
    <Info name="TMVA Release" value="4.2.1 [262657]"/>
    <Info name="ROOT Release" value="6.07/07 [395015]"/>
    <Info name="Creator" value="qati"/>
    <Info name="Date" value="Wed Sep 28 19:46:42 2016"/>
    <Info name="Host" value="Linux Q 4.4.0-38-generic #57-Ubuntu SMP Tue Sep 6 15:42:33 UTC 2016 x86_64 x86_64 x86_64 GNU/Linux"/>
    <Info name="Dir" value="/media/share/code/GSOC/wd/notebooks"/>
    <Info name="Training events" value="2000"/>
    <Info name="TrainingTime" value="9.07727599e+00"/>
    <Info name="AnalysisType" value="Classification"/>
  </GeneralInfo>
  <Options>
    <Option name="V" modified="Yes">False</Option>
    <Option name="VerbosityLevel" modified="No">Default</Option>
    <Option name="VarTransform" modified="Yes">Normalize</Option>
    <Option name="H" modified="Yes">False</Option>
    <Option name="CreateMVAPdfs" modified="No">False</Option>
    <Option name="IgnoreNegWeightsInTraining" modified="No">False</Option>
    <Option name="Layout" modified="Yes">TANH|100,TANH|50,TANH|10,LINEAR</Option>
    <Option name="ErrorStrategy" modified="Yes">CROSSENTROPY</Option>
    <Option name="WeightInitialization" modified="No">XAVIER</Option>
    <Option name="Architecture" modified="No">STANDARD</Option>
    <Option name="TrainingStrategy" modified="Yes">ConvergenceSteps=100,Regularization=NONE,BatchSize=20,TestRepetitions=1,LearningRate=0.1,Multithreading=True,Momentum=0.0,WeightDecay=0.001,Repetitions=1,DropRepetitions=1,DropConfig=0.0+0.5+0.5+0.5|ConvergenceSteps=100,Regularization=L2,BatchSize=30,TestRepetitions=1,LearningRate=0.01,Multithreading=True,Momentum=0.5,WeightDecay=0.001,Repetitions=1,DropRepetitions=1,DropConfig=0.0+0.1+0.1+0.1|ConvergenceSteps=100,Regularization=L2,TestRepetitions=1,LearningRate=0.01,Multithreading=True,WeightDecay=0.001,BatchSize=40,Repetitions=1,Momentum=0.3|ConvergenceSteps=100,Regularization=NONE,TestRepetitions=1,LearningRate=0.001,Multithreading=True,WeightDecay=0.001,BatchSize=70,Repetitions=1,Momentum=0.1</Option>
  </Options>
  <Variables NVar="4">
    <Variable VarIndex="0" Expression="var1+var2" Label="myvar1" Title="myvar1" Unit="" Internal="myvar1" Type="F" Min="-7.99587154e+00" Max="7.69307804e+00"/>
    <Variable VarIndex="1" Expression="var1-var2" Label="myvar2" Title="Expression 2" Unit="F" Internal="myvar2" Type="F" Min="-4.08540010e+00" Max="3.40126920e+00"/>
    <Variable VarIndex="2" Expression="var3" Label="var3" Title="Variable 3" Unit="F" Internal="var3" Type="F" Min="-5.05078554e+00" Max="4.12972927e+00"/>
    <Variable VarIndex="3" Expression="var4" Label="var4" Title="Variable 4" Unit="F" Internal="var4" Type="F" Min="-5.39732695e+00" Max="4.52105665e+00"/>
  </Variables>
  <Spectators NSpec="2">
    <Spectator SpecIndex="0" Expression="var1*2" Label="spec1" Title="Spectator 1" Unit="F" Internal="spec1" Type="F" Min="-9.91655540e+00" Max="9.52782059e+00"/>
    <Spectator SpecIndex="1" Expression="var1*3" Label="spec2" Title="Spectator 2" Unit="F" Internal="spec2" Type="F" Min="-1.48748331e+01" Max="1.42917309e+01"/>
  </Spectators>
  <Classes NClass="2">
    <Class Name="Signal" Index="0"/>
    <Class Name="Background" Index="1"/>
  </Classes>
  <Transformations NTransformations="1">
    <Transform Name="Normalize">
      <Selection>
        <Input NInputs="4">
          <Input Type="Variable" Label="myvar1" Expression="var1+var2"/>
          <Input Type="Variable" Label="myvar2" Expression="var1-var2"/>
          <Input Type="Variable" Label="var3" Expression="var3"/>
          <Input Type="Variable" Label="var4" Expression="var4"/>
        </Input>
        <Output NOutputs="4">
          <Output Type="Variable" Label="myvar1" Expression="var1+var2"/>
          <Output Type="Variable" Label="myvar2" Expression="var1-var2"/>
          <Output Type="Variable" Label="var3" Expression="var3"/>
          <Output Type="Variable" Label="var4" Expression="var4"/>
        </Output>
      </Selection>
      <Class ClassIndex="0">
        <Ranges>
          <Range Index="0" Min="-4.5197792053222656e+00" Max="5.4220066070556641e+00"/>
          <Range Index="1" Min="-4.0854001045227051e+00" Max="3.4012691974639893e+00"/>
          <Range Index="2" Min="-2.6063573360443115e+00" Max="3.8475654125213623e+00"/>
          <Range Index="3" Min="-2.5803711414337158e+00" Max="4.2226157188415527e+00"/>
        </Ranges>
      </Class>
      <Class ClassIndex="1">
        <Ranges>
          <Range Index="0" Min="-7.9958715438842773e+00" Max="7.6930780410766602e+00"/>
          <Range Index="1" Min="-3.2550826072692871e+00" Max="3.3180730342864990e+00"/>
          <Range Index="2" Min="-5.0507855415344238e+00" Max="4.1297292709350586e+00"/>
          <Range Index="3" Min="-5.3973269462585449e+00" Max="4.5210566520690918e+00"/>
        </Ranges>
      </Class>
      <Class ClassIndex="2">
        <Ranges>
          <Range Index="0" Min="-7.9958715438842773e+00" Max="7.6930780410766602e+00"/>
          <Range Index="1" Min="-4.0854001045227051e+00" Max="3.4012691974639893e+00"/>
          <Range Index="2" Min="-5.0507855415344238e+00" Max="4.1297292709350586e+00"/>
          <Range Index="3" Min="-5.3973269462585449e+00" Max="4.5210566520690918e+00"/>
        </Ranges>
      </Class>
    </Transform>
  </Transformations>
  <MVAPdfs/>
  <Weights InputWidth="4" Depth="4" LossFunction="C" OutputFunction="S">
    <Layer ActivationFunction="3">
      <Weights rows="100" cols="4">
        -6.5329374031792864e-01 -1.5827715055267691e-01 -1.5378623913936854e-01 -1.2564930410040254e+00 1.1984732407857790e+00 3.8316151315178409e-01 1.4580772732598115e+00 -7.4358186136174753e-01 -8.8451140234226053e-02 -9.5461452118729906e-01 -3.3731887526934290e-01 1.2613439170172620e+00 -4.7619265145796791e-01 -3.2331870008448987e-01 -5.2865038433244038e-01 1.0333447610647870e+00 6.9233613804634420e-01 1.1249661720246899e-01 -1.4883408884414576e-01 1.5778457491995344e+00 2.0815398842377943e+00 -1.7086544035577708e-01 5.7130498955085407e-01 1.0277678618603995e-02 5.9765565003507171e-01 -4.8695379592297139e-02 4.2913775673967375e-01 -2.8782151168423052e-02 -4.8641661967313410e-01 -5.2587755127325442e-01 -1.1194405590021828e+00 8.0484185112606677e-01 -4.4448842420631923e-01 -4.3891399457901309e-01 -6.2019871071113997e-01 -3.5748262015976956e-01 -7.0597392661243386e-01 -1.6086836453323922e-01 3.9275550819386978e-01 5.7271416629659577e-01 -8.8364561199109237e-01 4.4620919820602650e-01 2.3547550611246382e-01 1.1063874410968522e+00 -1.4013854793020548e+00 3.6491963542653783e-01 1.7786983888618175e-02 6.8586197556190120e-01 -1.3753290045509097e+00 -1.7632782169848216e-01 -5.8477440073473796e-01 -6.7581190791753565e-02 -7.7818706135957216e-01 -1.1379059522685546e+00 -1.1641997229081358e+00 5.4955043691168270e-01 -2.3148209776342035e-02 -1.0879203472570773e+00 -6.9683088593133768e-01 -4.0407919789667762e-01 8.1167779864495748e-01 1.5822293903945736e-01 1.0013655990795192e+00 -2.2012943839507412e-01 8.0786209671436471e-01 2.2287441219665088e-01 -3.6768041379258182e-01 -3.8149421511087872e-01 -7.5829434256996689e-02 -4.1154902932806220e-01 5.2951579244838565e-01 -5.7173123479519450e-01 9.3047847461322764e-01 -5.3367814758924836e-01 -1.5710566020992836e-01 -6.8473136212000218e-01 -4.2213861039930228e-01 -1.1355402678948614e+00 2.7288523641734636e-01 8.0861130238462464e-01 -8.0387186769846386e-01 8.2345190668751389e-01 9.6148405382471547e-01 2.0875028741446515e+00 -1.5497248899255511e-01 7.4099065527448293e-01 -3.3165749254793808e-01 -4.8073222663410131e-01 8.5950573876277925e-01 -1.0677852351922270e+00 -6.2052601851919287e-01 5.9068126202066584e-01 -1.2082515671120704e-01 1.9381006992532299e-01 -1.4584237990178289e-01 -6.5203021717493492e-01 -3.5084411903033480e-01 -4.4334146723135581e-01 6.7692786852791412e-02 4.2118676478498618e-01 -9.0131977434243038e-01 -1.5940391285654712e-01 -5.5992330029476389e-01 4.4421384235542832e-01 1.0101330691882928e+00 1.8262213233345728e-01 5.2951244187694613e-01 -1.3878483426956851e+00 -1.2386093698184000e+00 -9.5688955742502343e-02 -1.1887097001333105e+00 2.1280270412019799e+00 4.7327740047548073e-01 3.2132682355873027e-01 5.2775314308035370e-01 -1.2223694046867899e+00 9.5271241060404743e-01 3.7752814983216904e-01 -7.0646327280876009e-01 2.4974568708625786e-01 7.3783520948137682e-01 2.3407493213410607e-01 6.9874876802595776e-01 4.3371080876747981e-01 6.0200600645844704e-01 -3.4822041213124960e-01 8.9432737060959633e-01 -2.0695157120582350e-01 1.1765817732030877e+00 7.5446145659275554e-01 7.8174681954679603e-01 -1.8041036393248500e+00 -1.2124095058526119e+00 -3.6203587683095534e-01 1.6179748567839008e-01 1.0975821593504018e+00 6.6454997591975784e-01 -1.9469363501080317e-01 -1.1050920609635071e+00 3.7660185896764276e-01 -8.6447047340900252e-02 -2.2451473467959715e-01 2.0950602517326355e-01 -7.2921433248001521e-01 9.3381276059890467e-02 -4.6566598910699718e-02 3.9366466441116088e-01 -7.0888940422779956e-01 7.5248344970797687e-01 3.0032976048083217e-02 -3.2075907714016266e-01 -5.0366073226059838e-01 2.5163272768078165e-01 2.6169192718930884e-01 -7.1877863781699761e-02 -4.8578261980103082e-01 2.1662831093095439e-01 -6.7084400069715766e-01 5.7566795945763194e-01 -6.3613300545064266e-01 -2.2732961089342302e-01 5.9152694894880009e-01 -3.4804113669172287e-01 6.2108982092817733e-01 1.1214247879727572e+00 5.0372013588081443e-01 -1.2468618681488385e-01 -1.1074698384797523e+00 2.4340728777179280e-01 5.1639905074484638e-01 3.6991299337365285e-01 -1.9804687670685014e-01 1.0197294946658107e-01 -2.2519847658022327e-02 -5.6717953670076121e-02 1.3979984658390958e+00 1.2148107274125903e+00 1.3184550777486032e-01 5.0501799582383766e-01 -1.3781171033330819e-01 7.4633333852977024e-01 1.3844856027171091e+00 3.2548356644635601e-01 1.0677190133917054e-01 -7.1956313264130434e-01 -1.3507369092306781e-01 7.8909509027898195e-01 -8.8032923924127010e-02 1.3990261138502187e+00 -2.7932817064356803e-02 -5.6239587435674387e-01 1.6568598855885031e-01 5.3548460901911921e-01 -5.7822398467989555e-01 1.3999053857597821e-01 -1.4256137033440333e-01 7.1337359601330586e-01 1.3075914809204445e-01 -2.8333633074770720e-01 7.2395508171490852e-01 -4.8862854085357638e-01 2.5170121240314330e-01 1.5147572995518163e-01 2.0395100679763103e-02 -4.3641016785368075e-01 2.0119800870841031e-01 1.1132060670893846e+00 3.3513476453577956e-01 1.0741449130973773e+00 3.9041141588293565e-01 -1.2115617118971820e+00 -1.2711820438491273e+00 -7.9616471680249845e-01 1.9905130196870152e-01 9.3631684705102580e-01 -4.6346182236885114e-01 7.2477305502799783e-01 8.1190286730517414e-01 -3.1576588539236572e-01 -7.0407254225027582e-01 -1.9844985089202272e-01 5.3992049043301760e-01 -2.3120290146094033e-01 -1.9417436604095728e+00 -8.6466564867699791e-01 8.3353458508154399e-01 3.0065433287371823e-01 1.3912152760208476e+00 -6.4723837305193899e-01 -3.2114126798457998e-01 -1.3802163701594012e+00 1.7909260416087514e+00 -5.5812026116960067e-01 -7.9777235423330983e-01 -4.9358508140634705e-01 -1.0420526726854082e+00 -2.1116246989217693e-01 -3.0119954566645979e-01 -6.8803655862239022e-01 -7.7481657716297836e-01 1.0109817244819208e+00 -9.6674646196410652e-01 -7.5162401838858506e-01 -3.3315463745603052e-01 1.2730039370863848e+00 7.2930767413104414e-01 2.0263002258288321e+00 -5.8404270484457377e-01 -1.4796562997556448e+00 5.8681704286108499e-02 -5.1547870859846390e-01 1.0202749563670643e-01 -2.1619619265952794e-01 -6.6863826609764462e-02 1.4926175936391675e+00 1.4468504880317052e+00 9.2605192698728478e-01 -2.6169831540823829e-01 4.7918925906225601e-01 9.5195360895138148e-01 -1.3159936691994261e-02 1.1214016880390238e+00 7.3322018917336151e-01 1.4915196057731055e+00 -1.1035943977721250e+00 4.4064633001336795e-01 7.7557497579475287e-01 -8.3899463009739306e-01 1.6170049452715227e+00 -8.8369289745349938e-02 9.3592642961969119e-01 4.4792877164960394e-02 -1.5073314357575662e+00 6.8080626280856038e-01 -1.5788499273593196e-01 1.2667947952258125e+00 -1.5095577213374218e+00 -9.1063659308367295e-02 -4.6985731764772477e-02 1.3419868151752961e+00 -3.7869818251145923e-02 -6.5278628931925653e-01 -4.1546942236394430e-01 -1.9231800363194901e-01 1.4742307862121660e+00 9.5321045130440027e-02 2.4324241668548924e-01 -1.5992167814513807e+00 1.2584808655807691e+00 -1.2458728825165830e-01 3.6756345347672442e-01 2.0588597510686368e-01 -7.8801755439264110e-01 1.9008393917532698e-01 -4.7890162237897899e-01 8.2802543514095772e-02 3.9401121294212021e-01 -1.0313064073154123e+00 2.5704351172522433e-01 -5.0762829580033697e-01 -1.1809969218087399e-01 -6.8640949474103519e-01 6.9303450049264981e-01 -4.7173592298233702e-02 1.4235548577878816e+00 -7.1968330179920159e-02 -9.4814463354431222e-02 -1.1786414489853139e+00 9.1443906544996179e-01 1.4287977836151391e+00 -2.3386212555462649e-01 -7.8043474524324419e-01 1.9771844684645665e-01 -2.2941581664068170e-01 1.0249569200757055e-02 -7.8232707906414323e-01 1.6942266807862216e-02 -5.9581943362631984e-01 -8.6682228021981844e-01 4.0262557467622462e-01 -1.1129991142280748e+00 -7.4400690248876356e-01 4.5728944232956614e-01 8.2587031194330551e-01 1.1795002205164404e+00 5.1528575451273562e-01 -4.1704616996407973e-01 -7.3128121781683786e-01 -5.0940943185586707e-01 -1.0527410719849721e+00 3.7523886921472438e-01 3.4569366379957855e-01 -6.7930324180675850e-01 3.7466857777411010e-02 -1.7239207107997119e+00 1.9819455003596496e+00 -1.9792910438487657e-01 -7.5588324735175749e-01 -3.0047350159507859e-02 -6.4310162481899291e-01 2.0279842582316161e+00 5.4440513418832182e-01 7.3034506432675950e-01 -2.3199356053240758e+00 2.5159584641202337e-01 -5.7797120307396443e-01 1.8877808475593916e-01 5.1379132941604566e-01 -8.2614283673186328e-01 -7.5855482449336697e-01 1.1308084275410153e-01 -1.7547252320618401e+00 1.4303382639665432e-01 -3.2288584535728554e-01 5.4631263994696910e-01 -4.3835055744686618e-01 3.4965995323384491e-01 -1.1615672389173550e+00 1.1263355738417771e+00 2.8409719052373694e-01 -2.3587806722958546e-01 -6.7362500282577231e-01 -4.0253707737023758e-01 -2.8815779550192870e-02 -5.0653313662414601e-01 -5.9805755238545311e-01 -1.1828608858369598e-01 -5.7385694657240982e-01 -2.6058053055129238e-01 5.8698724643500710e-01 3.4134592190384838e-01 7.4153710660475025e-01 5.2547173574708994e-01 1.3790236583476348e-01 -4.4024080276123917e-01 -2.3887730837707317e+00 1.9061360633418678e+00 4.4534482316851770e-01 -1.8577937925479154e-01 -1.1736048870389635e+00 -5.1799555099578912e-02 8.0025934762294715e-01 4.9676331068290375e-01 1.5576780785017321e+00 -1.5335826948259082e-01 -1.2138990814024253e+00 -4.5381144611711215e-03 4.9298408665847998e-01 7.6595148509646915e-01 -9.9960147106372566e-01 -1.4132573583248886e-01 -5.4308168721083361e-01 -4.3491847467676065e-01 2.8099899657921135e-01 -7.1117793339611690e-01 -1.7696486339141632e-01 6.7205811305282315e-01 -7.9797974457863630e-01 7.5901010838817162e-01 -8.4742215036837876e-01 
      </Weights>
      <Biases rows="100" cols="1">
        4.5366073218334052e-01 -3.7384204117188874e-01 -1.7192623961939760e-01 -3.0838827554738457e-01 5.7207623283801556e-01 -7.0896151293235155e-01 -2.9202713679487480e-01 -2.8063828440945365e-01 -2.7768522332296326e-02 -2.7872320335709344e-01 -4.4407058178862158e-01 -2.1213237309314709e-01 4.2279252853975657e-01 2.0127974075575716e-01 1.8990901736697344e-01 -2.3577847645813527e-01 1.9117773786003214e-01 1.5347568423967428e-01 4.8023109382556189e-01 -3.6309766244324082e-01 -1.2381198169489621e-01 8.9482611750946170e-02 -2.4185159901526676e-01 7.4969673846990326e-02 -1.8928316365986173e-01 7.3059021742184207e-04 3.5562675840010688e-01 -6.8394095435339064e-01 3.1493463893677542e-01 -1.7783337456956186e-01 -4.7511513265093924e-01 -2.7999067785359211e-01 6.1320928461787938e-01 -4.5180338314419261e-01 2.2587327111188482e-01 2.7943064115319277e-01 1.5611847396462811e-01 3.1079061634165794e-01 2.4455015498717361e-01 3.8536065536898351e-01 -1.4680900978674757e-01 4.6487104551624059e-01 4.0462819188792631e-02 8.1322838875093090e-02 -1.7162960568750973e-01 -3.1416476968609536e-01 -4.4176545451825944e-01 -7.3006098077465040e-02 2.6504894852267974e-01 -1.5526719664556454e-01 6.7814248444963665e-01 -3.1982100799767038e-01 2.5144576282368075e-01 5.6857169001501456e-04 3.8692070701640274e-01 3.8401201463776201e-02 -5.4914513178943714e-01 -4.7132843514085687e-01 1.1811054080289185e+00 6.4957617992764088e-02 5.8157977189228383e-01 -7.3449665148887266e-01 3.6355476707606271e-01 3.3803260325189188e-01 3.3083965996505094e-02 -4.0662578029386937e-01 -5.2218900603608578e-02 -4.6006084320515578e-01 -6.4501215510176080e-01 -4.8225603762712099e-01 -1.8695151269704852e-01 7.4125547882714826e-01 -9.7194362492867992e-03 1.8668920771006772e-01 4.1105859299304576e-01 -3.7235947775744030e-02 6.2573236471131821e-01 3.6368414412845934e-01 1.1855807319822365e-01 1.0014510950353632e-02 -4.2505618802136808e-01 5.4802897363608616e-01 2.6882325583707699e-02 -4.5339381033582232e-01 2.4547145528670822e-01 6.7075346002755820e-01 -2.8458388550650054e-01 9.0308222109745512e-02 3.3433113852903962e-01 -3.4617536266100424e-02 1.6219835807662647e-01 3.9245335395817321e-01 5.4309948690327910e-04 -2.2681456729524338e-01 3.6915947514783476e-01 -1.4026363858087812e-01 -3.7192382821481594e-02 5.5434745222654358e-01 1.4427201304622631e-01 3.6905633553834677e-01 
      </Biases>
    </Layer>
    <Layer ActivationFunction="3">
      <Weights rows="50" cols="100">
        -2.5182675935658566e-01 -2.0316929722293747e-01 2.2674711928115345e-02 5.1320286077569436e-04 -4.4954610269546641e-02 1.3116545031451093e-01 -2.1936466855560663e-01 2.8056407242125936e-02 -2.1351567204708866e-01 1.8720971896437388e-01 1.5156127266999206e-01 1.5586747560858646e-01 -1.2115156201837360e-01 8.0111911347618997e-02 7.1601803503284406e-02 -2.5572797281899978e-01 -2.2728298285990104e-02 -1.6369315492531311e-01 1.5133556447555410e-01 3.4207417631984906e-02 8.1733406898971531e-02 -1.4409758350969912e-01 9.8040673364618525e-02 -2.0536717989558907e-02 -8.4203417496602026e-02 1.9918967610086891e-01 -2.7097134976109871e-01 1.5524909040741436e-01 5.0720092857727876e-02 7.8692340452550788e-02 -6.8210128676031032e-02 -1.2121758237101077e-01 -2.1847831168656032e-01 -6.4474519124723254e-02 6.1223068098251558e-02 -1.3143817281713108e-01 -8.4198438785759916e-02 -1.0271217192706134e-01 2.5436623858471397e-02 1.5126724591287818e-01 1.6382446560595051e-01 -2.3792055939377244e-01 -2.1263580008341282e-01 -8.9625235208760270e-02 -9.9013184181796754e-04 2.4069432379865713e-01 -1.1726208297986743e-01 3.7674904226323080e-02 5.1544363188505901e-02 -5.0113154161224513e-02 -5.0479393561778232e-02 -7.3395665521884160e-02 -1.4130464166017484e-01 -5.4177863616901877e-02 -8.2261481793818411e-02 -4.2902846091308505e-01 2.5408498895088921e-01 9.5551625499205768e-03 -1.1969401952385614e-01 -5.5277050181190911e-02 1.0161109252226322e-01 -1.7633935887409427e-02 -9.1841696003919532e-02 8.3005044458935306e-02 -1.9098599099305677e-01 2.0142199134731492e-01 -4.2815212680874286e-02 1.3728188186769660e-01 -4.2352121052091261e-02 2.7331278763950567e-02 -3.6449159406107229e-01 -1.3930672896373691e-01 7.7188073232229787e-02 1.0963705388666585e-01 -2.8525999970590826e-01 -3.2412277240907278e-01 -2.5407478250000537e-01 -3.3884784346069524e-01 -1.9847184309683880e-01 -1.5207854921056152e-01 1.1340511396590072e-01 2.2180277881071006e-01 1.2919866131735566e-01 8.5758182587607604e-02 -5.3258253221663610e-02 -1.9058786839816352e-01 -9.6839636927479711e-02 1.7125602376593357e-01 -2.3554586382308468e-02 -3.7449175446431560e-02 -1.0890992885283894e-01 1.6334072607428157e-01 7.8489949185739677e-02 -1.3618153157646445e-01 3.6852113923968234e-02 5.9541719996873993e-02 -2.1124274610943555e-01 -3.8016744177985912e-01 -1.1296407651672324e-01 1.0926713904469910e-01 -9.5912631033672091e-02 3.1153193379837820e-02 -1.6900005210241220e-01 -2.2699579078978344e-01 -1.7164774062294827e-01 1.7335378190848719e-01 5.8244053187107445e-02 -2.2657935437861604e-01 -5.5296927819915839e-02 -1.6380958085768693e-01 6.8609317512790702e-02 -1.0674681674493805e-01 -5.9360825699099029e-01 -1.5371819643549714e-01 3.0921683720328643e-03 -2.8540519563268911e-02 1.7076271456703940e-01 -1.2492775859051174e-01 -1.6023992626424510e-01 -3.1839732780503416e-01 -1.0517276745419957e-01 2.5310086295808519e-02 3.1251883548284155e-02 -4.8551463934209484e-02 6.2723560198530107e-02 7.8015270425802780e-02 2.2651748290857285e-01 -2.9134034396687192e-01 7.6316934187094218e-02 1.6573638974546216e-02 -8.8430020824905795e-02 1.6533446775006611e-01 4.1466842003006249e-01 -2.6118056349779006e-01 -2.6863337299519834e-02 9.1554897265865326e-02 1.7573023264841636e-01 2.7222822047531448e-01 1.1201632006164772e-01 2.1651292310129197e-01 -4.2312711018233778e-01 3.8666672794800749e-01 -6.2239166069834630e-02 -8.5303335702548513e-02 -2.2743976930319987e-02 7.5151543877622365e-02 -9.9142929413368313e-03 1.1947046135800203e-01 -5.7429925617699787e-02 -2.2411394526581771e-01 -4.9764384858466326e-01 -4.9918134753026928e-02 2.0635727381809252e-01 3.2429064111585193e-02 -2.7510806742368889e-03 -7.0419323268932346e-03 -1.1691472793549779e-01 5.3769055546592113e-03 1.5451792847097036e-02 1.3191474381433127e-04 6.0178352057243215e-02 3.3958875996056997e-01 -3.4393619261616221e-01 -3.9406853121994467e-01 -4.5595617231584638e-02 -1.5680849893197477e-01 2.2543457420977503e-01 1.6213545269803981e-01 -2.5297558892707245e-01 -2.7400460517251413e-01 5.7746671227154982e-03 1.0306015302388870e-01 -5.8653873145711653e-02 -2.5519081697657254e-02 -1.2782155321954408e-01 3.8273904114184937e-02 1.4315767032437079e-01 1.0254695988916715e-01 8.6190552675086629e-02 -1.3192877860335056e-01 -3.5544646358004271e-02 5.7322736884016529e-03 1.2443680092079476e-02 -7.9684336507494000e-02 -3.4351485684484796e-02 2.4387856171332198e-01 2.1986154700800030e-02 1.0034688527642655e-01 2.2252606844752831e-01 1.2997389749657842e-01 -4.9712829338155531e-02 -9.7175325428935658e-02 -2.8893481025439594e-02 4.0408385293236482e-01 3.5692693128354963e-01 -2.3209713137908833e-01 -2.5979776873007902e-02 4.0298188427577472e-02 -2.7825875207552635e-02 9.9865261620545695e-02 -6.4451875438063008e-02 1.8020633984051709e-01 -4.6730226170895464e-02 5.0023453543589363e-02 -1.9774311451078913e-01 2.0546081599716375e-02 -1.2613435183958180e-01 -2.6274946508172825e-01 -1.5154881173246923e-01 2.7375862008037233e-01 -2.4266599871254874e-02 1.5084868410363100e-01 3.2684300114406172e-02 4.0634500162616091e-02 -1.4532801644966325e-02 -8.3147701661408238e-02 1.2788239229581935e-01 -5.5928059913117702e-02 -1.5093320590827417e-01 1.1672492287028229e-01 1.8485105552402378e-01 1.3018298189095953e-01 -1.6880146436223512e-01 -1.2493386843252903e-01 1.5979370017113564e-01 -5.8570787588959561e-02 -1.9861709471082828e-01 3.6572864652819292e-01 -2.1811815837471848e-01 2.2933913851660181e-01 3.4015114362355825e-02 -8.6360494952184147e-02 -1.4918981737781911e-01 1.4302382964699112e-01 2.1805741921095498e-01 -2.2798273067996919e-01 1.3815311966750904e-01 4.8062615026447812e-02 2.4663019932528282e-02 -1.0565152736248323e-01 2.3363364427698863e-01 1.2496671104709235e-01 -1.9341491705958247e-01 -1.5692431303226181e-01 -1.1088879799744156e-01 6.3736612597201842e-02 -8.2885645825193352e-02 1.1332329072302567e-01 -3.0011946428476134e-02 -1.1315340543585087e-01 -1.2264680875241830e-01 8.9213848093571135e-02 -3.0493543044797528e-01 8.7777331174187340e-04 -1.1304959463488641e-01 -8.8833661555040383e-02 -1.2000602844579135e-01 -1.5255483974191400e-01 -8.6596517348455019e-04 -1.7294581866690772e-01 -1.3886548149519298e-01 -7.7060432092458539e-02 1.6721517860295024e-01 1.0680538448787077e-01 -2.5874204095124177e-02 -3.7532345450001607e-02 1.4771422833973663e-01 -3.7800152644426516e-01 2.4343344510019307e-01 1.3412229409631313e-01 1.1046864240973844e-01 -7.7321540327291369e-02 -9.5877766898060116e-02 -5.5664704432630614e-02 1.6875251379799633e-01 -8.3663361170634498e-02 -1.3490602323073550e-01 -8.7234411176818946e-02 -1.5549329832786413e-02 -4.8011961422224719e-02 1.5310875302984361e-01 -1.1626781859883216e-01 1.2902870194776525e-01 5.1523751485338956e-02 4.7341099105661505e-02 6.2701413879741985e-02 7.9253864017784573e-02 2.1841599985184021e-01 -6.0197622974136146e-02 -1.3773934210751021e-01 1.5602039125729089e-01 3.4513672392345921e-03 -6.7723199081298813e-02 -4.5284422998584195e-01 -7.1149029866136179e-02 1.9463775734916383e-01 1.6598819146063562e-01 7.9932893197151536e-02 9.9924449439247567e-02 -1.6556517412442073e-01 -2.2980247434184989e-01 -6.9074148241968600e-02 2.8394377441265861e-01 2.4069956938135321e-03 -2.2035209767520825e-01 -1.7431695131935019e-02 8.6587320414184640e-02 -1.1380774424073420e-01 2.0144358851587715e-01 8.3358175216555294e-02 -1.3983193929581631e-03 7.6273145729152544e-02 7.0109707931552509e-02 1.8264006132186705e-01 -8.5373541310341861e-02 -1.9128213206564847e-02 1.7189895787786850e-02 5.5550219554676414e-02 -9.5144337014869573e-02 1.8557245601687301e-02 -2.2533777115250980e-01 5.5780864295671979e-02 7.0408898202429168e-02 -2.3503223924889374e-01 -1.4376058491357380e-01 6.6867390880077362e-03 3.7577236632588537e-02 1.1507748457461696e-01 7.3895571629932197e-02 -1.1622772090363435e-01 4.4715713233160148e-01 -1.2316119288154317e-01 -8.3681215844823117e-02 -2.4787916469584018e-01 1.4020858826871416e-01 7.6643261182230901e-02 1.7794825730902059e-01 -1.5488038222196193e-01 -1.4346314172583342e-02 -8.9811248386671566e-02 -1.9285111018212286e-01 -8.3939313400003601e-02 -1.2606100751405561e-01 -1.2688336402810108e-01 -1.4427971812403029e-01 8.1894148275689586e-03 -1.8613892459444270e-01 7.0193917637995887e-02 2.9463720086945555e-01 3.2888515545939223e-01 7.9525166614198922e-02 -3.9213374289232150e-01 6.7520050495515321e-02 1.4273322242077011e-01 1.4886220557915056e-01 -1.1439054987748351e-01 7.4247469474508360e-02 -9.2363221069388560e-02 1.4196008180317546e-01 7.1297663409022452e-02 -1.8324051149504675e-01 -2.0074928898199731e-01 -8.8098567295651534e-02 -2.5425805612787920e-02 -1.2052713452973492e-01 2.1011326910540373e-02 -2.5009573032816645e-01 -3.6460214638306770e-01 3.7171622608841554e-01 -2.6453849473907382e-01 5.4940606375192956e-02 -2.0060998866942298e-01 2.5467306323738614e-01 -2.8168839087327781e-02 4.5609483590914962e-02 5.1676900794028501e-02 -7.1024726286729678e-02 -1.6999966650928458e-01 1.7089181422269839e-03 8.7282392243224649e-02 -5.4039536220711018e-02 8.5529062467298821e-03 -1.4909901296271280e-01 2.4319047163862370e-01 -1.5907664657164415e-02 1.2006731903597113e-01 -5.5618985881993238e-02 7.9371711301040163e-02 -2.0795899620028251e-02 -7.3709355121502493e-02 -1.6244898559124468e-01 5.5292528944967036e-02 2.1339025577095913e-01 -2.7964409427336118e-01 3.9889523052744989e-03 1.5075137624375773e-01 -6.2491743043169108e-03 2.0961582917832934e-02 3.9107619273066489e-02 -1.4761850969410146e-02 -4.2355195098614587e-02 -9.5675265181700372e-02 -3.2857077289377079e-01 -3.1473352583903741e-02 7.1908620749356222e-02 -6.3900232981516869e-02 1.4310112905038322e-01 8.5070034544071152e-02 1.0052702747014045e-01 -5.6228600954382341e-02 1.3599656990369258e-01 -9.2360077489892403e-02 2.3330668768676069e-01 -1.9283808706026164e-02 -5.9663656427773812e-02 -2.1771394890188877e-02 -2.0653852419963431e-01 4.5970113062419965e-02 8.3003575655191689e-02 1.7188844177991966e-01 -1.1963007348116712e-02 6.2067005147133994e-03 1.0020689966106829e-01 1.5139931789495986e-01 1.7735293426632404e-01 -3.2267337092541419e-02 1.8957824510585281e-01 -2.2626229584484681e-02 -1.1465029364885544e-01 1.8712424890836681e-02 3.1942976656938904e-02 -7.6774466648558706e-02 -2.6801215784179944e-01 4.2190822515712961e-02 -1.3806498182727086e-02 9.4412821730638544e-02 -3.0231559818840039e-02 -7.0564317224418055e-02 1.2659092601002256e-01 1.0654617649495175e-02 -3.2117095770882059e-01 1.9421513685275706e-02 2.6637687688775443e-02 -3.8264173879129337e-02 2.0784412545796205e-01 -6.1397448161685166e-02 -1.8603126117639154e-01 1.9480661576454150e-01 1.6731182434771459e-02 -1.6325932340214469e-02 -2.0300790312148719e-02 -5.5682855820198149e-02 -1.8710418775566764e-01 -1.0743160839167321e-01 -3.3078227116930498e-01 3.4715892044386701e-02 6.8080540576936341e-02 1.6486003342809341e-01 -6.9497262945681496e-02 2.6713209507758978e-01 2.6337618205654573e-01 -2.6793407466918423e-01 4.4918141411976156e-02 2.1026829916617662e-01 -1.0174694498102634e-01 1.9959402084106975e-01 1.1711613205606015e-01 2.6770524930139444e-01 7.8288921773311662e-02 5.7092140971892649e-02 1.0579212493927727e-01 -9.1832614262237280e-02 1.2915385535177491e-02 1.6793871792759499e-01 -1.4572170423985148e-01 1.6658838103509035e-01 8.5458027550960533e-02 8.3377727766499113e-03 7.5274901854743351e-02 -1.4476564091294125e-01 -7.8887665093848772e-02 1.2894748808584131e-01 -1.4977359913556218e-01 2.9642162485931023e-01 -2.4016779328741944e-01 -7.3942551458679017e-03 2.5905243606985223e-01 -4.5144800608134313e-02 7.3954645291590834e-02 1.4330059322124830e-01 -2.2573138510449758e-02 -3.2249490013677219e-04 2.5464400011415152e-02 2.5354169871669385e-02 -2.8239593375926669e-02 -8.5160934063966340e-02 -3.6196960961206899e-02 -8.3750280291127660e-02 -4.4857654468417829e-02 4.4125433182272300e-02 -6.9564578873855343e-01 2.5160060840326426e-01 -4.1378885276778016e-01 7.8828072678950686e-02 -4.6265458604214688e-01 5.9623873356387258e-01 2.0542013840745638e-01 -6.3232923890804260e-02 1.3997067023894547e-01 2.8090515863143034e-01 -3.1223026869323323e-02 -9.7055411037697617e-02 -3.8205205008264365e-01 -3.6301391343997330e-01 5.2205379297732835e-02 1.1161780275480487e-01 -1.8988901439913411e-01 8.9003335825150451e-02 1.4359267893123559e-01 -8.9917000665222235e-02 -3.8695743572941166e-01 1.5145767320970044e-01 2.0359323449672034e-01 -9.1934829501171087e-04 2.1935480501894736e-01 -1.9658141583142114e-01 -7.6904369010416487e-02 9.6855147276073084e-02 -2.3232782751979897e-01 1.1178762560875924e-01 3.3762171077175890e-01 -1.0315217244617720e-02 -4.5801011489850461e-02 -9.4071222272029825e-02 2.4112802959710980e-01 -1.7384412610700853e-01 -3.8677762151968348e-01 3.5012255387338501e-02 -2.6139600788974665e-01 -1.5044482802178358e-01 -6.2549732213048437e-02 -1.8339987759926825e-02 8.8413879414056248e-02 -2.6217137763030007e-01 5.3341514896334852e-01 2.7178382554532898e-01 9.8215017374914393e-03 2.7994795002679335e-01 8.2805829287619967e-02 1.5679686656481778e-01 -4.0603989937903251e-01 -1.0427405672419690e-01 1.2199667456618539e-01 -8.6252087191865390e-02 -6.0464520305486366e-02 6.5546796439562391e-02 8.2375830016792662e-02 5.0890856917683844e-02 -6.7999032371079182e-01 2.7268306036728751e-01 6.3327693999068790e-02 4.8627887603362902e-01 -2.4466845099646686e-01 -5.7653782017703681e-01 -3.2680115416239636e-01 -8.9764536722865024e-02 -1.7435981016456104e-02 -7.5116858018141081e-02 -1.8461473674601544e-02 -1.2790035520787210e-01 -4.3443799762679376e-02 -1.7241947802970985e-02 -5.4060774405547518e-02 -1.4191691027532485e-01 2.4990636393705457e-02 8.5441674949770688e-02 -1.4272320500387202e-02 9.7121611286003440e-02 3.9853686338886224e-01 -9.4216233559399246e-02 -3.1700843288979798e-02 3.2828486251607403e-01 3.8508890039588542e-03 -2.2165873319764381e-01 -1.6682332380587458e-01 4.0306786369641440e-01 1.4299868808103128e-01 6.3688399050119249e-01 9.2615019809629107e-02 1.6998667657517150e-01 -1.5278065356033080e-01 -1.2164851729350019e-01 -3.4289931718012961e-01 6.2636078577200993e-01 2.3925386755255898e-01 -3.0249941987148632e-01 1.7167053187687556e-01 -1.4092321955080839e-02 1.4184821584936056e-02 1.9477845287197221e-02 2.6759993852280849e-02 -1.9107473236578509e-01 -1.0180189078963971e-01 6.8378433169525701e-02 -3.6296300557143918e-02 -5.6292848644067327e-02 7.7374273408853958e-02 2.1354921065273819e-01 1.1282910768106862e-01 1.0004142622917772e-01 1.1043482199773973e-01 1.6085242872245782e-02 -1.8803307748958376e-01 -5.6231659062034291e-02 5.1981758765403785e-02 -1.2998157185005474e-02 -4.1080085864279697e-01 -1.4948684112781848e-02 -1.5278355188874485e-01 6.8132469585861027e-02 -5.0383457500964214e-02 1.1198639717875018e-01 2.4097028255490850e-02 -1.1499148719183150e-01 1.1974826371955492e-01 2.1400014926773772e-01 -2.3274046016115835e-01 6.4472782177772012e-02 -2.2085652267423001e-02 -1.7278418206275117e-01 -2.1239714133864659e-01 -2.2587584294886470e-01 1.6942270696112119e-01 3.9808243020994710e-01 -7.5269250852315799e-03 -3.0595742186465529e-02 -2.2967920121736612e-01 1.1644531774957069e-02 -9.5358382330335504e-03 -3.3768665424194932e-02 -1.5596938634710787e-02 -3.5568178431371306e-01 7.3396039400047589e-02 2.5850459986093349e-01 2.3556647426775310e-01 5.3480346721565972e-02 -5.2108358172552896e-02 8.6175515966946045e-03 -2.2384364387621866e-02 -7.2795292742730541e-02 -7.0905434459539812e-02 8.2876965455142865e-02 -2.5860691768186866e-01 -4.0688025641784815e-02 -3.1386339716432315e-01 -2.8882879998489430e-01 8.7897302302031213e-03 2.3419148847982982e-01 1.2878225828996367e-01 -1.0861986328516850e-01 4.7460239955447294e-03 -2.5083238496895557e-02 9.5342437090659107e-02 3.2572281075413279e-01 -2.7496359202616000e-01 5.6882824053061394e-02 1.3890569108147666e-01 -1.8043484150512304e-01 2.3243187495774328e-01 -2.1904119028423236e-01 1.9861645143502446e-01 -1.3089919748158399e-01 1.6683638053428534e-01 1.4742175891165815e-01 4.2794135186669434e-02 -8.9770296770077071e-02 -2.2392064005682435e-01 1.9859668208762243e-01 -1.5776116652950661e-01 2.1618670385658301e-01 -1.4464853685006718e-02 -6.9635990592574679e-02 -1.6205764363235434e-01 1.1073916924692374e-01 -2.0725733780611635e-01 -2.4495780709901516e-01 -2.1305171192807537e-01 -8.2997135429662798e-03 -4.4179531843818981e-02 -4.1223247476990216e-02 -2.5243000599755858e-02 2.1378479687055638e-01 1.9617555849482080e-01 -3.1507605537409450e-01 -2.2373789256148502e-01 1.8227908448641564e-01 7.7347816760317240e-02 -1.0512396950243930e-01 3.5156114243950154e-02 -6.5358525324397523e-02 -2.5076365311188670e-01 -7.1352443647163229e-03 1.1911078151969259e-01 2.1772990764485505e-02 9.2056862292320390e-03 8.0068269708043996e-02 5.5535356100867080e-02 9.9664225359468145e-02 -2.4758790397670111e-02 5.4975138569956325e-02 4.4922214000057227e-02 7.3048117332774873e-02 2.2286527422559310e-01 -1.0141309361478502e-01 9.2140637781530324e-02 -1.4813686043507525e-02 8.6478451514278326e-02 -1.6875979941966966e-02 8.2345556334068051e-02 1.4449994268877989e-01 1.4480802849051913e-01 -1.1103941589018654e-01 -2.5319578802564680e-01 -1.1695174330115861e-01 -1.1557274982449815e-01 -1.6679605761938437e-01 -1.1389971677301533e-01 -1.2208748298018983e-02 7.4678543855369969e-02 7.0317248657663589e-02 -1.3124836196921510e-01 1.5440086189576541e-01 2.0451951769134286e-01 1.5645778420773082e-01 -1.6224301897284993e-01 -3.0111015410057774e-02 1.2100273712985436e-01 2.0395638122485803e-02 -2.3945154226767046e-02 -1.4497417728146997e-01 2.4194360033725961e-02 1.0150167657039889e-01 1.1055942180898753e-02 1.0703536633629794e-01 1.5676043725688849e-01 1.4019866328619068e-01 -4.1957274051634519e-02 8.7801974812168990e-02 -1.6938315738455646e-02 -1.6657132692845045e-01 -1.5641159602367194e-01 9.0347035533717340e-02 1.3536950873606676e-01 -5.0148526642609624e-02 -4.5896148167197760e-02 -7.5112960251039085e-02 -3.3348311852115474e-02 -3.4705339726684936e-02 1.7947885370506145e-01 6.8690767889785773e-02 1.5261071831886242e-01 1.4752869115750528e-01 5.6142412362746155e-02 1.4508167000617592e-01 3.8190551498466167e-02 -2.7158512065754492e-01 -6.7483393706060213e-02 -3.1862746554507410e-02 -2.8133063497068869e-02 -1.1801394025487837e-01 -1.4850548438863467e-01 -3.5955423358480537e-02 -5.0839976996417749e-02 -1.4046804055361989e-02 5.8614322102393958e-02 -2.1936691331636984e-01 -1.4189506093141705e-02 -3.6991283308588890e-01 -9.6182370570821296e-02 -2.7469974622719585e-02 -1.3115609318436037e-02 -9.1547312551074012e-02 -1.1032246516541087e-01 1.1987176677054347e-01 4.4040354727582061e-02 4.9733238081834469e-02 6.7612642509985083e-02 7.9136065234467090e-02 -1.4633642592007776e-01 -3.7170938453327952e-02 -8.8146005918686252e-02 -2.0114752353208462e-01 3.2420491326753308e-02 9.4547451092170443e-02 -3.4005696750290776e-01 -3.2630355498279119e-02 -2.3645397841948348e-01 -7.0642128675135751e-02 -3.0353491237815628e-03 -1.2998815508657491e-02 2.8486801214648801e-02 -1.6248737480625669e-01 3.0898108269203139e-02 -4.8293911763231140e-02 3.5418791508718780e-02 -3.8973340442445256e-02 -1.4672390599440891e-03 1.9660861790251954e-01 -1.4434991369123873e-01 1.2352960445605318e-01 -7.8419064224381996e-02 2.0112740952226044e-01 -2.9293547173643275e-01 2.4386081224643695e-03 -2.9067742780767197e-01 -3.0040702115844694e-02 -5.7169855377925044e-02 1.1412283371766845e-01 4.7476600111081867e-02 -3.2379625992980894e-02 -4.3220332282012837e-03 -7.6986194533345056e-02 -2.9742560710217410e-02 1.0229875002411891e-01 2.4761089442640306e-02 5.5332180030886718e-02 8.1866259815585402e-02 -1.9354093164030353e-01 1.5596372987251789e-01 1.0070146546204998e-02 -2.7770666758717666e-01 -6.9300596376590778e-02 -1.0853799946413130e-01 1.1346055713845447e-01 -1.2457000210310036e-02 8.9717984041102386e-02 9.3540623519412530e-02 8.1530724293595133e-02 -1.3872172500501351e-01 -5.0383876367054700e-02 4.9579928280600066e-02 -5.5773391941615989e-03 -2.0979520617941760e-01 3.6737866525775642e-01 -1.7004298456758446e-01 -1.4604672978575992e-01 3.3682933005477200e-03 2.1102800718247353e-01 1.1089674674638132e-01 1.0632134676341491e-01 1.6108130743153429e-01 -5.9990350335985987e-02 -7.2552276322863499e-02 6.9503719525231961e-02 -2.5900515809739211e-01 -6.1215807823998943e-02 3.2460938538522228e-02 1.0236582454486157e-01 -6.8836178022404243e-02 -5.7985588069610842e-02 -2.6402894692611249e-02 1.3693878247153682e-01 7.4461598773257504e-02 1.6840656321989397e-01 -6.3239080481229504e-02 2.7436838985712916e-02 -4.1967973499380466e-02 1.5684182550233200e-01 3.4914346103759854e-02 3.1111656682755040e-01 -2.1467800641049767e-01 -1.4193757141622412e-01 9.3289687464356799e-02 -1.5318709352842177e-02 2.1128375371997622e-02 1.7902825628690177e-02 1.6736321935269183e-02 -1.9735298321178624e-01 7.5091074266033300e-02 -1.2704830156729838e-01 6.7617365807946944e-02 8.4848229039185416e-02 -1.2862541462196869e-02 1.5827954509487704e-01 3.5356978787822305e-02 -8.0936206164675256e-02 -7.6529517609884773e-02 4.3525923149067634e-02 -8.4688114126512268e-02 -2.3279413929179388e-01 -5.0306115637711200e-03 2.0012550109796243e-01 -4.9849287496674978e-03 -1.6810639744254191e-01 1.5577399103138210e-02 -7.7995288604466625e-02 -1.0984414617240407e-01 8.8340579298035529e-02 1.2457399161198604e-01 -1.3327259876045325e-01 1.3340417830982387e-01 -1.6055581289481827e-01 -3.2292737215407166e-02 -1.8027268324979435e-02 7.4436499586788843e-02 2.4158117353108736e-02 1.4763399885147526e-02 1.2732934830893813e-01 -2.6455892026528201e-02 -1.1582891488852623e-01 7.8992255538974765e-02 4.9078482232465755e-02 2.0762127640669256e-02 -1.9100053392073171e-01 -1.2277657684879445e-01 -1.2079220006931009e-02 -1.6291388786087799e-01 -6.8957941705791059e-02 6.3139637457881703e-02 -1.9684194133376448e-01 3.2134832466690987e-02 -1.2733431785409721e-01 -2.1848138346887869e-01 1.1494000429842170e-01 2.6870904695341552e-01 -3.3733487541352143e-02 -5.1938273192478422e-02 1.5040329261642887e-01 -1.1952298318894122e-05 -4.6823454474907676e-02 7.9285785178351567e-02 1.5576364684963273e-01 -1.7283462610971140e-01 -1.1368157961145101e-01 2.2954879913971549e-01 1.0570454713284902e-01 2.0175650251877938e-01 7.4087179694557722e-03 3.1100763444486557e-01 -2.6405742648526481e-01 8.6396073757749853e-02 -1.5858507785571926e-01 1.9308704442234750e-01 -3.8794147312084960e-03 7.4925918372850064e-02 1.3462348757744241e-01 3.7134997462589858e-02 2.2640376467940032e-01 -1.7468292898869718e-02 2.9255256603239715e-01 8.7994382354133469e-02 8.3924349758192629e-03 1.7713059804775649e-01 -1.3379013796401576e-01 -3.4596279729373152e-03 1.2515839443316776e-01 -5.9468176120125909e-03 1.2826184116306852e-02 -7.1875276639457950e-03 -4.2347877595732782e-02 -1.5519817107711006e-01 -6.4878520116135610e-02 4.9116199965127075e-02 3.8389469100343555e-02 3.5705792179103396e-01 1.5189135696539935e-01 8.3012338122496997e-03 2.0507301836674219e-01 -7.5166735267449256e-02 3.1740304240175771e-03 7.7416402495617487e-02 2.4233278112695511e-01 -7.6986044861540696e-03 1.1419881281364633e-01 1.0862923537657897e-01 -2.3445662149925391e-02 1.0223590495980750e-01 -1.9123373159851026e-01 2.2848649216416324e-02 -1.2793460438226309e-01 -1.2699896612107447e-01 7.0509245251975688e-02 -2.3680055688413890e-01 -3.0293852010112077e-01 -1.0244240547306047e-01 -9.6360211575671595e-02 -3.3227627626716627e-01 1.3379677055496023e-01 -1.3289298367775843e-01 -7.5813214345597249e-02 -1.7152321810483101e-01 -1.0593335174420847e-01 6.8811908959015122e-02 2.6201441981010398e-01 7.2913971219641771e-02 -1.3223546876666029e-01 -3.5995129218342370e-01 -1.2520521723770205e-02 7.4082771950104240e-03 -4.5105965461504208e-02 -2.5823811100826866e-01 1.3790777574142382e-01 1.3267324280010617e-01 7.2511267168284183e-02 -2.2200773347541089e-01 3.2759063405754851e-02 1.6344716059925551e-01 -2.5932343694221774e-02 7.9150959971073048e-02 8.7851085769582535e-03 -1.2020441455212447e-01 -3.1018064002721518e-01 -2.9929649577191107e-02 -3.1238884314771548e-01 1.7776024486291792e-01 1.6378868077518771e-01 1.0916772777097015e-01 -1.4724261212538303e-01 -2.9615429251571519e-02 -8.6573874870835996e-02 -4.2459269428789331e-01 -1.0791909719099807e-01 7.4497973071693327e-03 -2.6268550528336665e-01 1.6870761809362089e-01 -4.4358690936623979e-02 5.9241756634429293e-02 -2.4845670266410305e-01 -3.4764736018210868e-02 -2.2353492316982126e-01 8.3323582075876076e-02 1.0399273330736794e-01 9.8126765564189949e-02 -3.1715417950060437e-01 4.3868546720016971e-02 -1.4028910518009405e-01 2.7520563184254232e-01 1.6847408621874595e-02 -1.8496512535196535e-01 7.4941569781239309e-02 -1.2021904991081575e-01 1.7521915134102661e-01 -5.6199575589800009e-02 -2.9674001590914567e-01 -7.8332630895872737e-02 4.8823037203166747e-02 5.0125164423221173e-02 2.1664912594600774e-01 -9.3243823648031479e-02 9.1006188359948559e-02 1.6925207195776307e-01 1.5761066991557487e-01 -1.7661435010190074e-01 8.6176027992598228e-02 1.0389888321394128e-01 2.5796870846794018e-01 5.8271514462946331e-02 -1.3161681097099487e-01 -7.6040595291350904e-02 7.6130954649745813e-02 1.1993620704432748e-01 3.6948834255547780e-03 -1.0942982510380544e-01 -7.7927627459043233e-02 1.1172260947531987e-01 -2.9682646384194444e-01 -1.7026707959952417e-01 6.5625927058026765e-02 -1.6709086199252871e-01 -1.3503569780465102e-01 1.3565778282664420e-01 2.0208790279022504e-01 5.0236375850872712e-02 3.5146372234064499e-02 5.6470304400945151e-02 -1.0846947802834771e-01 -7.3016052736652029e-02 1.3842159160229434e-01 9.9933727112425264e-02 -2.0359463689016391e-01 -1.1836353489638146e-01 2.8845027989458000e-01 -2.1061210996866703e-01 -2.1167562242591431e-01 2.4564792857136752e-01 2.2729907968546090e-01 1.5717491729337358e-02 -8.5002763961604652e-02 -1.4012882481064153e-02 -1.0612832178006440e-01 9.3431422871069453e-02 3.7756498172095733e-02 -1.2760529583108621e-01 3.5572060874070788e-01 9.7810821292028269e-02 2.6825087503572292e-02 -1.1813832963764997e-01 -3.1555557612448916e-02 -8.7595863223877884e-02 -1.0193378502982170e-01 -1.5415782990051066e-01 -1.5797143562770452e-01 -7.8894461895907000e-02 -7.2817311584654307e-02 3.5653433150637820e-01 -2.5738798086809367e-01 8.0218013411973974e-02 -3.8994387147234721e-01 1.1244364457813397e-01 -1.3914024734555891e-01 1.6228417305611559e-01 -6.6625618956323546e-02 1.5389433727395355e-01 -4.0994248549793479e-02 -7.0416778398099511e-02 -1.9581630610720499e-01 -2.4034493150322109e-01 1.4955544389496813e-02 1.2652066862096642e-01 1.9647496064105142e-02 -3.9878228053647276e-02 1.1314590369792127e-01 -9.9712724289675991e-03 -1.1927502594523993e-01 1.1734933289146102e-01 -4.6761338458122265e-01 -1.7160663396805578e-01 2.1554171200168629e-01 -1.0030136601737294e-01 -7.4599363813464492e-02 2.2620295202477586e-01 -2.2096140073475318e-01 -1.9408752813361951e-01 2.2600909876916392e-01 2.3318810324100425e-01 9.1661534924760660e-02 -8.4537316307223540e-02 1.8316966035032076e-01 -1.6054253326894019e-01 3.8001754792357609e-02 8.9873738370981587e-02 -2.7093243994730487e-01 1.0140096836216729e-01 4.4224719247680830e-02 -6.4537028692977255e-02 2.7911593102192088e-04 -1.3553722599378386e-02 -1.7092089312407227e-01 -9.3837567932994040e-02 -1.2471019940691608e-01 -1.7207138316494508e-01 -1.2598130266452201e-01 -8.4590170664802747e-02 2.7440116117831481e-02 2.6082557493075548e-02 -7.1855578543504051e-02 9.4182715635465056e-02 2.9294284868298009e-01 2.7407935583909432e-01 -4.2900680360987924e-02 8.3636314679516807e-02 9.4882475613565109e-02 9.3251213521938117e-02 7.1990808178282253e-02 1.0650648394947719e-01 -9.0090052508288831e-02 -1.4601034858486148e-01 5.1102325539288021e-02 2.4913941272703105e-01 -1.6023089054344886e-01 -1.4441941524397739e-01 -1.5210881093622106e-01 7.0532598182739395e-02 2.6662266445563287e-01 -1.4772892172059590e-01 2.3713213091894320e-01 -5.6288438898893157e-02 -1.6505740973925756e-01 2.5681059987152827e-01 2.4260573104272032e-01 1.1124971603922328e-01 -1.0059490475353071e-01 6.3559776297239204e-02 1.3520114510384040e-01 7.1209792157943361e-02 3.0874962379484908e-02 -1.0271825537170549e-01 8.0035328297270697e-02 7.7028820429936071e-02 -3.2416412196274981e-02 -8.1436648438880932e-02 9.3400929388663526e-02 -6.7124099073924720e-02 -4.0998386635130155e-02 2.5975095540204518e-01 1.2541773207289164e-01 1.0798574362247619e-01 -2.0763832073765706e-01 6.0827438524856697e-02 -2.0156414131742670e-01 5.6493441062996488e-02 6.1836552375437163e-02 2.3803584980149384e-01 5.1382830973835343e-02 3.3655345313764806e-01 2.3040856492021759e-02 -1.6119281362867779e-01 -9.6152367319748577e-02 -7.4471789116028766e-02 -1.5102450354633224e-02 -2.4772095205408801e-01 2.5552378469813994e-02 -1.0966219944182651e-01 -1.8220742870993098e-01 -1.0317950841527188e-01 1.2676493199635178e-01 1.4174360789913090e-01 -5.2579995777681528e-02 -2.2631072790131718e-01 -1.6111379658325800e-01 -3.9108200857039623e-02 -1.6037663142805286e-01 1.0848164718001856e-01 5.5986898720421584e-02 -4.6568920445127573e-03 1.2476764216385096e-01 9.7625091314682000e-02 2.2126891161687301e-01 2.5680931033529725e-01 -1.6058126602235859e-01 4.4320417628937750e-02 6.0140185204366661e-02 2.7690983381758966e-01 2.1308541047685939e-01 -4.2383709306554850e-02 1.9695988739672926e-01 -1.9039531603635799e-02 2.5694818349447529e-01 3.9018805564633674e-01 1.7534918319103029e-01 -5.8318625893931081e-02 -1.2813387245316388e-01 8.3949432808413202e-02 -1.5120280709667736e-01 -1.1356527252731638e-01 1.3437897153629680e-01 -9.8548535025832495e-03 1.7233341996907507e-02 2.4343465781272416e-02 -1.9295919509474894e-02 5.9424559771410916e-02 -2.0762995090146757e-01 -6.5257465092960765e-02 -1.9824510078615729e-02 1.3134255667472858e-01 2.5244329251412387e-02 -1.9718567782572163e-01 -1.2446525956649319e-01 -9.4551019100233641e-02 7.0814910409486065e-02 1.1946323378017756e-02 1.7262732492937780e-01 2.1535856539088145e-02 -1.1627215869749614e-01 6.6618814426380492e-03 1.0152013762751565e-01 -7.1863322029924750e-02 7.0969946727498803e-02 -1.2393321058054563e-01 4.1867936646356900e-02 1.4480953973345592e-01 -1.1609405398398030e-01 1.0328331082388267e-01 7.4172098368435260e-02 3.1478257403057908e-01 4.9779546229398154e-02 2.7465936183838659e-02 -4.0475289009598979e-02 -4.7448631267761714e-03 -1.0449891068967133e-01 -6.4659052833525611e-03 7.1209452359906597e-02 -1.5832921689611365e-01 3.1700489992236715e-02 -5.6450263248479966e-02 -5.4644151252488220e-02 1.7400517726874962e-01 1.3522288350181205e-01 1.3223727166383781e-01 -7.0769461340990908e-02 1.4556159126270982e-01 -5.1104222404481328e-02 -4.1281345375577269e-03 1.1108548353791235e-01 9.3916625640798543e-03 -2.8541380318839232e-01 2.0311458831296068e-02 2.9972212347125542e-02 7.7629981558978170e-02 -5.5478327039410760e-02 1.8086779889465585e-01 2.0105005367515441e-01 8.2475821429882201e-03 5.9650432417579585e-02 -1.7981641352540542e-01 1.0740675896012557e-01 -2.1070383985541764e-02 7.1785172693467347e-02 -1.0573372517184655e-01 -4.3400390453638450e-02 -3.2736219704312425e-02 6.6356514944863859e-02 -2.1320435305456428e-01 -1.6025094048266289e-01 7.0368723708997957e-03 1.2807969885511761e-01 -3.6069625654312276e-01 2.4264480799907853e-01 -8.3375345872378510e-03 1.9770482834746894e-01 -3.2369269993060411e-02 -1.3529938670276648e-01 5.8942691403155237e-02 -1.0620179865864827e-01 1.0581976229442945e-01 -2.5788359625129265e-01 2.3740115465686853e-01 -4.2043082288801263e-02 2.0581253744405170e-02 -8.5187159516391012e-02 2.2630821787627062e-01 2.4217637126062458e-01 1.1489702100322843e-02 6.0707139082249673e-02 2.5951190794520412e-01 -3.9888113514904469e-02 8.1311746419907745e-03 7.5452830386655609e-02 1.6517739605628104e-01 8.6440157001544518e-02 2.4113325445066447e-02 8.9585020333122711e-02 -2.7594528670039898e-03 1.5633505497932887e-01 1.9170005081763730e-01 2.4922040978971616e-01 -1.3001409074199544e-01 1.6611381661421762e-01 1.7063353237484336e-01 1.8835017938174775e-01 -1.5925530828096127e-01 2.6251019084478150e-01 1.1226403386858373e-01 -2.4828057930858288e-01 -9.1890656130299078e-02 4.4107694113282137e-02 -1.8781592174942496e-01 -2.3489423515461816e-01 -1.2649903587452771e-01 5.2938608172068975e-02 -3.5248399279001408e-01 2.0287919564756987e-01 -4.0712127766718292e-01 -1.8612139179723086e-01 -4.9991799596525908e-02 1.7725669625759363e-01 2.1047124816547186e-01 2.9615925587200992e-01 -2.3473377630325862e-01 -1.2278608002056464e-01 6.6278723477848897e-02 1.6344242079038693e-01 5.6435038987643828e-02 7.9292128851329483e-02 1.2040767052152923e-02 5.7098918347956641e-02 1.1801077666736488e-01 1.2417341836914818e-01 -1.5457779033904634e-01 -9.6743239152128471e-02 -8.5100773180711381e-02 -4.1687030479002282e-02 -1.9215112672458684e-01 -9.0424277720826465e-02 -2.6872643553854869e-01 3.6215389406663867e-01 2.8848105040681488e-02 6.2920053866134876e-02 2.3982730275509775e-01 3.9545309279024599e-01 -1.3410791231825680e-02 3.8113682055420685e-02 -2.5850431881006508e-01 -1.7608971533200779e-01 1.1001717839478364e-01 1.7762097727768494e-01 -9.4776371565097866e-03 -6.5249062447079162e-02 -2.7272437363457463e-01 2.2050210838083093e-02 -1.8425577996156850e-01 -3.8884918085481195e-03 4.3863344273418786e-02 3.4953994452184806e-02 -2.6668783018385145e-01 6.9415380750649097e-03 -7.7151606040963494e-02 9.8088830087143919e-02 1.9528921943685204e-01 1.2170299310244659e-01 -7.4748998704554842e-02 3.4018726398801005e-02 3.9571504130589089e-02 -1.2447702769053780e-01 3.2064391165287635e-02 5.3636465162442658e-02 -2.0251464989620582e-01 6.1896213642574305e-02 -2.1401328454095972e-01 -6.6208369039866918e-02 1.9095466940149647e-01 9.0486176516187348e-03 7.0224400222295064e-02 4.9533437233155855e-02 2.8383157815157888e-02 -1.0818233785381692e-01 -3.8438637746177368e-02 7.4782439311911766e-02 -3.3644630603034985e-02 5.4267433967592323e-02 -1.0863700376774163e-01 -2.0828728675035357e-01 4.0026062224981351e-01 3.1000598856559820e-02 3.0190813176329645e-01 5.0043900775321670e-02 -2.8601629076091450e-01 -1.7737030153129116e-01 2.4671053194140331e-02 -3.8731861254874328e-03 3.3133945634350306e-02 -8.0841664744015745e-02 4.5448508055174114e-02 -1.2978215382192743e-01 2.3601672516324116e-02 6.5575616518058155e-02 1.9330914316706394e-03 -1.0626587184372342e-02 2.4946916623412310e-01 -1.0807744053681652e-01 2.7678268524423764e-02 6.6843043051152670e-02 -1.7209013728190206e-01 -2.1604684310069743e-02 5.7227204657244925e-03 1.8285878349488993e-01 -1.4918234540778114e-01 3.0583934835151594e-01 1.1248534936909287e-01 -7.7670435471487248e-02 -2.5447591525206015e-01 -6.1820112279930936e-02 -2.6266295146338305e-02 1.3321578975435983e-01 1.7028408937294820e-01 5.6336028489455542e-02 3.8004894154216569e-03 -6.8953658195318249e-02 2.2391687361654172e-01 -4.7449996430579643e-02 1.0812932903936337e-01 -7.5662657245658210e-02 -9.2580296816224039e-02 -7.2007305825251972e-02 5.1653078491588872e-02 -9.6517129297052084e-02 7.5475775260552977e-02 6.1308811028365613e-02 -2.1924247110238748e-01 4.1779725172485897e-03 1.5322617493416065e-02 -1.6494002431013968e-02 1.2982465579618574e-01 -1.8676358359122885e-02 -5.4847076030256320e-02 -2.1752417712001229e-01 -7.1785480490153861e-02 -1.0871621387792105e-01 -1.3059537477588640e-02 -3.4480094606115494e-02 7.6660511585874072e-02 -5.6733064082532862e-02 -5.4205798840894638e-02 8.7013938239328698e-03 -1.6896117808114047e-01 -1.2252832978751164e-01 9.8053146749774334e-02 3.4268972335443737e-02 -1.4852258401796367e-01 5.7734523215156180e-02 1.2096567799329347e-01 -7.5869449808029676e-02 5.3571792156194876e-02 1.3975625393489594e-02 3.9556859250387447e-02 7.7633328028744411e-02 2.7886598562446682e-02 -1.1004897463687981e-01 -7.8776575247658086e-03 4.2082163427309860e-02 9.6620793030271129e-02 -1.0547017614605263e-01 -1.3057485366107552e-01 -2.3427318658334279e-02 1.2091966354888569e-02 -3.1539037329165145e-02 -1.4987418932611640e-01 6.3351382908466772e-02 -1.8466285953186559e-01 -1.8423763751376993e-01 1.0688776454728688e-01 2.5437320445871061e-03 -4.9388256643494048e-02 -8.2023065261396549e-02 2.4525806529217734e-01 -1.4989048574871996e-01 -5.9485562539951919e-03 -8.9244884237583588e-02 -1.0584432802436282e-01 -9.4938791082625096e-02 -2.6586316707729762e-02 -2.2157748440985181e-01 2.6243355833113005e-02 -4.1812015390713941e-02 1.5652312374572927e-01 -1.9394389442632265e-01 9.6112903486168147e-02 3.3539317418924013e-02 -1.8249366200665158e-04 2.5939548795354239e-01 -3.5364385147905308e-01 -2.1599603608818994e-02 1.7410666300315996e-02 1.2107048511692678e-01 2.1618596452836694e-01 -1.4021689443451546e-01 2.8411195476999473e-01 -2.4701579840885404e-01 -3.3316242964045159e-02 2.4205094083064923e-02 -1.7934068015695753e-01 -1.7813600732906418e-01 1.5694894956268601e-01 -4.7401331335936499e-02 5.3455208906254881e-02 -2.3836994322297353e-01 2.0829263921749633e-01 -7.1773820025825691e-02 -1.4369754411323443e-01 -4.4506910982165401e-02 9.5462016726993171e-02 -6.3385714176503793e-02 2.5154071244119908e-01 2.3825040453274496e-01 -1.5283520756818483e-01 -1.0263581872277032e-01 2.6912964776280690e-01 5.2743212159747671e-02 1.3577201376532425e-01 -1.4426145612111866e-02 4.3694372883165251e-02 -1.9034690310417601e-01 -1.9766904459909425e-02 9.2269488250122433e-02 -1.4671510148118544e-01 7.0710604934496032e-02 9.9437720956276676e-02 4.0243854910606183e-02 1.0380210738188560e-01 -8.9936498556975622e-02 -1.2986375719486987e-01 9.6908735201524987e-02 -3.8817057688141240e-02 1.3457319378403368e-01 5.8137301887421097e-02 -3.0091777419095933e-01 5.0037550042200968e-03 -4.2699923203400991e-01 -5.5495848316096601e-02 8.9970727126852809e-05 1.2544521993420479e-03 -1.0131058459373936e-01 4.1345170955633788e-02 4.6981455420219878e-02 1.0112583061874711e-01 -1.5731883474978312e-01 2.4235591825617894e-01 -2.7693732110019842e-01 -4.0621210021085909e-02 1.8236458162340452e-01 8.6803880701822808e-03 5.4248997538294076e-02 -8.7616198461126352e-02 -2.1090249518163531e-02 -4.0419381702891242e-02 2.7010367837632526e-01 3.6255056854177119e-02 3.1563761121982510e-02 2.7297516531491645e-01 5.3801759550018091e-02 -6.0802817613959163e-02 1.3863282353433964e-01 5.4420493505230379e-02 -9.5162625368756734e-02 -2.1283697143825986e-01 -2.5254589401994640e-02 -4.7031719365743914e-02 -1.4699543965507525e-01 -1.6061766491765203e-01 -3.5510895190317970e-02 -1.3719475433845976e-01 5.1366639300507597e-02 -9.5976087447562530e-02 3.8142157467593474e-02 -1.2435432717882519e-02 -1.5889515682925479e-01 1.9132901210713843e-01 -1.0257252883389652e-01 -1.0858605373506118e-01 -4.5484119837966894e-02 1.2407595359869791e-02 -5.1229946178379199e-02 -1.2999050658277794e-01 -1.8459421653669730e-02 6.2599159042550187e-02 1.8407824695663738e-01 -6.9775176510787226e-02 -3.0478559881532755e-02 7.8754887566618609e-02 -7.5393950573216989e-02 2.7667839863957028e-01 1.9782308496720944e-02 9.7607600486650375e-02 -2.3170161500862252e-01 -1.6719994736647478e-02 1.0329342026155713e-01 2.2960507643662648e-01 -1.8052463375990974e-01 -5.6299928672658595e-02 2.9265715195425143e-02 1.7380190278734797e-01 2.5903239741422949e-02 1.4244823059373149e-01 -1.0785842767660210e-01 1.4700112405957236e-01 -2.4808874928918462e-01 -3.4673876999778436e-01 -1.1791972031121820e-01 7.8705430784237460e-02 1.4244983970908570e-01 -2.4370263672332131e-02 -8.9056742902864999e-02 -7.3060491430655197e-03 -1.7352850292628991e-01 -2.1154582467626556e-01 3.7332796949971755e-02 9.9947793920797071e-02 2.2203700907996565e-01 1.1147052850001256e-01 -1.1939428250624145e-02 -1.7561001871429791e-01 1.6401197272013787e-01 9.6010291129275862e-03 -5.9472170373811591e-02 -3.1046539741416240e-01 -7.3575491212042071e-02 1.4152643558572300e-01 -1.2190241934599176e-01 -1.7516132088046085e-01 -5.3342660387111676e-02 9.3464550486559772e-02 7.9113491483037091e-02 1.9757304025827049e-01 -2.7967216428555264e-01 -1.0595598303671822e-02 -7.4828024994681320e-03 7.5687888176861368e-02 1.3745917015633832e-01 -1.2291658535003228e-01 5.4677910886946672e-02 -1.3237501702977050e-01 1.0983017444045372e-01 2.1820505041632084e-02 -5.3486257718104578e-02 9.7961657488712245e-02 3.0464933093214119e-01 3.0663112246204777e-01 -7.4000279934845328e-02 -2.3367092797518699e-01 4.1651785172631593e-02 -6.9545138610340188e-02 -2.2240299587656212e-01 6.8933692017398435e-02 2.7101657103307825e-01 7.5112683909624917e-02 -1.2595339728408358e-01 2.9857301684087210e-02 -8.2263873873538632e-02 -6.1704817943172546e-03 2.8689069583585725e-01 2.6703353328941359e-01 -5.4109046935338023e-02 6.9928975067634000e-02 3.1447503777702217e-02 -1.8788182045085186e-01 -1.4681323795792192e-01 -1.0162696032362580e-03 -1.9220100226024842e-02 1.3062670154235095e-01 -5.2049407029551215e-02 9.5504545794441176e-02 2.2033372323443043e-01 -3.2454826892852040e-01 1.1997463782188533e-01 4.8123916852775761e-01 1.6254967189238681e-01 1.1690573560704663e-01 4.0651535328506050e-01 -3.2368023802580720e-02 -2.2646976077545497e-01 3.2524540413892228e-01 3.0736620646410102e-02 -1.6198576869919906e-01 3.3600260054693930e-02 1.7872850460375048e-01 1.9592126044058131e-01 -1.9112623774680204e-02 -1.0572856696692066e-03 -1.8072222232250207e-01 -1.3390754399001986e-01 -1.0206871719179562e-01 -8.0958393978616580e-02 7.2751266060964076e-02 -1.0736994972334481e-01 1.5946751770076512e-01 -1.7587971530132429e-01 -2.0995107719770553e-01 5.9358350532827840e-03 -2.4021622299278356e-01 2.9563661502580080e-01 1.8048336970573176e-01 5.5298091262073898e-02 -1.3568751881752983e-01 1.7739859542164237e-02 5.4469536875835556e-02 3.2085108220424867e-02 8.7377592123052544e-02 1.3094393746819816e-01 2.4692999060311135e-02 -8.3856731168592755e-02 1.6998094988389520e-01 4.3966728433732116e-02 2.9283587353944648e-02 3.2477559854509830e-01 7.3145167659079940e-02 7.2664410540170893e-02 -1.0801355182875623e-01 -3.6237400416804810e-01 -6.3255365862144114e-02 2.8152478801370655e-02 1.6722273280243627e-01 1.9885560768100152e-01 3.0126835864653922e-02 3.3005744946686555e-01 8.5434936338099454e-02 1.4191997559358644e-02 4.4221484716521570e-02 -1.5922773526477296e-01 5.3445600405217404e-02 5.3731774715008104e-02 1.8116727727877244e-01 2.1051004634417592e-01 -9.4748905686100650e-03 1.1287670942229475e-01 -5.7147877607850402e-02 4.0898944792626596e-02 -1.7691398426198565e-01 -1.9880246894143883e-01 3.8581197392826727e-02 1.4560456819210646e-01 -2.1146273100248925e-01 -1.1839222131494281e-01 -1.0243148954812761e-01 -6.3187160727636624e-02 -2.2766017479351752e-01 -1.3771909745795838e-01 1.4612415500757953e-01 -1.5725102487410567e-01 -1.5179462300300184e-01 3.5856884494611650e-03 -7.3210495451306271e-02 -2.3409355435836221e-01 8.7548325490763544e-03 7.2888131535467721e-02 8.2945048208917252e-02 -2.2439720582851386e-01 -9.1699425076699578e-02 -6.2315094922142523e-02 6.8699453135182151e-02 -7.8900387296488225e-02 -5.9877994817934432e-02 1.0578557379848194e-01 -3.8940823123564585e-03 1.4576410102952631e-01 1.5598320262391510e-01 -1.0223131741719731e-01 6.1535946398391453e-02 -2.4644915873499848e-01 -1.2121610670031602e-01 1.0069622486164462e-01 2.5869730754616238e-02 4.5214847640025556e-02 3.5138941664158353e-02 7.0577091425359548e-02 -1.8901423811500341e-03 -1.9142913973706521e-01 -6.6887015797281263e-02 1.5899658944995462e-01 -9.9544974967099117e-02 1.0840646734837051e-01 3.7664213342111653e-02 3.7478786012547269e-02 7.3823061172289386e-02 -2.0631382922561350e-02 -4.3954675563919404e-01 -1.8946666838236195e-01 2.4718723141443374e-01 -6.4162132421908852e-02 4.2949421224784040e-02 1.2565162023846674e-01 -1.6870709004245926e-01 -1.5839755954806373e-02 -4.0703814778880382e-02 2.1247751276588142e-01 1.7555036018747906e-02 2.3638580211825656e-03 -2.4948420376195934e-02 1.3361325655763092e-02 -1.6148672026701297e-01 -2.4405738769385951e-01 -3.0053368913209446e-02 -6.8470265711230202e-02 2.8915642097221861e-02 -1.6236428861420754e-01 5.2200835683269553e-02 -8.0286280976054961e-02 1.7718882421764948e-01 -8.2248688412457863e-03 -3.1316112750397895e-01 -2.7641548723878126e-02 6.2840095061072951e-02 -2.1818165976879658e-01 -1.3679921476473703e-01 2.3521103628280200e-02 1.7881426488364244e-01 4.0788593462952943e-01 -4.4814193800864634e-02 3.7726296654711881e-02 -1.5069659205454036e-01 1.2129589592849790e-01 -6.0889665740466080e-02 2.3730047727303344e-01 1.2119726052808148e-01 3.1499286974586975e-02 -2.4975084142267326e-03 9.6840502603080136e-02 1.2562942180217279e-01 2.0375959103398802e-01 2.2919030062359197e-01 1.1932073983209580e-01 2.1331107425714448e-02 -7.1590788952778248e-02 8.8620759783190048e-02 -8.7747519036453586e-02 -2.5874334904938137e-02 -2.3696609974862101e-01 2.4540352510213775e-02 1.0754087602767527e-01 -2.1324845847719806e-02 -6.4237102011716257e-02 -1.0620021218458152e-01 7.5002995627122232e-02 1.0710899459539391e-01 -1.2680696549962334e-04 -1.6332756476471025e-01 -1.8523927095037546e-02 2.4369578754234281e-01 1.5552544111331112e-01 -1.2639185930196176e-01 -2.8975667767115487e-01 -1.3922565805138620e-01 -1.3772290641826906e-01 4.2013320039983336e-02 2.8445479305828203e-01 4.4838456744223501e-02 -2.0713874021303016e-01 2.3630846694042504e-01 -1.3920447447511253e-01 4.3658680777029189e-02 6.0797915352803829e-02 -3.2950654208974799e-02 -4.9547784178014274e-02 1.9080898588142162e-01 2.2465118697797090e-01 -2.7011413080613539e-01 -2.8496658314018306e-02 -1.7300562845237660e-01 1.6012810544212747e-01 -4.0385021788599995e-01 2.0253322587361785e-02 2.3428435131473968e-03 8.3219123246595195e-02 8.5249028502797572e-02 -1.2013791490319471e-01 -6.4071731410359767e-02 -1.4049277909829286e-01 -1.4278405231805405e-01 -5.2579152776870468e-02 -2.4698321538686252e-01 2.2250263884996546e-01 -1.1024282830531695e-01 -4.6518432091583128e-02 -6.3967244799279899e-02 1.2514694423902253e-01 -1.3698390247578998e-01 2.4611650628166473e-01 -2.2017760137718952e-02 1.2032016134808060e-01 -8.4535356990210461e-02 -1.5720157702058124e-01 -6.5479040155627097e-02 6.3484860072171259e-02 -6.0230285968192125e-02 1.7814819164555965e-02 -7.1958438525671603e-02 -1.9101391277328197e-01 6.7377632428260170e-02 -1.3613858116222843e-01 -4.1465414031550574e-02 -9.0216005830329113e-02 6.6752059257412164e-02 5.0033608294323267e-02 -2.4936901286629687e-01 -3.9162318660807660e-02 1.3076469906456406e-01 -1.7798765658287560e-01 1.1462249067944760e-02 2.2147231963963496e-01 1.3002474988988286e-01 1.1405054464364442e-01 2.7520969053620714e-01 -2.4461335278295751e-01 3.5129421437990305e-02 1.3549566756191497e-01 -1.6384472510699771e-01 3.1019918443675537e-01 1.1027677820405100e-01 6.8255061287489385e-02 8.0568039695457769e-02 8.5174723279438966e-02 1.0352935107908948e-01 1.3773361173448992e-01 9.7196366571269149e-02 5.7812365030725364e-02 -2.0194185588971217e-01 9.0371026735321325e-02 -1.7197754693072412e-01 4.6687943400006961e-02 -1.0820230625803114e-01 1.2883461086003146e-03 -3.1010328793297925e-01 -6.3773588617698669e-03 -5.1293653352287118e-02 -1.6790995488481553e-01 -9.4640682176004229e-02 -1.1471702361742281e-02 -8.6551549957948337e-02 3.5526503167430321e-02 1.0020362003349835e-01 -1.9207524310001800e-01 -1.7550527183217948e-01 -1.6576986089303836e-01 -2.1597628771453309e-01 -1.1661006311022923e-01 -1.2950503053224924e-01 -1.3663486791239010e-01 1.0972787736335099e-01 1.6195429156317670e-01 -1.1312898298831137e-01 3.6855311796757911e-02 2.0936123956209152e-01 -1.3473593307318188e-01 6.0971227178970369e-03 4.5146923437563317e-02 1.2632012327684589e-01 2.2603005130383017e-01 -2.2623773741258094e-01 2.6084854817462327e-01 -1.2553978473746688e-01 -1.8250969635425532e-01 -7.2950844917504545e-02 -4.2295815717477953e-02 4.4351993172327915e-02 -1.0646527823326273e-01 1.7299252432486836e-01 1.4300007434235532e-01 -1.1842945822944292e-01 -7.2040156029902797e-02 1.9897203134088637e-01 1.0159311162068535e-01 -2.0398739309422542e-01 1.7472144868525254e-02 8.5280588559245349e-02 -1.3904687526987608e-01 -1.2452234442143817e-01 -2.4428062459131658e-01 4.9986936661578801e-02 -3.9671681904794520e-01 5.3886596470774109e-02 3.4138782942166834e-01 2.6180540587688223e-02 1.9352274388170998e-01 1.3564062391527976e-01 -9.6554996740941229e-02 -4.1045694377115458e-02 1.8891909744852328e-02 6.4542419075332161e-02 -8.4012705967394199e-02 1.7669252583677758e-01 8.4273743557432126e-02 -7.0201985252975024e-02 8.7187170583969006e-02 9.8345699604302256e-02 -1.0381257607031884e-01 1.7950058441477687e-01 2.0756520627344296e-01 -7.5814651921137288e-02 7.2389264428212266e-02 -9.7904729576048129e-03 2.0865461604902127e-02 3.3426244710921343e-02 2.0013055502318428e-02 8.7508839246828410e-02 9.3251093434489077e-02 9.8881097501999207e-02 -5.7028713888607710e-02 -3.9244583020057577e-01 -1.2044586094641796e-01 -1.1128483662396824e-01 4.8328126843718469e-02 6.4338936098475741e-02 1.0147956463227968e-01 -1.5865507987647859e-01 -2.3963246538794353e-01 -3.5321585891029311e-01 6.9685080688410450e-02 -1.2299384660504489e-01 -1.1356735261906498e-01 3.9251689396694198e-02 4.0316276471966325e-02 -1.4277420261443271e-02 1.8437836962865864e-01 1.0965582199805729e-02 -2.4384165795994991e-01 4.0602383135178041e-02 1.4954148751873436e-01 2.2400267681723030e-02 3.2870646292422402e-02 -5.4874479362651656e-02 7.2879633468318217e-02 1.8105689393484033e-03 7.9648642990340940e-02 -2.0804289835204109e-01 -3.3973152972991749e-02 -2.4094303708613023e-02 3.9701695500668044e-02 -1.0686319506291106e-01 4.6369381874877651e-02 1.1851040647725632e-01 -1.0263020282221770e-01 9.3789562494667952e-03 6.8742385017697055e-02 9.1800671782479274e-04 1.9991904060751420e-01 1.7587643475897613e-01 -7.6551875507728837e-02 -2.7840539897376249e-01 -4.2309093126412858e-02 -9.9052449078064417e-02 1.6817854024502463e-01 -1.8612637729907086e-01 2.5325207847092546e-01 -1.2435743269696597e-01 -1.0082108344453911e-01 -6.6520683739577882e-02 1.2139850187547792e-01 -2.0618700733453099e-01 -2.3461753681799299e-01 1.0110812044277802e-01 -2.5481635324347840e-01 -2.0260511377175358e-01 2.3168846411347302e-01 -5.8127654370292471e-02 -1.1618380802528500e-02 -3.3370338311407829e-02 -7.3580649370806231e-02 1.1976837666836504e-01 7.4290134752159079e-02 -1.2014173044705712e-01 -1.4438449228029640e-01 -9.4831739669483800e-02 -2.2584868480961109e-01 2.6581141516254631e-01 8.2794271402548813e-03 9.8937275549958389e-02 7.1949213178026123e-03 2.2721791077662426e-01 5.5967912378490213e-02 -3.5093809294076871e-02 -1.0539632492069478e-01 1.2495599836495500e-01 8.0914858461796316e-02 1.9179005302538329e-01 -1.9844695124656525e-01 -1.2238621556987059e-01 1.3985623394653432e-02 1.6434983873650624e-01 1.4384201930904447e-01 -5.1337657030672897e-02 -8.2680891693510006e-02 1.4419879614686193e-01 6.3871996349480167e-02 -2.6341150031639416e-03 2.9077327993083164e-02 -2.0678216521985698e-01 1.2005523919862376e-01 -1.7888835431081068e-01 1.3413972448654740e-01 -9.8424629910686207e-02 8.8749371744181252e-02 2.1445276697903806e-01 5.7726521593621738e-02 4.2120553908589115e-01 2.9651075718413722e-01 -8.4369483371143722e-02 1.1411180678124722e-01 -4.7768162213649484e-01 -3.0696673716000430e-02 -1.7867960498333441e-01 2.4293864449170352e-01 1.7311870363506837e-01 3.8439923851991908e-01 -8.7947958542434590e-02 1.2099096245142238e-02 -6.2470686263081859e-02 -3.3143893824065679e-01 2.7890345309704106e-03 -8.5737974226494124e-02 -1.4059776556647702e-01 1.2503547334515777e-01 2.9148107073996360e-01 3.5227743570530080e-02 7.9702773174585698e-02 -1.6078546130221696e-01 1.2409354267383751e-01 1.7205820919440953e-01 4.0605089097099485e-02 1.5732983459040822e-01 7.9197509593024462e-03 -1.4964603139083504e-01 1.0404098794210313e-01 8.4830663525353081e-02 -2.1510973150423487e-01 2.6123396926305359e-02 -8.9757079944689025e-02 2.3385033170017849e-01 1.0654668315678495e-01 4.5538657336540913e-03 -2.8819117250013965e-01 -8.5548817690438029e-03 1.8080425197843086e-01 -5.7650764022957240e-02 -6.3859760219363265e-02 1.2001183450996000e-01 -8.4733530831020091e-03 1.5024738796372730e-01 -8.8090169351270009e-02 2.6677692899622396e-01 -1.9551270104186122e-01 -1.0754065491494351e-01 -7.9433498988505408e-02 2.4605485549209871e-01 1.8699750441912141e-01 -4.5433439394853822e-02 -1.8375521470666140e-01 6.7370789597362105e-02 2.5803863111282349e-01 -1.8618314223283813e-01 3.4877700818043457e-03 1.0307083856315721e-01 4.5329601110169253e-02 -1.2125634974979052e-01 -1.6530929529877475e-01 -2.2810772221066469e-01 5.6658453817411636e-02 1.4001523574554070e-01 -1.7074148065395445e-01 -7.8722253534743547e-02 3.0010619331548199e-01 -1.7238994913375885e-01 9.1248935050159449e-02 -6.8971376757925598e-02 2.5733836553564145e-02 2.1670587193967755e-01 2.3047235765725597e-02 1.5744286960504311e-01 1.4794074570862972e-01 -1.6296156784730187e-01 1.0455127480404903e-02 -1.1784612885605189e-01 -2.7548279212186198e-02 1.1772082371661809e-01 1.3770727870239363e-03 7.0989656413106617e-02 -4.3703571742391462e-01 -1.5089172480084187e-01 3.6777442109904759e-02 8.1619653273893970e-04 2.4009658443505572e-02 -1.9123290017386721e-01 -1.9980185153855615e-01 1.4822214173200474e-01 -3.8183351340726257e-02 3.9286041732705564e-02 -2.6671996784554097e-01 -1.6621647494517255e-01 -1.7891583314111714e-01 -8.7181074119929799e-02 5.6686112095131747e-02 -3.2656840628670240e-02 7.1925545692435519e-02 -1.2983043773358696e-01 -2.6144446448569442e-01 -1.4601132686176524e-01 -1.0517556644146822e-01 -1.6443185990447425e-02 6.8904907345784375e-02 1.4444165624635286e-01 -8.4121258958276171e-02 1.2022387940576455e-01 1.8864183353964939e-01 -1.7912712856680914e-02 2.3583176578825535e-01 2.4444388766449879e-01 -9.9577744501910287e-02 5.6888618849012848e-02 -8.0998531022415360e-02 1.6924767809762872e-01 1.3538946134438701e-01 -2.2427748244273571e-01 -2.0968722816615559e-01 -8.4600454351688115e-02 7.6779133893654955e-02 5.3513979780673071e-02 -6.0546351529912230e-02 1.2595018154301990e-01 1.4160777371813268e-01 -2.0341858928038087e-01 9.3195833763597705e-02 6.1092667167014746e-02 -1.3215310651909648e-01 -1.4357101940857545e-01 1.7232410122188114e-02 -5.2268246852540709e-02 -9.8643326161340195e-02 -3.3271802335372115e-02 -4.2314633889231235e-02 -1.7212921048540428e-02 -9.2398731201837794e-02 1.4628531636035536e-01 1.9618249617420251e-02 -9.8773336140795844e-03 9.4138872634008039e-02 5.2887779032871785e-02 4.6000168891639583e-02 -5.3495586553589318e-02 2.1736702748933326e-01 -4.3379282565592633e-02 1.9257974715620740e-01 -1.6596466149167477e-01 -4.0247585234659128e-02 4.1455798531854993e-01 -9.3037182216122047e-02 -8.7569102670511725e-02 -3.2087789949867807e-01 2.1895112870803649e-01 1.7324335537561913e-01 -1.2416352516948137e-01 -2.8541981594540050e-02 1.3752948997255598e-01 -1.1405553110291052e-01 -1.4633680709966498e-01 1.9767406880212429e-02 -5.2716556065075908e-03 8.8965266684730565e-02 1.3741153415426199e-01 1.4393652953083022e-01 -1.4501293026687689e-01 4.6449803196029504e-01 -1.6916734190965377e-01 -1.4254310311882895e-01 4.4181354197595064e-02 2.3047463519506592e-01 6.9636489404873367e-02 1.7538276675915662e-01 8.9060616615827606e-02 5.0962265866625467e-01 -5.5438612436691248e-01 4.9931169296407001e-02 -6.1391703922890624e-02 2.1201056072061797e-01 2.2390143429742240e-02 1.5521161862127478e-01 -9.6616923952959649e-02 -2.2838506675190620e-01 1.6747126913250748e-01 2.5504673422500873e-01 -5.0501893484966053e-02 -7.6750419009628035e-02 6.1192131960018312e-02 2.2193531966646726e-01 1.6332873095563574e-01 -9.3407360320755140e-02 -5.2331719753177233e-03 9.5997743024110405e-02 5.4977895136861236e-02 -2.4963609538441786e-01 -3.7606079599495801e-02 -7.0440001884173242e-03 2.4508093461675093e-01 4.7897526252485362e-02 2.9665670894757001e-01 -2.4699147762079277e-01 -1.3540132909747268e-01 1.5540256860690166e-01 1.0248538739250018e-01 -7.8211171905666871e-02 -1.4083050315706247e-01 3.2411983233526467e-02 -7.4418522147877614e-02 6.1445236522914740e-02 -5.4782411566523241e-02 -2.3742846686320901e-02 -2.1367943999384129e-01 2.3917690925157450e-01 -1.9188565731770391e-01 -1.2200271781518304e-01 1.0341360491053309e-01 -2.3502350154912036e-01 -3.1599102480441466e-01 -1.2724699396167017e-02 7.8827910280098126e-02 6.3083868553432981e-02 -1.0700382143182338e-01 1.4912909165710367e-01 -8.9673548971427791e-02 8.2342001896169456e-02 -2.1841934720411522e-02 2.1363962951337975e-01 -6.8273470472047917e-02 -1.8729369919315017e-01 3.3206445433749088e-01 2.3213434022598106e-01 -1.3534677891724739e-01 -3.9297812359803556e-02 3.2068831640767992e-01 -7.6662704528315364e-03 1.5418376526834884e-01 -1.1669323592820967e-01 -9.1841695828664013e-02 -1.0541767045282921e-01 4.5636777394876135e-02 -8.7270513858115698e-02 1.5736883340693428e-01 3.3316471838664308e-01 -1.6909689535803596e-01 -2.0144008383833931e-01 -9.6966917358395438e-02 -1.2707198984294693e-01 2.3018118039316865e-01 1.1217512060435270e-01 -1.9077472613778337e-01 1.6836416024549714e-01 6.7810478060956372e-02 4.1089592138285357e-04 -1.1984049203974585e-01 -2.1434844810215134e-01 -4.1962541982237818e-02 1.2880813742295555e-02 6.6377352981657589e-02 -6.2195571838415467e-03 3.5271132233178343e-01 -1.9440510270567987e-01 -1.8938272271344161e-01 2.9733526696675194e-01 -5.5858615957113611e-02 1.3470523362872988e-01 5.0014197561327953e-02 -1.1994418482888486e-01 -1.7727214331948613e-01 -9.3276562564011279e-03 1.6581418332482981e-01 -1.5813295893155957e-01 -2.1833481477148090e-02 -2.6603151882088973e-02 -9.8717025880995957e-02 -3.5893926475754639e-01 1.2407820417943385e-01 3.0353594660734395e-02 1.0325664775555678e-01 1.1154325423398213e-01 1.9263507968984286e-01 2.0055292076172648e-01 5.3928047211537128e-02 -1.5367760697155286e-01 7.4638935456121963e-02 5.7441031022691186e-02 1.2637158519462652e-01 5.0453708489140353e-02 -2.3035271449433678e-01 -9.0326657518985234e-02 8.6545944855593276e-02 -7.1076545270816929e-02 2.0500973240097117e-01 5.0068654942270800e-02 -1.8416565502575974e-01 1.7985078611392394e-01 7.3038974510285709e-02 -2.3350240692725174e-01 -2.1055858475642752e-01 -5.0519552505477398e-02 1.8128152886647192e-01 -2.5712031261841767e-01 3.0404303563269336e-01 6.4086820651797882e-02 -1.5887449494349887e-01 2.0770100411943676e-01 -4.6610757160343269e-02 1.6579896266789998e-01 -2.4988494229931255e-01 -3.6804208041611032e-02 2.3090206161434104e-01 -4.1879490265646725e-02 3.1167497484861809e-02 -1.3168074905530308e-03 3.1394057952082305e-02 -1.3575679972808249e-01 7.4436583375208434e-03 8.5537106700354498e-02 6.1277323568394954e-05 -9.0068941831183885e-02 -1.7530749748287439e-01 -1.2054667797368128e-01 5.2338436892539912e-02 -1.4788240610228209e-01 5.7952051470085086e-02 -2.3533063345004876e-01 -3.3612594218639227e-02 -4.3278555778454700e-02 -7.0298801139795031e-02 1.9384980017103853e-02 -2.4854732166804835e-01 1.2726059179367832e-01 1.5812378887773379e-01 4.8603929365444054e-02 2.6770627118332657e-01 -1.4612424090074896e-01 -6.4159761668810114e-02 -4.2008926690254321e-02 6.2999966954557063e-02 -8.9298758109539175e-02 -1.9613532586453309e-02 -2.8978031056547682e-01 1.5343300381294356e-01 -1.7312264534697369e-01 -1.1326035049769494e-02 1.0347741948596413e-01 1.0601186216243323e-01 2.0519743301718221e-01 2.7540983139533132e-01 -2.6172645304456904e-01 -5.1771477217523827e-03 4.8207458272781473e-02 1.2905778906491816e-01 -3.5202482920970220e-03 -5.1847651487968091e-03 -5.3258344416434594e-02 -1.9810594991106427e-02 -1.0390547870282826e-01 -1.5502189999438154e-01 1.3639349915291032e-01 3.2097473179391954e-02 1.0498595050663023e-01 6.7683434106637796e-02 -1.3852341055995854e-01 1.8903095190221753e-01 -2.3076872557081773e-01 4.1918284310514947e-02 -5.5123445987170394e-02 -1.1291366839913071e-01 3.3565577551260078e-01 1.7525290760445958e-01 -1.2625337473599071e-01 -1.5862201894469680e-01 1.2832610738719927e-01 1.1672737481177944e-01 -1.0059226984787950e-01 1.0379276598740247e-01 8.0010729246518336e-02 -6.0964380916293130e-02 -1.8631125804710785e-01 -2.3260233919774900e-01 -8.5131760336331561e-02 2.4292363447568337e-02 -2.2912231575984732e-01 2.5414813028731272e-02 -6.8109382008652714e-02 -7.0440062410756954e-02 8.6764404914649915e-02 2.0159839103757789e-02 1.9220079942676088e-01 -2.1262644247864915e-01 3.1064383049440231e-02 1.5729109467796341e-02 -1.3152536758981542e-01 -4.7543336761065896e-02 2.3862947833528849e-02 1.1049433560297287e-01 -1.4446432891945712e-01 -1.1558513026321922e-01 -9.6614813686771231e-02 -1.5006941591916454e-02 5.0649830133102459e-02 2.7061075439207567e-02 -2.4251411679150281e-01 -1.4674754289981565e-01 -1.6951672785519862e-02 1.3896565528708563e-01 2.2755786575261081e-01 -4.1183310666395356e-02 1.1037348224811076e-01 9.3492990227034861e-02 2.8147850208626446e-01 1.4065687761568577e-01 1.3633220390313336e-01 1.3071285093090043e-03 -7.5320533052366551e-02 -1.2813889889483984e-01 2.1233120079344989e-01 2.6822350444319754e-01 -2.4575937208553920e-02 -1.1133211919909373e-02 -1.4436807130145260e-01 1.7295640187077546e-01 8.5198753256975471e-02 6.7258372065722272e-02 -1.7524196433385250e-01 -1.8321556106538461e-03 1.3353093397443852e-01 -1.0107844833247577e-01 -3.7210262099178107e-03 -1.8815653427467963e-01 1.2637994744693623e-01 -5.2569622293664874e-02 -4.8724880884945920e-02 1.2789248110807250e-02 -3.3796300554720424e-02 -3.3345570360529092e-01 -8.4569120626196093e-02 -5.8728948181959749e-02 -6.4075135534118116e-02 1.3142778800228738e-02 -1.6984874162646216e-01 -1.7087529207213559e-01 -6.2556453540305576e-02 -8.1593469241473968e-02 1.6316336551680144e-01 3.7412197806129172e-02 -5.8762144057507695e-02 9.3923728504133899e-02 -8.1692256291182416e-02 2.3585145909470065e-01 -1.1902160904526951e-01 -5.2257675144521801e-02 -2.7876712710911383e-02 -1.6104833656216397e-01 -6.2048132669935127e-02 3.4377326014238430e-01 -8.2441286255994103e-02 -1.0728358516819841e-01 3.7119838711433990e-02 6.7203881733075732e-02 8.8703468523315634e-02 7.0495462624761807e-02 8.9009478524768135e-02 1.0700660471799459e-01 -8.8120898758131824e-02 1.2262152678163887e-01 -6.9305878250789585e-02 -3.2052155352894722e-04 -6.8580369486145237e-02 -1.3440459567293489e-01 -2.0940459286006136e-01 -1.4789159859327725e-01 -4.8036982768087454e-02 2.2468515451543762e-02 -9.8794201109891233e-02 8.8376065107557703e-02 -3.7769634132005309e-01 -4.6917698310187023e-02 1.6626447033428235e-01 -7.8442594560244314e-02 -1.8861749325553140e-01 4.4581947208226128e-02 -2.1043959981218910e-01 -1.8176132948517590e-01 -7.9186891554250474e-02 3.1786506887810026e-02 -3.7248156316668779e-01 2.5153831190414572e-01 -1.2832019815592455e-01 -2.6946483284771665e-02 7.9380478598243473e-02 -3.3793135121014878e-01 1.4405366204391897e-02 1.7257907684146433e-02 9.1346559330556840e-02 -1.0132912815254448e-01 2.7488107733872158e-01 5.4852979019742475e-02 -1.6254157550499967e-01 1.5395699870419111e-01 6.5294478911005385e-02 1.9337228028554673e-01 1.4484935452392178e-01 4.8257482227264621e-02 2.5794930172475337e-02 3.2379215458367652e-02 -9.5055640060205171e-02 1.8605737624471947e-02 3.4453488043201586e-01 -1.1808375072947230e-01 -1.0618113564190651e-01 -5.9119266161489700e-02 2.1513403448366566e-01 -8.4295657176953878e-02 6.1862159423866622e-02 -9.3217207041852181e-04 -2.2426097172805723e-01 1.1719618229359664e-01 -1.1356993131124120e-01 -3.2635154702679209e-01 1.9000673066208065e-01 1.0916174031769631e-01 1.3259241829376961e-01 -4.1930645479213879e-02 -8.2838287045396711e-02 -6.9996503329680868e-02 -4.3638012949402030e-03 -2.1416338805420790e-01 2.0634502377095632e-01 3.1433282205907342e-01 1.3556447431225116e-01 1.6651538513061759e-01 2.1055466545384943e-01 -1.1319877304716360e-01 -5.3689073638205555e-02 1.8806957129244590e-02 1.0021513980724067e-01 2.6111881178789192e-01 6.2293363738048474e-02 1.7581329500443102e-01 1.3896875401944528e-01 -3.6220443526759127e-01 1.5001703786744788e-01 -1.2900215533803677e-01 2.6943739391904431e-01 3.7505730161796424e-02 2.6922464178729443e-03 -1.1388610109960007e-01 -2.9527927779967576e-02 1.0863252850809173e-01 -7.7945897108769979e-02 9.1820714728966746e-02 1.2069607863588239e-01 1.0325970495070318e-01 -8.8922287744513263e-03 2.3821315213191660e-01 2.8399369735732782e-01 -3.3750735853064796e-02 -1.2668184189682657e-01 -1.0543878750383721e-01 5.0395155106130997e-02 1.4850969502733220e-02 1.0608575739981448e-01 4.1346013020509921e-02 -1.9708272195195090e-01 1.6001313981892720e-01 -8.0600828934236077e-02 -1.3711298342364626e-02 -1.9833485623730593e-02 1.3174521706202241e-01 3.4271744878405758e-02 -1.4255336769337831e-01 1.0893459164623145e-03 -2.6462944666530049e-02 -1.4612474081104548e-01 -2.6434530622577737e-02 -1.7774033677158158e-01 -1.4850649223260304e-01 2.0112380539556970e-01 1.4421536879683219e-01 5.0021638005473983e-02 -2.0515541690788647e-01 -1.2106111461896828e-01 -2.7512362659665241e-02 2.2259881328445554e-02 -1.2845300273014806e-01 3.3264298022533813e-02 -3.2375341854635359e-01 3.5809564762433431e-02 -5.7510756243010143e-02 1.0218946221680436e-01 -1.4727907358475789e-01 6.6302034121558856e-02 -2.8151517812966825e-01 2.0341428181202831e-01 -5.8252676061063442e-02 -2.4029918215939244e-01 -2.0786562403930741e-02 8.6702564227261636e-02 6.4668173430984910e-02 5.5791159990325481e-02 2.5086758256787289e-01 2.3154356846889718e-01 -5.6625922312799004e-02 -1.7750896455223934e-03 -3.1005614374190787e-01 7.4473872853059675e-02 1.0028739517766375e-02 -1.9147036964133354e-01 -2.2865699256624825e-01 -5.1601219527771573e-02 -7.3414281854218402e-02 1.2566906637982633e-01 -1.8366893597145983e-01 -7.4319852211861825e-02 5.7967149670290846e-02 -2.2727266231820323e-01 1.7836893803176374e-01 1.8135799964444335e-01 2.0033234076402354e-01 1.2160034059854735e-01 -1.3743647032637610e-01 4.4786151342006045e-02 1.7629017001598865e-01 7.9106138129310832e-02 -4.1738747187579466e-02 1.3192530179119000e-01 2.6112067241430875e-01 -1.6212079074498793e-02 -4.9005268054128977e-02 -2.2722317103476555e-01 -9.7250480374459589e-02 -8.4473277220996373e-02 -8.1841135259015527e-02 -1.2651301751689242e-01 -1.0681311051121710e-02 3.2258720294863874e-01 1.4231345620082383e-01 -6.1259938705046244e-02 -1.4496545838169944e-01 7.7747820443195934e-02 8.4540754963694106e-02 3.0062014649641589e-01 1.6516833238256080e-02 1.2132437644360039e-02 -6.2698781957157765e-02 1.9767440708598555e-01 1.2591724712848179e-01 -9.0213281249634132e-03 -1.1663938620953847e-01 -2.5585400107160938e-01 2.0395730598751724e-01 -1.7380170154239649e-02 -2.2209119814041284e-01 -6.0681173342181398e-03 -2.2328515887194783e-01 -8.4425991303505532e-02 1.4058627162443615e-01 2.9507100502244055e-01 -2.3851976431660371e-02 3.3243404867723747e-01 2.1960010919227213e-01 -1.0370359488240580e-01 -1.9897165257244243e-01 -1.1603887042095758e-01 -1.2150946069646926e-01 1.5894626754920052e-01 -5.0298106661200159e-02 1.8146479075183916e-01 -1.6726183998204572e-01 1.3205563639286202e-01 7.6314638293309797e-02 1.5352080711083005e-01 -9.5624791982567875e-02 2.2570006364663237e-01 1.1370355003883975e-02 -1.5185527192270146e-01 7.4783960326594387e-02 -8.2359586396803061e-02 1.9263590836375555e-01 -2.7322202821876923e-01 1.7809561882503100e-02 2.2156111710718798e-01 1.4419966393921091e-01 -1.7205362174802877e-01 1.5950545082283479e-01 8.5512716797940744e-02 -9.4016704091949260e-02 4.7901101312141786e-02 -6.3688412628043714e-02 -1.7731362143840906e-01 -1.8469959072137074e-01 2.9331129206371304e-01 8.6341138221230754e-02 -1.6991789304916058e-01 -6.8304482808046840e-04 1.3304325615314155e-01 9.5005225531182569e-02 1.6708800885488964e-01 2.2230312462369192e-01 3.0208003807727840e-02 3.3420264351475215e-02 1.8964962777304178e-02 -2.2985230050081415e-01 1.2101523110459303e-01 1.2974673965545461e-01 -1.1409858929652952e-01 -2.3558442119758254e-02 2.1934867430659333e-01 -2.2706429912001094e-01 1.0316577393060892e-02 1.3431118116623228e-01 -8.4111693774530261e-02 -1.5192331758318617e-01 -1.5431203833112578e-01 -5.4075683543057529e-02 -1.6316898751773126e-02 1.1790095271802793e-01 -1.9634540277447533e-02 -1.3465914080501112e-01 -1.3546421839293013e-01 3.5830920070326494e-01 -1.5181632672835235e-01 -1.2926460669258344e-01 -1.2253488056328893e-01 7.7781566747805092e-02 -2.1016615603330502e-01 2.0738626266783553e-02 3.4205688599354973e-02 4.8818463562542637e-02 -2.3107797187488094e-01 -7.9187020757995885e-02 -2.1223160370912510e-02 -3.5458988501771255e-01 3.4735701663345116e-02 3.3571159620402649e-02 -1.8864621909945331e-01 9.5707099746197774e-03 -6.7090997758272583e-02 5.8496657352209304e-02 -1.3778743022570242e-01 -2.8697037540529147e-01 -3.0418861150260223e-02 -7.1598932418055379e-03 4.1256472225101321e-01 -9.9911363799806599e-02 -1.1173637064575211e-01 -1.2073769590064834e-02 -1.8666227671992694e-01 -9.2907181347474624e-02 -4.8277939778757571e-02 2.5244273998692668e-01 7.5390810588815034e-03 6.9267488595825877e-02 -2.7318430194179993e-02 1.8253504753238170e-01 1.9771108334814003e-01 -2.8477796327211966e-02 1.9279351488492369e-01 2.4662564641208418e-01 7.6274746886490177e-02 5.4459987026811115e-04 -9.6797290703500169e-02 2.2460703782770805e-02 1.1389319248567215e-01 -1.1112344927523561e-01 5.5636060591628816e-02 -1.6135825633059311e-01 3.8159276523170477e-01 2.4151971072613271e-01 -2.1815647326545887e-01 -2.0410021577071064e-01 -3.8255185966431797e-03 3.2174073732741136e-02 -2.5646582310967153e-01 1.9459407230155132e-01 -1.9153445650992781e-01 -1.7594207396394357e-01 1.1398382790285246e-01 1.9609806458205151e-01 -3.1758952203952112e-01 2.9440077210135273e-03 1.2982200866339319e-01 6.4517800171449757e-02 -2.5551042856262285e-01 -7.3756955791479584e-04 2.2206635087355597e-01 2.1524157555884452e-01 1.2201807760854595e-01 -6.6730410669317300e-02 6.2803445693317209e-03 2.6147161293548304e-01 -1.5368767924921412e-01 1.2533539513403025e-02 -8.3177090143967847e-02 -9.7735650623978682e-02 6.1397703605910021e-02 2.4826518395218217e-01 1.2501374705784274e-01 -1.8275433360103194e-02 -5.5112911964857337e-03 -2.9466527829934019e-01 1.6071078393847349e-01 -4.6350145362050801e-02 1.7891004983156875e-01 -1.0988621531637852e-01 5.5155767661431349e-02 -2.2379424185226907e-01 1.0106552631082669e-01 1.0417856780650488e-01 2.8768381744269548e-02 9.4672221906498179e-03 2.3577859700111670e-02 3.1347517107294803e-02 -4.2708607703722770e-02 -6.0805703152152085e-02 2.3097294594935738e-01 5.8064091146653861e-02 1.3904568967161600e-02 -1.4096063209221296e-01 8.3894056925153514e-03 -2.1834770474254464e-01 -8.4796887494346274e-02 -1.2266411689616832e-02 -3.5212354076947983e-01 1.9670986837832489e-02 -9.6859310543871258e-02 -9.1180931854836736e-02 -1.8501403734429098e-01 -9.2718589120078840e-02 1.0497195201914096e-01 -2.6503945710513156e-02 4.2761670984234022e-03 -1.8163781968256373e-01 2.0789304674078174e-01 -5.1594248930922536e-02 1.1588059045185313e-01 2.0408011295965997e-01 -2.4392384092746697e-01 -1.6189562109640690e-01 -1.3943253709540782e-01 -8.7406182693443940e-02 -2.0975170163439941e-01 9.0195972488224252e-02 2.3834491519712461e-01 -1.6478117574864684e-01 -2.0190612234565661e-01 -2.6906842670062026e-01 -2.5472934599838326e-01 -2.2903847290848675e-01 2.9755012982769898e-02 3.4994723520903143e-01 -7.9752971448055029e-02 -2.5966909122308729e-01 2.8505014707679233e-02 1.3136286559797788e-01 3.0292505088562276e-02 1.7759831594133604e-01 -4.2080975839434570e-02 2.2762259030390178e-01 1.0876709126187874e-01 1.9013910147657026e-01 8.9851434959088441e-02 1.7919619605651430e-02 -2.7821390233300731e-02 -1.2077751235023901e-01 1.2436902525262129e-01 -5.8695176672394225e-02 3.4704110386781090e-01 3.5874645514964963e-02 6.1827948979175248e-02 6.5369460352579414e-02 -9.4317782578377862e-02 -1.9688379649279684e-02 -2.7951694558655832e-01 1.5285563713956177e-01 -2.0588329274263020e-01 -1.8523057716805583e-01 3.9364446076572433e-02 -1.3738114347165148e-01 -3.7027981760228584e-01 2.2631796158349685e-01 2.3144946658303717e-01 2.6069549244341039e-01 1.1188771227169014e-01 3.6958766224390878e-02 6.2900804172893177e-02 8.0652348183188852e-02 1.9982726809106902e-01 1.1039261540754496e-01 -1.0862102822766051e-01 9.4326004875867592e-02 -2.3942752324492758e-01 -3.4158302167013412e-02 1.0706580079422554e-01 3.9134411414329967e-02 1.2659913988921884e-01 1.0090909821669325e-01 -2.3979563024762388e-01 3.7348880456659510e-02 -1.5901748407451385e-01 2.5868003776434927e-02 -1.9888822036499998e-01 -2.7306566613884342e-01 -1.0195928783747947e-01 1.6210976700620297e-01 -5.1998263241621601e-02 9.1064697394026589e-02 -1.5623970755005734e-01 1.0764400470444445e-01 -8.0604390210935670e-02 8.8346874029311559e-02 1.8486426699865582e-01 2.6921771555949930e-01 -2.2724375538345904e-02 -2.6653714788177818e-01 7.1150695889877325e-02 2.5262790605976215e-01 -1.5689323881681669e-01 -7.5916436503949802e-02 -1.1471052923692400e-01 -8.8052778187249464e-02 -2.9791929990352142e-02 6.6215457506567654e-02 2.7190516189891070e-02 -7.4244020236217387e-02 6.9524311787208776e-02 8.3895164852945348e-02 7.2371719726600753e-02 1.3135371353606212e-01 6.4518175143508716e-02 2.9987611035493844e-01 2.0538636451544520e-01 -2.3398322984537379e-01 -2.8396504963690117e-01 -2.4559130008220301e-01 4.3876309580227320e-02 -1.6394666045464151e-01 9.6852226437376843e-02 -6.8180322276147301e-02 9.3588240506526088e-02 -3.8015411952989303e-01 -1.3339742480231045e-01 1.1756462289560157e-01 -9.2445331909704071e-03 -3.3544819322811420e-01 2.8447163265660375e-01 -1.1630807175724993e-01 -1.7238511950671773e-01 -8.0362409492640216e-02 -3.5373155829103886e-02 1.4354576903312813e-02 3.2127566432805156e-02 4.4230049943253656e-02 -1.6851491495614418e-01 1.1024413042457185e-01 6.1740677079955043e-02 1.8158159580937594e-01 -4.5998840910794696e-02 -3.5990377020284281e-01 -1.9479888465393205e-01 -1.0603362089415870e-01 -8.3972779980088716e-03 -1.8602370906733878e-01 -1.3813902824117738e-01 1.1308592851682245e-01 2.0674909425240338e-02 -1.6024079241304806e-01 1.5182444217347560e-01 2.5469076043160743e-02 -3.1177208332876943e-01 2.5158807648363240e-02 6.2922782742654865e-02 -4.3408216573565563e-02 -6.0415729946143873e-02 1.0878025775107243e-01 -1.0861863275489954e-01 8.7988557686320634e-02 1.3702765170382092e-01 -1.4332261470990601e-01 -5.5355916357756205e-02 1.4668629970964439e-01 3.3029118420658282e-02 -6.8374462011558279e-02 9.8175240886072573e-02 -2.7243073341443796e-02 4.0945447462962976e-02 -1.2905582339189803e-01 -1.6641182115158731e-01 -1.4657475151750216e-01 1.2905954879525536e-01 1.7825003910646415e-02 -2.9286166102502058e-02 -2.8232326819977421e-01 3.0441954571337143e-01 -1.0380041228590037e-01 -1.0344052158071636e-01 1.7162590261563235e-02 4.9367010809871922e-02 -1.2571060112149654e-01 -2.0844100481830113e-01 -2.2676935428653633e-01 -6.4395517815615408e-02 -4.9743061959424455e-02 -1.3021829274142158e-01 9.4170038230027370e-02 -1.0421200094506126e-01 1.1108348221893799e-01 -8.0125199925753607e-02 -3.5707944816951454e-01 5.4401799482778034e-02 6.0245962093779651e-02 1.2920215273079885e-01 3.5990463644733378e-01 6.8489177466885959e-02 -1.8745434037778957e-01 -2.9336567700245336e-01 5.2671378697180832e-02 1.3037079115120126e-01 7.5374661683969765e-02 4.3816169895955645e-02 -4.0476437543388297e-02 -1.2058665579671116e-01 4.0221535949855981e-02 7.7845691246341525e-02 1.5426036490596129e-01 4.8802073371102634e-03 2.5590487909480208e-02 3.8326045813017857e-02 2.5903215513453589e-02 5.1238116406797485e-02 -2.5219786944982597e-01 3.5854856990621638e-02 -2.5635772555435321e-01 7.2220882604880299e-02 -4.4357600718728837e-02 -7.3098791610978486e-02 2.7803368660753275e-01 -1.1604123578374549e-01 -2.2356219806057783e-02 8.5511457584029907e-02 -1.7946899304616667e-01 1.8338656718317074e-02 2.0106425546965079e-01 -2.7873138776471984e-01 4.5428264468170991e-02 2.1127711372923905e-01 -1.2083902699198062e-01 1.8706371260414198e-01 3.1846099575349340e-02 2.2337912829884934e-01 -1.6280034292046494e-01 -1.9865739291204021e-01 -7.0275509789724425e-02 3.7813587419075989e-01 -5.1272598319036591e-02 1.2957619367160034e-01 -1.5511804329452758e-01 1.2670914053988788e-01 -9.2366202695753560e-02 -1.2740461640837369e-01 -2.1235219647285411e-01 1.3433448334090117e-01 2.0631316946201000e-01 -1.9092731474108937e-01 7.3252114799162382e-02 1.2576474750053454e-01 -1.4682276931583960e-01 2.8838154214352384e-02 -1.2390183320226084e-01 -1.5856347268417367e-01 -6.1013301093914302e-03 -7.4092092329395773e-02 1.8781829042213322e-01 -6.1384158119594134e-02 -6.7598591889857840e-02 5.4905537530050938e-02 -1.5830063997698221e-01 8.3452136071302738e-02 6.2063308070088592e-02 -2.4711367650690738e-01 -1.2576515405563868e-01 2.5267335268223001e-01 7.0994712705452045e-02 -7.6484432562715143e-02 6.0109255448101149e-03 1.1196155347472564e-01 3.7625848982340324e-02 2.1557757513663456e-01 1.8523608112823334e-01 1.1892730224624030e-01 3.0704828295531329e-02 -4.6916335227043405e-03 -2.2005390116227039e-01 2.6918154903037075e-02 -7.0184731623279775e-02 -1.4598882316087497e-01 8.1596307415805258e-02 -1.0193029437574727e-01 2.1748487884581752e-02 -1.0104016451541539e-02 -1.4964058002951353e-01 -1.2849046983962956e-02 8.0080514329667923e-02 1.9666504001994356e-01 3.7944281376345528e-02 2.2466996333177866e-01 1.1096950423287791e-01 1.8052595027717117e-01 2.0581399284208740e-01 2.5554729154207984e-01 2.1522132277740755e-01 1.9290908936935883e-01 1.8526484299213747e-01 -1.8892960245159997e-02 1.5402820411133519e-01 1.3011576873681138e-01 -3.4979332579455463e-01 2.6140664667457164e-01 -3.5490788660971148e-02 -5.2293444892540529e-02 -2.0705574179828540e-01 -7.7266324993999172e-02 -9.0250533751858569e-02 3.7344256093660821e-02 -1.2032753417138313e-01 3.5109386421340372e-02 -7.9045025302092897e-02 2.8242478139402227e-02 1.8394066146657319e-02 1.3115413137106188e-01 -2.3350770137455595e-01 1.2249691796821680e-01 6.7322111737140616e-02 -1.4889900687746185e-01 1.3693223454876455e-01 1.2919415935198020e-01 7.7664919916862835e-02 1.4108821275289196e-01 1.8571240029741304e-01 -9.9476134510874850e-02 9.3919321696978600e-02 -1.6921045010988825e-01 -6.5094340236183892e-02 -2.4952590794778812e-01 1.6092874378951269e-01 3.6303718511342224e-02 -1.1064593033561740e-01 -1.4159670974942565e-01 3.1639907973393794e-01 -1.8746600816660497e-01 3.0290841903407661e-01 -4.0072821338156422e-01 3.8738638584176815e-01 1.3856493345785079e-01 -2.2086174526057686e-01 1.1335127170534821e-01 1.1521015886329282e-01 -1.0568588132755789e-01 -8.4659970643255159e-02 -5.4882251211495620e-02 -3.5589463481595562e-01 3.8794495163353093e-02 3.1882632298751601e-01 -5.3468085686433735e-02 4.4794447657499847e-01 -3.5340695071118360e-02 -2.5936426268889518e-01 -5.1361150092654129e-01 -7.6079771706395891e-02 -1.2789317491513784e-02 1.2013867452141358e-01 7.7951008996050633e-02 1.1620967547575869e-01 2.6177440703516192e-01 -5.2864093794303901e-01 -3.4588703813973817e-02 -3.8557160140023430e-02 3.5192908727223038e-01 1.1300141273436067e-02 5.5487314689296199e-02 8.6852512490294909e-02 1.2872993396741725e-01 1.5890198031651726e-01 1.0674506170973419e-01 1.4443527491326918e-01 -7.8718938150825896e-02 2.0920852866962661e-01 1.4093001334112731e-01 -1.0924584337904496e-01 5.0717118707487595e-02 -1.3554375310032832e-01 5.0738220463733621e-02 7.1799456255802460e-02 1.1955174579381379e-01 2.8954256339222266e-02 -2.0897398494374747e-01 -1.1507984099654582e-01 -4.2846484973052085e-01 8.7913921959426752e-02 2.7299406443690642e-02 4.0479913118375156e-02 8.9884508222139170e-02 2.6215819318089700e-01 -1.4146745882444356e-01 -2.8912100129138135e-01 -1.3488014976069315e-01 2.3625930272911330e-01 1.6468159015925257e-03 1.2931299775542809e-01 -1.6926753668295635e-01 -3.6447368382925677e-01 5.5791514612437698e-02 2.3112201304276964e-02 2.2554760194000009e-01 5.3274118329424511e-02 -2.0919054238263263e-01 -6.9871436248879204e-02 3.0883559008871203e-01 3.0203629071547183e-01 3.2235659238974090e-02 -2.2412418728354176e-02 3.9734932490094611e-02 -9.7894923402571943e-02 -8.9476730651856240e-02 3.7301279198657611e-02 1.9666707606703726e-01 -8.7561243086489132e-02 1.4034678843045268e-03 2.6716489555920157e-02 9.0615463043457009e-02 -1.6135760370184854e-01 -7.5927146470383539e-02 3.5777797359073016e-01 6.9798147843744829e-02 2.9571620947425440e-02 -1.8432077331582658e-01 3.9232968138624459e-03 -1.3327589535762671e-01 1.1837385935101002e-02 -2.6896093094626378e-01 5.5182225923220363e-01 1.4900637098668501e-01 -2.1696529040759382e-01 2.3019432271854001e-02 -1.2616577774368770e-01 8.1551216247849417e-02 -8.8077614484779430e-03 5.6228877603434743e-02 -1.0340469998187267e-01 -4.7185677283490574e-02 1.1706474385029350e-02 2.8573608421995716e-03 -4.8254276425469256e-01 1.5318278531759208e-01 -1.4537419315137265e-01 8.3385989385016610e-02 -7.3596655790240002e-03 1.9864204035528757e-01 1.7485705564645357e-01 -8.0076964076513463e-02 -1.4426525935911802e-01 -2.1426145936728325e-01 -2.8298926001385661e-02 6.0903304084853884e-03 6.7400999349826712e-02 -2.4095504734528239e-01 -2.6110488436391133e-01 -1.6944144392954913e-01 7.5884734532238901e-02 -2.5315571780354851e-01 1.0395563757298749e-01 3.3392571599076165e-01 3.6858146900337152e-01 -8.8501394172621983e-02 8.0103277055766933e-02 7.1233061136172116e-02 -1.3505177710768967e-01 -2.3215447688908306e-01 -1.0345181106671772e-01 -3.1967315432508303e-02 1.2927103302275512e-02 -5.8900497521157717e-02 -3.0360041453364330e-02 -1.1227921528327708e-01 -3.2901775265258199e-01 -1.7271145748963090e-01 -2.8309033909851355e-01 3.9293680842614434e-02 -5.8972159086185791e-02 -5.1804758408985289e-02 1.1224327869632181e-01 -1.1154859323895047e-01 1.7909645354376924e-01 -2.9071256670861502e-02 7.1580395000177821e-02 -1.0768036350788883e-01 7.5564454367295624e-03 -2.4350158309258821e-01 9.4330457567760539e-02 -1.7793189427271633e-01 4.5637076712042639e-02 -7.1059746784077352e-02 -1.5112853858454747e-01 -3.1959305265921396e-02 2.4762992849613355e-01 2.9702315245746951e-02 1.7399069848580400e-02 -2.9458421014775049e-01 -1.0311636755262167e-01 3.9494661670443736e-02 1.7448169236766686e-01 9.8070029687445784e-02 -2.5907463788251539e-02 3.0392456818379897e-02 1.2270678561215510e-01 -3.1293328782341601e-01 2.5248141127124235e-01 1.9902877030082092e-02 -4.1405606045521492e-01 -1.2429958715489663e-01 -1.8106367241190377e-01 -3.9660124795298971e-02 9.9107846591887511e-02 -1.0536729755184510e-01 -3.0302527430342840e-01 -7.2986143540894860e-02 1.3797640892422941e-01 -4.5955097756057876e-02 9.6379458556837910e-02 2.2330047127557140e-01 2.7382511849147800e-01 -2.2334691873162729e-01 -1.2003256010888881e-01 -1.7627514989169726e-01 1.4353481843134552e-01 8.9346746625372925e-02 2.6323335850529244e-02 -2.0968467144745012e-02 -2.0348486318635592e-01 -8.2890731392912212e-02 -3.4471576236967988e-01 -2.8884015238189126e-01 3.1688289951718562e-01 2.1377837142455677e-01 -7.1944962984401256e-02 9.7348542858733678e-02 7.7056795575242767e-02 4.9309037785371622e-02 -2.2769886954648036e-01 2.5541077047215371e-01 2.1637429770467027e-02 1.4506370981261937e-01 -4.3640695114960312e-02 -9.0021139436831252e-02 6.2261419298481571e-02 4.3294383254953640e-02 1.2517111200541178e-01 2.4619271051410915e-02 -1.0742247424156258e-01 8.7143329258599522e-02 