<?xml version="1.0"?>
<MethodSetup Method="MLP::MLPBNN">
  <GeneralInfo>
    <Info name="TMVA Release" value="4.2.0 [262656]"/>
    <Info name="ROOT Release" value="5.34/21 [336405]"/>
    <Info name="Creator" value="moneta"/>
    <Info name="Date" value="Thu Oct  2 12:19:35 2014"/>
    <Info name="Host" value="Darwin pb-d-128-141-235-186.cern.ch 13.3.0 Darwin Kernel Version 13.3.0: Tue Jun 3 21:27:35 PDT 2014; root:xnu-2422.110.17~1/RELEASE_X86_64 x86_64"/>
    <Info name="Dir" value="/Users/moneta/root/github/5.34/tmva/test"/>
    <Info name="Training events" value="6000"/>
    <Info name="TrainingTime" value="7.44393561e+01"/>
    <Info name="AnalysisType" value="Classification"/>
  </GeneralInfo>
  <Options>
    <Option name="NCycles" modified="Yes">600</Option>
    <Option name="HiddenLayers" modified="Yes">N+5</Option>
    <Option name="NeuronType" modified="Yes">tanh</Option>
    <Option name="RandomSeed" modified="No">1</Option>
    <Option name="EstimatorType" modified="No">MSE</Option>
    <Option name="NeuronInputType" modified="No">sum</Option>
    <Option name="V" modified="Yes">False</Option>
    <Option name="VerbosityLevel" modified="No">Default</Option>
    <Option name="VarTransform" modified="Yes">N</Option>
    <Option name="H" modified="Yes">True</Option>
    <Option name="CreateMVAPdfs" modified="No">False</Option>
    <Option name="IgnoreNegWeightsInTraining" modified="No">False</Option>
    <Option name="TrainingMethod" modified="Yes">BFGS</Option>
    <Option name="LearningRate" modified="No">2.000000e-02</Option>
    <Option name="DecayRate" modified="No">1.000000e-02</Option>
    <Option name="TestRate" modified="Yes">5</Option>
    <Option name="EpochMonitoring" modified="No">False</Option>
    <Option name="Sampling" modified="No">1.000000e+00</Option>
    <Option name="SamplingEpoch" modified="No">1.000000e+00</Option>
    <Option name="SamplingImportance" modified="No">1.000000e+00</Option>
    <Option name="SamplingTraining" modified="No">True</Option>
    <Option name="SamplingTesting" modified="No">False</Option>
    <Option name="ResetStep" modified="No">50</Option>
    <Option name="Tau" modified="No">3.000000e+00</Option>
    <Option name="BPMode" modified="No">sequential</Option>
    <Option name="BatchSize" modified="No">-1</Option>
    <Option name="ConvergenceImprove" modified="No">1.000000e-30</Option>
    <Option name="ConvergenceTests" modified="No">-1</Option>
    <Option name="UseRegulator" modified="Yes">True</Option>
    <Option name="UpdateLimit" modified="No">10000</Option>
    <Option name="CalculateErrors" modified="No">False</Option>
    <Option name="WeightRange" modified="No">1.000000e+00</Option>
  </Options>
  <Variables NVar="4">
    <Variable VarIndex="0" Expression="var1+var2" Label="myvar1" Title="myvar1" Unit="" Internal="myvar1" Type="F" Min="-9.86048698e+00" Max="7.90235996e+00"/>
    <Variable VarIndex="1" Expression="var1-var2" Label="myvar2" Title="Expression 2" Unit="" Internal="myvar2" Type="F" Min="-3.96643972e+00" Max="4.02589369e+00"/>
    <Variable VarIndex="2" Expression="var3" Label="var3" Title="Variable 3" Unit="units" Internal="var3" Type="F" Min="-5.35628748e+00" Max="4.64219379e+00"/>
    <Variable VarIndex="3" Expression="var4" Label="var4" Title="Variable 4" Unit="units" Internal="var4" Type="F" Min="-6.96754503e+00" Max="5.03067923e+00"/>
  </Variables>
  <Spectators NSpec="2">
    <Spectator SpecIndex="0" Expression="var1*2" Label="spec1" Title="Spectator 1" Unit="units" Internal="spec1" Type="F" Min="-1.17982388e+01" Max="9.52782059e+00"/>
    <Spectator SpecIndex="1" Expression="var1*3" Label="spec2" Title="Spectator 2" Unit="units" Internal="spec2" Type="F" Min="-1.76973572e+01" Max="1.42917309e+01"/>
  </Spectators>
  <Classes NClass="2">
    <Class Name="Signal" Index="0"/>
    <Class Name="Background" Index="1"/>
  </Classes>
  <Transformations NTransformations="1">
    <Transform Name="Normalize">
      <Selection>
        <Input NInputs="4">
          <Input Type="Variable" Label="myvar1" Expression="var1+var2"/>
          <Input Type="Variable" Label="myvar2" Expression="var1-var2"/>
          <Input Type="Variable" Label="var3" Expression="var3"/>
          <Input Type="Variable" Label="var4" Expression="var4"/>
        </Input>
        <Output NOutputs="4">
          <Output Type="Variable" Label="myvar1" Expression="var1+var2"/>
          <Output Type="Variable" Label="myvar2" Expression="var1-var2"/>
          <Output Type="Variable" Label="var3" Expression="var3"/>
          <Output Type="Variable" Label="var4" Expression="var4"/>
        </Output>
      </Selection>
      <Class ClassIndex="0">
        <Ranges>
          <Range Index="0" Min="-5.0562591552734375e+00" Max="6.3994679450988770e+00"/>
          <Range Index="1" Min="-3.9664397239685059e+00" Max="3.7205116748809814e+00"/>
          <Range Index="2" Min="-3.1826326847076416e+00" Max="4.6421937942504883e+00"/>
          <Range Index="3" Min="-2.5568437576293945e+00" Max="4.5351858139038086e+00"/>
        </Ranges>
      </Class>
      <Class ClassIndex="1">
        <Ranges>
          <Range Index="0" Min="-9.8604869842529297e+00" Max="7.9023599624633789e+00"/>
          <Range Index="1" Min="-3.6791675090789795e+00" Max="4.0258936882019043e+00"/>
          <Range Index="2" Min="-5.3562874794006348e+00" Max="4.4098372459411621e+00"/>
          <Range Index="3" Min="-6.9675450325012207e+00" Max="5.0306792259216309e+00"/>
        </Ranges>
      </Class>
      <Class ClassIndex="2">
        <Ranges>
          <Range Index="0" Min="-9.8604869842529297e+00" Max="7.9023599624633789e+00"/>
          <Range Index="1" Min="-3.9664397239685059e+00" Max="4.0258936882019043e+00"/>
          <Range Index="2" Min="-5.3562874794006348e+00" Max="4.6421937942504883e+00"/>
          <Range Index="3" Min="-6.9675450325012207e+00" Max="5.0306792259216309e+00"/>
        </Ranges>
      </Class>
    </Transform>
  </Transformations>
  <MVAPdfs/>
  <Weights>
    <Layout NLayers="3">
      <Layer Index="0" NNeurons="5">
        <Neuron NSynapses="9">
          1.7816347284726239e-02 2.4595512601340848e+00 1.2456618628054881e+00 8.2167122766228717e-01 -8.1011004341502009e+00 -3.5164555856042679e-01 4.2424311822888833e-01 7.2477211927163354e-01 -1.6233661879931418e+00 
        </Neuron>
        <Neuron NSynapses="9">
          -6.2201739589382354e-01 -4.0151576143916434e-01 1.7300085447547259e-01 -4.7176381413896579e-01 -1.1036581064513813e+00 -5.0192508932572788e-01 -6.7340479338505038e-02 1.7374204442404420e-01 1.5097595832241821e+00 
        </Neuron>
        <Neuron NSynapses="9">
          -8.1740112312074953e-01 1.5989285491237951e-01 -5.8033520895559410e-01 -3.6400753487683735e-01 -2.3797122822670009e+00 6.5207707515802116e-01 7.0253840517301561e-02 -3.2487439705096643e-01 -4.0025753501722312e-04 
        </Neuron>
        <Neuron NSynapses="9">
          5.9512388902493218e-01 -1.4052276661738736e+00 -4.1725117441118476e-01 -7.1258834458734288e-01 1.2443732055299877e+01 -1.1479701796755668e+00 6.3912411733250407e-01 1.5994991196207664e-01 1.7876265467760363e-01 
        </Neuron>
        <Neuron NSynapses="9">
          -5.5623324565794585e-01 1.1460929346144981e+00 -7.1069547633427854e-01 3.3427818255180286e-01 -1.2616642589162408e+00 -9.1136907734457512e-02 1.2681287699570010e+00 1.2522443568659074e+00 -2.2862928659927201e-01 
        </Neuron>
      </Layer>
      <Layer Index="1" NNeurons="10">
        <Neuron NSynapses="1">
          -6.3423678276126827e-01 
        </Neuron>
        <Neuron NSynapses="1">
          4.9393996442722038e-01 
        </Neuron>
        <Neuron NSynapses="1">
          3.7120221644538093e-01 
        </Neuron>
        <Neuron NSynapses="1">
          7.2940289654909252e-01 
        </Neuron>
        <Neuron NSynapses="1">
          7.3731776042990871e-01 
        </Neuron>
        <Neuron NSynapses="1">
          2.9571575601329791e-01 
        </Neuron>
        <Neuron NSynapses="1">
          3.0617949497887681e-01 
        </Neuron>
        <Neuron NSynapses="1">
          -9.1116968331175857e-02 
        </Neuron>
        <Neuron NSynapses="1">
          2.6194075861593513e-01 
        </Neuron>
        <Neuron NSynapses="1">
          -1.7666302578396195e-01 
        </Neuron>
      </Layer>
      <Layer Index="2" NNeurons="1">
        <Neuron NSynapses="0"/>
      </Layer>
    </Layout>
    <InverseHessian NElements="3025" NRows="55" NCols="55">
      <Row Index="0">
        5.7416353818515734e+02 -1.0646084746594369e+00 -4.3198061481027901e+02 -3.2978790600220549e+01 6.0580642941805385e+00 -3.4241030763543023e+02 -2.5798408699595939e+02 2.2018520526596003e+03 1.5110134562120487e+01 3.1183365629046861e+01 4.3889940007959531e+01 -3.5633014728116802e+02 8.0726812358836028e+01 3.3566312792407262e+00 3.7791933536837170e+01 2.0907994395198511e+02 1.1698299588791556e+03 -6.9147085410337974e+00 -4.2290650765990563e+00 3.5097964388614173e+01 -2.4548684331893295e+01 1.0084081321323069e+02 7.3164392661663937e+00 3.7707060781349952e+01 -2.8288327884440253e+02 -1.6037908116021521e+02 -1.8320557486924319e+01 -5.5418194302084635e+02 -6.5310539347500708e+01 2.0045869438806710e+02 -4.5444141072036487e+01 -1.4062507094247337e+01 3.2756233443996848e+02 3.3986729619955941e+02 2.2887944415981601e+03 8.5400205415860242e-02 2.9248185806762628e+00 -5.6362944860697723e+00 2.1982919102922534e+02 -2.1795738540106564e+02 1.7943297630322663e+00 -9.5863306604820853e+00 -7.7183165021746333e+01 -8.2959213058872683e+02 3.7032166789433454e+00 -2.3238300452754731e+02 4.6581661177388021e+01 2.5831684999922282e+02 1.1855980461952936e+02 1.7113232254484252e+00 5.4312196322969761e+01 2.8011219543110872e+02 5.5338870577758360e+02 3.6703569182249955e+00 -6.5698626476961567e+02 
      </Row>
      <Row Index="1">
        -1.0646098044649079e+00 1.7014007067666771e+03 1.0902830101387965e+03 2.6674284366569202e+02 -6.8346563154994566e-01 1.5318792706191127e+02 1.7242491477972731e+03 7.6228371047568608e+03 -2.1709066966912498e+01 -4.7668111352981519e+01 -2.4311734833986569e+02 2.2815073973924862e+02 -6.0546280348467463e-01 -5.8853424784225861e-01 1.6091093144244411e+02 -8.5253377692076231e+02 1.4578915577013959e+03 5.6199634310745282e+01 -1.1579599058766033e+02 8.5498815201560490e+01 -6.7345084043017584e+02 2.9989344976194289e+01 -2.1624979819166139e+00 -2.5531957625132318e+02 6.8927524509102227e+02 -3.4233952292285999e+03 6.4853400063986953e+01 9.3122085756323145e+01 -1.4736618100613446e+03 -3.4563776372808849e+02 -2.8440226798576396e+02 5.6543614138225848e+00 9.5693700721791316e+01 -2.5390954074220126e+03 -7.0623543041852088e+02 -4.5594611291098865e+01 -8.4608316437552460e+01 1.6833442294379373e+02 -1.6194659119283040e+02 7.8068171161597334e+01 -1.4309068373020588e+00 -2.6453342264763023e+01 -4.9519952912033563e+02 6.5160859980242258e+03 2.4423589383140687e+00 1.4305828914202667e+02 -7.7806300473088731e+02 -5.4703599852912271e+02 -9.2521721740137480e+01 -4.7286606897644101e-01 2.1818415825470106e+02 3.0549487430931993e+02 1.9352505727440343e+03 -2.1047185459557674e+01 -1.3522655556528880e+03 
      </Row>
      <Row Index="2">
        -4.3198061735115607e+02 1.0902830103863639e+03 6.1784361599661852e+03 4.9576972242323512e+02 2.2879328266402567e+01 9.3596566366541845e+02 1.8019801837783889e+03 2.4709992326970141e+03 -5.6331873871313782e+01 1.4017500670763634e+00 -9.5757439876960106e+01 1.0403256408822672e+03 -4.3072018684987384e+01 3.9134102324063305e+00 1.5168370234212455e+02 -7.7556325472605840e+02 -1.1682953021331352e+03 3.4831051802696074e+01 -7.5880289105869124e+01 3.5653113325778536e+00 -2.7528580258863094e+03 -2.4669581886048138e+02 3.4292401760191544e+00 -5.3017595960030781e+02 4.0809339315752666e+00 -8.4112976229726974e+02 2.9747594327342597e+01 4.9693983957176431e+02 -8.8656680066950366e+02 -2.0579185665535078e+03 -3.3486920638792151e+02 -2.7737661548568440e+01 -3.4069440765316830e+02 -2.3404415585721572e+03 6.5978489721827045e+03 2.1599352656339867e+00 -7.1179442812844570e+01 8.1404114033492448e+01 -5.3124769240315356e+02 4.3007290653654593e+02 3.1517219532080722e+00 3.2145476413507026e+01 -3.2405667535770613e+02 7.3152347807766755e+03 4.4178674263550093e+00 3.1463866257995039e+02 -5.2094398159107902e+02 -2.7047858248944781e+03 -3.2030050000398955e+02 3.2281503993874292e+00 2.6493366144033388e+02 7.2660412857311542e+02 1.9787875479061770e+03 -2.0058677218430997e+01 -3.2459265019701415e+03 
      </Row>
      <Row Index="3">
        -3.2978791149363417e+01 2.6674284233889841e+02 4.9576971971260264e+02 4.9734989944249759e+02 3.4994776665205727e+00 1.2854563026073308e+02 1.9892352027174411e+02 -7.9213435070166190e+02 1.3868075170484184e+01 -1.0381048106599071e+02 -7.8241777006782542e+01 -1.2682726950458938e+02 -8.0048553964907356e+01 2.2516214107668873e+00 1.9765123286102469e+01 1.9295979671805807e+01 -1.0421785672248213e+02 1.6530342715894537e+00 -2.4833341095134952e+02 -6.4600837257026939e+01 -2.3788087079142142e+02 -9.0417860873914947e+01 3.0214271442110383e+00 -4.7371562869011626e+01 1.7606500907760628e+02 -2.2544389812404040e+02 1.6258525779560241e+01 2.6490135042804656e+02 -1.4760805945154797e+02 -3.5359763448445506e+02 -4.2350286877098091e+02 -7.4487370180865042e+00 -4.0790021270457785e+01 -5.1557295308808136e+02 1.9038619700098957e+03 -1.8779327588445721e+01 -1.4006941580684503e+02 2.7257822471106596e+01 1.0167036452607931e+02 1.6307601476087265e+02 5.7578754532810583e-01 1.0248108955989355e+01 -1.0475881712025132e+02 -8.7063069705464704e+02 -2.1144067453186928e+00 3.2271920577365461e+02 -1.2033361902551151e+02 -1.1176339275609814e+02 -5.0709262781174772e+02 8.8147657029325466e-01 6.1818941028942533e+01 1.9992873599106827e+02 1.8345295184513225e+02 8.7374954052989096e-01 -1.8020328745567929e+02 
      </Row>
      <Row Index="4">
        6.0580642783134735e+00 -6.8346560924916433e-01 2.2879328249569280e+01 3.4994776862628796e+00 9.7245845242788427e+00 3.3175521823399361e+00 -7.8108801118432439e+01 -2.5934946754417695e+01 2.7063907313887872e+00 -2.9235429180873154e+00 1.4786012267573794e+00 2.7893124838779104e+00 -6.7320114560436006e-01 1.1923275305260290e+00 4.5331986386602026e+00 -5.9550471238585487e+00 -3.0149035690856010e+01 7.5188882726634776e-01 -9.2672563109860491e+00 4.9976515516597775e-01 -1.1350884323422343e+00 -2.2106835421531525e+00 2.7388565662474802e+00 2.9904530708312569e+00 -7.8925422264907832e+00 -1.6186673368066781e+02 1.2623065789184384e+00 2.8010998652598964e+00 2.3177491573841869e-01 -2.8207428205757818e+01 2.2591236876310006e-01 -1.3951660879690781e+01 -7.2295029689717909e+00 9.6430871648099924e+01 2.8972103124741545e+02 -4.0794760351374695e+00 -2.0191006762816617e+00 2.9087890939361745e+00 6.7020846117244686e+00 -1.6404388388812623e+00 1.3518835003941991e+00 1.9678359732270847e+00 -9.3233087406298747e+00 -1.6595857935952674e+02 3.8926842276208251e-01 9.0455406473126114e+00 4.8803172732391165e+00 -3.6733956674283919e+00 -4.8296310138072567e+00 1.1694873023610557e+00 1.4457122354436476e+00 -1.3538522429192744e+01 5.4071923799963237e+01 -2.6997321081527448e-01 -3.9743695923113101e+01 
      </Row>
      <Row Index="5">
        -3.4241030739194662e+02 1.5318792521945707e+02 9.3596566024185108e+02 1.2854562938136038e+02 3.3175521665786940e+00 8.4212712137847200e+02 8.7939394017944142e+02 -8.3704009380306998e+03 -7.2494074935717492e+01 -2.1703953724979598e+01 -5.5459266587403739e+01 3.2887432033624788e+02 -7.5335236003373467e+01 -1.0881635697955971e-01 -9.3612467918715652e+01 -4.7758959218898963e+02 -2.5220791774764448e+03 8.8348879207737685e+00 -8.9297250961046089e+01 2.2522503547364135e+01 -2.7368298294887603e+02 -1.2392342186720474e+02 -5.8925059957252870e+00 -2.1859132891882291e+00 2.5082929384989902e+02 1.5791472507419548e+03 4.8881823435943748e+00 4.6715941369012683e+02 -1.7261070660446660e+02 -1.6402840611108124e+02 -4.8292659849415628e+01 1.8127953084775186e+00 -8.4184787639555975e+02 -5.0243047850614903e+02 -2.2733973286161809e+03 6.2006679929213483e+01 -1.8536121950666391e+01 -4.2736591086827190e+01 -3.2566342458452664e+02 2.4933973939029136e+02 -1.5207725343871792e-01 4.5057456631498425e+01 1.0345390555239787e+02 -3.8645299680109570e+03 -1.1102902127109893e+01 2.6886009717317398e+02 -1.5100947695950600e+02 -3.5041867581589668e+02 -1.8821799198411207e+02 8.7250437656938060e-02 -1.7293534437698918e+02 -4.9238335056278140e+02 -9.1940534396604653e+02 -4.8967105971398661e+00 1.0832051190135546e+03 
      </Row>
      <Row Index="6">
        -2.5798408795392629e+02 1.7242491475085033e+03 1.8019801855504168e+03 1.9892352147826981e+02 -7.8108801095207752e+01 8.7939394166026852e+02 7.5599693107537005e+03 1.0063347706643957e+04 -2.2059324790578347e+02 6.8528948637692935e+00 -2.4932830455657867e+02 5.2643611266555672e+02 1.1176653708035268e+02 -7.8089201587932848e+00 -8.1810928322203821e+01 -9.9102378567454434e+02 -1.9332444254945890e+03 6.9849520052620420e+01 -1.3573843201309227e+01 9.9612411106463981e+01 -1.1437063063878529e+03 8.1875851482468505e+01 -4.1281773764410445e+01 -1.9098996820421539e+02 -4.8532702882094469e+02 9.8158807031277502e+02 -4.8193335520953440e+01 2.9719860957499486e+02 -1.7066719705448072e+03 3.9141211486264388e+02 -4.5312113701306350e+02 1.3411657475453237e+02 -6.7079199166180524e+02 -6.7740236068674621e+03 -7.2553251301904065e+03 2.1098363770929768e+02 -8.4634382499785175e+01 -9.9036737538926644e+01 -1.2029046669256400e+03 2.6162300955621134e+02 -1.5577421056633437e+01 -3.9638453761940305e+01 -1.3681844586496891e+02 5.2465722325093229e+03 -2.6046749123878925e+01 1.0971209844191856e+02 -1.0363991080401186e+03 -1.0634059302935887e+03 1.3949807612679103e+02 -1.3437458873782020e+01 -5.4048641275889651e+01 1.1192349969831112e+03 2.3551391097508304e+02 -3.0219362976209258e+01 -7.1928545201902830e+02 
      </Row>
      <Row Index="7">
        2.2018520212130534e+03 7.6228371814415741e+03 2.4709993316116834e+03 -7.9213429766273043e+02 -2.5934946144091256e+01 -8.3704009074388650e+03 1.0063347733790055e+04 4.4780226948954805e+05 4.1090258560176579e+02 9.6286315411670302e+01 3.6906170892599857e+02 9.9514344140056983e+02 2.2961255019200325e+03 5.0101340486435220e-01 4.0024999080675670e+03 -5.7496673506777734e+03 6.2778705427716617e+04 6.4075277992164627e+02 5.0580341306467335e+02 -8.8422568063189249e+02 -3.5258218209360639e+03 1.2543391960146305e+03 -1.8983227152348263e+00 -3.5392062972649264e+03 1.4316328066697263e+03 -1.5906298098279120e+05 3.0345297000110043e+02 -3.2239924455736718e+03 -4.7270999033943708e+03 -1.9124267956024394e+03 -2.9756329053937890e+02 8.0155978098475885e+01 1.2350371404112886e+04 -1.5054126542747184e+04 -1.8570447405126135e+04 -1.0772483910936235e+03 -3.5700876501895431e+02 1.6166990151097375e+03 -3.6070281894578156e+03 -2.1245606893730205e+03 -1.4532460781535681e+01 -5.1923986677149685e+01 -4.2094772910795291e+03 2.6735826596503448e+04 1.6303998547964167e+02 -1.7438935101019529e+03 -2.1344618258170563e+03 -5.0987010995954015e+03 4.6242090635469140e+03 -8.3627292700912221e+00 5.5128121075508843e+03 2.1264728886357525e+03 8.2287590799475089e+04 -3.1500696908924988e+02 -7.2187903573977688e+04 
      </Row>
      <Row Index="8">
        1.5110134459782330e+01 -2.1709066816955009e+01 -5.6331873508268558e+01 1.3868075327432626e+01 2.7063907352333150e+00 -7.2494074840047290e+01 -2.2059324786369325e+02 4.1090258796131326e+02 7.1323884374515899e+01 -4.4579268483064372e+00 -1.3770744095867343e+01 -5.3946491408898645e+01 -1.8960021316931830e+00 2.4182558468265825e-01 2.3865451763827892e+01 1.9510943992489047e+02 3.7269103867580884e+02 -8.0705168807328391e+00 -4.9725487392790608e+00 -2.1278538861747709e+00 -1.6630439967244683e+00 1.2414526779399059e+01 9.9857888834685582e-01 -1.7620263338131831e+01 -1.0891114744367651e+02 1.9184181554659560e+02 2.8623672740460431e+00 -1.5372857533653301e+01 4.9668343200466708e+01 -8.1628579646471024e+00 -1.9442202162723618e+01 -4.1580691377724959e+00 1.0880599257491068e+02 7.0147387239704273e+01 1.3479382684253540e+03 -6.0298091298402312e+01 -1.3722497141215428e+01 3.2244409680664660e+01 4.2188736660906557e+01 -6.3911927608896715e+00 4.5150497164086018e-01 -8.0062964501865448e+00 -6.1824612056899333e+01 4.7114404443619731e+02 3.4541864412766046e+00 -5.7146549187697513e+00 2.4408152977513573e+01 2.9312825185120936e+01 -3.0755583761586930e+01 4.2624011453381172e-01 4.2753055976923122e+01 2.0617731008890769e+02 6.2285743787949031e+01 3.5498580484624518e+00 -2.1759766089471381e+02 
      </Row>
      <Row Index="9">
        3.1183365677873724e+01 -4.7668110738410867e+01 1.4017512777005194e+00 -1.0381048090094851e+02 -2.9235429103303092e+00 -2.1703953877206974e+01 6.8528953651998563e+00 9.6286332044925558e+01 -4.4579268038622759e+00 1.1704484270741064e+02 2.9019581354655759e+01 -6.1922718080397573e+01 -4.8807952884093586e+00 -1.0803108063763034e+00 -9.0600393863189765e+00 2.1812816458826092e+01 5.7225495308436098e+02 -4.1468246803920010e+00 1.6103256077874889e+02 2.0803924457197414e+01 -1.0132306970468227e+02 -3.1506902680786560e+01 -1.0974231049756042e+00 -5.7440596790154046e+01 -5.4940531058409078e+01 9.4808244886476598e+02 -5.9786967883521749e+00 -1.7015027556714443e+02 8.3078792751616426e+00 9.6216338012094297e+01 1.3294663199855347e+02 5.1575544022353768e+00 9.1262700761021748e+01 1.3269316849213055e+00 -5.1741972456322208e+02 8.3602781725402586e+00 9.1457864744514055e+01 -1.0303566774183198e+01 7.0394448936202494e+00 -1.1249040199930029e+01 -5.8900711821396279e-01 -6.9311781074383507e+00 -1.9703578742156083e+00 5.7133900901210893e+01 3.2572720425720654e+00 -2.4484326850643868e+02 2.0017489537928881e+01 -2.6669348395957115e+00 1.0043123074235426e+02 -6.8392387978300917e-01 2.0964784256323750e+01 4.2456861819993662e+01 1.3453442430862395e+01 1.4238018460950213e+00 -1.6644676467125143e+02 
      </Row>
      <Row Index="10">
        4.3889940147926268e+01 -2.4311734789315540e+02 -9.5757439089144128e+01 -7.8241776983555994e+01 1.4786012359307850e+00 -5.5459266858076198e+01 -2.4932830439175132e+02 3.6906172796510538e+02 -1.3770744058895163e+01 2.9019581402813117e+01 8.6069902161895286e+01 -4.4273205880191426e+01 2.8710960428625127e+00 -2.2581328480006846e-01 -1.8693976413060799e+01 8.1452286113184073e+01 4.7523363252196262e+01 -4.6023518021492009e+00 7.1438775019761366e+01 -1.4404657316526059e+01 9.1270486294397358e+01 -1.3860123999083934e+01 6.4666389935574387e-01 1.5381044589896264e+01 -1.2544341785461819e+02 3.3395403931023486e+02 -1.1219524814131741e+01 -1.0874196683347544e+02 1.8679655366753417e+02 -1.1308539006130207e+01 9.2098557857095415e+01 -2.2299927270208144e+00 4.5655550460314345e+01 3.7162277682331245e+02 -2.7239889946266953e+02 1.8434687496871934e+01 3.8270098777740088e+01 -3.5309513941885164e+01 4.6740773573816540e+01 -3.2625225659341879e+01 2.9515073325083230e-01 6.0461671091218454e+00 5.7360294734526221e+01 -1.4513948034505308e+03 6.2725007182795514e+00 -9.1031354086930321e+01 1.3076455378493779e+02 6.1857430643758043e+01 5.4982785614509709e+01 1.7204051597023806e-01 -1.3171575182447645e+01 -1.6552468790769453e+01 -4.7627192766642196e+01 1.8096678245311082e+00 -8.9481397242166210e+01 
      </Row>
      <Row Index="11">
        -3.5633014746753713e+02 2.2815073934972011e+02 1.0403256400335449e+03 -1.2682726943612067e+02 2.7893124782040721e+00 3.2887432074215974e+02 5.2643611230020701e+02 9.9514341725904524e+02 -5.3946491476672534e+01 -6.1922718191083916e+01 -4.4273205914642404e+01 6.1299360501575961e+02 3.1881818683116038e+01 -1.3294610356531820e+00 3.7467217827193565e+01 -5.2968822603777653e+02 -1.8006433306006163e+03 2.6424047253666004e+01 -4.9772835727526186e+01 1.6863333964060860e+01 -3.0468279996366272e+02 2.2233173904491860e+01 -4.3409948622240080e+00 -3.3410996192235011e+01 2.3996183050493460e+02 -1.8748378354044412e+03 1.8248810918988159e+01 3.9046109566613205e+02 -1.7281067241004226e+02 -2.4426129454445021e+02 1.0792516346806261e+02 8.7444284188262600e-01 -3.5294057696226685e+02 -4.5502064802514155e+02 -1.9256611493423131e+03 2.5344074491656915e+01 -1.6763774501457675e+01 2.3794939802322961e+01 -3.5945531618203813e+02 7.1489258239150999e+01 -2.9212115070899037e-02 9.9884116307591384e+00 5.7288696272838074e+01 3.6598371830306087e+03 -6.2967057899641823e+00 2.3117882814305955e+02 -1.4472967806207208e+02 -6.0682006389145135e+02 2.0450925580253926e+02 -1.0646487052177633e-02 -4.1842434732041781e+01 -3.4833718392676496e+02 1.4153835025940128e+02 -1.3464137103917189e+01 8.0379041384714597e+01 
      </Row>
      <Row Index="12">
        8.0726812357801407e+01 -6.0546223279398959e-01 -4.3072017763817165e+01 -8.0048553753407120e+01 -6.7320114048369217e-01 -7.5335236065664347e+01 1.1176653748686385e+02 2.2961255114791293e+03 -1.8960021047624633e+00 -4.8807953217158691e+00 2.8710959709251256e+00 3.1881818775808824e+01 7.5716918151248393e+01 8.7688603830440570e-01 6.1273360741298060e+00 -6.9614505609678417e+01 2.9779738221615844e+02 3.7876523503091448e+00 3.0131682553961568e+01 9.0695245154560826e+00 -2.8715986741686493e+01 7.8476431396973297e+01 1.0887571855289480e+00 -1.1049410321188944e+01 -7.7220343352043983e+00 -6.9470116750594377e+02 -4.1466609289473775e+00 -1.2846667087775847e+02 -4.8684163891083854e+00 1.1399453598786917e+02 9.1198684161064172e+00 -6.2948450483831664e-01 7.5390037801880268e+01 -2.7786972433433334e+01 -9.5673555920604542e+02 8.3245329433615867e-01 -1.6749327786524702e+01 -1.7468886235240368e+00 -5.8916992891538136e+01 -7.9478302199237234e+01 9.3962427696282935e-02 -2.0246637363918261e+00 3.4354176825042487e+01 8.6713525674080358e+02 -2.3595873813152011e+00 -6.5314196918421189e+01 5.3177992885037462e-01 -4.0375040619304649e+01 1.6054758494818799e+02 9.6764331378437873e-02 4.7155964350675887e+00 -8.0274067166265070e+01 2.9763586514236124e+02 -2.5369072899745735e+00 -2.1577198104303855e+02 
      </Row>
      <Row Index="13">
        3.3566312759875796e+00 -5.8853424217444605e-01 3.9134102352830080e+00 2.2516214159007792e+00 1.1923275305979391e+00 -1.0881635394456629e-01 -7.8089201618696507e+00 5.0101337417469516e-01 2.4182558423245837e-01 -1.0803108080413184e+00 -2.2581328656423238e-01 -1.3294610343105404e+00 8.7688603723084413e-01 2.7462249093144742e-01 3.4627335572199347e-01 1.1099771362287925e+00 4.0822504586944888e+00 -9.3165519922422391e-04 -2.1923244392683228e+00 -4.1867706604195615e-02 -2.6187526347733705e+00 9.9523339265362698e-01 4.4751690495257002e-01 3.5167211685203870e-01 -2.0618086585256918e+00 -1.4108727860164958e+01 -1.4940302863411076e-01 -1.6410582240905101e+00 7.4203576235941360e-01 -2.1607877744155979e+00 -3.2251223562459246e+00 -1.8609880595527291e+00 -3.4841433474858269e-01 9.9899130576246513e+00 4.6155324944500833e+01 -1.0715780996335195e-01 -1.4613805109039655e+00 2.0485233441468720e-01 6.9487790410911976e-01 -1.0019687738218284e+00 1.8569725139795881e-01 4.2720180821117226e-01 -5.3108743509248146e-01 -2.8205268716361498e+01 -1.1126685232816791e-01 1.2989463743425154e+00 7.0676287954162142e-01 -8.6618727910928128e-01 -1.1083942491186387e+00 1.6095788125623578e-01 1.4580434386592833e-01 3.9297611326520931e-02 8.8603368779568612e+00 -1.3027291871674446e-02 -8.5482825496421686e+00 
      </Row>
      <Row Index="14">
        3.7791933130274515e+01 1.6091093174315566e+02 1.5168370271746551e+02 1.9765123734288238e+01 4.5331986347466833e+00 -9.3612467411203411e+01 -8.1810928069899091e+01 4.0024998922436798e+03 2.3865451720388592e+01 -9.0600395675661272e+00 -1.8693976580127128e+01 3.7467218031840275e+01 6.1273359300569004e+00 3.4627335446577945e-01 1.1510036723551659e+02 -2.7907926615345787e+01 3.5977270814146323e+02 3.1605983501412993e+00 -3.9202839444241675e+01 -1.2238173361744813e+01 -1.3899415873833266e+02 1.8258606203276411e+01 1.4584864466547742e+00 -9.2597336646314403e+01 7.3205314499549786e+01 -1.1528281102114345e+03 1.0123655666417889e+01 -2.2021649702345956e+00 -1.0091540338719651e+02 -4.2864543025096282e+01 -2.5775873792469646e+01 -6.0849120847003597e+00 2.3080322705602470e+02 -2.0816434767167360e+02 1.4913726881454087e+02 -3.1558068551253530e+01 -1.2891519636380519e+01 4.2336139217351061e+01 5.3656093427752367e+00 -1.9871608487105650e+01 5.8971505350973530e-01 -2.9103107740329229e+01 -1.1564673399006296e+02 3.2180546067512869e+03 3.1842938616862480e+00 2.0932400132755646e+01 -5.0615846231353522e+01 -9.4285447623043154e+01 7.3880956808900109e+00 5.8133471462525677e-01 1.3279978204976220e+02 1.3817815357717640e+02 6.1327750370331205e+02 -1.6486268491672633e+00 -5.3661419250283859e+02 
      </Row>
      <Row Index="15">
        2.0907994426625794e+02 -8.5253377597772192e+02 -7.7556325028143601e+02 1.9295980124196944e+01 -5.9550470536825841e+00 -4.7758959299260459e+02 -9.9102378570978726e+02 -5.7496672516406588e+03 1.9510944016030953e+02 2.1812816591353020e+01 8.1452286297666433e+01 -5.2968822594847734e+02 -6.9614505412688899e+01 1.1099771488512715e+00 -2.7907925997831626e+01 2.0030263016120771e+03 1.8962401444494026e+02 -6.6136595924992434e+01 7.5267132508261241e+01 -5.5393431909928417e+01 2.6021183343562575e+02 1.3527204892563038e+01 -1.6576033882844285e+00 1.0352959056812158e+02 -1.5117168384803285e+03 7.2352445149284949e+03 -4.1728780603064507e+01 -2.7445568447711747e+02 7.9159072939819407e+02 2.5928439250029484e+01 3.0926302391862521e+01 7.2911873074243516e+00 5.1684492023141968e+02 4.8636785453992752e+02 1.1146584892330138e+04 -1.1475754191841490e+02 4.3535537743294483e+00 -2.0448593072394807e+01 4.4401472492477143e+02 -9.1081848948820664e+01 -5.2808925639828885e-01 -1.2128705830580673e+01 -1.6560503166769834e+02 -5.9704221813214663e+03 1.5164182431025054e+01 -1.8018581316939463e+02 4.4979569907657606e+02 4.8934342940166255e+02 -2.2363645314748294e+02 -8.0298628245157033e-01 6.9191727201000148e+01 2.1370570961551034e+03 -1.6656956225970507e+03 3.5398074757053394e+01 -6.5947536039768363e+02 
      </Row>
      <Row Index="16">
        1.1698299521288100e+03 1.4578915770318526e+03 -1.1682952792373685e+03 -1.0421784501981338e+02 -3.0149035586724032e+01 -2.5220791714612924e+03 -1.9332444166700589e+03 6.2778705456174619e+04 3.7269103824236663e+02 5.7225494951825863e+02 4.7523358712671325e+01 -1.8006433249975671e+03 2.9779738024933613e+02 4.0822504606803705e+00 3.5977271223472781e+02 1.8962399169069249e+02 3.9882779263705015e+04 -1.3177193716517650e+02 1.9602656317891604e+03 7.6329999520964861e+02 -8.7771952754291124e+02 5.0362543943936032e+02 2.3327317021081399e+01 -1.7860772727960032e+03 1.4274465000798737e+03 -1.4518991975563113e+04 1.8987608257529882e+02 -3.4002105560685600e+03 -1.6236726377424711e+03 9.0937207166015924e+01 -5.4232866776570893e+02 2.5460717709613903e+01 4.6606016137781744e+03 -7.6927667849226145e+02 6.3973077022379648e+03 -4.8405983224702982e+02 7.8322135233297786e+01 4.0296718851237796e+02 5.3369598768269248e+02 -2.8270126697065126e+02 -4.6793173287078389e+00 -9.8358944022284248e+01 -1.2494155367757244e+03 -7.5585805394234194e+02 8.7237915677984944e+01 -2.6440313147631709e+03 -6.5434837540024898e+02 2.1265207657173323e+02 3.2084495760523191e+02 -3.9916702256359713e+00 1.6062053223896942e+03 1.3481499774078509e+02 1.8659291986008735e+04 5.3581079265350297e+01 -1.6450808509218212e+04 
      </Row>
      <Row Index="17">
        -6.9147085743698460e+00 5.6199634267802949e+01 3.4831051654503170e+01 1.6530342759834067e+00 7.5188882464262574e-01 8.8348879801178164e+00 6.9849520052704008e+01 6.4075277538438809e+02 -8.0705168910195297e+00 -4.1468246940264795e+00 -4.6023518133750230e+00 2.6424047257442275e+01 3.7876523345857578e+00 -9.3165569523678826e-04 3.1605983226291876e+00 -6.6136595934051613e+01 -1.3177193823616176e+02 2.1915838957829337e+01 -1.2483750185492536e+01 1.7764583691757569e+00 -5.4728711588377115e+00 -1.6016983930606914e+00 8.8099511190903979e-02 7.2516158257236709e+00 7.0306551873092982e+00 -4.3880673869039992e+02 4.0325512011540683e+00 1.7183472492955499e+01 -4.1307291419262860e+01 -1.6118880190207832e+01 -3.3027626519071838e+00 -1.0458095695026373e+00 -1.6492542915122193e+01 2.9122918864621461e+00 -1.7629725342966111e+02 -5.5983114421970335e+00 -2.6883010044257434e+00 1.4566304669709524e+01 -1.5331407043871417e+01 1.1737874898955538e+00 1.1607589973810040e-01 -1.1277284915847352e+00 1.7751972361279627e+01 4.9509115046201106e+02 -1.2232343772348570e-01 1.7276693964839392e+01 -2.0222739353111194e+01 -2.4625919201277938e+01 7.4358874523423761e+00 1.6169523801007935e-01 3.9477829881330706e-01 -5.3775899147203191e+01 7.0654124408405607e+01 -7.5810306186605079e+00 2.7278573393317460e+00 
      </Row>
      <Row Index="18">
        -4.2290649318985629e+00 -1.1579598934908566e+02 -7.5880286755325244e+01 -2.4833341065932504e+02 -9.2672562967926524e+00 -8.9297251319555699e+01 -1.3573842134178449e+01 5.0580344681216798e+02 -4.9725486438201187e+00 1.6103256079234552e+02 7.1438774929702959e+01 -4.9772835534141450e+01 3.0131682630572413e+01 -2.1923244360032186e+00 -3.9202839082659693e+01 7.5267132354178102e+01 1.9602656390343764e+03 -1.2483750161743501e+01 4.0399936943367084e+02 7.9133552505395912e+01 -3.0727050767852461e+01 4.0455909404940202e+00 -2.6133648192727605e+00 -1.6951902364457806e+02 -1.1882823104919407e+02 2.0389714745712454e+03 -2.9301163822888010e+00 -4.1574253543048070e+02 -1.1844948405452236e+00 1.2756836674410812e+02 2.4523338144936395e+02 1.4337109215056500e+01 3.1618537563365055e+02 7.7167303663740540e+01 -1.7060196934831449e+03 4.4400957873431999e+00 1.3274060912113978e+02 -2.3153106655723661e+01 5.4275995118769202e+00 -6.0210156785139262e+01 -1.5871497000740646e+00 -2.6688038995203090e+01 2.6494362262230283e+01 6.7482107618465056e+02 9.6294489071843650e+00 -4.7682644481315447e+02 4.4525077352463200e+01 -1.0120791139642620e+01 2.4680408046795276e+02 -1.7498879454277869e+00 7.0470365842249976e+01 3.5503065086189537e+01 6.8060118051693621e+00 5.1472667932017266e+00 -2.6762514073502842e+02 
      </Row>
      <Row Index="19">
        3.5097964394923103e+01 8.5498815353275603e+01 3.5653115248758054e+00 -6.4600837228490690e+01 4.9976515304203240e-01 2.2522503545141717e+01 9.9612411386561234e+01 -8.8422568085655121e+02 -2.1278538788836840e+00 2.0803924447679947e+01 -1.4404657341412644e+01 1.6863333994076243e+01 9.0695245127139970e+00 -4.1867706757358292e-02 -1.2238173343676607e+01 -5.5393431831855423e+01 7.6329999490274531e+02 1.7764583696816771e+00 7.9133552484218541e+01 1.0560245683136549e+02 -8.6187667888601354e+00 1.8309171345430158e+01 -8.4152729641073876e-01 -2.9940226344132668e+01 -8.5940022594713625e+01 -2.3708238479767090e+00 4.6375473522493849e+00 -1.0818620195691835e+02 -1.5170877137113288e+02 4.6167708858205174e+01 3.5086714035612097e+01 1.6940012436099749e-01 2.1347851357866077e+01 7.2063057659059950e+01 5.9711981002444463e+02 -2.4051011849301656e+00 2.0547171314704283e+01 1.7957496483214463e+01 -5.0183631236788813e+01 -5.1002054367945462e+00 -5.3694546461628079e-02 -1.4540046654016272e+01 8.8483255033655119e+00 1.3689905313950044e+03 -4.3191049927934766e-01 -8.5742959502435497e+01 -6.5605522852699949e+01 -1.2853511461760871e+01 7.1145400708591964e+01 6.0997965852344294e-02 1.2217235355517493e+01 -6.3440150085838205e+01 7.1984010389597657e+01 -7.9204795317423482e-01 3.3646885517381698e+01 
      </Row>
      <Row Index="20">
        -2.4548682894056128e+01 -6.7345084132038278e+02 -2.7528580275852146e+03 -2.3788087257205450e+02 -1.1350884448699836e+00 -2.7368298477286817e+02 -1.1437063064163740e+03 -3.5258217807986130e+03 -1.6630438624633825e+00 -1.0132306900988988e+02 9.1270486815883487e+01 -3.0468280060774487e+02 -2.8715986225866800e+01 -2.6187526344019716e+00 -1.3899415873343969e+02 2.6021183576958720e+02 -8.7771951737080235e+02 -5.4728712517771783e+00 -3.0727049382992149e+01 -8.6187666710175108e+00 1.6813544764863805e+03 3.5317547253995674e+00 -2.6595780578518315e+00 3.8859294828785676e+02 -1.2804106486917863e+02 -1.3319850201115241e+03 -1.7082909573797224e+01 5.0292013033920007e+01 5.3473087329639418e+02 5.3422461884822690e+02 2.6305868950255802e+02 2.3645822489202146e+00 -1.7694842987484094e+02 1.8560821783035317e+03 -2.2321355442648005e+03 1.7896667115461497e+01 1.9481279280824474e+01 -5.8387573261752514e+01 2.2412402426352028e+02 -1.3999321256350402e+02 -6.4818193561222870e-02 1.9507375189144362e+01 2.4587334488118273e+02 -6.4697662199661791e+03 -1.4712599448067820e+00 1.2168490544670598e+02 3.3945959206775206e+02 1.2516216835372011e+03 5.1479066282753919e+01 -1.2865142157056653e-01 -2.4035045241869858e+02 -6.6772973560799448e+02 -1.2692964832430955e+03 4.5430323607577314e+00 2.0268330437008221e+03 
      </Row>
      <Row Index="21">
        1.0084081326486728e+02 2.9989345320315639e+01 -2.4669581807756938e+02 -9.0417860770821932e+01 -2.2106835390556769e+00 -1.2392342196688323e+02 8.1875851928243492e+01 1.2543392049734198e+03 1.2414526819090213e+01 -3.1506902680471754e+01 -1.3860124021151705e+01 2.2233173947091586e+01 7.8476431407851408e+01 9.9523339367195973e-01 1.8258606297028905e+01 1.3527205077432200e+01 5.0362544110960789e+02 -1.6016983925705404e+00 4.0455909243632355e+00 1.8309171333370102e+01 3.5317542760439622e+00 1.5621843518413689e+02 9.7060885150497000e-01 -1.3592507691691509e+01 4.3807784563466186e+01 2.2797079871864341e+02 2.2899022024146234e+00 -1.3253671739244950e+02 -2.3055444828313913e+01 2.3573698421482382e+02 -5.3095547990700354e+01 9.5877739706226350e-01 1.1701971014945435e+02 -2.0022566415728704e+02 -7.0299558509351630e+02 -1.0208945350804843e+01 -5.2405032933783957e+01 8.3320722330047232e+00 -4.0644409133241425e+01 -8.6602750843338427e+01 -1.6516612439552603e-01 -1.6392312852170647e+01 5.3827692611832560e+00 1.9810763072011096e+03 -1.4183301663019705e+00 -3.8991277896395928e+01 -2.6224851012514684e+01 4.3133739854323949e+01 1.6107496131033776e+02 -1.1646419618544712e-01 1.2282119905101084e+01 4.9503868571373587e+01 6.6758835751293049e+01 9.4871448866772168e-01 -2.6490033463048828e+01 
      </Row>
      <Row Index="22">
        7.3164392616624596e+00 -2.1624979709480421e+00 3.4292401647514090e+00 3.0214271492205351e+00 2.7388565659374033e+00 -5.8925059921099496e+00 -4.1281773762716767e+01 -1.8983230823123556e+00 9.9857888717184551e-01 -1.0974231069863194e+00 6.4666389527297952e-01 -4.3409948607280171e+00 1.0887571838087808e+00 4.4751690488449292e-01 1.4584864481745115e+00 -1.6576034085433662e+00 2.3327316951166722e+01 8.8099512056970752e-02 -2.6133648226405977e+00 -8.4152729485975897e-01 -2.6595780537683673e+00 9.7060885201727620e-01 1.4579549573153940e+00 -1.2815088160733978e+00 6.2951931790598934e+00 -3.5917355730518430e+01 3.1348618748720014e-01 -6.1845870655574382e+00 2.3178543360738786e+00 -7.1625766078482993e+00 -3.2817666618875982e+00 -4.6400780099205106e+00 7.4838539263001200e+00 4.3065014166421399e+01 6.3522768252621020e+01 -1.3314405735911106e+00 -1.3944085379061795e+00 8.3423672423588924e-01 7.0128143157615721e+00 -3.4811747899224250e+00 4.6708059186381590e-01 -8.4679458427277532e-02 -1.9751028078051487e+00 -3.2961297177549987e+01 9.8496457022661799e-02 -4.5988819143094739e-01 3.2502445095370072e+00 1.3823401313582400e+00 -1.9426515197825966e+00 3.7554781718294628e-01 1.9416521726597047e+00 -1.0985424501549193e+01 2.2795907503948300e+01 -5.0044464669561251e-02 -1.1856634032014805e+01 
      </Row>
      <Row Index="23">
        3.7707061376227102e+01 -2.5531957674309996e+02 -5.3017596017196718e+02 -4.7371563509720900e+01 2.9904530769742905e+00 -2.1859140347460198e+00 -1.9098996866245398e+02 -3.5392062748857270e+03 -1.7620263272996453e+01 -5.7440596523490058e+01 1.5381044842150004e+01 -3.3410996514638100e+01 -1.1049410119459935e+01 3.5167211873636006e-01 -9.2597336646732401e+01 1.0352959151112736e+02 -1.7860772669848229e+03 7.2516157843592737e+00 -1.6951902311865496e+02 -2.9940226327480559e+01 3.8859294830742101e+02 -1.3592507565387102e+01 -1.2815088134232155e+00 3.5848216799427428e+02 -1.3092098297064604e+02 -5.7287978547393936e+02 -1.6916093450314293e+01 1.8531276265783643e+02 2.3048418226184543e+02 9.1707898404907553e+01 6.8583475375062648e+01 -3.6109430643391320e+00 -4.7442215028849688e+02 5.7561166191220855e+02 1.0787816652862316e+03 3.2743659452996297e+01 -1.2867608580783756e+01 -3.5539719457731003e+01 3.6076938054786538e+01 -3.3843535264272383e+01 6.8463509042658188e-01 6.1074596715855506e+01 1.6446830309021479e+02 -4.1349526936614238e+03 -8.1323379834850726e+00 1.9192999152104906e+02 1.1973273372328845e+02 2.6332094749281180e+02 1.5044769592965864e+01 6.6615192854999350e-01 -2.3608593655008150e+02 -1.6697273525728110e+02 -7.0412089851588928e+02 -1.7105653561613963e+00 7.5281381532795535e+02 
      </Row>
      <Row Index="24">
        -2.8288327901127968e+02 6.8927524304006715e+02 4.0809274761170542e+00 1.7606500801614135e+02 -7.8925423188770765e+00 2.5082929455301769e+02 -4.8532702915232221e+02 1.4316326880141864e+03 -1.0891114769869819e+02 -5.4940531037387700e+01 -1.2544341787834855e+02 2.3996183015318093e+02 -7.7220344964334799e+00 -2.0618086746533208e+00 7.3205313612208556e+01 -1.5117168375925685e+03 1.4274464733252535e+03 7.0306551333887910e+00 -1.1882823088152806e+02 -8.5940022492377466e+01 -1.2804106160188803e+02 4.3807784853012890e+01 6.2951931501427225e+00 -1.3092098166496544e+02 2.4788106241931064e+03 -3.0892187484596434e+03 8.9334714565107788e+01 3.8111716604926363e+02 -4.8466155865547682e+02 1.8549715770038563e+02 -2.0343921300546396e+02 3.6828007486191723e+00 -2.3564455824999757e+02 -3.8959602731590167e+02 -1.3379722630924614e+04 3.7195911530800807e+01 -9.2238017750405874e+01 3.6645135242735172e+01 -1.5025618170924417e+01 1.1682706349729857e+02 -4.3604194032468513e-01 8.4564035489293765e+00 8.6146791985176364e+01 5.3587739846062805e+03 -6.3933887206680851e+00 2.1447422688309712e+02 -3.5161096635885258e+02 -9.0467438845380684e+01 -7.1016760559054106e+01 -9.0553897811298611e-01 1.9027028863179680e+00 -2.0924965290714536e+03 1.0284508481134221e+03 -6.7829720352833647e+00 1.2792086331738485e+03 
      </Row>
      <Row Index="25">
        -1.6037906955305516e+02 -3.4233952533975867e+03 -8.4112977697647375e+02 -2.2544391483460333e+02 -1.6186673372831865e+02 1.5791472384847948e+03 9.8158806722069858e+02 -1.5906298070298976e+05 1.9184181747434195e+02 9.4808245499120676e+02 3.3395404655963648e+02 -1.8748378430408775e+03 -6.9470116382892593e+02 -1.4108727831709984e+01 -1.1528281142601918e+03 7.2352445563124493e+03 -1.4518991908473894e+04 -4.3880674045273918e+02 2.0389714865151909e+03 -2.3708245239104144e+00 -1.3319850160536153e+03 2.2797080121407635e+02 -3.5917355860401585e+01 -5.7287978000225849e+02 -3.0892188006971119e+03 1.1029395731519940e+05 -2.0143384289951064e+02 -1.9045792309480728e+03 2.2186248991261709e+03 2.8748322449413972e+03 8.1185525943112395e+01 2.1204219181801261e+02 1.9377929840742269e+01 -4.1389003029045634e+03 -4.6137520050629582e+03 2.1753306280465603e+02 5.1257658320154678e+02 -8.7642048759768636e+02 2.1163138779808360e+03 3.3560764310865983e+02 -2.2973749010277970e+01 -5.8976395604672234e+02 7.9915068601224175e+02 1.7899137934691098e+04 6.3662596420300360e+01 -2.6682747338660965e+03 1.1438429300646794e+03 1.7272044201008366e+03 -1.1542304607059461e+03 -2.5969265833347890e+01 -5.3813430375433325e+02 7.9236555074972339e+03 -3.8410114434426847e+04 2.2819075912151311e+02 2.5198414796946796e+04 
      </Row>
      <Row Index="26">
        -1.8320557558625268e+01 6.4853400015527171e+01 2.9747594108713102e+01 1.6258525810349184e+01 1.2623065752039366e+00 4.8881824518041697e+00 -4.8193335529998308e+01 3.0345296307248168e+02 2.8623672570541885e+00 -5.9786968169608770e+00 -1.1219524838748157e+01 1.8248810931472576e+01 -4.1466609589097629e+00 -1.4940302941160155e-01 1.0123655630181020e+01 -4.1728780672453013e+01 1.8987608095339965e+02 4.0325512032745792e+00 -2.9301164348582347e+00 4.6375473521429740e+00 -1.7082909429177150e+01 2.2899021958949106e+00 3.1348618633872860e-01 -1.6916093396020699e+01 8.9334714715243905e+01 -2.0143384041352283e+02 1.5334944158860935e+01 1.7392943808855378e+01 -4.8469012205169271e+01 -2.5433001591484214e+01 -1.2079716976238208e+01 -1.5965828511266145e+00 1.6865181413828921e+01 -1.0822463442861295e+01 -1.2646147808274614e+02 -1.4715902272974418e+01 -9.0504098884600310e+00 1.4929632640654649e+01 7.6646796368047347e+00 9.4028265878036450e+00 1.5853857175743258e-01 -2.4233541300107757e+00 -1.1114607202940132e+01 4.9059993685906039e+02 1.6805808757812515e+00 1.4389476403112431e+01 -2.8957978527950942e+01 -1.8723518644730810e+01 -1.2798163802616056e+01 1.5080338546026795e-01 1.7666460346037951e+01 -4.3341566523918956e+01 1.2269089955308493e+02 -9.7735178940291689e-01 -4.3036088394890598e+01 
      </Row>
      <Row Index="27">
        -5.5418194311957632e+02 9.3122083189362456e+01 4.9693983474094028e+02 2.6490134954909331e+02 2.8010998371537426e+00 4.6715941423019922e+02 2.9719860752260865e+02 -3.2239925073303334e+03 -1.5372857725593349e+01 -1.7015027551203912e+02 -1.0874196658519213e+02 3.9046109527680892e+02 -1.2846667093525775e+02 -1.6410582302280545e+00 -2.2021657249551936e+00 -2.7445568398100295e+02 -3.4002105692452460e+03 1.7183472434526266e+01 -4.1574253524737105e+02 -1.0818620196995835e+02 5.0292015807247708e+01 -1.3253671735039006e+02 -6.1845870726901921e+00 1.8531276375840298e+02 3.8111716597591430e+02 -1.9045792086557703e+03 1.7392943683422345e+01 1.0092096444596551e+03 7.9577089601141466e+01 -2.9460701338410303e+02 -1.5939727951167379e+02 1.4700713910730485e+00 -7.4537621896043458e+02 -4.1553213041602567e+02 -3.9065891322557206e+02 4.8575560416122556e+00 -1.1329410510019800e+02 2.2144897030890398e+01 -2.3826507975398039e+02 2.9522983740485489e+02 -3.8939943406603561e-01 4.5241360397757887e+01 6.8647681558685107e+01 -2.9058744965324883e+02 -1.4158642348581850e+01 7.1015537526047297e+02 -8.3487012316177811e+01 -2.2815646142360691e+02 -3.6287797669603316e+02 -1.0385450675482844e-01 -1.5576301434246230e+02 -3.1554861663740036e+02 -6.2155529280126871e+02 -7.9514384946219252e+00 9.6795541909801443e+02 
      </Row>
      <Row Index="28">
        -6.5310538395224739e+01 -1.4736618101876320e+03 -8.8656680078875547e+02 -1.4760806047747755e+02 2.3177493334014798e-01 -1.7261070792941155e+02 -1.7066719710461330e+03 -4.7270998478334777e+03 4.9668343288129108e+01 8.3078797331609167e+00 1.8679655400916090e+02 -1.7281067269739287e+02 -4.8684159600143175e+00 7.4203576638001323e-01 -1.0091540318679563e+02 7.9159072983687656e+02 -1.6236726234186499e+03 -4.1307291445787996e+01 -1.1844939078218886e+00 -1.5170877124428807e+02 5.3473087281642370e+02 -2.3055444578038077e+01 2.3178543459071079e+00 2.3048418191882683e+02 -4.8466155988202445e+02 2.2186248806588119e+03 -4.8469012236137132e+01 7.9577087717380650e+01 1.3918350270080105e+03 2.4938774854134655e+02 1.7130941189078607e+02 -5.5360380247124752e+00 -6.6660179164227799e+01 2.1292331030098394e+03 7.6225511143298434e+02 6.6039502463117969e+00 3.1108838557697567e+01 -1.1872274142394735e+02 1.5883461704152694e+02 -4.0271477250312316e+01 1.3963690879836577e+00 3.2614910291755891e+01 4.2325826548136899e+02 -5.1083961339642719e+03 -3.9577048966896466e+00 -9.2505015250321776e-01 6.9608520154363146e+02 4.2865659578869662e+02 7.0328571484317308e+00 5.0898594139971465e-01 -1.6610381150484562e+02 -1.9143036305518979e+02 -1.4802511467708591e+03 1.5762366572104384e+01 9.4922070751977026e+02 
      </Row>
      <Row Index="29">
        2.0045869557626793e+02 -3.4563776408032663e+02 -2.0579185664575748e+03 -3.5359763582248468e+02 -2.8207428221194277e+01 -1.6402840755804573e+02 3.9141211617921363e+02 -1.9124267598585766e+03 -8.1628577864976251e+00 9.6216338563044701e+01 -1.1308538615587167e+01 -2.4426129492110704e+02 1.1399453639655258e+02 -2.1607877734531939e+00 -4.2864542996285309e+01 2.5928442078598891e+01 9.0937214787467383e+01 -1.6118880287171123e+01 1.2756836781929269e+02 4.6167708911765658e+01 5.3422461808945582e+02 2.3573698459397019e+02 -7.1625766200545513e+00 9.1707898361699336e+01 1.8549715383900184e+02 2.8748322438136383e+03 -2.5433001736699225e+01 -2.9460701559788941e+02 2.4938774865405685e+02 1.4034833018364318e+03 1.1662894153928879e+02 3.8031781090889481e+01 6.6130512238765064e+01 -1.2408134841322959e+02 -7.4930604304304525e+03 4.0675797991065338e+01 5.6042445997203359e+01 -6.3419356408642273e+01 -9.9417672627598989e+01 -1.8066413319426357e+02 -4.3108043796028142e+00 -5.4919146686825194e+01 2.8695029305266576e+02 3.3055508427599443e+03 -1.4467100182595424e+01 -3.3787116505795649e+02 7.9007094230242245e+01 7.6937771823799380e+02 4.2819038008981067e+02 -4.2254615954611836e+00 -1.0725932280887588e+02 -4.6318861695399033e+02 -1.4588185297513653e+03 5.6527627582509012e+00 1.9776618155620408e+03 
      </Row>
      <Row Index="30">
        -4.5444140542609176e+01 -2.8440226679084765e+02 -3.3486920392963685e+02 -4.2350286877606277e+02 2.2591239095419269e-01 -4.8292660719056641e+01 -4.5312113616031411e+02 -2.9756323790546207e+02 -1.9442202016672582e+01 1.3294663216456394e+02 9.2098557895737486e+01 1.0792516350150208e+02 9.1198686235529749e+00 -3.2251223510443197e+00 -2.5775873355342583e+01 3.0926302675286479e+01 -5.4232865579608188e+02 -3.3027626449799072e+00 2.4523338174764751e+02 3.5086714067537059e+01 2.6305868787291035e+02 -5.3095547903746365e+01 -3.2817666546454944e+00 6.8583474740341217e+01 -2.0343921383768611e+02 8.1185508532257700e+01 -1.2079716940359503e+01 -1.5939728037848667e+02 1.7130941097606319e+02 1.1662894028106707e+02 5.1576462959752087e+02 4.2069134532135593e+00 -4.1911458284368514e+01 7.7017852124555952e+02 -9.4715610382140608e+02 2.2781579670449219e+01 1.9328765888106440e+02 -2.8494191974868954e+01 -9.2800365935501787e+00 -1.1625453199862945e+02 -1.2577566552991470e-01 1.4198775367101888e+01 6.0831142650102947e+01 -1.9209648348620558e+03 5.5281232942552094e+00 -2.9554064545699634e+02 1.5433814839651188e+02 9.5771404395216919e+01 3.8455078890940047e+02 -5.5483148235062174e-01 -6.9963920280447724e+01 -1.6257349606962043e+02 -2.1985249177992978e+02 5.2574309980457201e-01 9.2562673529023343e+01 
      </Row>
      <Row Index="31">
        -1.4062507076577589e+01 5.6543613922344491e+00 -2.7737661496522318e+01 -7.4487370356715523e+00 -1.3951660879209072e+01 1.8127952909990341e+00 1.3411657478404300e+02 8.0155979257311117e+01 -4.1580691323028987e+00 5.1575544103000084e+00 -2.2299927156873309e+00 8.7444283791319322e-01 -6.2948449881906754e-01 -1.8609880593853561e+00 -6.0849120871661171e+00 7.2911873911036764e+00 2.5460717915559144e+01 -1.0458095725701355e+00 1.4337109228800699e+01 1.6940012030386242e-01 2.3645822210486216e+00 9.5877739836447518e-01 -4.6400780101891996e+00 -3.6109430596534935e+00 3.6828006338563739e+00 2.1204219154857151e+02 -1.5965828552225503e+00 1.4700713619707266e+00 -5.5360380053139693e+00 3.8031781051924021e+01 4.2069134760929803e+00 2.0909908100180598e+01 2.6468683223634519e+00 -1.5784007322099055e+02 -3.9184524191399078e+02 5.8495213958784120e+00 4.4413757060930559e+00 -4.2408595295091800e+00 -1.4564154959173390e+01 5.1986904701515080e+00 -2.0564869072230323e+00 -2.1016817209140570e+00 9.4507563077505488e+00 1.9276239161949675e+02 -4.0509094823820951e-01 -1.1491409301703136e+01 -9.9299344810149268e+00 1.9394035008011450e+00 7.5380930494093246e+00 -1.7441556334570194e+00 -2.5541401537821535e+00 2.7836300765102276e+01 -7.0736077478299492e+01 4.0519358358120883e-01 4.3846397325882258e+01 
      </Row>
      <Row Index="32">
        3.2756233348471687e+02 9.5693702893510363e+01 -3.4069440386919314e+02 -4.0790019735093949e+01 -7.2295029654897007e+00 -8.4184787547394126e+02 -6.7079198964538955e+02 1.2350371402972920e+04 1.0880599258823349e+02 9.1262700313433925e+01 4.5655549920578778e+01 -3.5294057620211242e+02 7.5390037498804304e+01 -3.4841433468227478e-01 2.3080322749412153e+02 5.1684491852131032e+02 4.6606016117155668e+03 -1.6492542817321009e+01 3.1618537469674447e+02 2.1347851335587620e+01 -1.7694843155052013e+02 1.1701970991280359e+02 7.4838539242482511e+00 -4.7442215094446692e+02 -2.3564455622277910e+02 1.9377926697030489e+01 1.6865181567307445e+01 -7.4537621714275826e+02 -6.6660180707964173e+01 6.6130510918791884e+01 -4.1911459810773373e+01 2.6468683178682682e+00 1.5642625577388967e+03 -5.7732851624182558e+01 1.0704618273978849e+03 -1.1712975745905715e+02 3.5744711414392590e+01 8.7571935649902116e+01 3.4693967809579141e+02 -2.1464594723481625e+02 -6.6411704487381940e-01 -1.4909628486754846e+02 -2.7752000908854347e+02 9.6817848752595091e+03 2.2893453986196171e+01 -5.2737309535696124e+02 4.6071490129838665e+01 8.0003620074691696e+01 1.0761891706579635e+02 -8.9893322601528780e-01 5.2730813034982430e+02 7.9664895053718510e+02 1.5149825148126631e+03 7.3928948063139615e+00 -1.8372410776045508e+03 
      </Row>
      <Row Index="33">
        3.3986729854292662e+02 -2.5390954076860462e+03 -2.3404415627314893e+03 -5.1557295602909539e+02 9.6430871608589769e+01 -5.0243048163154708e+02 -6.7740236071285690e+03 -1.5054126489819359e+04 7.0147387325472664e+01 1.3269327881898789e+00 3.7162277738853300e+02 -4.5502064895496733e+02 -2.7786971517703932e+01 9.9899130537301062e+00 -2.0816434746543018e+02 4.8636785590559884e+02 -7.6927666211163159e+02 2.9122918233224482e+00 7.7167305998889788e+01 7.2063058120424103e+01 1.8560821786703800e+03 -2.0022566321876366e+02 4.3065014167877962e+01 5.7561166152340593e+02 -3.8959602973032270e+02 -4.1389003071603365e+03 -1.0822463558884920e+01 -4.1553213510165108e+02 2.1292331026260144e+03 -1.2408134589793107e+02 7.7017852362563622e+02 -1.5784007316565172e+02 -5.7732848203142566e+01 9.3609995017513429e+03 5.1447920602703525e+03 -6.3327871466208308e+01 1.9684291767682339e+02 -4.4468323026951111e+01 8.5695222680695417e+02 -3.4997074390622021e+02 1.8542501610170802e+01 4.9513151662235764e+01 8.5203728468983491e+02 -1.0988075868286491e+04 -1.1922026941422246e+00 -1.4227733770692709e+02 1.3480577325801155e+03 1.3185756893957255e+03 1.5449974074239381e+02 1.6337394447267570e+01 -3.3200597692938027e+02 -2.9084671409551438e+03 -1.1358404237500104e+03 -3.1487414430457648e+00 2.7723994845733482e+03 
      </Row>
      <Row Index="34">
        2.2887944330639584e+03 -7.0623540983625571e+02 6.5978490167755372e+03 1.9038619888635703e+03 2.8972103197176330e+02 -2.2733973224125875e+03 -7.2553251360483700e+03 -1.8570446871041837e+04 1.3479382687525940e+03 -5.1741972924911533e+02 -2.7239890311378986e+02 -1.9256611435406958e+03 -9.5673556148356874e+02 4.6155325038846058e+01 1.4913727564510191e+02 1.1146584860959672e+04 6.3973078243583441e+03 -1.7629725211177720e+02 -1.7060197036291938e+03 5.9711980908381520e+02 -2.2321355620387330e+03 -7.0299558996062842e+02 6.3522768547416490e+01 1.0787816554271267e+03 -1.3379722596736639e+04 -4.6137523520112736e+03 -1.2646147567406297e+02 -3.9065889557647859e+02 7.6225509910852998e+02 -7.4930604563071538e+03 -9.4715612076649666e+02 -3.9184524297641400e+02 1.0704618331468409e+03 5.1447920588371844e+03 1.7436289962848788e+05 -1.0072058318077179e+03 -3.7906816166084502e+02 8.3449564725834352e+02 2.1757563769969706e+03 2.8682714352331300e+02 4.3435819948543212e+01 6.7553239799118910e+02 -4.1836391636088374e+03 -8.3996678553494698e+04 7.8547332882138676e+01 1.5318934916939857e+03 7.6929905577295881e+02 -1.1523386231910995e+03 -3.2408020765081519e+03 4.4754904084362352e+01 4.3233519852389242e+02 1.6914142541141795e+04 1.1721006070790705e+04 1.2833539566832769e+02 -2.6816892351249786e+04 
      </Row>
      <Row Index="35">
        8.5400378188523973e-02 -4.5594611427129621e+01 2.1599350900773970e+00 -1.8779327782081225e+01 -4.0794760352017647e+00 6.2006679727991866e+01 2.1098363765407703e+02 -1.0772483866226903e+03 -6.0298091280801600e+01 8.3602782471270984e+00 1.8434687563920306e+01 2.5344074404274124e+01 8.3245335014544253e-01 -1.0715780963204224e-01 -3.1558068564682571e+01 -1.1475754158974451e+02 -4.8405983107559587e+02 -5.5983114558753186e+00 4.4400959375186630e+00 -2.4051011795245358e+00 1.7896667125443287e+01 -1.0208945306711257e+01 -1.3314405737037305e+00 3.2743659472617310e+01 3.7195911100373110e+01 2.1753306227510620e+02 -1.4715902291785824e+01 4.8575557249070016e+00 6.6039503323397639e+00 4.0675798029345586e+01 2.2781579860299956e+01 5.8495213972493598e+00 -1.1712975730611595e+02 -6.3327871454500425e+01 -1.0072058289372198e+03 6.8972522045189180e+01 1.7213890441539515e+01 -4.4171231942454597e+01 -3.5563688148183765e+01 2.9900861098793818e-01 -6.1027438207065643e-01 1.0998169433091485e+01 6.4448516694572660e+01 -1.0127576340025156e+03 -4.9275760349789097e+00 -4.1962200535037493e+00 3.6021234306715080e+00 2.4584085342118129e+00 3.0619706853554973e+01 -6.0045598881418982e-01 -5.7038025372965521e+01 -1.2927128695113180e+02 -2.1631236010913216e+02 1.2816454557915904e+00 2.6552500406257769e+02 
      </Row>
      <Row Index="36">
        2.9248187415602906e+00 -8.4608315971602025e+01 -7.1179441816134286e+01 -1.4006941578389163e+02 -2.0191006692898270e+00 -1.8536122229858186e+01 -8.4634382084805225e+01 -3.5700874675122350e+02 -1.3722497087520424e+01 9.1457864795785412e+01 3.8270098779829823e+01 -1.6763774461082562e+01 -1.6749327719216296e+01 -1.4613805091631669e+00 -1.2891519476111725e+01 4.3535538803387226e+00 7.8322139286126912e+01 -2.6883010011825377e+00 1.3274060921094593e+02 2.0547171326103069e+01 1.9481278645283293e+01 -5.2405032905058633e+01 -1.3944085361155771e+00 -1.2867608817011160e+01 -9.2238018062355408e+01 5.1257657729521463e+02 -9.0504098749706543e+00 -1.1329410536504642e+02 3.1108838202312199e+01 5.6042445518917944e+01 1.9328765885429647e+02 4.4413756996583373e+00 3.5744711940975293e+01 1.9684291667472075e+02 -3.7906815547980966e+02 1.7213890372094511e+01 1.1068239076417606e+02 -1.5022680504729344e+01 1.2704815702207210e+01 -2.5813222841718314e+01 -4.0071206359311162e-01 -3.3540421812344015e+00 1.0732449981525804e+01 -3.8353311747522991e+02 2.8739547016267508e+00 -1.8762586907000519e+02 4.3513869060956374e+01 3.0369721533715477e+01 1.1670430759888589e+02 -5.6052723299928076e-01 -5.8698617354673530e+00 -2.1486798143288311e+01 -1.0884352087807959e+02 3.6233578088615559e-01 1.8851149796582316e+01 
      </Row>
      <Row Index="37">
        -5.6362947325332584e+00 1.6833442303435896e+02 8.1404114037288309e+01 2.7257822710725087e+01 2.9087890901204219e+00 -4.2736590765327605e+01 -9.9036737459135111e+01 1.6166990029139311e+03 3.2244409648147666e+01 -1.0303566883233771e+01 -3.5309514035645407e+01 2.3794939902781607e+01 -1.7468887154882395e+00 2.0485233334017039e-01 4.2336139189430014e+01 -2.0448593412567789e+01 4.0296718546023476e+02 1.4566304683974977e+01 -2.3153106871530326e+01 1.7957496471153718e+01 -5.8387573143119653e+01 8.3320721789596064e+00 8.3423672287761974e-01 -3.5539719412347949e+01 3.6645135770470006e+01 -8.7642048413515295e+02 1.4929632657626826e+01 2.2144897488510139e+01 -1.1872274147913231e+02 -6.3419356328990943e+01 -2.8494192208221079e+01 -4.2408595263448570e+00 8.7571935320090518e+01 -4.4468322993750519e+01 8.3449564244301109e+02 -4.4171231922754941e+01 -1.5022680591867507e+01 5.7041369255585664e+01 8.2890948639768638e+00 5.7463425020217311e+00 4.1310865832076615e-01 -1.0413651308382383e+01 -7.1252893795383244e+01 1.7804673376194962e+03 2.0229076124027614e+00 2.7314012417307318e+01 -6.3709379910707838e+01 -5.2966276217553080e+01 -1.5195169532570032e+01 5.1050048406924020e-01 5.8944409461007638e+01 5.9982787148192060e+01 3.7208630797911104e+02 -5.3024223218603765e+00 -2.9259644434887667e+02 
      </Row>
      <Row Index="38">
        2.1982919126618407e+02 -1.6194659156078120e+02 -5.3124769262846939e+02 1.0167036424785668e+02 6.7020846073526172e+00 -3.2566342495884743e+02 -1.2029046669553627e+03 -3.6070281813790825e+03 4.2188736730092387e+01 7.0394450422681984e+00 4.6740773701348189e+01 -3.5945531639213596e+02 -5.8916992830160325e+01 6.9487790413307948e-01 5.3656093456575036e+00 4.4401472577956702e+02 5.3369598998338188e+02 -1.5331407076016148e+01 5.4275997927518347e+00 -5.0183631234105633e+01 2.2412402420295035e+02 -4.0644409076345482e+01 7.0128143128653733e+00 3.6076938015447467e+01 -1.5025619172525921e+01 2.1163138782825299e+03 7.6646795978431328e+00 -2.3826508025515673e+02 1.5883461733350828e+02 -9.9417672574496464e+01 -9.2800363322620569e+00 -1.4564154949556098e+01 3.4693967851085574e+02 8.5695222660233412e+02 2.1757563832712294e+03 -3.5563688177045606e+01 1.2704815817522558e+01 8.2890948369632724e+00 5.9160810602526055e+02 -8.8865755950047060e+01 1.5733058391670056e+00 -2.8067915381926243e+00 -9.2651163792298689e+01 -2.5058829095798528e+03 1.1634877615332833e+01 -9.6448826894332655e+01 1.5181977203212443e+02 3.5637890164041653e+02 -1.9698367727057382e+02 1.3356060567038242e+00 5.5850488224885055e+01 2.7070257726043656e+02 -5.9537142693360147e+02 1.0318178036651830e+01 2.5824100122884749e+02 
      </Row>
      <Row Index="39">
        -2.1795738561025223e+02 7.8068170216964916e+01 4.3007290462757913e+02 1.6307601454969307e+02 -1.6404388509979526e+00 2.4933973981625130e+02 2.6162300876571044e+02 -2.1245607194367221e+03 -6.3911928638126483e+00 -1.1249040245299170e+01 -3.2625225620136916e+01 7.1489258174050519e+01 -7.9478302268399375e+01 -1.0019687768308643e+00 -1.9871608797079034e+01 -9.1081849111649717e+01 -2.8270127356013836e+02 1.1737874795489915e+00 -6.0210156841236426e+01 -5.1002054386035525e+00 -1.3999321138294536e+02 -8.6602750859789353e+01 -3.4811747929506964e+00 -3.3843534815091289e+01 1.1682706391427212e+02 3.3560765272170283e+02 9.4028265534948332e+00 2.9522983769980868e+02 -4.0271476552577269e+01 -1.8066413226654197e+02 -1.1625453179828963e+02 5.1986904816586730e+00 -2.1464594816639166e+02 -3.4997074191399702e+02 2.8682713296140537e+02 2.9900874807117361e-01 -2.5813222792295402e+01 5.7463423272730552e+00 -8.8865755792500181e+01 1.8884925682397326e+02 -7.4299901630763543e-01 6.3053230664027442e+00 4.1690333317665136e+00 1.0213227151416999e+02 -1.6634978914411391e+00 1.6251040596384399e+02 -6.8668422754985642e+01 -1.4820101513233186e+02 -2.3726947473423220e+02 -5.3979407841492844e-01 -1.0311841359332567e+01 -3.4360040176563487e+01 -1.6732077510528822e+02 -4.9492459244032716e-01 1.7908808799562797e+02 
      </Row>
      <Row Index="40">
        1.7943297620294638e+00 -1.4309068354723582e+00 3.1517219467913211e+00 5.7578754621612449e-01 1.3518835003377578e+00 -1.5207725262270078e-01 -1.5577421059744381e+01 -1.4532460881014572e+01 4.5150497114563137e-01 -5.8900711869032030e-01 2.9515073234365730e-01 -2.9212115059301880e-02 9.3962427355908318e-02 1.8569725138129112e-01 5.8971505374381650e-01 -5.2808926382525101e-01 -4.6793173441825502e+00 1.1607590000307511e-01 -1.5871497007534376e+00 -5.3694545960830453e-02 -6.4818190620771432e-02 -1.6516612427025379e-01 4.6708059189051188e-01 6.8463508995165867e-01 -4.3604193012905412e-01 -2.2973748984442594e+01 1.5853857210895228e-01 -3.8939943260428533e-01 1.3963690861508198e+00 -4.3108043751554916e+00 -1.2577566705832499e-01 -2.0564869072092216e+00 -6.6411704446129161e-01 1.8542501615733265e+01 4.3435819848342817e+01 -6.1027438193364958e-01 -4.0071206393706987e-01 4.1310865858556944e-01 1.5733058402481892e+00 -7.4299901577036265e-01 2.1597150329904213e-01 2.6007982309990080e-01 -3.4945066412694459e-01 -1.8753847485897499e+01 2.7737113552802280e-02 1.2843441771267352e+00 1.4445519866132697e+00 -1.8471105796693399e-01 -6.3152105164708072e-01 1.7334416624110593e-01 1.0033336182577707e-01 -3.5526203547611193e+00 6.2877281531816509e+00 -4.4781101229236064e-02 -3.3225866623945470e+00 
      </Row>
      <Row Index="41">
        -9.5863306773702561e+00 -2.6453341875308638e+01 3.2145476938459979e+01 1.0248109148808823e+01 1.9678359842232567e+00 4.5057456571571493e+01 -3.9638453924057103e+01 -5.1923975571433402e+01 -8.0062964435646791e+00 -6.9311781391206750e+00 6.0461670655804483e+00 9.9884116748526139e+00 -2.0246637330665180e+00 4.2720180964948895e-01 -2.9103107607485526e+01 -1.2128706343595695e+01 -9.8358941236991086e+01 -1.1277284699917800e+00 -2.6688039064809118e+01 -1.4540046648037787e+01 1.9507374914796912e+01 -1.6392312889331606e+01 -8.4679452560976642e-02 6.1074596527137146e+01 8.4564040937323171e+00 -5.8976396202981778e+02 -2.4233540906361668e+00 4.5241360462965758e+01 3.2614910017827242e+01 -5.4919146999337954e+01 1.4198775184181841e+01 -2.1016817377945713e+00 -1.4909628458231299e+02 4.9513151660269159e+01 6.7553239759018470e+02 1.0998169383354707e+01 -3.3540422404662245e+00 -1.0413651222636872e+01 -2.8067915889361927e+00 6.3053231401311667e+00 2.6007982468775026e-01 4.5372968929925520e+01 2.6683125077038312e+00 -3.2969091706032564e+03 -1.3156031011721436e+00 3.8492802831041516e+01 1.2941892466692799e+01 -9.5713737857401071e+00 -6.7277736201913205e+00 2.8513091661932322e-01 -6.1705806077736788e+01 -2.1707574796280682e+01 3.0428165890793474e+02 7.9653744846882546e-01 -3.4021961360044276e+02 
      </Row>
      <Row Index="42">
        -7.7183164205502180e+01 -4.9519953051788525e+02 -3.2405667793445264e+02 -1.0475881851590680e+02 -9.3233087672297188e+00 1.0345390475486829e+02 -1.3681844603463105e+02 -4.2094772971025959e+03 -6.1824612037638872e+01 -1.9703574562572612e+00 5.7360295106045669e+01 5.7288695791947248e+01 3.4354177099739900e+01 -5.3108743777966083e-01 -1.1564673432974450e+02 -1.6560502968631044e+02 -1.2494155374392867e+03 1.7751972271287741e+01 2.6494363141415306e+01 8.8483255744868075e+00 2.4587334580088282e+02 5.3827695801173832e+00 -1.9751028185974064e+00 1.6446830356666942e+02 8.6146789546714899e+01 7.9915069612445950e+02 -1.1114607353345491e+01 6.8647679928543312e+01 4.2325826636377315e+02 2.8695029430364229e+02 6.0831143941878054e+01 9.4507563501505167e+00 -2.7752000896180357e+02 8.5203728537872666e+02 -4.1836391568266990e+03 6.4448516821801604e+01 1.0732450447033997e+01 -7.1252894060319704e+01 -9.2651163565660312e+01 4.1690325117448044e+00 -3.4945066800855784e-01 2.6683126559357078e+00 5.9058767035554229e+02 2.8966780701562075e+03 -1.2822907143001590e+01 9.6394571649875687e+00 1.8920656767589546e+02 1.1323886264552863e+02 1.1210118672226784e+02 -8.4458743078471343e-01 -1.6341487022369256e+02 -7.7067783696610650e+02 -1.4779605975963595e+03 -8.0717586007458522e+00 1.8407799538480242e+03 
      </Row>
      <Row Index="43">
        -8.2959213065066433e+02 6.5160859447144176e+03 7.3152347030878591e+03 -8.7063071987905096e+02 -1.6595858080885955e+02 -3.8645299559643026e+03 5.2465722476012306e+03 2.6735824910324998e+04 4.7114404290739913e+02 5.7133903511363314e+01 -1.4513947984843981e+03 3.6598371767447097e+03 8.6713525496463990e+02 -2.8205268914753105e+01 3.2180545877823024e+03 -5.9704221175166313e+03 -7.5585846876539290e+02 4.9509114770055749e+02 6.7482108244081610e+02 1.3689905302627012e+03 -6.4697661772229112e+03 1.9810763112242566e+03 -3.2961297929636203e+01 -4.1349526663096040e+03 5.3587739207679988e+03 1.7899138780168490e+04 4.9059993181255413e+02 -2.9058745306386118e+02 -5.1083960962553392e+03 3.3055508867232711e+03 -1.9209648127792461e+03 1.9276239378443870e+02 9.6817848311440976e+03 -1.0988075856927142e+04 -8.3996678572912933e+04 -1.0127576268419507e+03 -3.8353311060603210e+02 1.7804673257659306e+03 -2.5058829001153922e+03 1.0213226325616236e+02 -1.8753847685846267e+01 -3.2969091713011298e+03 2.8966780943796621e+03 4.6081879907150142e+05 -6.8666044707715628e+00 -8.4450137067957803e+02 -3.3392514718831694e+03 -5.3209973920692983e+03 2.4621411695549527e+03 -2.2138791044271784e+01 5.0330930950122829e+03 -2.2903188403255645e+03 -3.4471318724024000e+04 -2.6485415124289284e+02 4.2349805907809736e+04 
      </Row>
      <Row Index="44">
        3.7032166606886818e+00 2.4423589970599977e+00 4.4178675440942357e+00 -2.1144067048487702e+00 3.8926842370102577e-01 -1.1102902114982157e+01 -2.6046749095409041e+01 1.6303998643017621e+02 3.4541864431956810e+00 3.2572720331347398e+00 6.2725007076242036e+00 -6.2967057735686467e+00 -2.3595873863461634e+00 -1.1126685219292654e-01 3.1842938781964563e+00 1.5164182379497106e+01 8.7237915872336089e+01 -1.2232343505587551e-01 9.6294488866254255e+00 -4.3191050030168299e-01 -1.4712599993291917e+00 -1.4183301739756757e+00 9.8496457334974252e-02 -8.1323380080616516e+00 -6.3933886662754560e+00 6.3662595890509920e+01 1.6805808805721654e+00 -1.4158642312111880e+01 -3.9577049362181924e+00 -1.4467100237254556e+01 5.5281232556994127e+00 -4.0509094952254454e-01 2.2893454004874037e+01 -1.1922027617210631e+00 7.8547332945927792e+01 -4.9275760416836647e+00 2.8739546882929905e+00 2.0229076236785772e+00 1.1634877600503259e+01 -1.6634978688408733e+00 2.7737113656641554e-02 -1.3156031034099138e+00 -1.2822907161752539e+01 -6.8666040075989656e+00 2.2845068454340236e+00 -1.1211004333608614e+01 2.5556890190296704e+00 1.0285581324583424e+00 -1.4987037563170835e+00 2.7496063690740868e-02 8.9579234378744559e+00 2.9840328699497022e+01 2.6535426427508675e+01 1.9202652096402062e-01 -5.3610732303442184e+01 
      </Row>
      <Row Index="45">
        -2.3238300471267587e+02 1.4305828706093826e+02 3.1463865852309118e+02 3.2271920519459132e+02 9.0455406234648308e+00 2.6886009772419118e+02 1.0971209665907554e+02 -1.7438935653624285e+03 -5.7146550841534918e+00 -2.4484326850936077e+02 -9.1031353922437120e+01 2.3117882781738717e+02 -6.5314197017019069e+01 1.2989463689135619e+00 2.0932399516328132e+01 -1.8018581291990995e+02 -2.6440313265564619e+03 1.7276693923722632e+01 -4.7682644476412133e+02 -8.5742959524137405e+01 1.2168490780774857e+02 -3.8991277897065174e+01 -4.5988819693241112e-01 1.9192999242175847e+02 2.1447422712041998e+02 -2.6682747143762208e+03 1.4389476311505859e+01 7.1015537546179735e+02 -9.2504860689223278e-01 -3.3787116320009727e+02 -2.9554064488021822e+02 -1.1491409278364777e+01 -5.2737309691952828e+02 -1.4227733373989940e+02 1.5318934748245083e+03 -4.1962197945749722e+00 -1.8762586889627889e+02 2.7314012049327857e+01 -9.6448826437232611e+01 1.6251040581183020e+02 1.2843441759846428e+00 3.8492802730769860e+01 9.6394586197257013e+00 -8.4450136214820952e+02 -1.1211004367582632e+01 7.1409864629513265e+02 -7.4416772891995407e+01 -1.0232241448077632e+02 -3.6650768508971055e+02 1.5721672184055251e+00 -1.0641593990665910e+02 -1.7875552206962223e+02 -1.8776019209129072e+02 -7.0328896258906752e+00 5.7116991688619680e+02 
      </Row>
      <Row Index="46">
        4.6581661718432770e+01 -7.7806300448148068e+02 -5.2094398105887308e+02 -1.2033361947063244e+02 4.8803172865844999e+00 -1.5100947776959958e+02 -1.0363991080924479e+03 -2.1344617874340911e+03 2.4408153052620946e+01 2.0017489784063173e+01 1.3076455394271215e+02 -1.4472967818505276e+02 5.3178016945093987e-01 7.0676288254531983e-01 -5.0615846021270045e+01 4.4979569926760632e+02 -6.5434836580233241e+02 -2.0222739360650849e+01 4.4525077843611143e+01 -6.5605522783000197e+01 3.3945959145385484e+02 -2.6224850882136252e+01 3.2502445160897651e+00 1.1973273338799800e+02 -3.5161096702057534e+02 1.1438429171648095e+03 -2.8957978528590502e+01 -8.3487013359296327e+01 6.9608520131271916e+02 7.9007093888175859e+01 1.5433814878324051e+02 -9.9299344957446394e+00 4.6071491236008399e+01 1.3480577322184181e+03 7.6929906476041833e+02 3.6021233405176645e+00 4.3513869222597350e+01 -6.3709379820901177e+01 1.5181977182319275e+02 -6.8668423100557874e+01 1.4445519878438517e+00 1.2941892621435194e+01 1.8920656698407265e+02 -3.3392514927153770e+03 2.5556890458499595e+00 -7.4416773720989752e+01 3.9342506225228561e+02 2.7590105900837739e+02 3.5810168001144575e+01 9.5967811817070015e-01 -7.0397312903115761e+01 -6.7144426268419181e+01 -6.9938957784699119e+02 7.9167967854898507e+00 3.8056972731069806e+02 
      </Row>
      <Row Index="47">
        2.5831685125587728e+02 -5.4703599924658556e+02 -2.7047858258068936e+03 -1.1176339427823444e+02 -3.6733956782422865e+00 -3.5041867745599029e+02 -1.0634059299442961e+03 -5.0987010581794311e+03 2.9312825342669385e+01 -2.6669342110044454e+00 6.1857431113014172e+01 -6.0682006442828788e+02 -4.0375040166558392e+01 -8.6618727833911180e-01 -9.4285447576006845e+01 4.8934343177331903e+02 2.1265208657685434e+02 -2.4625919290630918e+01 -1.0120789907821745e+01 -1.2853511373657966e+01 1.2516216832205128e+03 4.3133740238730752e+01 1.3823401252284384e+00 2.6332094739979220e+02 -9.0467442162973384e+01 1.7272044153177412e+03 -1.8723518779705046e+01 -2.2815646386308549e+02 4.2865659619097096e+02 7.6937771863565285e+02 9.5771405796567706e+01 1.9394035287096045e+00 8.0003621663146305e+01 1.3185756883945160e+03 -1.1523386029060857e+03 2.4584084951129626e+00 3.0369722085094963e+01 -5.2966276302319784e+01 3.5637890158446407e+02 -1.4820101612973758e+02 -1.8471106109518587e-01 -9.5713735079396933e+00 1.1323886162053896e+02 -5.3209974343419390e+03 1.0285581863195148e+00 -1.0232241657180947e+02 2.7590105952834938e+02 1.3129762341986157e+03 -5.4180668089873052e+01 -3.0493144824617957e-01 -1.3764315766784466e+02 -2.1145558615684297e+02 -1.3734538808497450e+03 1.3794661658370842e+01 1.7745485149110041e+03 
      </Row>
      <Row Index="48">
        1.1855980497694304e+02 -9.2521719766087870e+01 -3.2030049628864003e+02 -5.0709262737967907e+02 -4.8296309902988241e+00 -1.8821799267246672e+02 1.3949807776534544e+02 4.6242091170963758e+03 -3.0755583598227531e+01 1.0043123078194799e+02 5.4982785493672054e+01 2.0450925603181349e+02 1.6054758508092982e+02 -1.1083942434482310e+00 7.3880962523703602e+00 -2.2363645311784603e+02 3.2084496902348474e+02 7.4358874823060432e+00 2.4680408049908146e+02 7.1145400721643455e+01 5.1479064051086937e+01 1.6107496134900998e+02 -1.9426515135982072e+00 1.5044768785771794e+01 -7.1016761073917337e+01 -1.1542304786481982e+03 -1.2798163727849897e+01 -3.6287797714706414e+02 7.0328556542360730e+00 4.2819037833271614e+02 3.8455078849544600e+02 7.5380930260586752e+00 1.0761891864428475e+02 1.5449973690688739e+02 -3.2408020583419002e+03 3.0619706615010273e+01 1.1670430747787100e+02 -1.5195169198659187e+01 -1.9698367756802230e+02 -2.3726947473038521e+02 -6.3152105041024242e-01 -6.7277734856315563e+00 1.1210118522462199e+02 2.4621411562783032e+03 -1.4987037187635082e+00 -3.6650768526115223e+02 3.5810167248313704e+01 -5.4180670024319092e+01 6.7138726216935606e+02 -8.5153414624303991e-01 -4.0724053419194206e+01 -2.6773551222132494e+02 4.1143590773876588e+02 -5.6558301300038920e+00 -2.7621531441730014e+02 
      </Row>
      <Row Index="49">
        1.7113232235345235e+00 -4.7286606672211295e-01 3.2281503938546585e+00 8.8147657231327003e-01 1.1694873023247769e+00 8.7250439582028605e-02 -1.3437458877472096e+01 -8.3627293864860235e+00 4.2624011393732530e-01 -6.8392388069731425e-01 1.7204051478150006e-01 -1.0646486660661481e-02 9.6764330720425562e-02 1.6095788124037025e-01 5.8133471489560407e-01 -8.0298629168925117e-01 -3.9916702459020144e+00 1.6169523834415855e-01 -1.7498879470130575e+00 6.0997966244045188e-02 -1.2865141848090289e-01 -1.1646419640234029e-01 3.7554781721783037e-01 6.6615192807697809e-01 -9.0553896551182333e-01 -2.5969265810361520e+01 1.5080338591340592e-01 -1.0385450350288661e-01 5.0898593942224579e-01 -4.2254615915756482e+00 -5.5483148486698042e-01 -1.7441556334793011e+00 -8.9893322661707398e-01 1.6337394453927473e+01 4.4754903971935676e+01 -6.0045598867480976e-01 -5.6052723373329272e-01 5.1050048441793550e-01 1.3356060577328446e+00 -5.3979407713011862e-01 1.7334416624489180e-01 2.8513091490359882e-01 -8.4458742633532324e-01 -2.2138790823880981e+01 2.7496063552426619e-02 1.5721672210735553e+00 9.5967811664715175e-01 -3.0493144526340954e-01 -8.5153414889126644e-01 1.6015511679411620e-01 1.1023683927830064e-01 -2.8354544192757332e+00 7.6949694009853156e+00 -6.3718288940050272e-02 -4.8146749974497460e+00 
      </Row>
      <Row Index="50">
        5.4312195670285291e+01 2.1818415880365910e+02 2.6493366219637574e+02 6.1818941753171600e+01 1.4457122298326794e+00 -1.7293534358294960e+02 -5.4048640765820892e+01 5.5128120853403088e+03 4.2753055915103687e+01 2.0964783970919143e+01 -1.3171575453179685e+01 -4.1842434383128420e+01 4.7155962128972533e+00 1.4580434200934178e-01 1.3279978207293880e+02 6.9191726197168464e+01 1.6062053165306570e+03 3.9477834406170587e-01 7.0470365271453375e+01 1.2217235332453129e+01 -2.4035045251666293e+02 1.2282119757707733e+01 1.9416521699856730e+00 -2.3608593658779409e+02 1.9027042747707128e+00 -5.3813429847820953e+02 1.7666460406686383e+01 -1.5576301314109264e+02 -1.6610381187512121e+02 -1.0725932292288599e+02 -6.9963920993659031e+01 -2.5541401498419916e+00 5.2730812970303623e+02 -3.3200597742537866e+02 4.3233518843781712e+02 -5.7038025362642657e+01 -5.8698619963562351e+00 5.8944409520248428e+01 5.5850488160920577e+01 -1.0311840852453159e+01 1.0033336138917548e-01 -6.1705806281312618e+01 -1.6341486974351938e+02 5.0330931243703963e+03 8.9579234126355800e+00 -1.0641593892758164e+02 -7.0397313269266306e+01 -1.3764315783318270e+02 -4.0724054322665779e+01 1.1023683887606239e-01 2.4960297802022046e+02 3.1331652215882536e+02 8.3101861468080290e+02 -2.6626821369245590e-01 -8.7856197445254804e+02 
      </Row>
      <Row Index="51">
        2.8011219434810573e+02 3.0549487674518514e+02 7.2660413800989954e+02 1.9992873878890873e+02 -1.3538522306383129e+01 -4.9238334979782849e+02 1.1192349973894889e+03 2.1264729977452662e+03 2.0617731035911856e+02 4.2456861242735613e+01 -1.6552469063040917e+01 -3.4833718310449331e+02 -8.0274067482761893e+01 3.9297631088629714e-02 1.3817815453817457e+02 2.1370570943970524e+03 1.3481502057483885e+02 -5.3775899050684529e+01 3.5503063712025323e+01 -6.3440150425580214e+01 -6.6772973954639110e+02 4.9503867742507282e+01 -1.0985424469658938e+01 -1.6697273666627370e+02 -2.0924965276995808e+03 7.9236554502696963e+03 -4.3341566283372231e+01 -3.1554861426417710e+02 -1.9143036419771670e+02 -4.6318862257694855e+02 -1.6257349834812703e+02 2.7836300608933641e+01 7.9664895132004995e+02 -2.9084671436665249e+03 1.6914142577811916e+04 -1.2927128746812014e+02 -2.1486799026644803e+01 5.9982787794673641e+01 2.7070257596881947e+02 -3.4360038591041871e+01 -3.5526203406661807e+00 -2.1707574245501490e+01 -7.7067783932210295e+02 -2.2903189000054117e+03 2.9840328727882934e+01 -1.7875551976254599e+02 -6.7144427202723364e+01 -2.1145559041791432e+02 -2.6773551490071350e+02 -2.8354544019184686e+00 3.1331652361453826e+02 4.2776960492595608e+03 -6.3951353832933364e+02 3.3370481511577054e+01 -3.2064937090371891e+03 
      </Row>
      <Row Index="52">
        5.5338869772578619e+02 1.9352505938048453e+03 1.9787875721199089e+03 1.8345296605006934e+02 5.4071924011390365e+01 -9.1940533660144501e+02 2.3551391461538151e+02 8.2287590839311481e+04 6.2285743058368098e+01 1.3453438033349812e+01 -4.7627197849564254e+01 1.4153835630195681e+02 2.9763586274557747e+02 8.8603368897238397e+00 6.1327750832904712e+02 -1.6656956523909466e+03 1.8659291991983540e+04 7.0654125723260222e+01 6.8060029315820429e+00 7.1984010603104252e+01 -1.2692964930696508e+03 6.6758833334228257e+01 2.2795907642805105e+01 -7.0412090503188665e+02 1.0284508837378962e+03 -3.8410114535919158e+04 1.2269090157881146e+02 -6.2155527688990333e+02 -1.4802511620774749e+03 -1.4588185388180573e+03 -2.1985250596662809e+02 -7.0736077879028926e+01 1.5149825165919501e+03 -1.1358404331345882e+03 1.1721005906140548e+04 -2.1631236141559202e+02 -1.0884352574968580e+02 3.7208631149023131e+02 -5.9537142885308276e+02 -1.6732076723594537e+02 6.2877281893597683e+00 3.0428165582359429e+02 -1.4779605957198946e+03 -3.4471318262721761e+04 2.6535426172251391e+01 -1.8776017764099015e+02 -6.9938958824664041e+02 -1.3734538911746733e+03 4.1143589360362239e+02 7.6949694407248899e+00 8.3101862123723731e+02 -6.3951357378792090e+02 2.3518564219355711e+04 -3.8168080061201181e+01 -2.0558151848756996e+04 
      </Row>
      <Row Index="53">
        3.6703569336026742e+00 -2.1047185443890548e+01 -2.0058677145160438e+01 8.7374953966582902e-01 -2.6997320947142711e-01 -4.8967106250453876e+00 -3.0219362979988468e+01 -3.1500696687592369e+02 3.5498580539130415e+00 1.4238018525825122e+00 1.8096678308307759e+00 -1.3464137107052515e+01 -2.5369072830773689e+00 -1.3027291618949999e-02 -1.6486268364499992e+00 3.5398074767881923e+01 5.3581079786462055e+01 -7.5810306189223837e+00 5.1472668040530802e+00 -7.9204795380346127e-01 4.5430323163274764e+00 9.4871448781313816e-01 -5.0044464255208254e-02 -1.7105653753566870e+00 -6.7829720675977292e+00 2.2819075826238725e+02 -9.7735178863831251e-01 -7.9514385212707026e+00 1.5762366564320413e+01 5.6527627078807399e+00 5.2574310294028237e-01 4.0519358202155659e-01 7.3928948518952158e+00 -3.1487414698961764e+00 1.2833539637163176e+02 1.2816454490117124e+00 3.6233578228637642e-01 -5.3024223153946686e+00 1.0318178021298426e+01 -4.9492459636969027e-01 -4.4781101093564146e-02 7.9653745990474967e-01 -8.0717586455757377e+00 -2.6485415272374553e+02 1.9202652230597028e-01 -7.0328896445848681e+00 7.9167967844077936e+00 1.3794661615381544e+01 -5.6558301180553396e+00 -6.3718288769443410e-02 -2.6626819250390876e-01 3.3370481564690422e+01 -3.8168079410148962e+01 2.9241189240834711e+00 -2.6186345768633545e+00 
      </Row>
      <Row Index="54">
        -6.5698625681197882e+02 -1.3522655783458686e+03 -3.2459265349098278e+03 -1.8020330319020377e+02 -3.9743696269993961e+01 1.0832051123471101e+03 -7.1928545544081135e+02 -7.2187903771185782e+04 -2.1759766057296656e+02 -1.6644676022128260e+02 -8.9481392366928048e+01 8.0379035075777210e+01 -2.1577197875975980e+02 -8.5482825854269322e+00 -5.3661419809813378e+02 -6.5947533065453172e+02 -1.6450808550738730e+04 2.7278560098202433e+00 -2.6762513155296620e+02 3.3646885577356443e+01 2.0268330576337612e+03 -2.6490030493470840e+01 -1.1856634207422758e+01 7.5281382330000633e+02 1.2792085988188628e+03 2.5198414968317258e+04 -4.3036090559704462e+01 9.6795540302345034e+02 9.4922072344244225e+02 1.9776618303264549e+03 9.2562688767655345e+01 4.3846397891211154e+01 -1.8372410814688556e+03 2.7723994962465658e+03 -2.6816892244715476e+04 2.6552500593863078e+02 1.8851155105629005e+01 -2.9259644843859132e+02 2.5824100449352409e+02 1.7908807941859550e+02 -3.3225867134824512e+00 -3.4021961147071949e+02 1.8407799553756486e+03 4.2349805562668596e+04 -5.3610732125833238e+01 5.7116990192220328e+02 3.8056973806956375e+02 1.7745485295391281e+03 -2.7621529925148934e+02 -4.8146750555588369e+00 -8.7856198256288008e+02 -3.2064936765052844e+03 -2.0558151898497788e+04 -2.6186339103151113e+00 2.2172961122815315e+04 
      </Row>
    </InverseHessian>
  </Weights>
</MethodSetup>
